,0,1,2,3,4,5,6,7,8,9,10,11,12,13,14,15,16,17,18,19,20,21,22,23,24,25,26,27,28,29,30,31,32,33,34,35,36,37,38,39,40,41,42,43,44,45,46,47,48,49,50,51,52,53,54,55,56,57,58,59,60,61,62,63,64,65,66,67,68,69,70,71,72,73,74,75,76,77,78,79,80,81,82,83,84,85,86,87,88,89,90,91,92,93,94,95,96,97,98,99
A,0.0060510524,0.100163646,-0.023228262,-0.034589574,0.077233836,0.13669032,0.050817013,0.18857059,0.05048798,0.10245981,0.0040184148,0.054765604,0.104804,0.084852315,0.14736816,0.0021151975,0.014960991,0.2710935,0.052735023,0.11495801,0.35574973,0.14915653,0.2296921,0.32888636,-0.050640278,0.19317602,0.11685996,0.004569063,-0.0023106588,-0.036209684,0.14637296,-0.018254686,0.10799572,0.07110777,-0.08850856,0.20150271,0.028093567,0.05747298,0.14817336,0.060832046,0.02514401,0.15469554,0.04975702,0.09323309,0.29524872,0.0033279015,-0.00771055,0.27910712,0.07408595,0.010394156,0.08296047,0.060123723,0.27869728,0.066221595,0.101262465,0.13051896,0.009670788,0.14551158,0.06545033,0.14696576,0.11190492,0.012845568,0.081959255,0.10940783,-0.014331551,0.140233,-0.016956244,-0.06570486,0.08247875,0.04922469,0.16558538,0.13790846,0.13498461,0.23867245,0.05993124,0.15273818,0.06923488,0.042550117,-0.037563503,0.024672583,0.21478114,0.06930137,0.019829601,0.31561476,0.12001789,-0.007766187,0.24422517,0.13597901,0.2068578,0.15484291,-0.0048753303,0.23691486,0.03768476,0.14214464,0.1965785,0.2376048,0.1945507,0.008019613,-0.03688868,-0.042585373
AAL,0.015827857,0.100243255,-0.027898971,-0.034051552,0.07528727,0.13312328,0.037794825,0.1787431,0.04896779,0.10482659,0.016149037,0.055443883,0.11035715,0.07441176,0.1504739,0.002070628,0.015482392,0.2699104,0.05720507,0.1168219,0.25506544,0.14807189,0.22618516,0.22824591,-0.053712882,0.19594732,0.085552976,0.0062022572,0.0072993115,-0.03891725,0.15762424,-0.018609397,0.11036962,0.08184097,-0.08994054,0.20352192,0.029837826,0.060521845,0.14848575,0.049815957,-0.0033238232,0.14164054,0.058992703,0.123360805,0.3033597,0.001882188,-0.009219838,0.27090722,0.07350913,0.021111295,0.082621425,0.061628122,0.23779592,0.06677945,0.118912,0.13195339,0.015124463,0.206448,0.06584425,0.14623217,0.12410021,0.028605316,0.072706595,0.113167986,-0.020247325,0.124855645,-0.02080356,-0.066255964,0.07856116,0.050067954,0.10628547,0.0755644,0.17617044,0.23974097,0.07043305,0.15130076,0.06287037,0.034005597,-0.026446408,0.026443075,0.22267792,0.051111095,0.021437477,0.26686838,0.11060635,-0.00743901,0.24602829,0.18980245,0.20895748,0.15778437,-0.017568372,0.23918717,0.03234749,0.1359308,0.19664568,0.2450778,0.19552857,0.048755746,-0.034188185,-0.04401103
AAP,0.009464927,0.10606177,-0.03420699,-0.03173435,0.07373035,0.13574278,0.03245066,0.17716525,0.05495922,0.10286282,0.05151843,0.052161016,0.1013538,0.07304494,0.15073429,0.0024996027,0.01651483,0.26127487,0.053753477,0.11743854,0.21499373,0.15033104,0.23086931,0.20235571,-0.046875693,0.20371136,0.06405477,0.0063085714,0.0017355122,-0.042310506,0.15136442,-0.017778909,0.106671505,0.07153384,-0.08865426,0.2028571,0.026043555,0.057579137,0.14838247,0.09956215,-0.021554373,0.14314988,0.08172676,0.15202454,0.31533974,-0.006509004,-0.0057883174,0.27645758,0.07313074,0.046695914,0.08374769,0.061259925,0.2086976,0.06757916,0.10813383,0.13805403,0.010700827,0.24727336,0.06603857,0.14713688,0.14563146,0.052037947,0.07098479,0.109076574,-0.0033904258,0.1063164,-0.018521853,-0.06773513,0.074376136,0.04978955,0.0904692,0.058925137,0.18010712,0.24409235,0.06088747,0.15315057,0.0591683,0.07551737,-0.025401654,0.020833679,0.22918487,0.020916305,0.03004885,0.1502585,0.11850932,-0.006002806,0.24476635,0.23095562,0.21889469,0.15385792,-0.008785944,0.23654741,0.040474854,0.13678408,0.19650781,0.23095246,0.19598156,0.027659673,-0.040781207,-0.043757968
AAPL,0.007525202,0.087738544,-0.03751156,-0.03298126,0.07405031,0.13428773,0.03189928,0.17697787,0.05336984,0.10197072,-0.01776871,0.055136327,0.101939894,0.07075409,0.14765471,-0.00015440583,0.016115457,0.26569903,0.052117042,0.11658117,0.28471282,0.14685944,0.2279624,0.2635143,-0.055775713,0.19721988,0.093878,0.004981741,-0.006147748,-0.036681637,0.15285689,-0.015973356,0.108012445,0.07859747,-0.09332312,0.20191641,0.024817817,0.05587776,0.14746335,0.056111753,-0.012737468,0.14753798,0.040895704,0.06783409,0.30437094,-0.011119797,-0.013617529,0.2745429,0.072593294,0.0076492727,0.080356956,0.061732348,0.18831016,0.06668662,0.10238785,0.13519175,0.008048028,0.12549743,0.06546616,0.14676192,0.09874116,-0.0032057278,0.0691034,0.10950482,-0.024306515,0.111590214,-0.019478124,-0.06660587,0.07628307,0.04766836,0.13344897,0.10973378,0.13283648,0.23787709,0.0694673,0.14926165,0.06055846,0.023985554,-0.03590385,0.019367166,0.2190088,0.080187336,0.012790829,0.25389117,0.11785882,-0.0061877184,0.24331607,0.14622134,0.20869336,0.1538186,-0.018321443,0.23735718,0.032820784,0.13637897,0.19670317,0.23403233,0.1946052,0.024711471,-0.041750744,-0.041408285
ABBV,0.0053318515,0.18193418,0.0021368265,-0.03625065,0.07798298,0.13976556,0.053441837,0.17514172,0.051883247,0.10215832,0.11299102,0.052209646,0.10150582,0.0756969,0.15022492,0.006052375,0.017245589,0.2659546,0.060538437,0.11344465,0.5725121,0.14670399,0.23208883,0.559409,-0.056919865,0.19774324,0.24622904,0.0114501305,0.014134931,-0.034852676,0.1504266,-0.015875945,0.107852824,0.071728855,-0.078903936,0.2011677,0.027028589,0.05790194,0.14718774,0.15306363,0.08929307,0.13925672,0.16374402,0.22318149,0.31300294,0.040770337,0.012897879,0.27350384,0.07767481,0.09666294,0.080927774,0.060469083,0.4129348,0.06629534,0.11423888,0.13872558,0.014090035,0.36161497,0.067259915,0.14493516,0.23119166,0.11021305,0.08339098,0.10988292,0.00046506152,0.15747954,-0.015774265,-0.0579722,0.09254689,0.049930073,0.30594027,0.2633015,0.27970523,0.24361289,0.064258665,0.15985765,0.07440835,0.1058224,-0.021815013,0.032515127,0.22831406,0.12271099,0.06583136,0.4150771,0.10989166,-0.006250832,0.24573655,0.35724917,0.2184513,0.15326089,0.02207598,0.23480092,0.040858157,0.13461185,0.19491333,0.2554977,0.19506395,0.061207622,-0.022779621,-0.043824606
ABC,0.009077452,0.10759475,-0.029479757,-0.035022665,0.07538277,0.1339894,0.03620819,0.17550822,0.053473223,0.101441495,0.038319647,0.05295428,0.10061838,0.080171436,0.14797851,0.002496168,0.010870897,0.2647656,0.05372503,0.11686661,0.14802517,0.14872158,0.2267524,0.13757417,-0.05690435,0.19392005,0.049065508,0.013160886,0.0025393572,-0.033694174,0.15157703,-0.01820633,0.10715652,0.06989992,-0.08645706,0.20388903,0.028521987,0.05742176,0.15061727,0.09969001,-0.03911784,0.14494784,0.05759638,0.1299324,0.29875943,-0.02038261,-0.011494176,0.27526885,0.07235804,0.033184785,0.07879464,0.061344005,0.14404549,0.06799655,0.10583302,0.13266234,0.012041111,0.19555058,0.06591714,0.14567278,0.12607937,0.048656188,0.07664629,0.110316545,-0.019602323,0.119726874,-0.019967593,-0.065735616,0.07556236,0.04747981,0.06792667,0.023717925,0.13958699,0.24434908,0.05913109,0.1485776,0.06464647,0.06326297,-0.039654717,0.019216176,0.21796922,0.025357217,0.008219138,0.21376295,0.11565104,-0.0072623715,0.24649492,0.19455004,0.21024491,0.15418881,-0.011740877,0.23613298,0.033140212,0.13410379,0.19617316,0.23362014,0.19324599,0.010397475,-0.03732271,-0.044704773
ABT,0.0049753636,0.049807996,-0.047951736,-0.035035655,0.07173923,0.13624404,0.034858897,0.17407052,0.048084304,0.1045225,-0.027106619,0.051784653,0.100583725,0.07218292,0.14623916,-0.000327155,0.017257914,0.26221508,0.050473534,0.11507195,0.09118818,0.14546047,0.22911079,0.062805384,-0.05683298,0.1914138,0.015167467,0.00775649,-0.004086353,-0.0371934,0.15157668,-0.017002273,0.10620998,0.071779996,-0.0962276,0.20139745,0.025657745,0.055074487,0.14797738,0.035914052,-0.057219286,0.1381099,-0.012211535,0.0519216,0.2900604,-0.03538213,-0.008885445,0.27206975,0.07122157,-0.009280197,0.07776128,0.060620014,0.09696967,0.066469505,0.09824742,0.13025466,0.009789115,0.10185881,0.06492579,0.14452907,0.063011706,-0.008545838,0.06900237,0.10889265,-0.027267296,0.10380449,-0.019397948,-0.068615824,0.07353311,0.04872272,0.014858466,-0.00698179,0.088134274,0.23650414,0.06236386,0.15250774,0.05763504,0.004856605,-0.039023492,0.01785088,0.21028922,0.019524723,-0.01865187,0.13820009,0.11003502,-0.0065266155,0.24378061,0.09011759,0.20480227,0.15282632,-0.028725656,0.23528174,0.03057315,0.13065103,0.19505319,0.22635135,0.19379714,0.01706292,-0.040658783,-0.040668037
ACN,0.010362241,0.0578655,-0.046901036,-0.03412368,0.07438153,0.13748378,0.03840692,0.17184451,0.05082888,0.100861564,-0.019881537,0.051338006,0.09921209,0.07076437,0.14736605,0.002399493,0.018315217,0.2619582,0.05227624,0.11305221,0.116353676,0.14512745,0.22911964,0.1580863,-0.05880782,0.19468528,0.068991035,0.0065065213,-0.0058520306,-0.036538288,0.15190345,-0.016976327,0.10604155,0.07536841,-0.094141014,0.19931805,0.024699796,0.05457982,0.15018249,0.06311791,-0.049979128,0.14115444,0.004324656,0.050552916,0.30789807,-0.03144567,-0.003790251,0.2725429,0.07340369,-0.013943538,0.07772595,0.05969496,0.10503722,0.06522292,0.098095484,0.1330018,0.008940214,0.07501136,0.064760566,0.14349578,0.0621382,-0.0096020475,0.0699453,0.11021896,-0.028601887,0.121784344,-0.01951153,-0.067243636,0.072938144,0.047065116,0.07713327,0.024249949,0.08581091,0.23478083,0.061171133,0.15348329,0.06391381,0.029146105,-0.03428779,0.017754205,0.22388837,0.016227521,-0.0028973408,0.22511706,0.105108514,-0.0079084635,0.24533214,0.086945206,0.21103494,0.1519859,-0.034435153,0.2358244,0.028001413,0.12757626,0.1944448,0.2261024,0.19488296,0.002284553,-0.034640275,-0.039149158
ADI,0.0050419495,0.08459367,-0.035839807,-0.034994557,0.07195518,0.13640946,0.03475794,0.17611894,0.04933845,0.10243542,-0.008700367,0.05622043,0.10258514,0.07393222,0.15213487,0.00032301992,0.017949073,0.26453653,0.053749353,0.116135076,0.12640935,0.14843498,0.22764423,0.09222061,-0.057278745,0.20205155,0.010335475,0.0052042534,-0.0013330057,-0.039569724,0.14929736,-0.0153437555,0.10877244,0.07284626,-0.09186843,0.20338017,0.026323676,0.05491935,0.14639583,0.07768202,-0.0492756,0.14831008,0.036308784,0.08077336,0.29613784,-0.021657452,-0.012508506,0.27394363,0.07571243,0.0038341992,0.07967867,0.060370397,0.14443575,0.06430449,0.10301109,0.13125578,0.009032199,0.094606794,0.06484316,0.14725438,0.09330995,0.005217582,0.07135695,0.11014204,-0.025734277,0.11192165,-0.020117829,-0.0682803,0.07606055,0.04999523,0.032697856,0.021443076,0.12573971,0.23840787,0.06444287,0.15224287,0.061604243,0.024688967,-0.035682898,0.018408038,0.22487888,0.03512524,0.010894787,0.15884437,0.11407144,-0.0075305775,0.24307093,0.13555051,0.20505533,0.15274227,-0.02357865,0.23818737,0.032056548,0.1362306,0.19506773,0.2308044,0.19653635,0.013665095,-0.03986913,-0.039433412
ADM,0.004392896,0.06842324,-0.04166313,-0.033809483,0.07163866,0.13486224,0.03507448,0.16747391,0.047763437,0.10088665,-0.035209063,0.052092884,0.09828645,0.062335167,0.14657587,-0.00016137958,0.015266896,0.2610851,0.051356904,0.11374037,0.14146303,0.14439885,0.22739796,0.10839112,-0.06176796,0.19123133,0.0045235995,0.008304783,0.0006328821,-0.037573677,0.15222979,-0.016755138,0.105900295,0.069897756,-0.09225358,0.19973092,0.02589564,0.05637558,0.14456552,0.033350993,-0.03550025,0.13871357,0.020323038,0.032900274,0.29531962,-0.01721525,-0.017594771,0.26940495,0.07175961,-0.0042473525,0.07724048,0.06082742,0.16083965,0.065501496,0.10245816,0.12794186,0.009862363,0.06763509,0.06583851,0.14492172,0.075669445,-0.015239939,0.06287675,0.109367654,-0.03173431,0.0944878,-0.02187967,-0.066988766,0.07576102,0.046320483,0.030301847,0.014084876,0.101093896,0.2364847,0.060373202,0.14930555,0.057284214,0.0024385415,-0.034583602,0.017932221,0.21286671,0.007927507,0.002830971,0.059684534,0.107382126,-0.007240612,0.24321876,0.10623676,0.20566091,0.15374896,-0.02810745,0.23392393,0.029799188,0.1305758,0.19444641,0.23312005,0.19135192,0.0059043206,-0.043953445,-0.04142801
ADP,0.005149711,0.0514429,-0.046849687,-0.035170175,0.07153848,0.13536707,0.032509565,0.17646927,0.051056027,0.101448305,-0.038666163,0.052549914,0.102005355,0.0708153,0.14760078,0.00027519837,0.016286738,0.2598658,0.051712126,0.114832565,0.061729457,0.14502037,0.22795475,0.06907774,-0.058972396,0.19661008,0.0063065626,0.005345035,-0.004755771,-0.037552506,0.1492199,-0.016949076,0.107856266,0.075013004,-0.09351045,0.2002403,0.02484125,0.05551164,0.14726841,0.053803,-0.070209906,0.14336461,-0.01946307,0.039699793,0.30103904,-0.03538558,-0.015943533,0.27454025,0.0731592,-0.018506035,0.07747662,0.061544765,0.08823621,0.06574541,0.097059846,0.13318732,0.009009317,0.039804373,0.06452709,0.1442965,0.04386145,-0.021580491,0.06956332,0.11094752,-0.02949706,0.10260884,-0.01940246,-0.06830842,0.07336537,0.04845813,0.022784216,0.0013762265,0.043540902,0.23570533,0.062083438,0.15179409,0.05848925,0.010778215,-0.034775555,0.018210236,0.2172917,0.020532846,-0.011734866,0.1569051,0.10910274,-0.008015469,0.24414054,0.038274277,0.21041903,0.15305302,-0.029070755,0.23603787,0.029971337,0.13260035,0.19525422,0.22634144,0.1956219,0.0015720855,-0.038804073,-0.041274037
ADSK,0.010458369,0.19059952,-0.001666788,-0.035974193,0.073665485,0.13706358,0.035985537,0.18123174,0.050732307,0.10403528,0.13400972,0.058798697,0.10220173,0.07530068,0.152901,0.002813071,0.017450359,0.26650077,0.05692676,0.11634303,0.18992145,0.15065277,0.2272065,0.15679306,-0.03960813,0.22512841,0.04890931,0.019034745,-0.002521323,-0.035124727,0.15003873,-0.01574482,0.112579525,0.07775639,-0.06552994,0.20596235,0.02703993,0.053690244,0.14919348,0.1875182,-0.02166628,0.15623069,0.19344175,0.2632428,0.3317228,-0.006570479,-0.012531055,0.27708858,0.07474121,0.11450659,0.08434593,0.060847536,0.19398874,0.06548309,0.11153356,0.13728799,0.012398189,0.42905596,0.06863715,0.14597645,0.2664981,0.13297795,0.07522333,0.111963056,0.007388125,0.1142503,-0.019053953,-0.06562519,0.07524811,0.045326583,0.0819934,0.047647446,0.33558476,0.24074966,0.06834659,0.15097646,0.06429572,0.12950677,-0.0124416165,0.017986521,0.24654856,0.035157472,0.09137844,0.22067334,0.11694418,-0.0069919564,0.24546953,0.4121267,0.22874397,0.15588099,0.028512089,0.24009773,0.041762155,0.14383069,0.19678219,0.2381805,0.19614029,0.07134724,-0.037824914,-0.03844149
AEE,0.007470209,0.039765567,-0.054289777,-0.033632286,0.07173192,0.13467352,0.038149346,0.17295474,0.048840463,0.09866206,-0.030904632,0.049902312,0.10049608,0.06540388,0.14672166,2.50265e-05,0.017219108,0.26239237,0.05014593,0.11269859,0.053888496,0.14363335,0.22696854,0.055160966,-0.06184863,0.19120556,0.0018726029,0.006407273,-0.008363243,-0.039795708,0.14999668,-0.01700926,0.10458616,0.07175388,-0.0971995,0.19736844,0.024082018,0.05356262,0.14985798,0.05129774,-0.077257566,0.13386115,-0.03461115,0.042047188,0.2934519,-0.04610572,-0.014367841,0.26717868,0.07016143,-0.01963795,0.07575756,0.06153571,0.053639002,0.06587131,0.09338799,0.12917703,0.010021053,0.047318235,0.066035524,0.14236449,0.03388691,-0.014076233,0.066469476,0.107597135,-0.031908244,0.09958355,-0.022468409,-0.06985351,0.071208455,0.048123084,0.014241464,-0.0071728304,0.022043016,0.23609965,0.060543742,0.15051597,0.058124397,0.017055962,-0.04463716,0.019718923,0.2111644,0.015407905,-0.032544345,0.1480021,0.10639048,-0.009287052,0.24353266,0.055859845,0.20442271,0.1521999,-0.034766868,0.23323818,0.02876614,0.12598684,0.19441712,0.21975628,0.19147837,-0.025043435,-0.04296018,-0.0389734
AEP,0.008178234,0.02749788,-0.05589705,-0.033824425,0.071836434,0.13535087,0.038525023,0.16980532,0.048856243,0.09790838,-0.07161459,0.04981418,0.101780735,0.06340565,0.1463561,0.00029955432,0.01553752,0.26197997,0.049595736,0.112761065,0.009297347,0.14181742,0.2269206,-0.00953196,-0.061395682,0.18907514,-0.039929453,0.0056586373,-0.0077923536,-0.039476156,0.15155846,-0.017330866,0.105642065,0.070152506,-0.09908903,0.19722803,0.02382628,0.05430092,0.14889431,0.022288952,-0.07781328,0.13117088,-0.052681603,-0.01576918,0.293605,-0.03854289,-0.014687745,0.2671432,0.06955286,-0.0438675,0.0754586,0.062793925,0.075233355,0.06571125,0.09491969,0.13095051,0.008086311,-0.045721434,0.06665999,0.14190026,0.007828906,-0.052179836,0.06436274,0.10620766,-0.03601849,0.09576949,-0.022677096,-0.06904993,0.07060091,0.04841426,-0.024741562,-0.04201729,-0.0011416096,0.23434849,0.05991525,0.15068355,0.056765694,-0.012066495,-0.044878274,0.018699314,0.2104074,0.0034199804,-0.034354918,0.0887015,0.10384778,-0.009637766,0.24275371,-0.014332697,0.20524941,0.15204357,-0.038451985,0.23359248,0.02864598,0.122680075,0.19312854,0.22092682,0.19154958,-0.029363196,-0.043924093,-0.03952522
AES,0.010551464,0.083880164,-0.03624701,-0.03344553,0.07291959,0.13735883,0.035144255,0.1761308,0.04942857,0.1023411,0.011391982,0.054365657,0.10112453,0.07607142,0.14765932,-0.00053373724,0.020185694,0.2664492,0.052412063,0.115094565,0.10355492,0.14522527,0.22967704,0.11321108,-0.05456347,0.2034531,0.027627911,0.011608434,-5.561486e-05,-0.03580361,0.15216304,-0.016836321,0.10774709,0.07453264,-0.085212775,0.20086178,0.026196958,0.053424902,0.14951439,0.08932466,-0.056403264,0.14012384,0.029532604,0.09812251,0.2984903,-0.031208219,-0.010655737,0.27018845,0.07093046,0.026658393,0.08112003,0.06078116,0.1078152,0.065266915,0.10155104,0.1344603,0.011479557,0.14124471,0.06523558,0.14500667,0.099556535,0.02747988,0.07096311,0.10838644,-0.022980686,0.11101369,-0.02353188,-0.067208074,0.075127766,0.049304307,0.04612913,0.02286435,0.099887386,0.240767,0.06026634,0.15323697,0.061527066,0.03787952,-0.04171995,0.01693537,0.22587588,0.028325006,-0.014606379,0.18531054,0.10651257,-0.008293867,0.24561372,0.14605339,0.20907205,0.15293863,-0.021721788,0.23515156,0.03380929,0.13011521,0.19628298,0.22645445,0.19203992,0.0075925738,-0.035860084,-0.03679345
AFL,0.0056508705,0.03659768,-0.055755578,-0.033853393,0.07077243,0.13620691,0.03129923,0.16935633,0.047150012,0.09994311,-0.018050212,0.05116419,0.0998763,0.06238661,0.14648029,-0.0008210391,0.016031817,0.261716,0.052175727,0.115709186,0.13450164,0.14441074,0.22856408,0.15194736,-0.057436142,0.18877459,0.05401666,0.0058478904,-0.0051876903,-0.040246014,0.1498436,-0.01717559,0.10708249,0.06670306,-0.09680792,0.19998212,0.023105018,0.055844575,0.14777087,0.04029233,-0.039369125,0.13654247,-0.012577515,0.06426537,0.29294434,-0.013043013,-0.015835697,0.26887575,0.07228569,-0.0036245286,0.077224195,0.060509495,0.15613389,0.06595853,0.10175739,0.12908337,0.007857973,0.09639691,0.064578086,0.14133935,0.05598561,-0.006820362,0.06373097,0.108657986,-0.019072406,0.111398675,-0.020493098,-0.06714235,0.07627138,0.047382884,0.070992805,0.024092697,0.062176112,0.23505847,0.058504727,0.15197872,0.05597712,0.029455818,-0.035258334,0.019430943,0.21219249,0.023453735,-0.019212976,0.20482013,0.101491906,-0.008105468,0.2432605,0.08663533,0.20439017,0.15359667,-0.039325804,0.23443246,0.034238067,0.12414915,0.19250202,0.23163515,0.190562,-0.008253068,-0.04230715,-0.041080743
AIG,0.0072363354,0.08680446,-0.03639135,-0.03431677,0.073755845,0.1365453,0.03331124,0.18013164,0.049598247,0.101030655,-0.01963953,0.051959164,0.103122704,0.06846207,0.14637333,0.000827197,0.013870942,0.267735,0.050926413,0.1163412,0.26580793,0.14988661,0.2283439,0.22914724,-0.059410032,0.18898115,0.06284298,0.0058842595,-0.006838534,-0.038229767,0.1500544,-0.018191045,0.10808887,0.07201402,-0.09200271,0.19952062,0.02587013,0.057103712,0.14862478,0.027237745,-0.003915854,0.15187007,0.04068198,0.053606935,0.29498392,-0.0124859335,-0.011400301,0.27608073,0.075012095,0.008614253,0.08047648,0.06003458,0.2135461,0.06562368,0.09969023,0.13055645,0.010761272,0.10224846,0.064909436,0.14500627,0.09823348,0.00077401474,0.068932965,0.11446011,-0.030475488,0.1145536,-0.018559184,-0.065098785,0.07706362,0.049039796,0.10717639,0.087352574,0.13234432,0.2388992,0.06715623,0.14909348,0.06006405,0.008080605,-0.036781058,0.021805346,0.21284457,0.044791557,0.01567838,0.15206012,0.11292563,-0.0085852295,0.24330491,0.1416328,0.20695128,0.15468985,-0.019157184,0.23560932,0.03320063,0.1378243,0.19412813,0.23232184,0.19311976,0.012629973,-0.04085486,-0.041087966
AIZ,0.0068127587,0.12284031,-0.0182052,-0.034698527,0.07153845,0.13636647,0.031159617,0.17692155,0.053035017,0.10147841,-0.0070906356,0.051666174,0.0999915,0.069723606,0.14803225,0.0011329651,0.016716484,0.26218084,0.05178067,0.113972545,0.046397388,0.15887582,0.22958082,0.016469087,-0.061398216,0.19635212,-0.010945039,0.005585908,-0.0065819453,-0.042336915,0.1513983,-0.018105822,0.106598936,0.06981147,-0.082331784,0.20274934,0.02551878,0.056071114,0.14725238,0.050524227,-0.066662356,0.16387111,0.0778351,0.07671592,0.30852193,-0.033086546,-0.012955593,0.2819019,0.07638636,0.03384769,0.07794522,0.061159693,0.09478462,0.065917075,0.097394645,0.1347143,0.009308703,0.13122313,0.06581131,0.14982438,0.14183411,0.015917044,0.069486275,0.10927505,-0.0305905,0.09848133,-0.018888684,-0.06797413,0.07198975,0.047457233,-0.012731623,-0.036336053,0.17265311,0.2483982,0.060948938,0.15239224,0.05910967,0.015344992,-0.029486153,0.019346505,0.22192958,-0.004805088,0.034237664,0.10406869,0.12869008,-0.009000424,0.24496068,0.18563816,0.21070431,0.15210539,0.007496806,0.23765267,0.02793634,0.15718892,0.19944382,0.22549337,0.19398326,0.017246371,-0.040306002,-0.04096851
AJG,0.0034693368,0.07703899,-0.040509168,-0.034670535,0.07155076,0.1354494,0.028902108,0.17229721,0.047123358,0.09913829,0.006331289,0.051609892,0.09911716,0.06726666,0.14723448,0.0024874061,0.0165557,0.2644711,0.050458327,0.11564954,0.07255489,0.14456712,0.22922762,0.029553156,-0.060238767,0.19396749,-0.029152164,0.0055935043,-0.0012970828,-0.039923705,0.15067221,-0.017577311,0.10518599,0.0724302,-0.09073878,0.20123863,0.02454335,0.056462437,0.14494017,0.07407615,-0.056922317,0.13922113,0.0129136,0.083952904,0.29035598,-0.031303454,-0.016961481,0.26937863,0.07361691,0.008816395,0.075304136,0.061963093,0.11153669,0.06584816,0.09953117,0.12862344,0.008079192,0.124663405,0.064336374,0.14323097,0.08302424,0.020990334,0.0657299,0.10938156,-0.028801778,0.09839429,-0.020585638,-0.06801162,0.07528297,0.04728677,-0.014907474,-0.0340186,0.084977694,0.23632306,0.059984975,0.15273817,0.0579622,0.035354815,-0.034755778,0.019658618,0.21143998,-0.0073263794,-0.011194814,0.077818096,0.10472705,-0.007800333,0.24333952,0.12861067,0.20408952,0.15355334,-0.027036222,0.23454018,0.032274157,0.12717634,0.1937139,0.2280782,0.19208354,-0.0075060837,-0.04030593,-0.04230637
AKAM,0.00886086,0.22142991,-0.008973733,-0.034803968,0.07207945,0.13543083,0.03585746,0.17658164,0.05140677,0.10058348,0.1585392,0.05403138,0.10179825,0.075779974,0.14684755,0.0031827204,0.016290896,0.26233378,0.054913647,0.1154832,0.15667297,0.14999746,0.22860944,0.12172841,-0.03774797,0.20169543,0.008242648,0.00428752,-0.004559327,-0.03749719,0.15262309,-0.01741114,0.1159901,0.07686735,-0.07031861,0.20098853,0.024381995,0.05600084,0.15077661,0.17404285,-0.03280495,0.14669959,0.23482543,0.303342,0.30793443,-0.015093236,-0.013516712,0.272195,0.07298146,0.14610213,0.08105768,0.061356373,0.1670335,0.06670737,0.10544591,0.13322656,0.0115457345,0.5009043,0.06477839,0.14688641,0.30973634,0.1609018,0.072161674,0.113503926,0.01739861,0.10865239,-0.018917065,-0.068441056,0.07639575,0.047528014,0.0370664,0.010641217,0.3988467,0.24009,0.06538135,0.15119489,0.06017107,0.14271912,-0.0034446828,0.018417582,0.22092101,0.015336178,0.10979198,0.1457518,0.11809171,-0.006630596,0.24510989,0.48132738,0.21267146,0.1546944,0.022600427,0.2397639,0.043249067,0.13875914,0.19710696,0.23513171,0.19376905,0.09413746,-0.040578987,-0.041996412
ALB,0.01352023,0.14409976,-0.011489868,-0.0336773,0.07393344,0.13334689,0.042523146,0.17842865,0.04934053,0.101659656,0.016017437,0.056166243,0.10373825,0.07608534,0.15365565,0.0044866875,0.016654912,0.27136233,0.057435356,0.120723486,0.25292802,0.158012,0.2282427,0.28881902,-0.057080943,0.19682749,0.14176814,0.009767039,0.003930893,-0.03700899,0.1539353,-0.018667215,0.109038174,0.073324814,-0.08635778,0.20687927,0.02692325,0.05882057,0.15064396,0.049086966,-0.0052253045,0.18062903,0.111260384,0.10633449,0.29328826,-0.0004622806,0.005331941,0.2944869,0.08382533,0.058185242,0.079940334,0.058518864,0.23490383,0.06875268,0.11348899,0.13127021,0.014002804,0.19280216,0.06940913,0.14961123,0.17834376,0.04441173,0.07418003,0.11769445,-0.021979826,0.145948,-0.018605495,-0.06466835,0.078865156,0.047104917,0.15867572,0.09391548,0.22898747,0.24341814,0.06504282,0.14933918,0.069721624,0.027516693,-0.011893222,0.020443603,0.21606724,0.048028223,0.059365965,0.3324806,0.13157791,-0.0066733435,0.24540555,0.24325243,0.2059965,0.1564027,0.014210744,0.23758855,0.03083659,0.16177644,0.19732928,0.23732036,0.19740358,0.036435943,-0.023470601,-0.045837365
ALGN,0.03272321,0.25625205,0.022701692,-0.034699522,0.07563044,0.13693571,0.055892713,0.18659198,0.052816134,0.10417042,0.09864271,0.060882624,0.10503195,0.09898991,0.15044187,0.003267318,0.052539103,0.26590127,0.061529428,0.12843348,1.0465442,0.161293,0.2493278,1.0899103,-0.04714527,0.19548129,0.54590285,0.0105278175,0.05759552,-0.0360982,0.16644895,0.004300313,0.113071464,0.08638231,-0.085032776,0.2142067,0.034064434,0.05744311,0.15152588,0.06735447,0.25197887,0.19050638,0.25097862,0.25285438,0.30986995,0.15401839,0.028088924,0.28576478,0.08156878,0.11497603,0.08506656,0.06255501,0.7635087,0.06878664,0.17356211,0.13617021,0.012848746,0.39498323,0.07161705,0.14878641,0.31667525,0.12640093,0.08393371,0.12447728,-0.017698439,0.17519477,-0.017553262,-0.049401447,0.11155079,0.047688887,0.6215069,0.5321461,0.41262266,0.26233658,0.083689526,0.21726832,0.07368007,0.043576203,0.003952034,0.051323086,0.2272167,0.24767599,0.12594014,0.74110806,0.14813912,-0.006542504,0.24481665,0.46430558,0.21643141,0.16319197,0.056524135,0.26171064,0.04348618,0.15743715,0.19990614,0.2974785,0.19764039,0.093378946,-0.031318292,-0.029011132
ALK,0.009646356,0.09179124,-0.044689935,-0.035389375,0.07321101,0.13600223,0.039009716,0.17383589,0.052136194,0.103231944,0.027892977,0.056571662,0.10291802,0.06939386,0.1507479,0.004766129,0.01783881,0.26528886,0.05289933,0.11539459,0.10862146,0.14701019,0.22842553,0.13956231,-0.052203454,0.19848052,0.054666914,0.0044432385,-0.0010494031,-0.039049923,0.15138443,-0.016563946,0.11046601,0.07251163,-0.09530415,0.20088255,0.026703162,0.056526836,0.1449084,0.078241035,-0.054744255,0.14002271,0.060661122,0.13395536,0.31206465,-0.028333291,-0.008407737,0.27182716,0.07378481,0.042507593,0.08148893,0.061903268,0.09619622,0.06519801,0.099941924,0.13677284,0.010117536,0.212091,0.065852664,0.14384545,0.12758487,0.039461464,0.07023458,0.11017524,-0.0071472432,0.12050697,-0.02083601,-0.06851942,0.075070366,0.050535962,0.06217271,0.028230332,0.15905501,0.24078119,0.06415507,0.152029,0.06157747,0.061890654,-0.033285514,0.019344468,0.22607106,0.026458554,0.01760789,0.20663771,0.10994297,-0.0065094866,0.24480243,0.2053779,0.21451098,0.15304193,-0.024828317,0.23629932,0.033127278,0.1298316,0.2010278,0.22495173,0.19455108,0.019545767,-0.03527962,-0.041172314
ALL,0.0050189644,0.08801174,-0.028965723,-0.034547202,0.070876054,0.135203,0.045386236,0.17063105,0.04680333,0.10032634,-0.040981773,0.051464148,0.09922218,0.07000374,0.14678827,0.00141792,0.015705343,0.26381153,0.050533004,0.11628713,0.11493484,0.15029524,0.22859578,0.14690123,-0.056650966,0.19015858,0.058528915,0.0043378226,-0.0050789155,-0.03898842,0.15071627,-0.018120525,0.10565381,0.06948004,-0.089519925,0.20088172,0.025120605,0.056401283,0.14756566,0.025803786,-0.048802435,0.15223244,0.031382315,0.03391725,0.28853923,-0.026235783,-0.008180504,0.2735026,0.07250437,0.004465975,0.08012727,0.060915798,0.08479859,0.06631045,0.09558986,0.12807998,0.009320587,0.05677668,0.06450429,0.14524916,0.0932554,-0.015055798,0.067556635,0.1095556,-0.035567027,0.10746321,-0.019158546,-0.06799025,0.073084965,0.049292356,0.06626571,0.026407361,0.10725863,0.24369486,0.060489554,0.1507501,0.05947911,-0.012196843,-0.041684832,0.018329576,0.20837575,0.024293013,0.0066213124,0.20211668,0.11777883,-0.00781877,0.24282607,0.10808578,0.20178497,0.15328176,-0.010288858,0.23645401,0.030576155,0.1420039,0.19455168,0.2245641,0.19132368,0.0017988104,-0.039846078,-0.042065177
ALLE,0.010362774,0.15849651,-0.009773642,-0.03515636,0.073278524,0.13569666,0.030810593,0.17685513,0.049092554,0.10016459,0.009044938,0.051955998,0.101937816,0.07140595,0.14692067,0.00079339,0.01696626,0.2659232,0.05323042,0.11467669,0.05846145,0.14222503,0.22856435,0.06355825,-0.060785677,0.19145998,0.00870469,0.0065293107,-0.005950002,-0.03914868,0.15448754,-0.017597575,0.105430886,0.07121224,-0.091525525,0.19932292,0.024224836,0.055097766,0.14748755,0.036245577,-0.065471984,0.14963302,0.11949794,0.12063423,0.29278585,-0.031242827,-0.013771668,0.26727682,0.0731547,0.048128776,0.07722144,0.062159248,0.09588038,0.066393495,0.098678395,0.13061026,0.010624867,0.1903995,0.06520388,0.14808686,0.17438032,0.04350878,0.07356734,0.108714856,-0.031653106,0.11610355,-0.0214682,-0.068835445,0.07290823,0.04831872,0.019815672,-0.0131543055,0.22184905,0.23432337,0.060604427,0.15263408,0.063935906,-0.0033714883,-0.02497635,0.018262096,0.21648133,0.0018294379,0.053377897,0.15316966,0.12684736,-0.008099124,0.24366094,0.24777314,0.20630845,0.15342051,0.013787026,0.2363895,0.03140414,0.14053613,0.19499138,0.22614513,0.19419256,0.030872893,-0.03770885,-0.04094648
AMAT,0.0111391805,0.15727744,-0.008700963,-0.03563351,0.08004321,0.135317,0.0488216,0.18515648,0.05231224,0.110152245,0.0450361,0.0574395,0.105493054,0.0822178,0.15193589,0.0022485256,0.017350359,0.27231914,0.05363637,0.119497426,0.17114094,0.15364185,0.22635916,0.20753776,-0.05363449,0.20055982,0.08436483,0.017183555,0.00026524626,-0.042468704,0.14760911,-0.016358491,0.1093105,0.07384553,-0.08148587,0.20540604,0.028984096,0.054517563,0.15037362,0.07172347,-0.038589958,0.1540605,0.12735876,0.13935536,0.3007713,-0.018341146,-0.004033872,0.2821282,0.0744589,0.052348394,0.08363047,0.06062587,0.15829271,0.06510094,0.1043049,0.13303828,0.0113258585,0.23729146,0.06816232,0.15091011,0.17830217,0.046624623,0.08079594,0.11094944,-0.017909458,0.13238603,-0.016309254,-0.068140484,0.07569729,0.047599122,0.10999276,0.06451978,0.24578767,0.24188988,0.06627993,0.15036622,0.06545624,0.040803112,-0.023296094,0.019976381,0.22416092,0.040546037,0.057357457,0.26758626,0.12907049,-0.008680519,0.24330245,0.2739825,0.20822331,0.15477091,0.012065858,0.24025913,0.03575278,0.14779572,0.19847019,0.2327041,0.19607964,0.05543378,-0.03322506,-0.039115824
AMCR,0.0059037767,0.07896681,-0.03799755,-0.03428268,0.072185814,0.13712302,0.033530653,0.17957568,0.04950386,0.10326795,0.0058540814,0.05324983,0.10095661,0.07107062,0.14846924,0.0009585321,0.018344348,0.26768255,0.054030575,0.1155294,0.12299897,0.14563698,0.2297959,0.08737608,-0.058606718,0.19928488,0.015936907,0.0068330504,-0.0043572597,-0.034968548,0.1524025,-0.015291475,0.10682598,0.06922897,-0.09333502,0.19963267,0.025119994,0.05510004,0.14678894,0.082184725,-0.04479466,0.13952851,0.03114118,0.08259477,0.31194544,-0.022339875,-0.012755474,0.26949155,0.07167755,0.008858815,0.07658577,0.060859986,0.14799097,0.06498409,0.10341742,0.13378587,0.009265665,0.13247876,0.064848565,0.14468518,0.0907867,0.016397394,0.0718988,0.11149272,-0.023166662,0.117165774,-0.021245115,-0.0669115,0.0742619,0.048013322,0.03272129,-0.004114665,0.11604777,0.23748001,0.05902649,0.15295272,0.0619216,0.044479642,-0.03861264,0.019949287,0.22610772,0.008934587,0.010468245,0.17017828,0.11057559,-0.0062055998,0.24739414,0.1252365,0.21100125,0.15448232,-0.029676002,0.2350222,0.032122582,0.13073896,0.19525556,0.23319772,0.1915717,0.019796781,-0.041048292,-0.039394014
AMD,0.017584223,0.2921049,0.03858251,-0.03640487,0.07693249,0.13731253,0.055197813,0.1887273,0.05886205,0.109480426,0.18655956,0.06664716,0.10481704,0.09800692,0.15395474,0.004141815,0.012698454,0.26974943,0.05949664,0.124311,0.491843,0.1863326,0.23614982,0.55603474,-0.036675893,0.21615317,0.27183843,0.016752228,0.013312516,-0.033233352,0.14877883,-0.017210564,0.123746395,0.102548905,-0.04633043,0.21247135,0.03610115,0.061070975,0.15200551,0.16565104,0.074157156,0.22397155,0.32579884,0.33896503,0.3429203,0.04678327,0.0047665606,0.30827516,0.09702986,0.16841844,0.08992382,0.055918545,0.32517818,0.066478625,0.120512865,0.14817056,0.012630876,0.56103516,0.0741995,0.16207314,0.38393614,0.19139715,0.07332884,0.12135655,0.008524064,0.15227336,-0.0011992897,-0.05597777,0.080291376,0.047574185,0.3039261,0.25818837,0.5255674,0.25950512,0.083688684,0.15274668,0.061706312,0.11921125,0.016595487,0.021362245,0.2570055,0.15076774,0.15803365,0.51191276,0.15727517,-0.009338178,0.2508062,0.59321314,0.23511265,0.15581594,0.07063563,0.24426633,0.04667446,0.19493116,0.20499879,0.24113661,0.19640368,0.13700593,-0.030721229,-0.0419484
AME,0.0060195476,0.058937006,-0.04124128,-0.033582207,0.0711095,0.13679175,0.033929802,0.17524901,0.04835559,0.10044119,-0.008337729,0.051149823,0.10023872,0.07298531,0.14709741,-0.00041316822,0.01872459,0.26437426,0.053427,0.115222074,0.041096285,0.14831196,0.23067278,0.044030808,-0.055975314,0.19209567,-0.006959863,0.0063631455,-0.0063339807,-0.036963902,0.1489133,-0.017694145,0.10748404,0.07017911,-0.0922699,0.20108193,0.023825752,0.05632675,0.14698209,0.04540257,-0.071768515,0.1432176,-0.0035031326,0.07228666,0.2936874,-0.035293978,-0.013051224,0.27329695,0.07573529,0.0050152987,0.07812456,0.061199214,0.0942818,0.06547879,0.09796096,0.13067241,0.0091145,0.111382015,0.06417147,0.1468789,0.07320298,0.0056823418,0.069942914,0.11003546,-0.021515297,0.10641527,-0.018633556,-0.066174835,0.07361934,0.04869368,0.0021029701,-0.016475491,0.07692015,0.23688522,0.06128335,0.15326883,0.059824478,0.029311124,-0.03666295,0.018555738,0.21113124,0.012266152,-0.012951419,0.1291871,0.11459756,-0.007126767,0.24325398,0.10721809,0.20684052,0.1528857,-0.022900123,0.23704554,0.033181883,0.13958952,0.19482237,0.22706851,0.19427818,0.0007915329,-0.03949266,-0.040604882
AMGN,0.0066705346,0.09288386,-0.028634429,-0.034115445,0.07081792,0.13663489,0.03972522,0.1754488,0.04958772,0.10144261,-0.03315371,0.051204074,0.10086778,0.06957096,0.14909258,3.8139522e-05,0.014669156,0.26403388,0.05065027,0.11397719,0.08767704,0.15346721,0.22811857,0.1212343,-0.05937575,0.19347388,0.047196142,0.0038657382,-0.006350253,-0.037403032,0.14689028,-0.017128004,0.10639295,0.07190245,-0.08908653,0.20389718,0.025709875,0.05625152,0.1475872,0.0385935,-0.051607955,0.15085211,0.040297847,0.03496672,0.29171556,-0.029480238,-0.0055767056,0.2787027,0.074034214,0.013912767,0.07582434,0.06143646,0.10439699,0.06561986,0.097718075,0.13015296,0.010185512,0.07078626,0.06398321,0.14918803,0.100165546,-0.005950749,0.06766275,0.11008414,-0.035157524,0.10613713,-0.0187357,-0.068326145,0.074840784,0.049570583,0.049554225,0.015120454,0.121474266,0.24485767,0.059209015,0.15073828,0.05746543,-0.006642651,-0.03370761,0.01839633,0.21241717,0.012699135,0.018283535,0.18505657,0.121297695,-0.008423954,0.24365784,0.12119217,0.2080292,0.15219077,-0.0059888503,0.23808877,0.029558567,0.14650066,0.19522814,0.23219904,0.19290465,0.004500283,-0.037116136,-0.04034213
AMP,0.0066235736,0.07814695,-0.03586012,-0.033565193,0.073469914,0.13625701,0.035538726,0.17866658,0.048320472,0.103925064,-0.03605605,0.053951997,0.10161509,0.073590174,0.14951858,0.0009943023,0.015744135,0.267406,0.05426434,0.1185748,0.12700541,0.14771387,0.22746164,0.13822082,-0.053194333,0.19364993,0.04400871,0.006550534,-0.0068383273,-0.037878282,0.15512046,-0.017567704,0.109649405,0.07451719,-0.089884676,0.20258991,0.027577136,0.055678196,0.14981052,0.041855603,-0.047698203,0.14471224,0.015708681,0.033590384,0.30070034,-0.023936853,-0.01188187,0.27253118,0.0723626,-0.003694281,0.08295901,0.059533652,0.1363631,0.06525884,0.10237544,0.13126312,0.010453662,0.072186425,0.067284726,0.14764096,0.07029722,-0.023678727,0.06984125,0.112727,-0.024431195,0.10979806,-0.020377398,-0.066638626,0.07748009,0.047961406,0.06437081,0.038957357,0.08572961,0.24206978,0.06283509,0.15016772,0.060269523,0.013648178,-0.03862238,0.020301875,0.21604869,0.03632793,0.0041090734,0.20846316,0.118227966,-0.008421347,0.2450011,0.08470249,0.20867199,0.15543108,-0.014108309,0.23655814,0.030550102,0.13694227,0.19460043,0.2306723,0.19204715,0.009468846,-0.037304077,-0.04000823
AMT,0.012263935,0.05390522,-0.048137475,-0.033270165,0.07240079,0.13652676,0.039547548,0.17258997,0.048561636,0.09787005,-0.032549858,0.05112209,0.10059608,0.06692231,0.14736623,0.00025199726,0.015879637,0.2626426,0.051580675,0.114813566,0.059256766,0.14661396,0.22828354,0.02934673,-0.060911004,0.1892475,-0.0035758335,0.005143578,-0.0014068149,-0.037926383,0.14859617,-0.017733302,0.10489002,0.07144954,-0.090001225,0.19924265,0.024274873,0.054006796,0.1525206,0.020999711,-0.06291735,0.14219996,-0.020838454,0.04178186,0.29184565,-0.034260668,-0.012442899,0.27040827,0.07349917,-0.016368262,0.0760082,0.06092103,0.1067449,0.066776544,0.098427966,0.13154411,0.008734016,0.05223936,0.065731905,0.14546031,0.038102802,-0.023757964,0.06732641,0.10812703,-0.026407082,0.10222243,-0.021927446,-0.0682032,0.073360145,0.048870057,-0.0057045054,-0.031289812,0.037479825,0.23791718,0.057679556,0.15156192,0.058754608,0.013575006,-0.041947953,0.0178755,0.21173997,-0.0014325082,-0.01562652,0.112345956,0.109337494,-0.008646004,0.24281727,0.051339302,0.2034643,0.15222925,-0.029903878,0.23575129,0.032254487,0.132157,0.19417256,0.22533785,0.19355705,-0.023277275,-0.042738877,-0.039219648
AMZN,0.015649777,0.09850905,-0.04110663,-0.036526352,0.07242465,0.13599631,0.036244743,0.17406353,0.05110626,0.10631898,0.01905467,0.05387517,0.1001828,0.07428319,0.14784631,0.002927713,0.016062692,0.2617298,0.051046673,0.11467977,0.16685107,0.14455736,0.22724923,0.1921598,-0.04713909,0.19417691,0.06874128,0.006505111,-0.005234178,-0.03595174,0.15072106,-0.016467722,0.11135338,0.082472354,-0.09157174,0.19905005,0.027100177,0.054872375,0.14709769,0.048526987,-0.030463565,0.14135787,0.060067102,0.12564045,0.3017175,-0.035595514,-0.012045933,0.27106658,0.07121924,0.027622633,0.08431925,0.060915437,0.10141976,0.06541775,0.0967363,0.13313738,0.012092551,0.21699652,0.06631506,0.14278765,0.13050383,0.027046923,0.07232795,0.10886531,-0.015355589,0.112333655,-0.018987529,-0.066903576,0.074322425,0.049543843,0.09113953,0.057590816,0.18332574,0.2359757,0.06995598,0.14989163,0.05935756,0.03848999,-0.036358546,0.01907434,0.22274257,0.05989477,0.016562078,0.24499075,0.12138044,-0.007386729,0.24425206,0.20163362,0.21312861,0.15339282,-0.01481959,0.23454821,0.035034787,0.12608711,0.19872323,0.22684886,0.1966262,0.049366996,-0.035367843,-0.038888842
ANET,0.009524681,0.1298514,-0.021929752,-0.03571078,0.07666031,0.13845405,0.08518173,0.19055374,0.052692518,0.103881374,0.031315006,0.06150429,0.115581475,0.09265573,0.15765324,0.005551826,0.05566299,0.26760107,0.061244886,0.11685521,0.91680634,0.1495926,0.22772683,0.9638361,-0.05026016,0.19886154,0.4879604,0.011933365,0.06358086,-0.038255334,0.16873474,-0.004805919,0.11192964,0.07583407,-0.085795335,0.21179244,0.029398395,0.054538753,0.15764742,0.08324587,0.2017726,0.1439275,0.10234581,0.12387457,0.3150234,0.11649975,0.043046266,0.2747148,0.0790592,0.044429723,0.08332071,0.060354814,0.6731712,0.06574714,0.16123864,0.13682923,0.02309534,0.20388958,0.07163044,0.1504821,0.16373262,0.041661654,0.09194485,0.11407232,-0.014690369,0.18403383,-0.01743843,-0.0583197,0.11197617,0.0477029,0.55082923,0.46776646,0.2159272,0.24036463,0.06751383,0.18658775,0.08465603,0.06071622,-0.023972837,0.044404894,0.23285973,0.20241062,0.048286147,0.66820645,0.117527604,-0.009265091,0.24471249,0.24353665,0.2110844,0.16532168,-0.008587081,0.23646812,0.035768725,0.13311975,0.20398451,0.28029957,0.19476974,0.04190346,-0.02702694,-0.029190045
ANSS,0.0045269094,0.07310455,-0.039031595,-0.035544273,0.0714036,0.13622929,0.032941826,0.1717368,0.050167643,0.101336524,-0.018466268,0.054764222,0.10137739,0.06815321,0.147027,0.0005209334,0.01675273,0.26001313,0.05550932,0.11435017,0.09052624,0.15019882,0.22950602,0.1009852,-0.05301187,0.18907225,0.024965506,0.0066092256,-0.0030673295,-0.038317826,0.14885974,-0.017580675,0.107940026,0.075276755,-0.08980227,0.20350891,0.025047995,0.05660949,0.14780228,0.033537388,-0.058365084,0.15088761,0.008675195,0.0561572,0.29829204,-0.030673128,-0.016853249,0.2823513,0.075132474,0.002629321,0.081654385,0.06131939,0.10432102,0.0663356,0.101684555,0.13180466,0.01020205,0.08799599,0.06547562,0.14643571,0.07255292,-0.0050278306,0.06672357,0.113424495,-0.020415515,0.10038763,-0.02003984,-0.069219396,0.07422479,0.047053307,0.04399845,0.016963147,0.08494761,0.23951939,0.064340964,0.15232928,0.059104968,0.023238502,-0.03562531,0.01821684,0.21723521,0.02732265,0.006699808,0.18120499,0.111558124,-0.0061646774,0.24377006,0.08181986,0.20948577,0.15195766,-0.01917278,0.23774265,0.032600682,0.13938645,0.195193,0.22841376,0.19576846,0.0005742833,-0.04101495,-0.04248366
AON,0.003591448,0.095261894,-0.033749603,-0.034546956,0.07201826,0.13546038,0.02753507,0.17229125,0.04823739,0.10012929,-0.008896269,0.052240957,0.09863967,0.065652266,0.1477417,0.0014115423,0.016919361,0.26324594,0.052141607,0.11434833,0.22516966,0.14328878,0.22774708,0.18633759,-0.06008094,0.19160521,0.037425794,0.006258181,-0.0032537058,-0.039152972,0.1487891,-0.01642811,0.10401255,0.0717469,-0.08942576,0.19957146,0.025190337,0.05552288,0.1452173,0.02683807,-0.013428818,0.13686223,0.0514117,0.06337944,0.28979036,-0.015723053,-0.01555628,0.2696384,0.07212216,0.014423776,0.08061293,0.061599758,0.19101998,0.06511808,0.09915635,0.12864505,0.008735828,0.11991983,0.06482656,0.14455183,0.10977663,0.006328039,0.064549446,0.108928785,-0.032352287,0.09737958,-0.01935198,-0.06754814,0.075920776,0.0472435,0.08158837,0.064679936,0.14781068,0.2358118,0.058020607,0.1509998,0.058376066,-0.017349664,-0.032557406,0.018481594,0.20956637,0.035212472,0.024749976,0.08563255,0.1061894,-0.008143164,0.24251059,0.1597842,0.20500731,0.15250373,-0.022959542,0.23545304,0.02889125,0.12534173,0.19392616,0.22760686,0.19217148,0.018904578,-0.04234498,-0.040100377
AOS,0.0091333985,0.069739126,-0.03927188,-0.03507366,0.07249093,0.1391107,0.035562348,0.17495522,0.048257437,0.10182901,0.0061607063,0.05181332,0.10272096,0.07030659,0.1474186,0.0015009195,0.014470475,0.26323605,0.052414153,0.1142838,0.13475978,0.15206158,0.23117802,0.08734071,-0.054391198,0.19250447,0.008559234,0.0067913253,-0.0012996495,-0.03882378,0.15160201,-0.014007123,0.11024132,0.07030018,-0.09374732,0.20009233,0.025440078,0.057104092,0.14988187,0.06854054,-0.048880547,0.14882359,0.027924784,0.10916012,0.29418927,-0.029370874,-0.011293791,0.27441752,0.074856386,0.018359952,0.08109198,0.05930114,0.12380105,0.06651873,0.09984608,0.12936792,0.010424519,0.16604921,0.06496677,0.1457951,0.0941214,0.027356446,0.06787454,0.112257466,-0.019621128,0.10757692,-0.018774427,-0.06742319,0.07354608,0.048412748,0.02449946,0.015892707,0.11783662,0.23711672,0.063111454,0.15501587,0.05984381,0.048934855,-0.036963943,0.019835427,0.21289442,0.022099465,-0.0040996224,0.15827692,0.10908031,-0.0086238235,0.24398234,0.15492955,0.2058419,0.15247837,-0.025488777,0.2367899,0.034561276,0.13168621,0.1967696,0.22786957,0.1937978,0.0064948536,-0.037181914,-0.042523228
APA,0.02185976,0.28574014,0.03789893,-0.032221097,0.079524204,0.1427966,0.037460145,0.18025616,0.054520104,0.10730681,0.1527856,0.06812456,0.10564513,0.07817136,0.15023118,0.0024910867,0.04032425,0.26826477,0.061480884,0.12233533,0.43767157,0.18327539,0.22876419,0.45075464,-0.05492334,0.20005284,0.20517972,0.0096607525,0.022607137,-0.017309451,0.15249799,-0.013643969,0.1132731,0.073482975,-0.044076517,0.21092227,0.028662955,0.05816176,0.14840119,0.083559446,0.044814494,0.22192729,0.29811206,0.30152217,0.3106855,0.030946443,0.011257967,0.31020617,0.0932346,0.14879459,0.079330035,0.056360688,0.35007662,0.06350207,0.12844631,0.13567351,0.013385143,0.49098796,0.06749191,0.15638378,0.36470717,0.15198272,0.07672239,0.12051979,0.0005806312,0.11822798,-0.019235015,-0.0608318,0.08534094,0.044748418,0.23512602,0.18893,0.47734436,0.27016905,0.06395459,0.16098665,0.06317556,0.097532205,0.015058391,0.022010766,0.22805099,0.07584686,0.15730141,0.2804162,0.15512584,-0.0040617064,0.25071418,0.5346357,0.21768244,0.15738869,0.07474358,0.24526806,0.03433826,0.18727434,0.19800222,0.25444221,0.19314958,0.11640037,-0.03780547,-0.03785726
APD,0.004940033,0.074975476,-0.03994703,-0.03399551,0.07129128,0.13609906,0.031511527,0.17199266,0.048575364,0.102760255,-0.0552175,0.051113058,0.09977252,0.06798219,0.14593509,0.0008983575,0.018611616,0.2630352,0.050990216,0.11355909,0.07467004,0.14592405,0.2284083,0.03490038,-0.060756985,0.18989794,-0.013212774,0.0070017604,-0.002211405,-0.03936232,0.15221822,-0.016311198,0.106654525,0.068264484,-0.095574215,0.20087087,0.024762062,0.054948088,0.1459238,0.025137719,-0.056882296,0.14016837,0.0031284913,0.011871189,0.29051653,-0.02874643,-0.014273686,0.27222013,0.072193354,-0.010316316,0.07738366,0.060504932,0.113873325,0.06485587,0.10017659,0.12942682,0.008761568,0.036486793,0.06664305,0.14337534,0.054099426,-0.031923197,0.066047795,0.110743746,-0.035134513,0.09580995,-0.018519219,-0.06833386,0.073341765,0.04772553,-0.013427101,-0.031794965,0.059493303,0.23608954,0.060841106,0.15243155,0.05699762,-0.008291293,-0.037075993,0.01971224,0.21122521,-0.0044017434,-0.005902,0.10109146,0.10701102,-0.0076769106,0.24323042,0.05801475,0.20394018,0.15353882,-0.024955355,0.23695223,0.028654069,0.12960127,0.19414726,0.22722282,0.19370998,0.0017517768,-0.041333452,-0.039828084
APH,0.0053875,0.052025743,-0.041849483,-0.033056475,0.07248037,0.13627797,0.03568574,0.17051497,0.049587317,0.101060376,-0.048180364,0.05336041,0.099831045,0.06809963,0.14661077,0.001473669,0.01781392,0.26030302,0.053138305,0.117468305,0.16013932,0.14733905,0.22941786,0.12421233,-0.059776414,0.18929963,0.0138539355,0.0047623706,-0.0049637426,-0.03877894,0.1490767,-0.016088076,0.106703855,0.07024507,-0.091989435,0.20259072,0.024848886,0.055542592,0.14657651,0.02148082,-0.0331456,0.13787062,-0.016002063,0.022633247,0.29374877,-0.012099894,-0.014769008,0.27154577,0.071751624,-0.01978657,0.07782893,0.060484827,0.17084952,0.065365046,0.10832983,0.13049375,0.008123694,0.030854266,0.06458856,0.14586785,0.04175478,-0.029018793,0.06556967,0.10912277,-0.028141234,0.097225934,-0.018910078,-0.06557056,0.07647373,0.04878451,0.04086918,0.01812809,0.04186668,0.23945552,0.062668376,0.15232405,0.05747283,0.00614265,-0.038568035,0.018633366,0.21323939,0.029757768,-0.016975738,0.109822735,0.11206314,-0.007062994,0.24308003,0.029010214,0.20515613,0.15507662,-0.025023552,0.23945804,0.028799608,0.1340457,0.19515575,0.23627594,0.19359227,-0.0045869276,-0.03827202,-0.039962973
APTV,0.01035396,0.117670596,-0.020618498,-0.03624321,0.07156564,0.13778076,0.037006393,0.17438191,0.05231237,0.10348712,-0.0069706626,0.053833842,0.09961088,0.070764214,0.14947338,0.0016851798,0.01627018,0.26387548,0.05477238,0.1170698,0.16786997,0.15298414,0.22855128,0.12315261,-0.052459296,0.19759825,0.00952464,0.0070500947,-0.0011230614,-0.03890117,0.14975204,-0.017971432,0.10755349,0.06936374,-0.08812241,0.20223919,0.027436966,0.054699495,0.15184198,0.07028923,-0.034441963,0.16281128,0.07367128,0.07306293,0.31395274,-0.024505418,-0.010775341,0.28224626,0.0742514,0.024868183,0.082879364,0.058290366,0.14462762,0.06587936,0.102193445,0.13812207,0.009877378,0.123249516,0.0659431,0.14855553,0.13671732,0.008422077,0.06821991,0.11178456,-0.024869267,0.10626607,-0.018075962,-0.06562227,0.07510463,0.04818342,0.043456383,0.028250568,0.16924004,0.25075594,0.06238213,0.14838882,0.05920227,0.037431367,-0.030562153,0.019594789,0.22490038,0.015646309,0.03269875,0.1404154,0.12574312,-0.0071817115,0.24520731,0.18154864,0.21485595,0.15744926,0.0072975885,0.23710263,0.031887934,0.14940415,0.19778737,0.23351304,0.19492006,0.018931186,-0.037697524,-0.03758219
ARE,0.010702405,0.036428228,-0.052138843,-0.034310605,0.071421474,0.13466188,0.04240553,0.17242885,0.05043419,0.0995464,-0.049600568,0.050508935,0.10071201,0.06283201,0.14762926,0.0012898445,0.012881592,0.26121867,0.049550816,0.11490309,0.015232537,0.14430454,0.22649488,0.0013897028,-0.06139812,0.19050333,-0.029332452,0.005137259,-0.0044446196,-0.03691072,0.15001091,-0.019687416,0.10587869,0.06977333,-0.09884634,0.19867325,0.024700165,0.055770464,0.15022309,0.039870523,-0.079427265,0.1397821,-0.039676946,0.007869203,0.3002433,-0.042165313,-0.017159801,0.26992905,0.07224696,-0.033226207,0.07593033,0.061484687,0.06776294,0.067223534,0.09571574,0.13011982,0.008233188,0.00034326687,0.066110365,0.1432477,0.02463653,-0.03607753,0.06416685,0.10738105,-0.031967722,0.09580849,-0.020164182,-0.068264894,0.07192304,0.048817754,-0.018248746,-0.037237525,0.01271273,0.23383327,0.059028372,0.14818527,0.05711414,0.005488377,-0.045026742,0.017721519,0.21942407,0.0007055998,-0.026459701,0.10420035,0.105659135,-0.009612389,0.24256913,0.003266953,0.20911229,0.15135394,-0.036346268,0.23537305,0.028847443,0.12640765,0.19477274,0.22491296,0.19080424,-0.01701926,-0.04103192,-0.04169795
ATO,0.0092755705,0.034715753,-0.05866555,-0.03385969,0.07146816,0.13301301,0.036225855,0.16978808,0.048671313,0.10022312,-0.075266965,0.049384005,0.10053437,0.061552085,0.14636606,-0.0008281842,0.013758431,0.25987026,0.0498164,0.11438124,0.04797829,0.1411711,0.22596543,0.051882725,-0.056395765,0.19018689,0.00046303496,0.0058688805,-0.0073375776,-0.039478756,0.15146962,-0.01862841,0.10564411,0.07351587,-0.09854765,0.19796424,0.024362037,0.055317443,0.15123233,0.018724155,-0.07451383,0.12984212,-0.04791078,-0.020211965,0.29103547,-0.04439468,-0.01675523,0.2663999,0.07038827,-0.03819894,0.074221194,0.062316485,0.0642461,0.067134574,0.095709756,0.12934992,0.0081966575,-0.049542245,0.06635616,0.1423566,0.0021417812,-0.05144133,0.06341224,0.106451556,-0.036520123,0.09118517,-0.023475409,-0.068673134,0.073042974,0.04738096,0.01307741,-0.007513933,-0.005650416,0.23332313,0.060985852,0.14781469,0.05660317,-0.014898721,-0.042217415,0.019990392,0.21152756,0.014836989,-0.03636214,0.14608626,0.100430936,-0.009757575,0.24419895,-0.021534516,0.20500705,0.15230069,-0.036282286,0.23377852,0.030528344,0.12047282,0.1932933,0.22324802,0.19107045,-0.029946562,-0.042758662,-0.041326232
ATVI,0.008600008,0.09667053,-0.029500306,-0.034444824,0.07448573,0.13386317,0.035952114,0.18282661,0.052990746,0.10268576,-0.011049647,0.055421278,0.10022734,0.082485914,0.14812681,0.0026665106,0.014351711,0.26292372,0.057728693,0.11742254,0.3473254,0.15232828,0.22580162,0.38713434,-0.05236413,0.19464536,0.18250135,0.0054726736,-0.0013692072,-0.03898535,0.15009856,-0.01102736,0.114136465,0.08940732,-0.090173736,0.20439531,0.03193111,0.05525222,0.15308852,0.04965867,0.024336051,0.15241468,0.056527734,0.070962384,0.30109677,-0.004511403,-0.00597177,0.27429348,0.07733874,0.02467525,0.08278902,0.05887785,0.2529324,0.0668258,0.10724968,0.13386303,0.0114937555,0.123276755,0.066380695,0.14587775,0.113433495,0.008368138,0.06847241,0.10897602,-0.017446008,0.12209119,-0.018944334,-0.06516273,0.080400065,0.049055405,0.21374425,0.17000908,0.1541512,0.24261166,0.075996436,0.14818156,0.059400458,0.033030488,-0.029775076,0.021154135,0.22185683,0.10030278,0.019009281,0.40437955,0.115309626,-0.008668233,0.24424022,0.1634609,0.21414454,0.15431027,-0.0105123855,0.23752847,0.038027957,0.14360961,0.19771193,0.23570743,0.195989,0.023862362,-0.036684453,-0.041093323
AVB,0.007410668,0.03105529,-0.05754497,-0.03378857,0.070821956,0.13432682,0.04095318,0.17102274,0.048934713,0.09873006,-0.06959061,0.050474457,0.09956721,0.062469006,0.14570531,0.0010170415,0.013385666,0.2614014,0.04937911,0.11492862,0.016217155,0.14093383,0.22624625,0.015579236,-0.062010493,0.18804261,-0.022051856,0.0055637658,-0.003789967,-0.037221543,0.14803822,-0.018787602,0.10443039,0.07159695,-0.09934213,0.19848812,0.02434593,0.055395238,0.14808539,0.02474077,-0.07731264,0.12931173,-0.05292102,-0.011155935,0.29607975,-0.042870436,-0.016320962,0.2685356,0.07138195,-0.041532513,0.07531047,0.06260878,0.07136981,0.066825055,0.09658991,0.12978727,0.0085626915,-0.042382006,0.06599841,0.1427404,0.0054758675,-0.048952237,0.06330826,0.10600074,-0.03743773,0.09614147,-0.021008909,-0.06862205,0.07363905,0.0487976,-0.010001379,-0.028671697,0.0031132884,0.2352276,0.05852129,0.14925398,0.05764103,-0.008709636,-0.045893025,0.017555822,0.21222626,0.004083708,-0.03317155,0.11508923,0.10298637,-0.009469774,0.24294892,-0.008495349,0.20587659,0.15285048,-0.03924764,0.23590583,0.029917676,0.12362286,0.19404027,0.22268924,0.18970847,-0.023664273,-0.04191142,-0.041787542
AVGO,0.011562251,0.1100204,-0.025852896,-0.035470784,0.075516455,0.13481732,0.04787405,0.18531972,0.056466248,0.10322578,0.004490271,0.057368632,0.10428038,0.084409535,0.14860712,0.00024132803,0.014422877,0.26540893,0.053322315,0.1157953,0.40761438,0.1528226,0.22547662,0.45061612,-0.05343533,0.1959269,0.20934029,0.006105059,0.0057712393,-0.03782054,0.14869799,-0.018533021,0.11111788,0.07941529,-0.08469839,0.2044458,0.03390552,0.05538188,0.15145694,0.054358847,0.032111123,0.14919999,0.07241774,0.086158894,0.2972687,0.0067975316,-0.008817774,0.27487463,0.07434341,0.023877688,0.08262515,0.059112832,0.24238683,0.06622392,0.10521887,0.13292126,0.011231583,0.15274343,0.06549511,0.14744791,0.13067554,0.018606842,0.06732319,0.110244185,-0.01588691,0.13143623,-0.0197046,-0.06665906,0.07637459,0.0469765,0.24568218,0.19808081,0.17307666,0.24005781,0.06612818,0.14684376,0.059445642,0.039615937,-0.03234697,0.020261984,0.21582796,0.10859239,0.030915853,0.44746277,0.110772416,-0.008517843,0.24726813,0.19352722,0.2107948,0.15380335,-0.01706311,0.23868424,0.03372876,0.13608053,0.19837625,0.23624381,0.1952353,0.02884094,-0.036667526,-0.04068534
AVY,0.0061533153,0.118822455,-0.024946012,-0.034968685,0.07201988,0.1375663,0.03153079,0.17449984,0.04867232,0.10110195,0.05717175,0.05681231,0.100701086,0.069181666,0.14770919,0.00094498694,0.016926713,0.26369488,0.05250128,0.11451008,0.07388975,0.14686157,0.23022912,0.022406982,-0.0443528,0.1911603,-0.019220173,0.0070304307,-0.004691435,-0.036310747,0.15122096,-0.018192366,0.11098494,0.06876439,-0.09308401,0.20316958,0.025097322,0.056750882,0.14595488,0.09965183,-0.06372601,0.14592966,0.096074976,0.17181444,0.2914136,-0.03697347,-0.015311515,0.27291164,0.07394542,0.05357872,0.08170069,0.06139585,0.09710387,0.06592718,0.09849556,0.12854438,0.009126378,0.2700503,0.06367478,0.14488074,0.16332784,0.062025208,0.06809479,0.10997526,-0.003932826,0.10089629,-0.01838597,-0.067689754,0.07360625,0.04752495,-0.0139805805,-0.018395014,0.1996941,0.24029504,0.061172754,0.15349878,0.058063522,0.08229768,-0.035802674,0.019566748,0.2140465,0.0063684434,0.03549687,0.11086848,0.115663916,-0.007731661,0.24461573,0.25474295,0.20393068,0.15455084,-0.004427206,0.2408758,0.036323655,0.13239558,0.19541094,0.22805393,0.19268283,0.03289657,-0.039107878,-0.041103978
AWK,0.009205993,0.038545102,-0.04909361,-0.033858635,0.07128767,0.1356339,0.037598923,0.17247675,0.04900272,0.099763036,-0.07459142,0.051332586,0.10019399,0.064610824,0.14661907,-0.00096490234,0.018189553,0.26205534,0.050003827,0.11291891,0.049185056,0.14359564,0.22742584,0.050472386,-0.061492383,0.1881746,0.00056097656,0.0063175443,-0.0046450235,-0.039542835,0.15028405,-0.01686642,0.10548957,0.07270779,-0.09857362,0.19907379,0.024779709,0.052963983,0.14768162,0.019385122,-0.07615066,0.13450931,-0.033528097,-0.016511891,0.29203638,-0.03467817,-0.012854204,0.26832038,0.070768945,-0.032437067,0.07487551,0.0627287,0.074319184,0.065203264,0.096820496,0.13029152,0.008043459,-0.035696868,0.06574412,0.14342184,0.024425134,-0.053187918,0.06446237,0.106460616,-0.03762267,0.09618395,-0.02366448,-0.069791846,0.07238685,0.04786873,0.013240129,-0.0077274367,0.017535822,0.23740102,0.061334424,0.15189406,0.056818467,-0.013604153,-0.044054106,0.019147698,0.21010625,0.014510818,-0.022945963,0.1454907,0.106771484,-0.009557977,0.24324481,0.0008166544,0.20357831,0.15106787,-0.031458564,0.23447506,0.028364178,0.12601122,0.19296424,0.22171277,0.1915917,-0.025392264,-0.041498303,-0.03782837
AXP,0.005208429,0.0549301,-0.048184764,-0.035031144,0.07232738,0.13647892,0.03928287,0.17371887,0.051813196,0.10199748,0.013948217,0.052316405,0.09870731,0.0695532,0.1483972,0.0028894767,0.016571056,0.2652872,0.05083791,0.11412102,0.06550223,0.14417401,0.22706793,0.08669789,-0.05777777,0.20072594,0.026827946,0.006142898,-0.0042702425,-0.0389869,0.15230344,-0.016103465,0.1068435,0.07790214,-0.09299422,0.20028383,0.024129556,0.055328112,0.14790465,0.08647585,-0.058862578,0.13486059,0.022529885,0.08540207,0.31889912,-0.0317059,-0.011139752,0.26953357,0.071065046,0.01614581,0.07929975,0.06058391,0.1102668,0.06437566,0.09904217,0.13695163,0.013628738,0.13999945,0.06750178,0.14244196,0.09376017,0.018988844,0.06798158,0.107891604,-0.018312834,0.101594746,-0.01980543,-0.06686643,0.07268629,0.048112974,0.03205253,-0.0021345764,0.08555312,0.2357258,0.06287451,0.15005544,0.058129154,0.051642895,-0.034074888,0.018083557,0.22897336,0.015342936,0.0010132194,0.1560797,0.10426758,-0.00809579,0.24344349,0.13509452,0.21624377,0.15318835,-0.02818346,0.23517357,0.032250844,0.1248858,0.19516268,0.22812416,0.19334094,0.004254384,-0.040157516,-0.038786627
AZO,0.010231148,0.114856124,-0.035432465,-0.034788474,0.07362303,0.13779484,0.050749168,0.19060038,0.050459757,0.101235464,-0.015320685,0.05388467,0.10005213,0.084346764,0.14863852,0.0022727698,0.013689087,0.27171102,0.053878,0.115246594,0.27559277,0.1446588,0.22883207,0.3317741,-0.05564535,0.18957117,0.1593945,0.0063603246,-0.0068444256,-0.039190613,0.14891973,-0.018372284,0.107545346,0.07112856,-0.08953779,0.20131087,0.02443777,0.05670013,0.14900978,0.042169977,-0.0005756393,0.13508707,0.055720035,0.06874868,0.3038644,-0.0064595714,0.0054576583,0.27031583,0.07204406,0.011631746,0.08184466,0.060574073,0.1597067,0.06602251,0.097182855,0.13591121,0.015084259,0.102075115,0.06703595,0.14476664,0.11729257,0.0033938065,0.08249827,0.10755472,-0.019923296,0.14368293,-0.018531857,-0.06765876,0.07313511,0.048401736,0.18032515,0.11265144,0.13999364,0.23803027,0.062306542,0.1529822,0.070449956,0.026922911,-0.027199488,0.018302672,0.21911186,0.060373515,0.019217718,0.3539006,0.10633403,-0.00846995,0.24779603,0.1497217,0.21198526,0.15227208,-0.0147078615,0.23450585,0.03343097,0.12745702,0.19783087,0.22679493,0.19559675,0.002966512,-0.032716636,-0.04249318
BA,0.0066921674,0.08751687,-0.034568895,-0.03195817,0.0730504,0.13599989,0.042051867,0.17280906,0.05108459,0.10260646,-0.024576802,0.054272775,0.10148679,0.070110366,0.14746876,0.0045756474,0.019781418,0.26576784,0.054318283,0.11519404,0.19177103,0.14920256,0.2265268,0.1804058,-0.05566394,0.1931798,0.05261054,0.00934559,0.0049686767,-0.03640956,0.15244876,-0.0150193665,0.1064859,0.07336443,-0.09214481,0.20057265,0.027353425,0.053243462,0.14821252,0.041967496,-0.029204141,0.14854546,0.021933772,0.059902057,0.3025191,-0.007276685,-0.010359964,0.27261963,0.07239054,-0.001933001,0.081501395,0.062372733,0.19029215,0.063416764,0.10850582,0.13386314,0.0092956,0.111305796,0.06543915,0.14825396,0.082485415,-0.011963945,0.06722209,0.109109774,-0.027844973,0.10521187,-0.016070016,-0.066222675,0.07600278,0.051277928,0.07504791,0.047037244,0.10714594,0.23759471,0.062220715,0.14816664,0.059366677,0.011794936,-0.03692939,0.019041441,0.21943793,0.024253152,0.0055205263,0.17752519,0.11296752,-0.007063493,0.24447696,0.116629384,0.21045874,0.15343675,-0.015614916,0.23669845,0.03336528,0.13752426,0.19829775,0.22923653,0.19471416,0.02090733,-0.038517203,-0.03523307
BAC,0.007533923,0.09378006,-0.03779764,-0.034930963,0.073552534,0.13689572,0.0379586,0.17237876,0.048899546,0.10378141,-0.014237363,0.05324007,0.099684455,0.07269545,0.14950317,0.0011344105,0.016241092,0.2646426,0.05217611,0.11574706,0.1023249,0.14518318,0.229348,0.0716249,-0.056162015,0.19629255,0.016807588,0.006279427,-0.0076051634,-0.03666997,0.1539991,-0.018870981,0.10606282,0.07134707,-0.09469402,0.20095992,0.024327599,0.05707511,0.14960307,0.053865626,-0.049004197,0.13902918,0.045335878,0.055210393,0.29855677,-0.022677975,-0.011526978,0.2717682,0.07455167,0.012675926,0.07929688,0.05924734,0.13085455,0.06554267,0.09929625,0.12979953,0.010158271,0.11008906,0.06602697,0.14488591,0.10719137,0.0034657717,0.06852587,0.11090187,-0.028834624,0.107476875,-0.019252468,-0.06743493,0.07560371,0.047053263,0.019584853,-0.011431515,0.141785,0.23870635,0.05937216,0.15126638,0.05961395,0.00521525,-0.029518522,0.02000375,0.21772358,0.012965925,0.023744687,0.14247848,0.1079749,-0.008260526,0.24345163,0.15493216,0.20898056,0.15509804,-0.025774252,0.23626363,0.02805037,0.12918101,0.19499344,0.23201936,0.19072303,0.018506043,-0.035440803,-0.04108459
BAX,0.008333132,0.044399288,-0.050627816,-0.034479152,0.07147516,0.1365908,0.034350887,0.17047793,0.05007635,0.102674305,-0.02603501,0.051254787,0.09791735,0.071747094,0.14650388,0.0008497685,0.019021533,0.26038647,0.05277864,0.114133954,0.32064232,0.1453343,0.22856346,0.32044727,-0.05970748,0.19455643,0.12977919,0.005005848,0.010712534,-0.035221387,0.14979456,-0.016889751,0.107673764,0.07005657,-0.09087535,0.20217212,0.02554916,0.055034596,0.14950126,0.05684727,0.013507139,0.14116949,-0.031821534,0.040290937,0.30925375,0.010800441,-0.0019030077,0.2730582,0.07163434,-0.017682832,0.07757001,0.06076652,0.27986282,0.06594679,0.12031698,0.1317043,0.00862796,0.05006801,0.06382602,0.14369017,0.03984195,-0.018154856,0.065672174,0.11024206,-0.029521883,0.09508072,-0.019974858,-0.06674525,0.07958012,0.048239738,0.15701038,0.121239215,0.02924538,0.23691598,0.06193062,0.15249932,0.05646248,0.020350073,-0.03531394,0.021116082,0.22463363,0.051150255,-0.023144156,0.25775063,0.10751874,-0.00735645,0.24434039,0.050562408,0.2150119,0.15515712,-0.0306294,0.23517832,0.030478917,0.12844023,0.19582844,0.24007267,0.1947982,-0.0017550979,-0.03896724,-0.04039937
BBWI,0.01791168,0.20231551,0.01696521,-0.03769532,0.076780826,0.13812888,0.083528414,0.19317609,0.052902255,0.10398522,0.10244766,0.060422633,0.10848247,0.10218544,0.15108979,0.012458611,0.037063874,0.268531,0.06486842,0.11953199,0.5876732,0.15838747,0.23035519,0.64458525,-0.040518485,0.19232775,0.32302868,0.006227271,0.01516826,-0.037226662,0.1743601,-0.012444154,0.120827176,0.08835435,-0.067740016,0.2100672,0.03405799,0.056299567,0.15909801,0.044988487,0.09620605,0.16544336,0.20756717,0.22499593,0.3012913,0.039849643,0.026664486,0.278892,0.07919524,0.09064714,0.091808066,0.05789078,0.37144157,0.06907375,0.12762085,0.13527952,0.013073554,0.3693785,0.0689957,0.15131979,0.2655623,0.10190031,0.07990061,0.11352529,-0.023207376,0.16328734,-0.01938612,-0.060668394,0.07978752,0.05718398,0.36792457,0.29596925,0.34822986,0.24059051,0.06881978,0.15681854,0.073400125,0.045981035,-0.01886981,0.028914291,0.22110581,0.15874875,0.09688612,0.598085,0.12668552,-0.006483827,0.24795371,0.39224988,0.20948808,0.16099547,0.022465501,0.23675413,0.04208769,0.15379432,0.19836338,0.2493158,0.19337201,0.09100709,-0.028247565,-0.04156232
BBY,0.0095900595,0.20892754,0.0070494264,-0.032553148,0.07455422,0.13711365,0.041018736,0.17913117,0.04994552,0.10236541,0.10344367,0.058697995,0.105413236,0.072154276,0.15260348,0.002601698,0.017280424,0.26673988,0.05562169,0.119462214,0.37394407,0.15423271,0.23102438,0.3597162,-0.05463348,0.19609837,0.1420241,0.006320463,-0.0011626799,-0.039078474,0.15538082,-0.017912718,0.10868417,0.07417136,-0.07487644,0.20414928,0.028800981,0.057496216,0.14888643,0.04842894,0.038849343,0.16909714,0.21297225,0.23313548,0.3006409,0.020788938,-0.012476623,0.27706653,0.08234797,0.10316793,0.078387305,0.060334224,0.31885636,0.06652662,0.11827193,0.13161924,0.012757285,0.38378906,0.067869365,0.14684232,0.27496982,0.10827185,0.07441357,0.115477405,-0.028047169,0.12269118,-0.020821733,-0.0637639,0.0847957,0.049722493,0.18236163,0.14024073,0.3675689,0.2439265,0.0681212,0.1658438,0.06536129,0.04820372,-0.0057291165,0.021434948,0.21806839,0.060670644,0.10471984,0.21875207,0.13416708,-0.0066046715,0.2449145,0.42069912,0.2075293,0.16053382,0.027975539,0.24089783,0.03099285,0.15465711,0.19941273,0.2526425,0.19627695,0.09180314,-0.039042037,-0.041841943
BDX,0.0040235333,0.05917021,-0.048069097,-0.03412379,0.07095573,0.13531947,0.03468748,0.17029047,0.048583545,0.10134108,-0.06568155,0.051422246,0.09895624,0.06629293,0.14578508,0.0015215799,0.016373824,0.26084763,0.053707488,0.11468583,0.14484364,0.1449425,0.22954687,0.09990757,-0.06187056,0.18987295,0.017176278,0.005244121,-0.0049742498,-0.03679499,0.14949515,-0.016918015,0.10517338,0.07019947,-0.09437297,0.201869,0.024629023,0.055845574,0.14824301,0.02276867,-0.040126126,0.13960658,-0.017515786,-0.011043757,0.2928697,-0.022065148,-0.010156557,0.27115837,0.073451035,-0.022457276,0.07766324,0.060472302,0.14412102,0.066574626,0.10192854,0.13126595,0.00935556,-0.0013878196,0.06470843,0.14437626,0.03699252,-0.047169007,0.06445938,0.11111714,-0.03441088,0.09983099,-0.019394368,-0.06758883,0.07544621,0.048019238,0.029422875,0.020832956,0.033378817,0.23730159,0.05998434,0.15375541,0.05715246,-0.009766549,-0.036041602,0.020044826,0.21489212,0.011156805,-0.017987743,0.1444406,0.1062361,-0.006765865,0.24368283,0.028620575,0.20500022,0.1527949,-0.029491466,0.23625188,0.029631134,0.12634024,0.19386789,0.23135382,0.19342688,-0.0114968885,-0.03814532,-0.042779177
BEN,0.005189024,0.057155605,-0.04367978,-0.03584391,0.07224524,0.13522841,0.047475897,0.17303723,0.04890344,0.10078898,-0.027970044,0.055491198,0.103452116,0.07211162,0.15023024,0.0024167523,0.014156401,0.26542985,0.051346384,0.11679263,0.20650661,0.15173008,0.2270053,0.25033128,-0.057834253,0.19416489,0.11976555,0.0053913086,0.0038854256,-0.03481867,0.1511655,-0.017882243,0.10938979,0.07014738,-0.09380872,0.20252612,0.024573248,0.056877542,0.14804947,0.047720652,-0.023292638,0.14366302,-0.021034393,0.04781957,0.29584813,-0.023130221,0.007204649,0.2754436,0.07304655,-0.011482656,0.07931511,0.059172567,0.16507699,0.065950096,0.10522215,0.1307848,0.015802518,0.06949201,0.06644407,0.14552906,0.04538072,-0.017069645,0.079661556,0.10785881,-0.022105705,0.13816094,-0.019410664,-0.0651686,0.07734142,0.049072616,0.13648917,0.08111888,0.041485433,0.23821843,0.0639967,0.14768262,0.06783927,0.018803127,-0.041170556,0.019891813,0.21849973,0.040960453,-0.011209384,0.3001963,0.11067496,-0.0065900646,0.24453612,0.06788451,0.20805295,0.15555069,-0.026476074,0.23393303,0.03066922,0.1353493,0.19440192,0.23373458,0.19344369,-0.0022186562,-0.028396744,-0.041506015
BIIB,0.027897593,0.43320286,0.07930583,-0.03358149,0.07419368,0.14518492,0.039394446,0.18267155,0.057081964,0.10280329,0.30007598,0.06718611,0.10621883,0.07976439,0.15501228,0.0052040964,0.044141624,0.26732656,0.06447105,0.11676559,1.1000456,0.17483167,0.22705315,1.1458589,-0.03965106,0.22353056,0.56776106,0.026481668,0.050424196,-0.035469476,0.1587703,-0.0025621774,0.11495834,0.07452694,-0.021881841,0.21028626,0.037924327,0.07159954,0.15287659,0.23210841,0.26565745,0.24669418,0.5041849,0.49704942,0.36529988,0.14294477,0.02627815,0.29957008,0.1065385,0.26859477,0.0864517,0.060370605,0.7704347,0.066822976,0.13959761,0.15803346,0.011419345,0.82143426,0.06952368,0.16963345,0.564764,0.29381981,0.07198925,0.11283891,0.032399423,0.12316255,-0.011846697,-0.042835906,0.1220546,0.048356354,0.65056825,0.57024634,0.750166,0.27917612,0.07922119,0.20874748,0.062771045,0.18564759,0.042829923,0.05211032,0.26351798,0.2651227,0.26069656,0.8153591,0.18131815,-0.0077343993,0.24804989,0.8580991,0.24117824,0.15394062,0.12712874,0.2485426,0.04399539,0.21619764,0.2033552,0.2970904,0.19298145,0.19034111,-0.037119195,-0.038631584
BIO,0.008806763,0.25897908,0.02416575,-0.034016225,0.071893215,0.13534364,0.036955044,0.17140062,0.056858636,0.10047432,0.15825936,0.054604568,0.100806765,0.06449446,0.15521361,0.003742732,0.017385753,0.26279402,0.052299418,0.119649984,0.13050036,0.1551396,0.2295374,0.11245789,-0.059957214,0.20466116,0.012895305,0.004831784,0.0029089022,-0.039432824,0.14490312,-0.016430337,0.10938079,0.07118164,-0.060419083,0.20642054,0.031024458,0.056998063,0.14726682,0.10320611,-0.044407945,0.1902866,0.28334457,0.29813385,0.32697025,-0.020420749,-0.014849672,0.28799617,0.08733587,0.14124991,0.07846816,0.060863223,0.15402547,0.065038234,0.10569575,0.14049017,0.010961406,0.49952742,0.065184966,0.1536919,0.34518898,0.155605,0.066360444,0.1132431,-0.01540859,0.09929746,-0.017629988,-0.06500689,0.07497193,0.048993915,0.036399633,0.010988191,0.46313712,0.2542396,0.059720512,0.15141062,0.0580727,0.084031135,0.004584547,0.0193143,0.23413971,0.0015671253,0.14350055,0.0972979,0.14233422,-0.007334605,0.24583688,0.5282259,0.22326747,0.15527233,0.046270378,0.23881568,0.032201715,0.17058603,0.2016313,0.23558983,0.19338323,0.12050602,-0.040394947,-0.041055746
BK,0.0075867474,0.08880815,-0.029401768,-0.034855165,0.07158557,0.13708486,0.032031026,0.17172198,0.05264629,0.10146639,-0.018397585,0.053342726,0.10011592,0.07034647,0.14829078,0.0012709685,0.015667714,0.26385117,0.05214515,0.11663298,0.294498,0.1505599,0.2316405,0.26208973,-0.058443666,0.19611019,0.08091772,0.0066825803,-0.0035214797,-0.042794317,0.15298106,-0.018137539,0.1062,0.06787789,-0.091425814,0.20358358,0.026321996,0.05788486,0.14835894,0.06446371,0.0021851584,0.1467084,0.034843367,0.047028083,0.30849582,-0.0060032587,-0.0138738565,0.27538207,0.07358126,0.0065481067,0.077181846,0.059590794,0.23356387,0.06690856,0.098435365,0.1338957,0.010499589,0.068939075,0.06489519,0.1476683,0.0940588,-0.008698378,0.067519754,0.10748485,-0.027497226,0.10440228,-0.01994472,-0.064624704,0.077992015,0.04828836,0.124278925,0.10303553,0.11366208,0.24214341,0.05984491,0.1535514,0.05904406,0.025972132,-0.034674734,0.018949427,0.2249296,0.05447477,0.016809214,0.13761385,0.1155044,-0.0066217706,0.24362563,0.11261291,0.21265131,0.15216652,-0.007930911,0.23605704,0.028614076,0.1393056,0.19594017,0.23192328,0.19306156,-0.0011174046,-0.03779605,-0.043165974
BKNG,0.0063456073,0.113897875,-0.019119494,-0.034596726,0.072604395,0.13763015,0.039190326,0.17325413,0.04869206,0.10475099,-0.0040853117,0.053452697,0.101594,0.0695854,0.1475553,0.0024033599,0.017103892,0.26382628,0.053237673,0.11531918,0.3615038,0.15579788,0.2303101,0.33550325,-0.05744107,0.20095026,0.12189097,0.004721568,0.004241773,-0.03753064,0.14960006,-0.018032143,0.107918605,0.07682893,-0.08624856,0.20021674,0.027850322,0.056737702,0.1484279,0.077632256,0.026035193,0.164437,0.06705713,0.075450055,0.29611552,0.0058454927,-0.008551412,0.27553037,0.07536654,0.02446296,0.07845989,0.061527874,0.28031304,0.06560694,0.110420994,0.13064124,0.008280568,0.11038397,0.06590427,0.14484297,0.130496,0.009138595,0.07000649,0.11321269,-0.0269269,0.11163464,-0.017925631,-0.063867226,0.08207713,0.049382135,0.169626,0.1445697,0.15269998,0.24155545,0.0607861,0.15375617,0.059211947,0.02712278,-0.039032474,0.01680971,0.22158715,0.0715929,0.024057731,0.20281483,0.12044437,-0.0073407777,0.24294184,0.16049378,0.20500481,0.1542176,-0.0039045075,0.23762903,0.03102465,0.14947984,0.19715285,0.2386766,0.19446844,0.012189681,-0.04137162,-0.041281037
BKR,0.00848392,0.082037896,-0.03705694,-0.032832842,0.07608023,0.13745847,0.036280945,0.1757425,0.0523398,0.10288181,-0.017512318,0.057527505,0.105111256,0.07219499,0.1515333,0.0045486987,0.015055889,0.26482132,0.0544337,0.1162042,0.2406789,0.15036751,0.22714856,0.21202147,-0.057296168,0.19900866,0.056509897,0.009718904,-0.007290855,-0.038796425,0.14504984,-0.01729882,0.10906868,0.06926641,-0.08039242,0.20146532,0.02668859,0.0549382,0.15234685,0.056258358,-0.013193488,0.15129504,0.012740251,0.037254177,0.3062482,-0.0047696363,-0.0057625994,0.27933532,0.0762514,-0.0072432235,0.08028171,0.0578285,0.22233273,0.06475976,0.10909252,0.13363373,0.014038084,0.051545914,0.06807654,0.14695054,0.07597973,-0.015766624,0.07078731,0.11781798,-0.024018414,0.11680445,-0.018132843,-0.064792946,0.07891624,0.04589625,0.09294036,0.057586774,0.08108433,0.24032155,0.06371111,0.15214108,0.060060475,0.021783844,-0.023629924,0.01904478,0.21921244,0.029223718,0.0008498356,0.20497246,0.11529277,-0.010591481,0.24761078,0.08143823,0.21368574,0.15559548,-0.019050743,0.23921426,0.03132622,0.14171195,0.19663367,0.24194793,0.19321388,0.0025761705,-0.03628981,-0.036502764
BLK,0.0040131584,0.058834083,-0.047118448,-0.034675132,0.07274011,0.13612317,0.035367727,0.1745912,0.048841547,0.10179836,-0.040704668,0.05353927,0.10022078,0.07506939,0.14985229,0.0014005788,0.0155989155,0.2639787,0.051641382,0.11648357,0.12346032,0.1449023,0.22830221,0.13866791,-0.05856024,0.19582443,0.040673196,0.0067857215,-0.005291946,-0.03763917,0.15054259,-0.01734005,0.1062212,0.06989939,-0.09239431,0.20022097,0.025287865,0.05626911,0.14755385,0.04687533,-0.05999242,0.13661751,-0.020545833,0.027618185,0.29961047,-0.034008276,-0.013991172,0.2691061,0.07204958,-0.023291625,0.07816383,0.06107182,0.10100315,0.0655423,0.09722136,0.13144657,0.00988929,0.063601956,0.06533403,0.14419742,0.038998988,-0.025707334,0.07100816,0.10850035,-0.031563897,0.10285208,-0.018575832,-0.0668678,0.074925095,0.047665738,0.057668176,0.036155075,0.05937672,0.2354624,0.063626595,0.15084818,0.060338467,0.0013938546,-0.03383451,0.019700669,0.21673253,0.029524274,-0.01889161,0.20516793,0.10560365,-0.007901728,0.24330553,0.05362327,0.20866229,0.15418926,-0.032154545,0.23528741,0.030149313,0.12570633,0.1947653,0.2270264,0.19356482,0.008583892,-0.037841503,-0.040859472
BMY,0.004626587,0.07618277,-0.036701735,-0.03516517,0.072658926,0.13481945,0.03604632,0.18209994,0.04832269,0.10137156,-0.018559858,0.05054174,0.10539451,0.07411769,0.15006122,-0.00076952204,0.015182704,0.26446688,0.053635564,0.112656176,0.4603325,0.14662395,0.22809635,0.45874926,-0.052446373,0.1892972,0.19895037,0.0051485905,-0.00033816881,-0.037805323,0.15287142,-0.016937973,0.10674412,0.08278359,-0.09272939,0.20102057,0.02711012,0.056507185,0.14673671,0.05842424,0.038201574,0.1464501,0.015918635,0.05744904,0.29170367,0.020516269,-0.013905068,0.2751003,0.07196173,-0.0017308444,0.0827567,0.06176664,0.30549645,0.06673327,0.100100875,0.13133125,0.009374712,0.075643755,0.06874331,0.14474228,0.07799584,0.004528217,0.07310787,0.10911493,-0.031024627,0.12803042,-0.020677816,-0.06713088,0.077804446,0.048192173,0.24827874,0.2100319,0.08909266,0.23966172,0.07461939,0.15160094,0.065514356,0.020413011,-0.038640853,0.017768495,0.21066591,0.12647745,0.002989512,0.40335554,0.11793203,-0.007124074,0.24468744,0.084838256,0.20418712,0.15146318,-0.014271313,0.23533598,0.034627583,0.13982315,0.19905923,0.2398862,0.19275047,-0.001831647,-0.036990784,-0.042522084
BR,0.010030463,0.12484051,-0.03472168,-0.034950506,0.071502045,0.13589007,0.03288454,0.17937042,0.052354164,0.10134256,0.06405901,0.05437398,0.100373596,0.072071016,0.14766829,0.0014679283,0.015232097,0.26085103,0.051422164,0.115602955,0.23732397,0.14507712,0.22703296,0.26212662,-0.046103343,0.19527996,0.10579532,0.006151291,-0.0046662297,-0.040073037,0.15258324,-0.016903441,0.11236203,0.07230399,-0.08925429,0.20243643,0.025972206,0.055080954,0.15034743,0.107000396,-0.022320572,0.13634789,0.10502717,0.18290633,0.30252478,-0.021208718,-0.014537318,0.2716612,0.07135631,0.061024636,0.08237529,0.060626566,0.1468194,0.0657773,0.102897264,0.13378012,0.008393768,0.28462178,0.06571543,0.14349109,0.17626461,0.06914385,0.06639702,0.106198974,-0.0043146536,0.10054718,-0.020208683,-0.06866739,0.075044215,0.048102528,0.12539767,0.099153355,0.21062674,0.23647721,0.065919526,0.14951651,0.056887385,0.082635015,-0.036230765,0.02017245,0.21337011,0.06295263,0.03798553,0.29360119,0.10522694,-0.007903498,0.24367449,0.26771817,0.20771849,0.15547056,-0.01731519,0.2357832,0.036852594,0.12588139,0.19466028,0.23162352,0.19357048,0.037028007,-0.044246927,-0.040060043
BRO,0.005531855,0.07419601,-0.043502375,-0.035418853,0.07233131,0.13589491,0.0320668,0.17131373,0.0481067,0.09832944,-0.06406504,0.051942818,0.098759994,0.06561817,0.14657938,0.0011740178,0.016896658,0.26331112,0.052203223,0.114387065,0.088218406,0.14337076,0.22975129,0.04813916,-0.060744435,0.19010268,-0.028843448,0.0054993234,-0.0046163015,-0.04169365,0.14949276,-0.016877249,0.104501426,0.0692428,-0.093220495,0.20006122,0.024848504,0.05645111,0.1483286,0.02102679,-0.05442126,0.13683003,0.0033449195,-0.0036489535,0.29440466,-0.027437601,-0.015707532,0.26977646,0.07256934,-0.012793772,0.076493904,0.06102897,0.12254485,0.06608597,0.10026732,0.12937415,0.007727273,-0.002926603,0.064032786,0.14409544,0.054922566,-0.034475107,0.06439158,0.10966262,-0.036288112,0.09447145,-0.019399574,-0.06923682,0.074504256,0.047869086,-0.0052424273,-0.017089672,0.059315123,0.23584495,0.059289686,0.15281901,0.056608755,-0.015901584,-0.035970002,0.018854897,0.21250552,-0.0034419373,-0.009185374,0.08382751,0.10676544,-0.007360615,0.24420252,0.058485024,0.20578578,0.1526899,-0.02396639,0.23492381,0.028484985,0.12510437,0.19484726,0.22851132,0.1918562,-0.019183554,-0.041589994,-0.041552193
BSX,0.0056751445,0.09348798,-0.03396958,-0.035248153,0.074348964,0.13532126,0.043972217,0.18391809,0.053804435,0.10175816,0.018818494,0.054209054,0.100055456,0.077064626,0.14927287,0.0050388128,0.016366003,0.27061698,0.050593704,0.11511679,0.15874715,0.1434852,0.22890183,0.1424715,-0.056982443,0.19800393,0.030330764,0.0070126676,-0.0033186004,-0.03882982,0.15324871,-0.01807003,0.109370105,0.07495151,-0.09422531,0.20352067,0.026187003,0.05677722,0.1514255,0.07965476,-0.03422176,0.1351668,0.02819727,0.09533727,0.31543872,-0.014532576,-0.012937408,0.2717473,0.07375169,0.027994815,0.07840568,0.059617158,0.17567849,0.06611765,0.10476327,0.13470079,0.010641877,0.14975558,0.06707059,0.14485759,0.099451035,0.026561555,0.07473467,0.1094349,-0.018531833,0.1163979,-0.017513517,-0.06794761,0.07428015,0.04906512,0.053158242,0.031046323,0.10904148,0.23671724,0.06333032,0.15139379,0.063814476,0.050500352,-0.0249799,0.018434022,0.2308195,0.019161172,0.0018998422,0.18196718,0.11276677,-0.0074733347,0.24732077,0.14768718,0.22175485,0.1527425,-0.014049947,0.23843426,0.032215416,0.1263566,0.19571367,0.22907582,0.19518892,0.011711288,-0.041164618,-0.042195607
BWA,0.010165967,0.11109485,-0.027295426,-0.034436148,0.07357631,0.13682748,0.04152064,0.1800936,0.049396064,0.10318938,-0.033975076,0.054847453,0.10281731,0.07738793,0.14911725,0.003033314,0.017437326,0.27000105,0.054441623,0.11574881,0.12753923,0.15284026,0.22875838,0.14582795,-0.05582159,0.19435847,0.044242054,0.007823814,-0.0033610668,-0.039148483,0.15350363,-0.01659679,0.10988889,0.07113853,-0.08657343,0.2044916,0.026191168,0.05553,0.14745905,0.041040972,-0.042510077,0.15126126,0.056377977,0.054679565,0.29651433,-0.022710074,-0.010445012,0.28070053,0.07366583,0.012988877,0.08183491,0.059983544,0.1439125,0.065784186,0.10438611,0.13339132,0.011701234,0.08526178,0.06811886,0.15178354,0.108195744,0.0070991814,0.07484007,0.11021215,-0.02513627,0.118694305,-0.018055566,-0.06453061,0.07609455,0.045823563,0.0607998,0.037778713,0.13141455,0.2424069,0.0620786,0.1486777,0.0631871,0.015338358,-0.026244402,0.0197649,0.21492985,0.036838993,0.019313958,0.20778969,0.123477265,-0.0062462203,0.24468659,0.1429415,0.20768622,0.1550016,-0.0064562876,0.23688799,0.03210278,0.1506253,0.19403721,0.23329906,0.19147174,0.0016167182,-0.038615767,-0.03846332
BXP,0.008195832,0.07643,-0.041446567,-0.03351913,0.07199387,0.1350264,0.04268238,0.17089568,0.049580257,0.10008583,-0.063562,0.05189479,0.10168872,0.064091854,0.14626315,0.001357954,0.013587872,0.26119208,0.05016303,0.11417194,0.004111687,0.1425645,0.22635223,0.0048632957,-0.062169358,0.18948796,-0.020851836,0.0040489207,-0.005036067,-0.038155217,0.15002185,-0.018503392,0.10422647,0.071556546,-0.098935135,0.19808888,0.023888865,0.05530231,0.14802375,0.024146788,-0.08237428,0.13589036,0.005298145,-0.0027095713,0.2937084,-0.041628763,-0.015949907,0.26943332,0.07175949,-0.011321366,0.07553993,0.062250435,0.06914187,0.06630085,0.09585726,0.12903042,0.008314392,0.0021555014,0.06709547,0.14238572,0.058122464,-0.031763617,0.0645244,0.10638788,-0.033585735,0.09867132,-0.020484308,-0.067976676,0.0723428,0.04917779,-0.017078133,-0.032092664,0.064001866,0.23528218,0.058432594,0.14901301,0.058447666,-0.006092962,-0.04378805,0.016531713,0.21149552,0.0005694479,-0.0058324635,0.10329484,0.10501169,-0.0094756745,0.2432361,0.06298794,0.20493154,0.15258436,-0.02494809,0.23502092,0.028832223,0.12349464,0.19592978,0.2208867,0.19111438,-0.016164508,-0.040418606,-0.040776435
C,0.005837273,0.06389055,-0.037561122,-0.03488473,0.07246958,0.13648194,0.034576416,0.17182869,0.049292605,0.1035824,-0.041570112,0.054124165,0.09987891,0.0699098,0.14971617,-1.3336539e-06,0.0147524085,0.2647654,0.054024883,0.115645304,0.12526914,0.1482915,0.2299214,0.089356996,-0.057215527,0.19111383,0.009043818,0.0052014296,-0.006851563,-0.036972195,0.15205769,-0.019213254,0.1061643,0.07336031,-0.09487859,0.2002438,0.026180109,0.058215607,0.14902154,0.037272632,-0.04243808,0.14315516,0.0066313893,0.023478873,0.3024447,-0.018902313,-0.0119396895,0.27155972,0.073542476,-0.0107329,0.07981181,0.059633285,0.14490715,0.06642601,0.10119136,0.13157013,0.0101810675,0.05847361,0.06581576,0.14562657,0.066251546,-0.023630518,0.06616323,0.11113572,-0.03146877,0.10435785,-0.019330561,-0.067582205,0.07555097,0.047335684,0.018712884,-0.005583085,0.08587192,0.23816356,0.059123065,0.15026899,0.059700117,0.003106933,-0.0332468,0.019862276,0.21827695,0.0069336668,-0.0017029792,0.12942262,0.11054851,-0.0077309944,0.24494082,0.08758168,0.20941623,0.15522835,-0.020044237,0.23657835,0.028100329,0.13446888,0.19575171,0.23418415,0.19185276,0.006735144,-0.037604854,-0.04229623
CAG,0.014729466,0.26000604,0.011884816,-0.02985489,0.074902296,0.14253083,0.042900465,0.1804972,0.05096744,0.100826025,0.11656922,0.05186134,0.10621336,0.08871759,0.1502817,-0.00180538,0.016869735,0.26465344,0.05260084,0.1168192,0.5048399,0.1560933,0.23056893,0.5578338,-0.051309194,0.19319282,0.27362877,0.0068874923,0.0064168693,-0.031422257,0.15252581,-0.012872917,0.10744272,0.085706495,-0.04755947,0.2019355,0.03451745,0.055956118,0.15550737,0.0667551,0.06406112,0.16362704,0.2486228,0.26932773,0.296736,0.017249344,0.0035091527,0.2749397,0.07936375,0.116730765,0.08783753,0.06356469,0.31290832,0.06682652,0.10809055,0.13066249,0.016126445,0.42834553,0.068839155,0.14811207,0.31100297,0.1162987,0.07324325,0.116229534,-0.006562028,0.14729066,-0.0215923,-0.061081856,0.0796833,0.046222687,0.30680197,0.25179347,0.4082876,0.24118756,0.07150423,0.15346351,0.06191451,0.083160095,0.0069315284,0.023722533,0.21561672,0.1378159,0.12017572,0.53111684,0.14532638,-0.008022375,0.24436587,0.45728564,0.20635006,0.15470967,0.06424989,0.2382376,0.03423128,0.16803694,0.19459622,0.23992158,0.19047217,0.08205379,-0.033170212,-0.042754143
CAH,0.00739716,0.08936085,-0.03392665,-0.03447129,0.084007725,0.13713238,0.078224145,0.19346641,0.05036633,0.10002074,-0.017242983,0.052914027,0.11195414,0.114448875,0.15158412,0.009317495,0.018655377,0.2849397,0.054472327,0.115227945,0.6908429,0.14924788,0.22758599,0.7767009,-0.058022685,0.19042432,0.3919745,0.008401611,0.02669989,-0.034724627,0.15908614,-0.015786787,0.11110471,0.0728582,-0.094639756,0.20138173,0.026545113,0.05371061,0.14785513,0.054794416,0.12833922,0.14623795,0.04961043,0.06696258,0.3033652,0.0641907,0.031043733,0.27168474,0.07456741,0.006133653,0.07959248,0.05985343,0.4354387,0.06387911,0.10556635,0.14338215,0.0115443785,0.111086585,0.070784174,0.14611308,0.104204446,-0.0019647405,0.10522653,0.11411044,-0.03304865,0.20576939,-0.020206736,-0.06568082,0.07529509,0.047309197,0.4479924,0.35296047,0.14118326,0.24051036,0.06401027,0.15342721,0.093674585,0.008357946,-0.037047155,0.01886287,0.22954628,0.1783008,0.017716479,0.7015322,0.110390484,-0.008803107,0.244641,0.15378726,0.21215695,0.1559645,-0.023509067,0.23866,0.0366296,0.13604072,0.19727503,0.2363087,0.19257215,0.020319223,-0.022141673,-0.038336072
CAT,0.008439764,0.0870353,-0.034415223,-0.034017626,0.073730305,0.13581063,0.03988085,0.17525749,0.05101291,0.10213742,-0.026484713,0.05389998,0.10085263,0.07457468,0.14756534,0.0034000874,0.016603794,0.26384148,0.051009502,0.1144754,0.25723514,0.14745623,0.22759414,0.22136708,-0.05578793,0.19231649,0.06318797,0.010329184,-0.0074423905,-0.037793137,0.15204115,-0.017013652,0.108219974,0.072098725,-0.094069175,0.20164788,0.0250362,0.05555624,0.15043893,0.040209718,-0.0034918897,0.14219227,0.017961673,0.052717216,0.29859623,-0.018268842,-0.010959183,0.2750318,0.07286531,-0.00092463195,0.07967025,0.05961202,0.20756604,0.065142244,0.10630971,0.12963721,0.011014657,0.10717366,0.06561364,0.14711654,0.073452845,-0.010623239,0.07105558,0.107539624,-0.026869094,0.11897271,-0.016308742,-0.065744214,0.07586105,0.046325512,0.10693835,0.085381,0.09405899,0.23847991,0.06493373,0.14864606,0.062582284,0.009541847,-0.03380702,0.019602053,0.21749094,0.04469111,0.0013261773,0.22392043,0.113427155,-0.007829424,0.24363202,0.09348418,0.20921582,0.156872,-0.016698357,0.23535322,0.03158288,0.1351648,0.19652313,0.23249048,0.19338202,0.0205795,-0.03269002,-0.03864891
CB,0.0042407922,0.06448474,-0.044688832,-0.034514256,0.07145096,0.13488582,0.033810988,0.17309833,0.047062322,0.10088598,-0.06302782,0.05191475,0.098850936,0.06494024,0.14788994,0.00037135184,0.017688636,0.2651679,0.050891735,0.11638239,0.064798124,0.14497489,0.22726917,0.039947487,-0.060243048,0.18950827,0.002013445,0.0060385587,-0.0022864528,-0.03928937,0.14958318,-0.0160348,0.10405161,0.07091105,-0.09470663,0.19904605,0.024556618,0.05460165,0.14636323,0.023040667,-0.059740677,0.14109787,-0.0063547045,-0.0035796128,0.29091913,-0.031213474,-0.013520281,0.27247342,0.07303515,-0.019552547,0.07702318,0.06105824,0.11009682,0.0652022,0.098774195,0.1292012,0.009254342,0.013843045,0.06475789,0.14539039,0.045307387,-0.042234976,0.06478786,0.10975163,-0.035054095,0.09930782,-0.018809803,-0.06804307,0.07351585,0.04833985,0.0016736556,-0.026018646,0.046584956,0.23648085,0.059300482,0.15068705,0.057213247,-0.013832074,-0.037239727,0.01907989,0.21179506,0.001092039,-0.012418091,0.1201849,0.10947995,-0.007645849,0.2439015,0.04354639,0.20521837,0.1535385,-0.027109563,0.23588379,0.029059837,0.13223751,0.19409494,0.22909519,0.1905766,-0.0039551854,-0.04132351,-0.039820783
CBOE,0.0056427084,0.080773585,-0.033461314,-0.033666346,0.0724771,0.13372391,0.052320175,0.17305815,0.04891063,0.101533145,-0.045172635,0.0535151,0.099947736,0.06666638,0.14761165,0.0038428158,0.015316249,0.26327392,0.052195277,0.11449033,0.2478587,0.14864703,0.22364704,0.29998225,-0.060113493,0.19422352,0.14412698,0.006896967,-0.00063998066,-0.039934993,0.15259731,-0.015478563,0.10631067,0.07338966,-0.090597935,0.20195486,0.02467233,0.052900355,0.14877966,0.040353294,-0.009062737,0.1464799,0.024760097,0.019708047,0.29619,-0.005736118,0.009882559,0.27342543,0.07361153,0.00027541816,0.07721506,0.062019408,0.14931644,0.06502332,0.10041142,0.13102052,0.011533927,0.045711465,0.06530443,0.14478396,0.08242482,-0.01995821,0.07144018,0.10784273,-0.03299435,0.12828082,-0.018353166,-0.06921995,0.07340897,0.04828076,0.15409575,0.10648163,0.09675324,0.24196838,0.06382761,0.14690652,0.0629434,-0.002972424,-0.036534745,0.01832252,0.2119233,0.047459148,0.0073243566,0.32154942,0.11850841,-0.009832777,0.24377915,0.093520164,0.20485842,0.15190724,-0.012081579,0.23552307,0.029537793,0.13950954,0.19420965,0.22509488,0.19187415,-0.005121723,-0.031851694,-0.037862457
CBRE,0.011748668,0.047269337,-0.04729397,-0.0344543,0.072153606,0.1368977,0.03667456,0.17200956,0.048700795,0.101484895,-0.04318437,0.05209884,0.098991305,0.067801446,0.14713565,-0.0013548173,0.0153221795,0.2629806,0.055638622,0.114798725,0.14236915,0.14716536,0.22860038,0.106511235,-0.059004758,0.19325033,0.014946006,0.0061729327,-0.0055259448,-0.03790651,0.14964302,-0.01897183,0.10723068,0.07197243,-0.0943459,0.20159657,0.023746358,0.056050718,0.15342666,0.038839567,-0.037524324,0.1426171,-0.025879886,0.03138715,0.2926237,-0.018207103,-0.008991301,0.2738828,0.07330294,-0.023277972,0.077688105,0.06020665,0.15657169,0.066552326,0.10414302,0.12967479,0.009245735,0.03730631,0.06585615,0.14439757,0.03250085,-0.026359025,0.06680654,0.112907425,-0.029187638,0.09927562,-0.019050747,-0.068784684,0.07602126,0.04780449,0.030323721,0.0017390624,0.030381577,0.23788807,0.061895408,0.1502948,0.05824581,0.007346172,-0.03944752,0.018337335,0.21261263,0.019213952,-0.019271329,0.13960677,0.106790096,-0.009009067,0.24369375,0.038274422,0.2072753,0.15400329,-0.02872252,0.23806356,0.029574761,0.1295473,0.19574979,0.23445351,0.19275627,-0.0023419783,-0.03913795,-0.040237427
CCI,0.014224611,0.06557259,-0.044429984,-0.033283457,0.07259752,0.13621691,0.03816586,0.17550053,0.048818924,0.09982687,-0.05707887,0.051594034,0.10051982,0.069706626,0.14683275,-0.0016933009,0.016020091,0.26300055,0.053418927,0.11436874,0.05695522,0.1449181,0.22904868,0.029982474,-0.061980613,0.19095027,-0.0036338214,0.005387252,-0.003278356,-0.03976062,0.15082161,-0.017985648,0.105081365,0.07446307,-0.09455458,0.19938642,0.02517813,0.055462312,0.15181106,0.035965655,-0.058829024,0.1418547,-0.0040634163,0.0111880265,0.29325327,-0.02930334,-0.013392497,0.26987654,0.07097686,-0.01530347,0.07713574,0.06166163,0.107315645,0.06661792,0.10221077,0.12846573,0.008521574,0.0015962161,0.06501758,0.14624967,0.04814697,-0.03661011,0.06824485,0.106931284,-0.036159657,0.107966244,-0.022248454,-0.06905033,0.073053814,0.048289917,0.004431394,-0.029192872,0.05233156,0.23671798,0.060023956,0.15022658,0.05958086,-0.010025077,-0.040600035,0.017806426,0.21418038,0.0004807636,-0.00955537,0.1315951,0.10854009,-0.008027047,0.24381483,0.04699392,0.20509319,0.15262324,-0.026877565,0.2355331,0.028416399,0.13270825,0.19404761,0.22704075,0.19289106,-0.008865071,-0.042760953,-0.03978054
CDNS,0.007733252,0.19011313,-0.017962206,-0.034509484,0.07241003,0.1389337,0.033625223,0.1764409,0.055947255,0.10288865,0.13076903,0.05511736,0.10229187,0.07086703,0.14961706,0.00041309,0.022195933,0.26260063,0.053823188,0.11552199,0.14623873,0.14744785,0.23171292,0.12871736,-0.039202444,0.20404214,0.03432405,0.008692859,-0.0019346867,-0.039567918,0.15022315,-0.015718922,0.11327145,0.074399695,-0.07611192,0.20479304,0.02712773,0.055108078,0.15165073,0.15305728,-0.038444925,0.14638072,0.19412285,0.2612861,0.32218152,-0.0134884715,-0.008866362,0.27284434,0.07356799,0.11748411,0.08130181,0.059644178,0.16380025,0.06405904,0.10883899,0.14121874,0.009938186,0.43471986,0.06506597,0.14797856,0.2644521,0.13216946,0.068827875,0.11293353,0.011903418,0.09977851,-0.01956049,-0.069328666,0.07736491,0.045513473,0.052761376,0.025646262,0.33869496,0.23968914,0.06186974,0.15449274,0.059048586,0.13107729,-0.013981102,0.017994381,0.23915905,0.035574444,0.0894255,0.19137873,0.109963454,-0.005501002,0.24378777,0.4124677,0.21741655,0.15424079,0.010463268,0.23632526,0.044739008,0.1326754,0.20163836,0.23117997,0.19628428,0.074311085,-0.037184477,-0.037502583
CDW,0.00516415,0.14189681,-0.0264244,-0.035083055,0.071899086,0.13709745,0.039401963,0.1720863,0.051934585,0.10137577,0.0821802,0.05236037,0.1001805,0.06745516,0.14769065,0.00025312603,0.01812492,0.2605859,0.054757766,0.11709828,0.23234051,0.15152244,0.22912787,0.20122853,-0.051437885,0.19377694,0.056566916,0.0058396547,-0.0044623334,-0.037124865,0.14568776,-0.016503101,0.11384531,0.07480099,-0.0867917,0.20380399,0.027493516,0.05523438,0.15168415,0.11118213,-0.0116491355,0.1497657,0.12504892,0.20150998,0.30447626,-0.00032874383,-0.0064238897,0.27711827,0.07464839,0.08260733,0.078495994,0.06047237,0.21524432,0.065230615,0.11237749,0.13368964,0.010498464,0.32347995,0.065871745,0.14675172,0.19869162,0.08937342,0.06582798,0.11016056,-0.0024354681,0.10570299,-0.018321123,-0.06778207,0.07932166,0.04796599,0.0889415,0.057340108,0.25243422,0.2426382,0.06135671,0.15263069,0.058396634,0.093361005,-0.022830758,0.017714053,0.22045197,0.017749213,0.05048401,0.19258107,0.1216463,-0.007350404,0.24363482,0.30962527,0.21060461,0.1528588,-0.0069149258,0.23829137,0.03708258,0.14459449,0.19612458,0.23725656,0.19497089,0.051854804,-0.037203364,-0.03908901
CE,0.0032580271,0.09351885,-0.030850261,-0.03371349,0.07463739,0.13523468,0.034040943,0.17287666,0.051245622,0.10176034,-0.010013271,0.052081518,0.100027844,0.06801046,0.14683199,0.0020886213,0.015562464,0.2636499,0.052998766,0.11489159,0.15309155,0.14569703,0.22761324,0.12197055,-0.059059367,0.19594583,0.030446056,0.0058025215,-0.00020982139,-0.037009384,0.1520009,-0.01746141,0.10659373,0.07162079,-0.090340085,0.20227286,0.026043504,0.056458585,0.14575979,0.03694895,-0.032197423,0.14117454,0.053696327,0.0607995,0.29816705,-0.018135924,-0.015109293,0.27225435,0.07482712,0.014197178,0.0801186,0.061000608,0.17099452,0.06528522,0.10597374,0.13138363,0.010218723,0.11914043,0.064834155,0.14790936,0.10790743,0.002306424,0.06812381,0.11069392,-0.028751532,0.10670989,-0.018947043,-0.0666951,0.07454848,0.048570253,0.04697855,0.02144982,0.14706743,0.23853776,0.063726224,0.14999512,0.058221765,0.008533485,-0.034412555,0.021907426,0.21879265,0.029068932,0.022499558,0.18861514,0.11377667,-0.0076454356,0.24313128,0.15835258,0.20793386,0.15517093,-0.021458728,0.23746285,0.034894936,0.13793007,0.20064327,0.23773819,0.19324748,0.019406617,-0.0399978,-0.041809164
CF,0.012827992,0.1352522,-0.026705258,-0.035657614,0.07680067,0.13458443,0.03516738,0.17555285,0.051799588,0.1072456,0.07100482,0.058304377,0.10264818,0.07559295,0.15227053,0.0024673268,0.013627996,0.26395544,0.054456748,0.11552911,0.18436345,0.1534223,0.22597145,0.20765595,-0.04938215,0.19914524,0.07695728,0.00587063,-2.1649525e-05,-0.038479663,0.15696539,-0.01674708,0.109315105,0.075098574,-0.08821331,0.20211928,0.027542181,0.05713823,0.15116379,0.1110148,-0.03467683,0.15444374,0.11338558,0.18536513,0.30039567,-0.028144024,-0.0090838,0.28120458,0.076315686,0.075930625,0.08193304,0.06083843,0.11831086,0.06602501,0.10072014,0.13631468,0.012705665,0.3090574,0.06640545,0.1457588,0.18912446,0.08194907,0.07283628,0.11318437,-0.00025281496,0.11079291,-0.022084374,-0.06595267,0.07515068,0.04741537,0.09866804,0.06891745,0.24106261,0.24133092,0.07052602,0.14700268,0.06121999,0.091804385,-0.018318929,0.020725835,0.22910932,0.04588099,0.051543623,0.25649324,0.116172306,-0.0070587546,0.24502212,0.29928547,0.20749088,0.15595227,-0.009532987,0.23805843,0.03509921,0.14628091,0.19775279,0.23056734,0.1952779,0.047354784,-0.040038466,-0.041399393
CFG,0.008280441,0.09984678,-0.030146156,-0.034521032,0.074418746,0.1363095,0.042231116,0.1775849,0.048873413,0.103444085,-0.030090239,0.052300863,0.10193876,0.07571156,0.15034886,0.0035362765,0.01484066,0.2666682,0.053182498,0.1183644,0.08873307,0.15343508,0.2290348,0.10126377,-0.056347746,0.19837314,0.034174927,0.005844865,-0.0057920776,-0.038253397,0.15141757,-0.018345727,0.107183754,0.07071348,-0.08999791,0.20317426,0.025812542,0.05747743,0.1489884,0.057427317,-0.047034822,0.15833035,0.047090754,0.045426093,0.2975248,-0.026639955,-0.011594159,0.28264746,0.076273605,0.016732804,0.07847662,0.059371293,0.124328576,0.06631684,0.10315688,0.13208058,0.010890191,0.085519925,0.06708419,0.14683849,0.1088018,-0.0015757382,0.070766516,0.11269428,-0.031400047,0.111442104,-0.018110657,-0.06647211,0.074500374,0.048130795,0.04003258,0.002516739,0.13250917,0.24167064,0.06027803,0.15060176,0.06068623,0.0036843605,-0.031023681,0.02017168,0.21739599,0.017915033,0.020614509,0.16635041,0.119046025,-0.0078896545,0.24424562,0.13613975,0.20735125,0.15656824,-0.0075393375,0.23742822,0.03243221,0.1461216,0.19451189,0.23135804,0.19321904,0.012854366,-0.03634889,-0.041909
CHD,0.0070766434,0.09373222,-0.048082065,-0.034217633,0.07361431,0.13636734,0.0359061,0.18107218,0.048964627,0.10111396,0.035318755,0.05066091,0.10419175,0.07320991,0.14934264,0.0010069087,0.017986575,0.26879305,0.050742444,0.114620395,0.20087086,0.14590013,0.22750594,0.18311493,-0.05078362,0.19151661,0.054716703,0.008478913,0.0012122001,-0.03710532,0.15137376,-0.01578202,0.10560153,0.070870005,-0.0932518,0.19968902,0.024194023,0.053373735,0.148259,0.08163466,-0.02171062,0.13239509,0.05875416,0.12849247,0.3011461,-0.009853799,-0.008125864,0.26952168,0.07127856,0.04240983,0.07961641,0.061289527,0.20054491,0.06473854,0.11118689,0.13210422,0.0080382675,0.2140159,0.06671815,0.14229834,0.13262533,0.046884,0.07174603,0.109273925,-0.0095701385,0.12056695,-0.021595545,-0.06883344,0.07474382,0.046783447,0.0789074,0.05235838,0.16126996,0.23507456,0.06258382,0.15265751,0.062553845,0.058928914,-0.030111678,0.017958004,0.21678935,0.029529847,0.023314327,0.17996936,0.10459324,-0.008869961,0.24508287,0.20560858,0.2067231,0.1532278,-0.030108549,0.23660731,0.03602147,0.12242828,0.19660689,0.22931482,0.19145145,0.020874258,-0.042457104,-0.037955485
CHRW,0.0052702725,0.06469358,-0.03886804,-0.034629345,0.07495374,0.1358307,0.045623153,0.18302092,0.050514262,0.10073896,-0.051849183,0.053174425,0.103665024,0.08427654,0.14758745,0.00029046088,0.035175353,0.27362677,0.05360467,0.11450437,0.5226574,0.1502445,0.22728638,0.5376441,-0.058593098,0.1905623,0.25364098,0.0068179206,0.030439494,-0.03840559,0.15476424,-0.011626033,0.105362244,0.07092946,-0.09101119,0.20078458,0.025102528,0.056322478,0.15086308,0.031219674,0.07556369,0.14739007,0.0013513193,0.0048373714,0.29857448,0.04821104,0.017361684,0.27602834,0.0735158,-0.011017643,0.07624145,0.059804104,0.41224793,0.067672126,0.13563836,0.13267125,0.009959307,0.021125246,0.06502096,0.14619608,0.061186,-0.03316466,0.080630384,0.107753664,-0.033904403,0.13526063,-0.01892585,-0.061589748,0.089130074,0.047499515,0.29107052,0.24119651,0.06505163,0.23790774,0.058592595,0.1499851,0.068187915,0.00079521164,-0.038254377,0.02358139,0.21707389,0.10127914,-0.004161127,0.3384997,0.11462355,-0.008603837,0.2440905,0.056843564,0.20775793,0.15578341,-0.020337995,0.2359977,0.03010725,0.13525799,0.19577244,0.25207263,0.19155623,-0.0039841346,-0.039759383,-0.042911585
CHTR,0.009752698,0.21267399,0.011862457,-0.034102917,0.0754346,0.13475734,0.053459026,0.1929572,0.051561505,0.101681426,0.10851905,0.052368052,0.104204945,0.08899518,0.15303366,0.0046501756,0.016746763,0.2771532,0.04995447,0.12101926,0.29618785,0.144481,0.22853605,0.3506838,-0.057504673,0.19472516,0.15999189,0.0063898773,-0.0023900792,-0.03695392,0.14925724,-0.016968276,0.10922106,0.076872274,-0.073501974,0.200745,0.031272415,0.055603858,0.14481027,0.048773684,0.0064055994,0.16946977,0.21758805,0.2311145,0.30066183,0.003823243,-0.0046167197,0.26761413,0.08120397,0.10623429,0.07939403,0.0616272,0.16687852,0.06642608,0.097894415,0.13651839,0.010919714,0.38938496,0.070333846,0.14415424,0.27628615,0.11254993,0.08344847,0.11289714,-0.0260082,0.15051769,-0.019501038,-0.06598222,0.07476382,0.048971705,0.19047251,0.12929094,0.3769316,0.23586896,0.06351434,0.15249692,0.07149947,0.052240595,-0.002432786,0.01881076,0.22025824,0.07576917,0.10884274,0.37085268,0.13655682,-0.0075162686,0.244183,0.4240155,0.21136755,0.15190674,0.031092783,0.2350867,0.030973021,0.15608157,0.1980888,0.22012466,0.19367822,0.09678466,-0.037022755,-0.04157631
CI,0.012737155,0.15136564,-0.0058899075,-0.03414892,0.07359322,0.13502195,0.052188694,0.17028746,0.05074547,0.100158505,0.02646448,0.054569274,0.09869269,0.07628281,0.1485519,0.00321896,0.016328223,0.26583588,0.05520095,0.11793738,0.2906949,0.1637406,0.22940068,0.34375593,-0.056191005,0.19272736,0.1678636,0.0050988467,-0.0026972033,-0.036425088,0.1473183,-0.01650685,0.10650824,0.074197054,-0.07919109,0.20510286,0.028234517,0.05605323,0.15490451,0.026789712,0.0044660307,0.17121607,0.121451296,0.119000405,0.29584512,-0.0064527933,0.009288179,0.28637162,0.08005142,0.05801311,0.079935476,0.05973703,0.18704484,0.06706269,0.10542156,0.1286599,0.0114510525,0.2071839,0.0658451,0.1503566,0.18282077,0.044212982,0.07987967,0.11451848,-0.030791372,0.14923915,-0.019410178,-0.06550929,0.07533759,0.04894229,0.18922019,0.12392948,0.23075446,0.24923268,0.063957416,0.14959845,0.06966582,0.00025117025,-0.019548459,0.017893188,0.21459644,0.061505012,0.05993521,0.36975923,0.1338954,-0.005914215,0.24389403,0.2495588,0.20947775,0.15421547,0.019770455,0.23763837,0.028507218,0.1614841,0.19590999,0.23175997,0.19275205,0.037687354,-0.02544061,-0.040920038
