,0,1,2,3,4,5,6,7,8,9,10,11,12,13,14,15,16,17,18,19,20,21,22,23,24,25,26,27,28,29,30,31,32,33,34,35,36,37,38,39,40,41,42,43,44,45,46,47,48,49,50,51,52,53,54,55,56,57,58,59,60,61,62,63,64,65,66,67,68,69,70,71,72,73,74,75,76,77,78,79,80,81,82,83,84,85,86,87,88,89,90,91,92,93,94,95,96,97,98,99
A,0.087576464,0.09294216,0.12906684,-0.04100877,-0.013817064,0.12127643,-0.0019920245,0.12373157,0.0077718236,0.19036281,0.0848864,0.15814212,0.00080885645,-0.0025950074,0.10298182,0.095737495,0.054106314,0.061710354,0.09251089,-0.036121316,0.2733193,0.29209095,0.057693955,0.058563042,-0.057013843,0.25639185,0.2400877,0.088204086,0.044485033,0.054141864,0.144579,0.14348921,-0.0010020249,0.12820652,0.029005878,0.10546285,0.029285181,0.11941334,-0.07946348,-0.06105251,0.014790166,0.11759631,0.08175492,0.036320932,0.07579757,0.0870104,0.10041444,0.22023888,0.095812865,0.08355074,0.17092757,0.05160567,0.121027686,-0.05352571,0.04124713,0.13715328,0.12251,0.1673117,-0.02074989,-0.05203824,0.018686678,-0.046324655,0.028749853,0.031432793,0.025212739,0.12874983,0.11123701,0.035493582,0.10133328,-0.053450473,0.33530924,0.0048971036,0.06282532,0.031822607,0.09190315,-0.028715998,0.076350525,-0.04816598,0.028294496,0.045292716,0.0065229014,-0.061967768,-0.043626226,0.115389615,0.0057471097,0.07345114,-0.029604614,-0.019161362,-0.093902625,0.009413004,0.07735721,0.021664808,0.08782544,0.0067751,0.13327156,0.13303113,-0.008600911,0.026318602,0.10535523,0.06047289
AAL,0.09056556,0.09715943,0.1173979,-0.038216926,-0.009102769,0.09229225,-0.0077545717,0.122252494,0.020054922,0.17115647,0.07675403,0.115579836,0.0012139026,0.0015390813,0.07902267,0.08661686,0.037800383,0.043598752,0.08766502,-0.03983445,0.19424547,0.21475713,0.049080618,0.066463016,-0.05536184,0.18240821,0.23564962,0.091563106,0.04172469,0.07370637,0.13399543,0.15265548,-0.0046015354,0.11219902,0.015236229,0.10790185,0.026691243,0.07237597,-0.07936798,-0.06220541,0.0032698698,0.073365144,0.05985455,0.025584497,0.08009278,0.070290096,0.14450884,0.16612834,0.098802224,0.07255064,0.17159827,0.05593005,0.12099859,-0.043698728,0.045791708,0.1486767,0.11523628,0.17016444,-0.011770529,-0.050669793,0.02868412,-0.048976757,0.035881784,0.022515487,0.027056895,0.12625088,0.112326816,0.028422061,0.10539636,-0.04017572,0.32604218,0.0039347764,0.06343512,0.033171877,0.09551425,-0.029045874,0.06544721,-0.048788376,0.024602816,0.043381978,0.007870108,-0.053057678,-0.03792478,0.118174106,-0.006556958,0.07131716,-0.032724053,-0.016789109,-0.093860894,0.008046001,0.07154275,0.019885242,0.08631985,0.013092693,0.19960484,0.12957923,0.001688242,0.024188261,0.09684507,0.11620545
AAP,0.090823464,0.09417958,0.070183516,-0.043119,-0.0070630535,0.086776294,0.025580294,0.11811292,0.04086419,0.17056988,0.05466833,0.0737063,0.007970939,-0.0029680356,0.06895841,0.021578731,0.028291805,0.021654967,0.082809106,-0.04215312,0.15979917,0.15975404,0.04856606,0.05849103,-0.050033793,0.13798614,0.24101715,0.088638574,0.06847228,0.115938045,0.12882972,0.14634871,-0.008266445,0.11310251,0.0063978285,0.10369484,0.028363671,0.026265088,-0.08237927,-0.06024389,-0.0051675737,0.051587198,0.04365007,0.013846487,0.0752857,0.051897444,0.17526394,0.09485202,0.09443666,0.057368383,0.17533755,0.053687755,0.12024145,-0.056590594,0.039190218,0.15839255,0.11958411,0.16991593,-0.034277435,-0.055646878,0.054615118,-0.04814682,0.051365435,0.024242483,0.0262306,0.12758358,0.11169232,-0.023269042,0.09992217,-0.050010614,0.31972253,0.018049773,0.062164724,0.025352266,0.09451118,-0.03933165,0.02715047,-0.04859339,0.020554125,0.04234833,0.014840141,-0.050011043,-0.032419257,0.11525477,-0.012928009,0.07234542,-0.02813577,-0.01993781,-0.097631484,0.0075852014,0.0638697,0.0076086875,0.08953892,0.013191663,0.21751429,0.1262456,0.030760475,0.028093558,0.105566464,0.13572459
AAPL,0.089838654,0.091686964,0.124508165,-0.04253845,-0.009432957,0.08304988,-0.011105485,0.11798738,-0.0057614706,0.1625227,0.058573954,0.14855368,-0.00016522594,-0.0034305975,0.062246166,0.08923571,0.03177563,0.06567937,0.08383346,-0.045405224,0.23343816,0.24587166,0.040045142,0.058332667,-0.054494377,0.21783395,0.23644587,0.0876443,0.045655407,0.030099077,0.1258857,0.14664957,-0.0072258376,0.114213705,-0.007750213,0.10281648,0.029255293,0.09843021,-0.08632325,-0.059272543,-0.016389005,0.088595696,0.07135029,0.030911636,0.076250456,0.07622734,0.082358554,0.19915962,0.095124155,0.057418782,0.16873004,0.05424086,0.12058282,-0.04653894,0.04300165,0.13207288,0.1165708,0.1662945,-0.016351782,-0.052193873,0.0019064434,-0.052258495,0.020773567,0.02762296,0.026046626,0.12870891,0.11164124,0.031222012,0.101766005,-0.048881434,0.3202639,0.003817819,0.06381163,0.026702339,0.093407914,-0.037448376,0.08161667,-0.0477691,0.021284133,0.04112484,0.006040156,-0.07062362,-0.04006289,0.11598618,-0.0005988106,0.071237564,-0.033315018,-0.019842671,-0.09932826,0.008980103,0.06352067,0.014857493,0.08403401,0.009567641,0.1461897,0.12508667,-0.011195643,0.025353279,0.095309295,0.07661536
ABBV,0.08885406,0.09587969,0.2107476,-0.042824477,-0.010916367,0.10477813,0.04540731,0.13169175,0.08246586,0.19808318,0.077905506,0.27269977,0.005736951,5.8487058e-05,0.11733803,0.16594878,0.11386539,0.11574482,0.094792075,-0.02425404,0.4601032,0.4836141,0.0659678,0.061647594,-0.054001056,0.43919134,0.2404451,0.09476647,0.08392969,0.15925585,0.1440767,0.15640436,-0.0093876645,0.09823915,0.06359455,0.10602104,0.029145285,0.23409414,-0.07356483,-0.06155467,0.055399284,0.23316601,0.16040654,0.08114366,0.083880104,0.14932828,0.21957812,0.40026844,0.09513245,0.09146505,0.17528144,0.058236796,0.122269765,-0.057609234,0.04092945,0.22442225,0.11275923,0.16821083,-0.009729593,-0.05404313,0.10434232,-0.044739097,0.08882639,0.060139094,0.027296413,0.1279854,0.11295811,0.102423914,0.1009773,-0.05218397,0.31911632,0.047214974,0.06406676,0.03369975,0.09934482,-0.015646812,0.15820187,-0.04704306,0.037786603,0.04192679,0.018981688,-0.04732883,-0.035201438,0.11402949,0.04616563,0.07348049,-0.01806771,-0.017739804,-0.105822906,0.008865535,0.07909389,0.036010694,0.10089154,0.007290978,0.3169805,0.13060606,0.0646238,0.027024664,0.09282613,0.23129195
ABC,0.08803745,0.097757086,0.078227855,-0.038074806,-0.013609163,0.09228693,0.008108541,0.117437035,0.031670783,0.18213147,0.06689313,0.07644869,0.0005478766,-0.002636671,0.08461701,0.0487624,-0.00017588586,0.019338168,0.08927635,-0.037010442,0.12120892,0.15404366,0.0502967,0.057490047,-0.054221638,0.11658605,0.24080187,0.08744914,0.05495273,0.073542446,0.13953252,0.15155672,-0.0083152475,0.11697702,0.0058607385,0.105662175,0.02755107,0.028992742,-0.08113158,-0.059303597,-0.018026115,0.028875262,0.030618874,-0.00033816323,0.07515518,0.031257436,0.10369368,0.08399065,0.09495805,0.065052465,0.17069411,0.054042514,0.119212925,-0.054408874,0.040838346,0.12013841,0.11683637,0.1662412,-0.023813302,-0.05198195,0.049517162,-0.05066252,0.05600156,0.009264175,0.02450208,0.12718819,0.11208775,0.00064495206,0.100710034,-0.055131808,0.3242767,0.01900667,0.062022813,0.02482408,0.09378048,-0.038667396,0.03234336,-0.047614403,0.019676417,0.044732615,0.005798653,-0.06786272,-0.041115627,0.11711289,-0.023259182,0.072235756,-0.035491876,-0.021181297,-0.09867296,0.0070961043,0.06999856,0.01770703,0.08672446,0.00932765,0.16088608,0.12506232,0.006542608,0.027011875,0.10218711,0.10191896
ABMD,0.10187405,0.11774398,0.37769005,-0.026096225,-0.00823313,0.2596761,0.028251767,0.15286034,0.09212854,0.18367282,0.10791229,0.5204579,0.00905294,0.009421341,0.14188865,0.33202925,0.24663186,0.21474731,0.08631808,-0.024190217,0.85523385,0.912465,0.06161069,0.07092439,-0.04777244,0.81576174,0.23605995,0.11105954,0.09731738,0.15500972,0.14359933,0.19327518,0.016226456,0.193927,0.09892283,0.10639416,0.02608985,0.49028158,-0.055773452,-0.055437677,0.1307736,0.480472,0.35391137,0.1774013,0.12218695,0.29537195,0.28560835,0.7554316,0.09678956,0.10310842,0.17467737,0.06527825,0.12215944,-0.022367347,0.047416374,0.3390128,0.14293937,0.16985089,0.058147926,-0.04615376,0.103466794,-0.028018177,0.082836926,0.12604919,0.025204122,0.13110527,0.11424826,0.2238703,0.102004245,-0.02318126,0.32218954,0.034775183,0.0878658,0.06895393,0.10469733,-0.0041893926,0.28925195,-0.04286794,0.056176618,0.05508347,0.021653265,0.0025918353,-0.028057609,0.12682208,0.12694296,0.07079692,0.027244449,-0.005971115,-0.06808907,0.027644727,0.065401666,0.0677482,0.08976266,0.017455913,0.4196064,0.15386193,0.08379557,0.03135501,0.13310248,0.29061782
ABT,0.088940725,0.09352244,0.042267982,-0.04416468,-0.01578243,0.052960284,-0.023089975,0.11605527,-0.019143127,0.16227946,0.054812547,0.027773732,-0.0017089918,-0.0025091842,0.05886281,0.008130796,-0.019859064,0.013622489,0.08007808,-0.046476964,0.05143839,0.070187345,0.03817358,0.057051785,-0.057733245,0.040714987,0.2374789,0.08640597,0.02256446,0.013299597,0.12774141,0.1426386,-0.0108261565,0.095913075,-0.005310327,0.10644869,0.029898837,-0.022325397,-0.08978891,-0.06071748,-0.028718129,-0.01680283,0.004300669,-0.006888069,0.073286176,0.013298601,0.05866106,0.016160212,0.0947949,0.053714793,0.16840868,0.052501477,0.11940453,-0.054463197,0.04164742,0.07872887,0.111565754,0.16525397,-0.04058546,-0.054308034,-0.008573633,-0.053516857,0.022096492,-0.0002085939,0.024922062,0.1268772,0.10927625,-0.027565405,0.10163754,-0.050960124,0.32170522,-0.006207455,0.06003516,0.02239149,0.09191132,-0.04557766,0.005673498,-0.048391078,0.016436912,0.03968606,0.0028496012,-0.07931148,-0.04105154,0.11488501,-0.038882796,0.071557745,-0.031466004,-0.02057268,-0.1019457,0.009573739,0.06386331,0.010245858,0.0870786,0.0064178556,0.09547749,0.124931276,-0.032211225,0.023474667,0.091994315,0.03540229
ACN,0.08750947,0.09136013,0.07783683,-0.044141106,-0.01477813,0.055336602,-0.0126507655,0.11555018,-0.011079457,0.17566493,0.05423752,0.078585945,0.0009513721,-0.004653603,0.0811557,0.052287295,-0.015870107,0.015494067,0.08427901,-0.03647181,0.1269265,0.14928228,0.050868183,0.050442044,-0.054879896,0.11908831,0.23601964,0.08533434,0.056454744,0.0121867545,0.12888397,0.14419931,-0.01058249,0.09607103,0.019651294,0.10292416,0.029969197,0.021164775,-0.09019931,-0.05837939,-0.03503855,0.03315515,0.031637933,-0.00976963,0.073816426,0.0135845095,0.030332636,0.08724381,0.09550298,0.069320455,0.17297885,0.05665668,0.120835826,-0.05577802,0.040630303,0.09540905,0.11005204,0.16840138,-0.029272076,-0.055079617,0.0047454834,-0.055804584,0.01834761,-0.00040613115,0.02431972,0.124442644,0.10997343,0.0028493702,0.10090464,-0.056672256,0.321304,0.010061406,0.060264874,0.021716502,0.09250971,-0.03289657,0.03297082,-0.04871497,0.017596751,0.03871669,0.0118934065,-0.082464516,-0.038005963,0.11480693,-0.039239,0.07417698,-0.030738862,-0.02170428,-0.10961484,0.009438481,0.06933157,0.012708301,0.088093445,0.004751887,0.08881786,0.12530491,-0.025061885,0.027341142,0.08922567,0.028034486
ADI,0.08982724,0.09184007,0.06307623,-0.044300094,-0.013890095,0.074370116,-0.008365154,0.1187916,-0.008217651,0.16829321,0.055471368,0.057420384,0.0058933105,-0.002729319,0.06723577,0.026477024,0.0046190917,0.025277596,0.08395877,-0.045546696,0.09183718,0.09955321,0.043000504,0.055502906,-0.056005523,0.08352521,0.23525107,0.08940169,0.049872905,0.023961818,0.12892455,0.14590192,-0.006113439,0.109395005,-0.011883415,0.10315607,0.030982293,0.010387283,-0.08160947,-0.060938448,-0.021884626,0.0046027116,0.00948659,0.0021096468,0.07647786,0.030231819,0.06219411,0.064437225,0.09559358,0.05798582,0.16928568,0.052850425,0.1220758,-0.0491492,0.03911043,0.123500355,0.11546322,0.1658518,-0.017311458,-0.05325425,0.013734035,-0.053020168,0.026744857,0.011251718,0.026770674,0.12715888,0.1124534,-0.016801558,0.10217401,-0.049503427,0.32302994,0.011906819,0.06230656,0.023437578,0.0923929,-0.0412085,0.022511259,-0.048267424,0.019394323,0.042753577,0.0073915645,-0.07268714,-0.04130038,0.11575912,-0.027771216,0.07297422,-0.032350566,-0.01904511,-0.10099929,0.010482889,0.06378412,0.013121672,0.084369585,0.009364821,0.13639215,0.12559181,-0.014565641,0.027472764,0.095543325,0.06527752
ADM,0.08835227,0.09271143,0.038677603,-0.041545868,-0.015615217,0.060753267,-0.03139116,0.11798014,-0.017010842,0.15375145,0.042799365,0.033954673,-0.00091186445,-0.0020210743,0.044639334,-0.011785304,0.0049134158,0.009232957,0.078530036,-0.04628015,0.085112795,0.08950003,0.03747756,0.053938754,-0.058678105,0.06874564,0.23688154,0.08758811,0.03164605,-0.004945507,0.11899468,0.14707935,-0.010928196,0.09836008,-0.020754192,0.100825705,0.030327685,-0.016310383,-0.08659512,-0.059074372,-0.020150019,0.0030042846,0.0022124723,0.0017385781,0.07424113,0.03486123,0.044904687,0.03428799,0.09507623,0.047216676,0.16770792,0.051640715,0.11798877,-0.05195442,0.041806944,0.10714168,0.10928955,0.16508365,-0.025529034,-0.05436383,-0.009414978,-0.051877305,0.020189757,0.010199014,0.024120487,0.12548703,0.110523,-0.035245568,0.103567466,-0.05287943,0.31262642,-0.0065473514,0.061069854,0.025236279,0.09313831,-0.04863841,0.007832166,-0.04928369,0.019349582,0.04097945,0.0038875192,-0.075900644,-0.03627082,0.11607997,-0.029561885,0.071943045,-0.03425167,-0.021367881,-0.10763769,0.01061571,0.06378846,0.0035843588,0.08888163,0.0034595802,0.10726756,0.12625451,-0.027135229,0.026353355,0.08954652,0.04633659
ADP,0.08850777,0.09403291,0.06071102,-0.041920424,-0.013534501,0.058253758,-0.020959273,0.117643826,-0.020581875,0.16138653,0.057096902,0.039364565,-0.0011626547,-0.0035476834,0.05704876,0.021656469,-0.019950276,0.011558145,0.07952416,-0.04498721,0.06818962,0.07793748,0.04097129,0.053676166,-0.058505185,0.060858794,0.23741236,0.08700419,0.039048683,-0.002799082,0.12757924,0.14244658,-0.011262143,0.10218763,-0.005107634,0.10376977,0.030077968,-0.015864491,-0.09202527,-0.058925495,-0.030072717,-0.0052976236,0.0042029247,-0.009461332,0.07583605,0.0032068454,0.021526352,0.0397263,0.09445129,0.05482375,0.16869986,0.054614007,0.120345026,-0.059559036,0.040341087,0.06775257,0.1136312,0.16597794,-0.040761407,-0.05414207,-0.008110877,-0.056601293,0.013468128,0.0013104156,0.026279662,0.124268875,0.10986098,-0.016933799,0.10098299,-0.05504561,0.32137448,0.0042735115,0.059981048,0.022545595,0.09248139,-0.040113263,0.013487186,-0.048269536,0.015873007,0.04137788,0.005568236,-0.08868605,-0.03893596,0.11549963,-0.036287,0.073401555,-0.032592878,-0.021511514,-0.10610915,0.008479148,0.06218777,0.010698564,0.087318525,0.006005645,0.041561816,0.12414031,-0.042880464,0.026567478,0.09303543,-0.008789919
ADSK,0.09652095,0.09484739,0.0921571,-0.04054282,0.0020245016,0.12614676,0.060863845,0.11915283,0.10655126,0.16795456,0.07487623,0.07113427,0.010116221,-0.0010731667,0.06769143,0.054303408,0.019703176,0.021922952,0.08623317,-0.039432433,0.13093291,0.14703995,0.043601237,0.064321466,-0.047274143,0.115113266,0.23787321,0.098016754,0.10818395,0.21261892,0.13025507,0.14706516,-0.006808916,0.12253218,-0.0016947165,0.10530203,0.029628713,0.024253286,-0.074165106,-0.056199737,-0.015481334,0.03497477,0.031065106,0.014160309,0.076031476,0.05021652,0.31180885,0.0961044,0.0967853,0.07144953,0.17114465,0.05973204,0.12274079,-0.045639258,0.044980593,0.2788694,0.120505415,0.1685473,0.000739967,-0.051590115,0.12278924,-0.046931013,0.096103564,0.015495207,0.02653785,0.12653509,0.112304896,-0.0013966784,0.10146153,-0.032332405,0.3235397,0.057335522,0.062421624,0.027753629,0.09508468,-0.034121227,0.038805537,-0.04793696,0.020927444,0.045579806,0.027742475,-0.013560846,-0.03616415,0.11562085,-0.019147974,0.07277768,-0.031755388,-0.014534053,-0.09552767,0.010449912,0.068565495,0.02468002,0.08654018,0.01073882,0.3944928,0.13158928,0.09359324,0.02342334,0.10357238,0.27662557
AEE,0.08775438,0.091839634,0.054962937,-0.04212196,-0.017743953,0.03866861,-0.023798145,0.1148702,-0.014289368,0.15945122,0.05779393,0.024313327,-0.0012595477,-0.00075918436,0.049615756,0.016847199,-0.030539429,0.00803804,0.07971198,-0.044683643,0.059268218,0.064939365,0.03916566,0.04984238,-0.05865506,0.049604353,0.23854834,0.08469018,0.025904875,-0.009032322,0.12229556,0.13901183,-0.012623511,0.0868998,-0.011883438,0.10152688,0.030348841,-0.031144977,-0.093271285,-0.062303066,-0.039325908,-0.005425431,0.0034430288,-0.015822275,0.0726632,0.0027707964,0.0013479292,0.04101138,0.09349043,0.053602263,0.16734052,0.049979616,0.118091755,-0.062471636,0.04209646,0.03906155,0.106654696,0.16405961,-0.047473803,-0.055442285,-0.0019953027,-0.05480716,0.026488652,-0.0076021887,0.023500152,0.12415483,0.10914552,-0.028883256,0.10229415,-0.065273926,0.31194913,-0.0016515534,0.059313837,0.021471202,0.09164177,-0.046423472,0.021173574,-0.048482407,0.011437051,0.03928357,0.0029668584,-0.09762126,-0.040709015,0.11452272,-0.039767455,0.07318014,-0.030686306,-0.019565575,-0.11171937,0.008766331,0.0646172,0.005003728,0.08762357,0.0039609782,0.030079348,0.123881325,-0.04149807,0.030017663,0.08650304,-0.004269153
AEP,0.08829482,0.09197676,0.030425891,-0.040441915,-0.018686935,0.037054308,-0.035249107,0.113991916,-0.045853727,0.15455206,0.049296502,-0.007660399,-0.002306817,-0.00066713244,0.0452046,-0.012450576,-0.027143408,-0.0063512996,0.0788412,-0.047627326,0.0021522772,0.011706248,0.03711628,0.047341675,-0.05933476,-0.010442123,0.23735061,0.0842255,0.027501985,-0.050446052,0.1199263,0.13974588,-0.012661736,0.08742523,-0.025825232,0.10170588,0.030002981,-0.06253353,-0.09279196,-0.061612293,-0.039327808,-0.04240304,-0.0246734,-0.024303937,0.07168813,-0.010342129,-0.043024708,-0.020175997,0.09354297,0.04630068,0.16693453,0.051461827,0.11706788,-0.061304633,0.03901898,0.03395197,0.10660096,0.16411966,-0.05058731,-0.05621634,-0.037757948,-0.05494302,0.0038907882,-0.002465371,0.023659587,0.122721255,0.10892679,-0.042770527,0.1018442,-0.06496053,0.31173474,-0.008841669,0.059306234,0.021521479,0.09275057,-0.045676928,-0.004189577,-0.048842013,0.012556709,0.04064597,0.0031588897,-0.09754759,-0.041319393,0.115572,-0.04904813,0.07403429,-0.03224162,-0.021617804,-0.11249502,0.00895467,0.062066123,0.005892029,0.08455568,0.002537448,-0.0070219617,0.12151803,-0.06753476,0.029291924,0.08584511,-0.047724
AES,0.09263026,0.09558051,0.0778994,-0.044148795,-0.013258658,0.05858331,-0.0018935949,0.11599175,0.00872805,0.17330535,0.062495183,0.059458688,0.0030176295,-0.0012297854,0.07277997,0.039938204,-0.01578654,0.0173295,0.08337659,-0.04201669,0.10599032,0.122994974,0.046562515,0.054104935,-0.056813017,0.096650206,0.23785594,0.08851846,0.056200486,0.038759496,0.13228723,0.14466009,-0.010547774,0.10103023,-0.005970612,0.10438113,0.030891787,0.006350931,-0.0906245,-0.06182666,-0.031762663,0.01978825,0.024764154,-0.0060278215,0.076154,0.017939944,0.057993803,0.07734874,0.09381954,0.05938945,0.16920494,0.053616866,0.11884284,-0.059758596,0.03909243,0.083856344,0.11046371,0.16475457,-0.046507977,-0.055090357,0.02370017,-0.054532997,0.04650498,0.00041278824,0.025171,0.12507288,0.11004591,-0.011697128,0.103357926,-0.06063091,0.32442734,0.01462261,0.06243575,0.023072742,0.091369644,-0.038836382,0.028991833,-0.048475925,0.019134305,0.040625732,0.010090999,-0.07870166,-0.0397239,0.11338585,-0.031278186,0.07337165,-0.029527826,-0.020317126,-0.106734045,0.010858063,0.06884201,0.011102347,0.08727048,0.005478617,0.110704824,0.1252742,-0.010803338,0.030980874,0.09449241,0.06056489
AFL,0.08866267,0.09353127,0.0738983,-0.042247854,-0.011413805,0.03133876,-0.009713843,0.117608674,-0.008006822,0.15387867,0.045191236,0.07020128,-0.003300514,0.004198894,0.048534054,0.04282506,0.0038847998,0.004670998,0.07723213,-0.047994126,0.13451889,0.14681968,0.036768954,0.0483181,-0.05883449,0.118180506,0.23651353,0.085541256,0.03606978,0.026458118,0.11988061,0.1468372,-0.011467409,0.08431141,0.0049701333,0.100211896,0.029725775,0.0051287413,-0.09112522,-0.05890035,-0.020580241,0.028984591,0.031862386,-3.8746744e-05,0.074381076,0.033518843,0.062689334,0.08387671,0.09257611,0.04718095,0.16673231,0.049498867,0.117535144,-0.06598371,0.04015199,0.06604173,0.1084711,0.16444388,-0.056403533,-0.052855786,-0.000992693,-0.053291053,0.016179854,0.008661047,0.024502177,0.1248791,0.11018947,-0.014953382,0.10156606,-0.06256797,0.3128433,-0.002249523,0.059900574,0.025446277,0.09221433,-0.04787537,0.014601249,-0.049423285,0.019540012,0.040835444,0.0074722543,-0.07818204,-0.038556535,0.11567632,-0.028152127,0.07252935,-0.032856174,-0.021362124,-0.11152426,0.009565018,0.06313254,0.027422115,0.087280035,0.0038728267,0.08090128,0.12320165,-0.027578317,0.026640993,0.08619444,0.021830663
AIG,0.09018049,0.09328447,0.09134911,-0.038954236,-0.011984453,0.08140163,-0.023533836,0.11942966,-0.0081004985,0.16690795,0.06054686,0.10618914,-0.000105066225,-0.003495656,0.06918285,0.042509954,0.034797546,0.041660856,0.08477152,-0.046834253,0.19694696,0.2077603,0.04725621,0.058933377,-0.05871983,0.18096939,0.23517454,0.088720374,0.027414294,0.016468938,0.12905733,0.14579152,-0.0072865514,0.11585894,-0.007910736,0.10229405,0.029194176,0.061502557,-0.08538187,-0.061892778,-0.00092592835,0.07338643,0.0453958,0.020557158,0.07423399,0.059986614,0.07092317,0.14909418,0.09744698,0.06054502,0.16862786,0.052493993,0.11821785,-0.048877664,0.039109826,0.1332485,0.11758303,0.1656955,-0.017717034,-0.05437966,0.004498545,-0.051376037,0.016573474,0.018482503,0.024446975,0.12425325,0.11173821,0.0048418157,0.103105195,-0.048001252,0.32127863,-0.0059323926,0.061964452,0.023193449,0.09190862,-0.044089526,0.054736152,-0.049580246,0.021541782,0.042785745,0.0031738132,-0.068827346,-0.039291937,0.11656617,-0.008150674,0.07368581,-0.035980143,-0.02262955,-0.100759454,0.011761457,0.06715961,0.006553855,0.086519346,0.01088953,0.13889053,0.12712234,-0.012973808,0.025110006,0.09758925,0.072907664
AIZ,0.08879611,0.09227267,0.033057984,-0.04249315,-0.012453899,0.12903097,-0.014104806,0.11475176,0.011473957,0.1615546,0.046888158,0.00212471,0.0010325089,-0.00064434856,0.05621932,-0.0065589948,-0.020861182,-0.006195456,0.08002005,-0.0473708,0.018483952,0.034071386,0.03990952,0.06937579,-0.05380146,0.009445399,0.23735964,0.08680338,0.045389704,0.021133006,0.12457486,0.14548516,-0.0019055838,0.13791613,-0.012235247,0.10287512,0.029608753,-0.058617286,-0.076349795,-0.061031982,-0.033301752,-0.03666432,-0.011771191,-0.015830953,0.07415922,0.008677945,0.09058222,-0.020584408,0.093888134,0.052068524,0.16905552,0.054636393,0.11970037,-0.04765145,0.041782297,0.1661414,0.12880553,0.16544475,-0.010141472,-0.054905344,0.008501623,-0.036162667,0.026249355,-0.0022219792,0.02542961,0.12905836,0.11428466,-0.039971948,0.10173073,-0.053420603,0.31805706,0.0018114801,0.06082923,0.024678927,0.09285705,-0.043994103,-0.009840187,-0.049478434,0.015942939,0.048673876,0.007909343,-0.056260146,-0.040426254,0.11493195,-0.043454915,0.0728925,-0.03222852,-0.020986447,-0.08464815,0.009645581,0.06553902,0.008713534,0.08758434,0.01945328,0.17959087,0.12580004,-0.0012629386,0.026119914,0.10973221,0.09539449
AJG,0.088304296,0.091530226,0.017484482,-0.04258001,-0.017785259,0.045549452,-0.003022246,0.11455999,0.010943688,0.15669408,0.045641094,-0.004758619,6.7139044e-05,-0.003910646,0.049908943,-0.02040502,-0.012839559,-0.009295948,0.07958695,-0.046550997,0.026091984,0.024239294,0.039131407,0.04871577,-0.059204794,0.009421942,0.23497088,0.08517158,0.03900093,0.03177135,0.122655354,0.14499812,-0.009329235,0.092031546,-0.017642152,0.10191718,0.03009693,-0.05842772,-0.09112619,-0.058957115,-0.035127215,-0.034128226,-0.024128044,-0.0115883015,0.07306765,0.014035098,0.049265273,-0.027354632,0.09276028,0.048450645,0.16693155,0.05070916,0.11819817,-0.0636002,0.041959733,0.0809241,0.1099259,0.16468133,-0.04967773,-0.05512206,0.024413586,-0.053120054,0.040877733,0.0010994375,0.023728289,0.12377281,0.10924401,-0.050604194,0.10138315,-0.05943928,0.3175745,0.0140705425,0.060767565,0.021579783,0.09297848,-0.04989757,-0.014192976,-0.04920589,0.018179648,0.04152585,0.0056384057,-0.09131233,-0.03800843,0.11488985,-0.041085016,0.07254714,-0.032517496,-0.02101318,-0.11010823,0.009078346,0.064250425,0.004035974,0.09233108,0.0050685443,0.09424223,0.12379384,-0.018434182,0.026194166,0.08791254,0.05273383
AKAM,0.10123951,0.09417999,0.057473633,-0.033301204,0.0047440752,0.15726975,0.07296837,0.1189407,0.12811467,0.16636746,0.05773452,0.042850547,0.003396187,-0.0022253245,0.066108756,0.018877633,0.0069242455,0.01245432,0.083968386,-0.04535573,0.098624766,0.10231942,0.042822137,0.066525176,-0.051429503,0.081934884,0.23469457,0.0989813,0.11399358,0.25167745,0.1302462,0.14809822,-0.0071122856,0.11402623,-0.0074696243,0.102957904,0.028892424,-0.006459765,-0.07228186,-0.060156874,-0.020963617,0.010643721,0.00693484,0.005278647,0.07660526,0.03762979,0.36962068,0.041241784,0.09545393,0.05867308,0.17068937,0.06247115,0.12002911,-0.03542137,0.042823434,0.32746902,0.11716293,0.16547412,0.0191936,-0.05525462,0.14866945,-0.0436071,0.11050801,0.0133062415,0.024835352,0.12707107,0.1107061,-0.024238177,0.10110234,-0.02135942,0.3283804,0.060806148,0.063122526,0.02281021,0.09338677,-0.041150697,0.012098234,-0.047967605,0.02105087,0.041221257,0.029940955,0.00078362226,-0.030368894,0.11474258,-0.026250795,0.0723567,-0.032371264,-0.01524351,-0.08653566,0.00840706,0.069175035,0.008049639,0.088949054,0.008712847,0.45819294,0.12682848,0.11824368,0.026692618,0.0998006,0.33497128
ALB,0.09251523,0.09569984,0.12077866,-0.03873182,-0.009950183,0.1595568,-0.012985773,0.119845435,0.030208465,0.1878146,0.070187174,0.13940977,0.0022338098,0.0025412887,0.09010713,0.09748894,0.04223029,0.03689301,0.09279859,-0.03021335,0.22062011,0.25754085,0.05286983,0.07365957,-0.05485403,0.21197772,0.24111502,0.09660089,0.03857891,0.04795838,0.13977271,0.15470263,0.0005659107,0.1574642,0.038633354,0.10611838,0.0269605,0.090042725,-0.078130364,-0.0628156,0.0019734595,0.0918998,0.07822424,0.018207029,0.08032785,0.06230297,0.12983227,0.17702785,0.09720981,0.085523486,0.16895266,0.05430608,0.120918274,-0.042899568,0.039221197,0.20081702,0.13289076,0.16795364,0.003745608,-0.051022977,0.021277014,-0.039456267,0.03955642,0.025717232,0.029000066,0.13116913,0.11807184,0.038749035,0.10171338,-0.045485083,0.32853228,0.00053872354,0.06605446,0.026556674,0.09365309,-0.023240775,0.064928405,-0.043524683,0.019051328,0.049671203,0.009673409,-0.047629856,-0.040665187,0.12150528,-0.00653103,0.07098423,-0.028688388,-0.020648375,-0.08075687,0.0070299134,0.07871531,0.021403117,0.08347817,0.017024942,0.2311119,0.13083239,0.011425449,0.026655983,0.11401118,0.13842465
ALGN,0.10357608,0.10354934,0.38835427,-0.019208468,-0.008962251,0.2705563,0.021755531,0.1505278,0.10241055,0.19590192,0.13074505,0.532128,0.0043542525,0.010311559,0.1567835,0.3416105,0.24886145,0.21642494,0.09570487,-0.013650828,0.8745479,0.9362744,0.0732061,0.06790079,-0.05322308,0.8394732,0.24059594,0.109380975,0.05255665,0.16226447,0.15115657,0.19279727,0.020472985,0.20178354,0.10322887,0.10876241,0.026744183,0.4999563,-0.057459727,-0.056481965,0.13386276,0.49512964,0.36645615,0.18120979,0.11580306,0.3047794,0.29342538,0.7726734,0.096698955,0.12037155,0.1745604,0.057616986,0.124246284,-0.017989721,0.050246596,0.35267642,0.14457946,0.17114878,0.0628873,-0.044657987,0.11010297,-0.023795353,0.09292004,0.12686984,0.027505707,0.13608842,0.1180314,0.23220235,0.10077588,-0.025256358,0.3388463,0.026344486,0.086051516,0.07162165,0.108077645,0.0024012104,0.29468378,-0.04381729,0.057267725,0.058733996,0.0113572255,0.00388645,-0.0204661,0.12839368,0.13666768,0.07121804,0.026451502,-0.0014374098,-0.06616119,0.030010838,0.07444942,0.07594833,0.08897321,0.018483639,0.43578094,0.15035838,0.096253976,0.029617682,0.13040274,0.30423978
ALK,0.09228402,0.093131386,0.076533765,-0.04379341,-0.010130309,0.06486606,0.010980554,0.11609912,0.033709135,0.17462027,0.05825067,0.06527265,0.0010375148,0.00043195486,0.0757512,0.0429866,-0.015176943,0.016392784,0.083129905,-0.042365342,0.11306242,0.14280576,0.048440143,0.060794428,-0.05261652,0.10651117,0.24085146,0.09575735,0.061244093,0.09190552,0.13287349,0.14156994,-0.009651955,0.1020603,0.011801101,0.10604062,0.03021596,0.014502615,-0.08811865,-0.06545477,-0.038438637,0.026009664,0.02795662,-0.005210642,0.072382405,0.01974842,0.14918278,0.070493445,0.09604052,0.06512577,0.17321903,0.0577556,0.120807715,-0.060454886,0.042001083,0.1388061,0.11431184,0.16745844,-0.037556127,-0.053803187,0.042533275,-0.052283764,0.045032017,0.00062829256,0.028109893,0.12568805,0.11022824,-0.008891948,0.10269127,-0.053026997,0.32168186,0.016426355,0.061485343,0.023269098,0.093377404,-0.031304985,0.026521247,-0.0496162,0.01592666,0.0401965,0.0131954625,-0.05607726,-0.040883645,0.115328066,-0.03402667,0.0721866,-0.032535393,-0.019383077,-0.10441876,0.009725288,0.06797728,0.018281661,0.09025051,0.0111472495,0.1907344,0.13024195,0.01906597,0.030943349,0.094724596,0.111322425
ALL,0.08827153,0.093195885,0.07685541,-0.04187432,-0.016332902,0.0965669,-0.03392919,0.11558714,-0.012709308,0.16924745,0.0530577,0.06645903,-0.0035267835,-0.0009752363,0.07269857,0.042231135,-0.021606902,0.008247221,0.08403349,-0.04722716,0.11883425,0.14797255,0.041721962,0.05617159,-0.05939377,0.11182569,0.23787272,0.08703849,0.020101657,-0.020324465,0.1295484,0.14167279,-0.007605709,0.12138574,0.013102889,0.10123858,0.029207435,0.007139936,-0.08639803,-0.06273166,-0.04120206,0.024689194,0.037624504,-0.007866211,0.07409309,0.014467727,0.03855472,0.07641819,0.093095094,0.05493257,0.16745786,0.05011879,0.121080935,-0.050070047,0.040254228,0.11846825,0.11901453,0.16478087,-0.026818689,-0.05530813,-0.017606683,-0.04812457,0.009146405,0.00065585226,0.02696127,0.12453609,0.11012397,-0.0059847236,0.101967,-0.055667907,0.3236676,-0.009161073,0.0610862,0.022290822,0.09323121,-0.039894395,0.01751839,-0.04824887,0.014956623,0.0468066,0.003540866,-0.070765726,-0.042620778,0.11521279,-0.03765881,0.07249367,-0.032925844,-0.02057894,-0.094661616,0.008922983,0.066534966,0.019639596,0.08643961,0.010356486,0.10542174,0.12695044,-0.029781763,0.025965322,0.100229025,0.03979194
ALLE,0.08798535,0.09324261,0.053589538,-0.043150596,-0.016144954,0.15697144,-0.015184291,0.117312394,0.03083415,0.16899428,0.05952806,0.03239248,0.006110686,-0.0036977232,0.071220785,0.020986557,-0.021965504,0.0055191536,0.08662772,-0.042285495,0.05856607,0.08304661,0.04554429,0.05802148,-0.05835935,0.052247774,0.23282872,0.08668293,0.02989724,0.05039894,0.1337318,0.14131895,-0.0009242669,0.14576359,-0.0069066733,0.10223724,0.029585928,-0.013735998,-0.076961674,-0.060763106,-0.034638174,-0.010604311,0.0015268717,-0.01646958,0.07264987,0.007080056,0.1312999,0.026829049,0.09495656,0.064209655,0.16830318,0.050037313,0.11967224,-0.042229462,0.042797185,0.21277577,0.12177092,0.16491231,0.0048392313,-0.05388785,0.03255649,-0.043939106,0.045750573,-0.0028099976,0.025700431,0.12481759,0.109883495,-0.023070462,0.100955494,-0.05160774,0.32308662,-0.0027869968,0.061218992,0.023425538,0.09259609,-0.043125615,0.010136925,-0.048281014,0.016201787,0.04982392,0.009192191,-0.03947468,-0.037462503,0.114655815,-0.040838994,0.073010534,-0.031170832,-0.020237697,-0.09205919,0.0080276765,0.069355406,0.0063974205,0.08455382,0.0072777458,0.224864,0.12772122,0.020324444,0.026032578,0.11084464,0.1452524
AMAT,0.09178731,0.09541423,0.10053977,-0.043980293,-0.012319729,0.15504095,-0.00062672794,0.122957036,0.03924732,0.18871737,0.07653636,0.101701304,0.006796933,-0.00070394576,0.09373345,0.07156401,0.0036677644,0.032542974,0.090183064,-0.037256226,0.164828,0.20630983,0.0529041,0.07231377,-0.055091757,0.15906592,0.24056685,0.092983685,0.04747832,0.09343828,0.14234184,0.14594066,0.0023963638,0.14345792,0.014833704,0.10753316,0.0301326,0.062598675,-0.07183909,-0.055958875,-0.019594532,0.05551106,0.05043745,0.006095644,0.081429005,0.03710915,0.16962408,0.13142815,0.0976882,0.078454986,0.17126812,0.05661577,0.12528439,-0.03584025,0.04279706,0.21488315,0.12534964,0.16883735,0.013729357,-0.051760796,0.04950647,-0.037232704,0.046820402,0.00944696,0.026652992,0.12763573,0.11472898,0.013248943,0.102161914,-0.041226197,0.3345352,0.008093722,0.06472696,0.025434721,0.09678997,-0.034234278,0.052963663,-0.04725407,0.020876564,0.049048208,0.008854166,-0.04053726,-0.040858872,0.11507007,-0.014078729,0.07224151,-0.031066164,-0.016679294,-0.08824336,0.008982465,0.07337537,0.021956481,0.08822064,0.02052509,0.2725327,0.12663691,0.03925572,0.028101984,0.11527284,0.17488033
AMCR,0.09365348,0.09313255,0.058598187,-0.042374216,-0.009887062,0.07165384,-1.3589859e-05,0.1189255,0.0050397255,0.17204954,0.059298504,0.042829007,0.0031379443,-0.0026821047,0.07598585,0.027082453,-0.00058550015,0.008716797,0.087166,-0.040697973,0.07403002,0.10043576,0.048064955,0.053146407,-0.05422605,0.06342481,0.23705107,0.08732198,0.063357204,0.040687453,0.13360035,0.14665805,-0.011013784,0.10256087,-0.0032294095,0.10503946,0.031481925,-0.0062162317,-0.083513215,-0.062710494,-0.022586796,-0.001007013,0.006019106,-0.0004150495,0.07710794,0.030438773,0.0676288,0.03713486,0.09673852,0.062278986,0.17459309,0.062135924,0.118636325,-0.04848525,0.037226498,0.12134205,0.110554546,0.16636555,-0.021838184,-0.052973475,0.023245443,-0.05384057,0.030940581,0.008559853,0.024963342,0.12461963,0.111982726,-0.019826144,0.102308445,-0.05218471,0.3251021,0.017745461,0.061274104,0.02418337,0.09535903,-0.044034608,0.018080793,-0.04873174,0.019302905,0.039906885,0.015183896,-0.07406221,-0.03933461,0.11498433,-0.031034302,0.07430811,-0.033370867,-0.02389566,-0.10226703,0.012118246,0.06919189,0.0071475096,0.085774854,0.0059080496,0.12441513,0.124624304,-0.010233732,0.02554831,0.09143917,0.058482103
AMD,0.09692883,0.10752925,0.22720672,-0.0037062988,0.0051043704,0.30061796,0.056453757,0.12669486,0.16520128,0.18986753,0.08692278,0.2811364,0.012799666,0.006163515,0.13101183,0.19441989,0.07640763,0.10566887,0.0876144,-0.021286448,0.44406164,0.49075973,0.053846672,0.10844501,-0.044202216,0.42015073,0.24132156,0.12014878,0.11447055,0.28656775,0.14853394,0.15523246,0.026769249,0.23194608,0.056640014,0.11157126,0.028790798,0.23488674,-0.04863602,-0.05287236,0.012041625,0.22149953,0.17697029,0.066333234,0.081780106,0.12885696,0.43638262,0.39578286,0.10318313,0.11300314,0.1812393,0.06926224,0.12402868,-0.001956258,0.058427706,0.4459479,0.16231556,0.16861746,0.10610308,-0.049043644,0.18370217,-0.015982749,0.12763762,0.04953535,0.031065635,0.13393717,0.13253328,0.111986585,0.09846735,0.010139603,0.3351707,0.049236145,0.069573104,0.035562575,0.09862279,-0.007939465,0.14904842,-0.041384205,0.026969187,0.072805874,0.028896973,0.036580868,-0.011030026,0.1339435,0.030035943,0.0728943,-0.010404702,-0.010988118,-0.044907454,0.0069779977,0.07050815,0.050768208,0.09090316,0.0420685,0.60266125,0.14176494,0.16659176,0.032565385,0.1423845,0.435372
AME,0.09141228,0.09070529,0.04930878,-0.04360965,-0.011203244,0.062363587,-0.00595098,0.114354804,-0.00043809786,0.1654177,0.053968977,0.027409751,-0.0009389566,-0.0031741783,0.061250713,0.011840766,-0.017743556,0.0058579165,0.08385618,-0.0467561,0.053205594,0.062140346,0.03987912,0.05312176,-0.058040764,0.043879114,0.23831995,0.08847712,0.036079302,0.031180574,0.12910873,0.1456138,-0.010833405,0.1017284,-0.01075004,0.1050605,0.030068785,-0.02828426,-0.08871945,-0.059886366,-0.03680994,-0.0132137835,-0.002158681,-0.01591353,0.07311858,0.0022263452,0.068772234,0.023408234,0.09351833,0.05605147,0.16830984,0.05015729,0.11986914,-0.059914913,0.043206222,0.07619093,0.11289111,0.16599265,-0.043920346,-0.054619137,0.0064047202,-0.05368846,0.022057101,-0.0003083907,0.025273222,0.12392866,0.11034326,-0.026204951,0.10295343,-0.057444748,0.32490933,0.00030106585,0.06080722,0.021603685,0.09201176,-0.043978836,0.0050726198,-0.04895769,0.015713036,0.03953927,0.0030867904,-0.07683899,-0.038585577,0.11402232,-0.042302247,0.07300443,-0.03192907,-0.019553032,-0.104503475,0.01021079,0.064261705,0.006729329,0.087083474,0.005234845,0.08880201,0.12568107,-0.020910105,0.02732626,0.09443839,0.031529367
AMGN,0.088727035,0.09097173,0.0678682,-0.039861366,-0.016674519,0.100545175,-0.031649925,0.1171649,-0.011884544,0.16221341,0.051003605,0.055969432,-0.00085591525,-0.002350241,0.06892737,0.032571897,-0.013598954,0.0011319593,0.082058296,-0.042381566,0.10018917,0.12352084,0.041013453,0.06574151,-0.059022497,0.08921194,0.2371105,0.089461595,0.029607821,-0.009628624,0.12319949,0.14442338,-0.004572655,0.11934054,0.008524679,0.10383267,0.029945679,-0.0071432665,-0.0817308,-0.060311273,-0.03609655,0.010416258,0.028262109,-0.011637222,0.07571003,0.008561373,0.046757825,0.05844682,0.093473256,0.05380793,0.1670835,0.05145984,0.11927774,-0.055475328,0.039811768,0.12550065,0.12474423,0.16518554,-0.02578441,-0.054317035,-0.012336291,-0.043428823,0.012372322,-0.00087383017,0.024935696,0.12824453,0.11400028,-0.013199106,0.10290833,-0.055277932,0.31626585,-0.0031454274,0.060600974,0.022290323,0.09339724,-0.042053998,0.010327447,-0.049917705,0.014668532,0.044191174,0.002841808,-0.06925639,-0.04053042,0.11638179,-0.04011348,0.073804796,-0.03457106,-0.022094127,-0.09364009,0.010985754,0.062402226,0.014726916,0.08877563,0.014439017,0.12125762,0.12723239,-0.024604365,0.026460256,0.10617449,0.046924904
AMP,0.08844777,0.09269137,0.08684625,-0.041433655,-0.013805583,0.07820383,-0.019204445,0.11803664,-0.022292498,0.16403186,0.059652317,0.07496737,-0.0009397464,-0.0023100898,0.06334169,0.052054405,-0.0026140548,0.02481908,0.08436368,-0.04250482,0.13069922,0.14582792,0.044092104,0.059462477,-0.05582899,0.11752249,0.23751728,0.092490286,0.035340857,-0.0046996665,0.12937842,0.14564651,-0.008556205,0.110880114,-0.0034800544,0.10387971,0.02953362,0.017873239,-0.08608413,-0.06072226,-0.027243901,0.032475293,0.033310644,0.00018245354,0.07443635,0.02477048,0.038916748,0.09886215,0.0956339,0.061355367,0.17108916,0.051051147,0.11925459,-0.054726608,0.04119964,0.095459364,0.121432774,0.16650596,-0.02935377,-0.05304923,-0.016714167,-0.045864433,0.016855951,0.0063625723,0.026596464,0.12788513,0.11116224,0.0013907552,0.10304283,-0.052477993,0.3207022,-0.0022243038,0.06477426,0.025755323,0.09203188,-0.037957802,0.040265363,-0.047933117,0.019172631,0.043068707,0.006040141,-0.07650201,-0.039275434,0.11597514,-0.022723392,0.07302686,-0.033465173,-0.01825174,-0.096997604,0.0103892945,0.06590451,0.018932216,0.08800225,0.015390608,0.08969246,0.12657315,-0.035177622,0.025308684,0.10383719,0.02783563
AMT,0.08877794,0.09543064,0.037460193,-0.041614875,-0.013211727,0.05337869,-0.015495494,0.11602255,-0.016848803,0.16484912,0.05118882,0.0083113685,-0.000306285,-0.0006185621,0.05750436,0.0003862423,-0.021127537,-0.011103147,0.08386294,-0.046229947,0.02987048,0.050081052,0.041299388,0.052883446,-0.059062213,0.023992293,0.23628753,0.08616099,0.029436447,0.008124046,0.12851195,0.14580542,-0.009012109,0.09924114,-0.0055634975,0.101666026,0.02893988,-0.051677044,-0.08671144,-0.06220881,-0.03288864,-0.030745191,-0.0041624475,-0.016006809,0.07360549,0.01190795,0.03194015,-0.0061012954,0.0935575,0.051971104,0.1670714,0.04905355,0.118848145,-0.062197655,0.037615053,0.061023302,0.11500871,0.16292265,-0.04614709,-0.05561464,-0.013123255,-0.052007593,0.008843204,0.00021697953,0.02440162,0.12523034,0.11091094,-0.03706117,0.10068085,-0.0636729,0.32034975,-0.009473161,0.05979322,0.02428557,0.09300016,-0.0484724,-0.012905162,-0.047358364,0.015081346,0.03955012,0.006397225,-0.088630706,-0.042537004,0.11507494,-0.04308705,0.07354197,-0.03113156,-0.022110997,-0.10428565,0.008624826,0.062950864,0.009341616,0.087476015,0.009637825,0.042429596,0.124218605,-0.037797164,0.029071227,0.09228958,-0.011028886
AMZN,0.09011125,0.089823805,0.10231814,-0.042645,-0.0032349825,0.07562073,-0.008398458,0.117465116,0.023029376,0.16570716,0.062951185,0.10626998,0.0019838428,-0.004053302,0.06317945,0.06771511,-0.005256137,0.039509002,0.08332988,-0.035026025,0.1655593,0.18282276,0.04368919,0.06808284,-0.056224935,0.148433,0.23556978,0.087919466,0.042376608,0.07995006,0.12711558,0.14276096,-0.010609717,0.092400685,0.0011299402,0.10585881,0.030308843,0.051145952,-0.0915765,-0.061927706,-0.023544852,0.055229276,0.045521285,0.009245306,0.07412755,0.034397934,0.15161467,0.12880781,0.09534308,0.068587005,0.17149967,0.05310239,0.1213105,-0.044312503,0.04829669,0.15482272,0.107873894,0.16752312,-0.01745179,-0.05427122,0.03100298,-0.05383886,0.039153244,-0.0008424297,0.025632028,0.12669192,0.11176056,0.022403747,0.103690445,-0.038137697,0.32485217,0.008057907,0.061712876,0.022372201,0.09456738,-0.02998214,0.05085351,-0.048849735,0.017043315,0.039069384,0.008528434,-0.049672298,-0.038372237,0.11586273,-0.018637367,0.07229456,-0.03289033,-0.017132854,-0.089696884,0.011330999,0.0673558,0.019324452,0.08516875,0.0048698112,0.21104337,0.12444038,0.0075541995,0.025317416,0.08867003,0.13030027
ANET,0.09894145,0.11155218,0.3348816,-0.04078421,-0.009672083,0.123581104,0.011229716,0.13473031,0.030155648,0.20852983,0.10724172,0.45418856,0.0024865698,0.008536346,0.15766853,0.29725602,0.22194314,0.18092847,0.09997023,-0.020769726,0.7716196,0.7944128,0.06870743,0.065350614,-0.05234532,0.73029935,0.24429065,0.0941658,0.06372814,0.08204389,0.1525185,0.19573753,-0.0056696963,0.12815028,0.105176456,0.10766884,0.029988725,0.41607317,-0.07772182,-0.057649143,0.11967695,0.43206918,0.31212175,0.14958784,0.09705306,0.2583725,0.14614984,0.6666672,0.09971143,0.107926995,0.17497817,0.05806208,0.12258756,-0.035743725,0.043362133,0.19517961,0.114624664,0.16954409,0.0052839546,-0.048945054,0.03717299,-0.045605257,0.04143097,0.11231947,0.031839516,0.12562941,0.113379866,0.18376291,0.1030032,-0.03874427,0.33680695,0.015045057,0.08306682,0.058392525,0.10217914,-0.0092646405,0.26960114,-0.03934644,0.050718598,0.04033581,0.013480216,-0.047043856,-0.040323082,0.11624638,0.11948893,0.074035354,0.012388304,-0.016824052,-0.097170204,0.03480911,0.07520265,0.065754905,0.090535834,0.01033495,0.2396214,0.13289425,0.017198242,0.027222276,0.098625466,0.15164292
ANSS,0.089469865,0.09228587,0.074546404,-0.044036254,-0.0102930665,0.08006203,-0.010618798,0.11830455,-0.011300541,0.15918724,0.061257847,0.055003308,0.0038615419,-0.0030620024,0.052411284,0.036350437,-0.018954497,0.017704789,0.08100263,-0.041163534,0.09261467,0.10428191,0.039878443,0.05954036,-0.05575771,0.08235713,0.23697324,0.08925014,0.033817083,0.020502036,0.1240321,0.143282,-0.00786145,0.11263068,-0.011817664,0.103418894,0.029618602,-0.0003789924,-0.0855134,-0.05966556,-0.03357134,0.008740962,0.015303571,-0.0049885586,0.07444671,0.012479562,0.051829934,0.06625612,0.09593432,0.06220679,0.16810912,0.0507279,0.12143288,-0.060131863,0.041632697,0.09797539,0.11883537,0.16736141,-0.03704978,-0.05444511,-0.005705405,-0.049919147,0.014241338,-0.0005527362,0.025931071,0.1265808,0.11432888,-0.007161349,0.101785645,-0.05524209,0.3260811,-0.002899536,0.06090256,0.023345817,0.09408321,-0.040071893,0.026860923,-0.047328386,0.017588206,0.042985283,0.0071375296,-0.07591624,-0.040464476,0.11469203,-0.030925047,0.071438916,-0.03248526,-0.018218791,-0.101800136,0.009496756,0.06378967,0.011437299,0.08609158,0.013362043,0.074618705,0.12584825,-0.02936397,0.02608962,0.100049525,0.014398314
ANTM,0.09541452,0.10716787,0.28083986,-0.04545086,-0.00990098,0.09626912,-0.012730382,0.14082664,-0.015226051,0.1639235,0.072109886,0.37859282,0.0020744791,0.00438717,0.0823224,0.23267199,0.1785695,0.15193,0.08448557,-0.03544012,0.6315757,0.6756227,0.042426698,0.05679159,-0.05417755,0.60238755,0.23477152,0.09385894,0.05518525,0.007864302,0.12871012,0.17881842,-0.002952193,0.10473292,0.048006848,0.10407921,0.030528609,0.33486694,-0.08159018,-0.056789763,0.08573358,0.34346426,0.25349602,0.12109688,0.10203973,0.22145942,0.047048982,0.54982364,0.0966275,0.07082282,0.17109874,0.053512715,0.12042664,-0.04799733,0.044914693,0.10296767,0.116021834,0.16783196,-0.027823223,-0.048655424,0.0029966868,-0.046998147,0.025506698,0.087568216,0.024871312,0.13146742,0.11433536,0.1435635,0.10127765,-0.05072186,0.32318684,0.0044736117,0.07296326,0.053638816,0.10606119,-0.025359152,0.2109126,-0.044661187,0.049011312,0.043136932,0.00952062,-0.074945144,-0.037629515,0.11334086,0.08423424,0.07356653,0.005606346,-0.0104654655,-0.10201712,0.01665027,0.06578246,0.051667333,0.08639157,0.00963176,0.0806954,0.13696964,-0.02878119,0.026074689,0.09566294,0.02499549
AON,0.08817687,0.091816254,0.074699655,-0.04206959,-0.01753974,0.08559568,-0.02538994,0.11932863,-0.006031964,0.15650469,0.04503245,0.082683764,-0.0029603401,-0.0040326267,0.05057012,0.021619584,0.021473726,0.02869923,0.07959423,-0.046642736,0.15856293,0.16869205,0.03948562,0.059139665,-0.059593596,0.14247617,0.23681907,0.08629278,0.02840773,0.026633974,0.12258653,0.14268671,-0.010000451,0.10780543,-0.016711384,0.101485744,0.030556403,0.03810083,-0.08224132,-0.058360748,-0.00926984,0.04941782,0.030754082,0.012098715,0.07394401,0.047156036,0.07983131,0.107285015,0.092808455,0.04844156,0.16741684,0.05082748,0.118057646,-0.04767659,0.04084173,0.14083833,0.11042474,0.16475973,-0.014221584,-0.05529248,0.0068655387,-0.055252187,0.020590585,0.014553655,0.024480455,0.12400615,0.111003704,-0.012594439,0.10225947,-0.05084574,0.3154557,-0.0072588623,0.06101633,0.026112314,0.09229162,-0.04737608,0.033123266,-0.04943059,0.019848771,0.04038149,0.0011938065,-0.06845659,-0.03787714,0.11585569,-0.015590612,0.07323081,-0.032779124,-0.021668233,-0.10743064,0.0098258,0.06293859,0.003594922,0.089052156,0.009399049,0.15805823,0.12425998,-0.0073518474,0.028044578,0.09531926,0.085214235
AOS,0.09076729,0.093562104,0.06142569,-0.040937535,-0.008948699,0.06607002,0.00181894,0.11874753,0.018786915,0.16208215,0.054615557,0.045741543,-0.0006838087,-0.0036371872,0.062360805,0.025535727,-0.0059109516,0.012786629,0.08280099,-0.04421529,0.08006084,0.090103395,0.04165771,0.05337299,-0.05790834,0.069600746,0.23613892,0.08824475,0.048440374,0.065934956,0.12508088,0.14454809,-0.0071090925,0.10562089,-0.0046640933,0.103728,0.028609589,-0.015036408,-0.088281095,-0.060998403,-0.01782415,0.004321508,0.010282479,-0.007741466,0.07468293,0.020675104,0.112715915,0.04896053,0.09562945,0.056116197,0.17019334,0.053415127,0.11924586,-0.05710544,0.038918205,0.10465877,0.11322691,0.16521783,-0.037924353,-0.052063305,0.028666675,-0.05195451,0.030346457,0.007665977,0.025237452,0.12446815,0.10966851,-0.016838625,0.10059653,-0.054866657,0.3203299,0.010452415,0.061192997,0.023916323,0.09454734,-0.041701663,0.021220386,-0.049758445,0.017930612,0.042161092,0.0074488,-0.06211178,-0.039244622,0.11539027,-0.035348557,0.07417428,-0.033858553,-0.021244057,-0.10507886,0.01025366,0.06421511,0.008231798,0.08714451,0.0049146228,0.13796511,0.12644047,-0.000586994,0.024008498,0.091706626,0.072229475
APA,0.09329013,0.10543025,0.16182534,-0.014939189,-0.005870573,0.30250278,0.04373894,0.12231187,0.13920811,0.17323981,0.0630952,0.20919243,0.004550161,-0.0003168732,0.0754212,0.11229956,0.08252053,0.08146456,0.08586586,-0.02978876,0.34647375,0.3575487,0.050301917,0.10084775,-0.052176114,0.32287115,0.23978011,0.102718264,0.053868137,0.22305907,0.13338369,0.15772116,0.019515498,0.23532496,0.013458893,0.10513365,0.02835242,0.13559338,-0.050731286,-0.05672133,0.022586718,0.16895604,0.1339002,0.05172772,0.08597918,0.11809519,0.35925,0.26426387,0.09651582,0.064606875,0.17403731,0.060652826,0.1235601,-0.0075068437,0.047462717,0.40356022,0.15781666,0.16895393,0.075595126,-0.046681188,0.13040641,-0.004220588,0.11735965,0.04411792,0.027190983,0.13662036,0.13075167,0.0337359,0.1090586,-0.018990248,0.32496893,0.022442352,0.064912654,0.040372133,0.100810535,-0.03702974,0.10450124,-0.045940064,0.02791629,0.07459236,0.010892987,0.017208628,-0.012676485,0.13702166,0.023920506,0.07247478,-0.015397143,-0.018467382,-0.04374374,0.012272682,0.06897661,0.018259102,0.087905124,0.047522426,0.52460015,0.13650708,0.1246291,0.027512234,0.14332393,0.3775519
APD,0.08781155,0.092468426,0.02866748,-0.04390786,-0.014668994,0.062121317,-0.030583471,0.11520825,-0.03528858,0.15655851,0.04742805,-0.00042863935,-0.001875326,-0.0032418147,0.05022668,-0.0083488505,-0.017455352,-0.00522013,0.07963492,-0.04461331,0.026149694,0.032183364,0.03845283,0.051776156,-0.05933685,0.015395586,0.23722091,0.08741101,0.024092421,-0.021605643,0.123496756,0.14456739,-0.009697521,0.09891,-0.011422239,0.1023573,0.031058803,-0.05345151,-0.09082299,-0.06020183,-0.030614562,-0.03365186,-0.011181369,-0.010787599,0.07525534,0.01662869,0.0139652565,-0.025189951,0.093436554,0.048017085,0.16727023,0.04896242,0.11850214,-0.06268473,0.042140596,0.08818865,0.10896666,0.16414224,-0.040744185,-0.0550034,-0.025916502,-0.05614497,0.011276253,0.0032424442,0.025319017,0.12352082,0.11057936,-0.04330711,0.102641836,-0.057122685,0.31945744,-0.01064875,0.059775587,0.023690023,0.09237228,-0.04860434,-0.010439284,-0.04838352,0.01555673,0.039152622,0.0032426566,-0.08121289,-0.039643545,0.114892185,-0.038903,0.07263291,-0.03155081,-0.019407053,-0.10832542,0.009933457,0.06202409,0.006898267,0.08358192,0.002929207,0.04238159,0.12573056,-0.045143474,0.024738621,0.09412302,-0.0030085593
APH,0.08940808,0.09264172,0.057104204,-0.043578736,-0.013510048,0.0577072,-0.026573591,0.11713971,-0.022780016,0.15774865,0.048763886,0.051603533,-0.00071025174,-0.002853267,0.05373259,0.018162776,0.01254914,0.023585746,0.07902554,-0.046019815,0.10426706,0.11107518,0.040931582,0.052702416,-0.0591281,0.08753871,0.23570235,0.0900662,0.026784971,-0.01315785,0.12378593,0.14468469,-0.008856756,0.09960408,-0.008517474,0.102154784,0.030572955,0.0027367622,-0.091245525,-0.060279906,-0.020432714,0.014193986,0.00870187,0.0065423064,0.07493596,0.040404342,0.008827113,0.053555336,0.093869954,0.049342323,0.16802637,0.050579347,0.11926094,-0.059533805,0.040397666,0.06584653,0.11201849,0.16546085,-0.046255324,-0.053678468,-0.023142617,-0.052951783,0.0050468426,0.011501417,0.025070857,0.12546681,0.11065817,-0.024011165,0.10232434,-0.058660246,0.32248935,-0.008301202,0.062239088,0.025473166,0.09480824,-0.045895766,0.019361816,-0.04966068,0.021796688,0.039700672,0.0046228915,-0.0853181,-0.041607723,0.11513997,-0.026296128,0.07251872,-0.03238541,-0.021283917,-0.10536529,0.01056724,0.061391,0.006383378,0.08693682,0.006673638,0.030900002,0.1263539,-0.04685831,0.027496979,0.09483549,-0.018226534
APTV,0.09065775,0.09801147,0.05147602,-0.042198494,-0.011214361,0.1328855,-0.00814379,0.12018949,0.011378266,0.16406342,0.050277553,0.04931297,0.0028566048,-0.0012600273,0.0632611,0.012157453,0.0028724018,0.020047585,0.08224799,-0.04128179,0.10724456,0.10886761,0.044846006,0.06709786,-0.052853815,0.09391252,0.23788375,0.09591579,0.059189636,0.025156384,0.12462923,0.14822793,-0.0028716885,0.14085951,0.0018099546,0.102778696,0.029247314,0.004055336,-0.079181254,-0.059839442,-0.018087594,0.0154562965,0.0037201513,0.0027806647,0.080017895,0.029720496,0.08968981,0.059961803,0.096397,0.057794545,0.17323984,0.057873886,0.11890803,-0.045086373,0.042645782,0.16524178,0.12804015,0.16698089,-0.009136875,-0.052839607,0.013492346,-0.037604395,0.027849408,0.009151071,0.02569275,0.13079177,0.11420375,-0.027491763,0.10578863,-0.0512133,0.3173052,0.011357073,0.0662402,0.027370542,0.09345257,-0.040874146,0.017772421,-0.048776247,0.017499343,0.048196338,0.0095985085,-0.05801645,-0.037553392,0.11585413,-0.028082814,0.07185715,-0.033093918,-0.019353613,-0.08587588,0.013576496,0.06538509,0.00900482,0.089188404,0.018538225,0.1789243,0.1279774,-0.0014276206,0.02499538,0.10875153,0.09285496
ARE,0.087415874,0.09498472,0.037086703,-0.039404638,-0.015810937,0.046528265,-0.026711866,0.116417535,-0.031053606,0.15790036,0.050763696,-0.0030246712,-0.0007867813,0.0009781271,0.04540755,-0.0028298646,-0.03165281,-0.0028403848,0.08091252,-0.04644484,0.017053042,0.017405674,0.039467636,0.048601758,-0.058571972,0.0063756406,0.23674545,0.085628524,0.039687473,-0.029416941,0.12081733,0.14041556,-0.010551762,0.093347,-0.013234749,0.10171307,0.027424928,-0.059684753,-0.09386201,-0.06405728,-0.03796964,-0.03172122,-0.014139844,-0.021843899,0.07298276,-0.005380355,-0.017556578,-0.002708368,0.09373194,0.04741904,0.16830963,0.05407655,0.118579194,-0.06315239,0.040582657,0.0473984,0.109120525,0.16486013,-0.048271194,-0.05618993,-0.018727832,-0.05401692,0.009000173,-0.007995725,0.023602039,0.12351829,0.111868724,-0.045754246,0.101454735,-0.059427854,0.31340897,-0.00013406575,0.059718624,0.022011444,0.09352439,-0.046285503,0.0044726394,-0.0481441,0.012656845,0.041888546,0.0051187947,-0.09517248,-0.04268401,0.11574832,-0.048110515,0.07304873,-0.032834396,-0.022548597,-0.109302714,0.0074036717,0.06326261,0.008523362,0.08741568,0.0032524318,0.0016173292,0.12603673,-0.05012265,0.028708693,0.08734776,-0.044150718
ATO,0.08889041,0.08977731,0.05249663,-0.038174935,-0.015237346,0.027233139,-0.035617746,0.115235865,-0.04457469,0.15404873,0.054263584,0.022043504,-0.0033751838,-0.0016586706,0.042091094,0.014150256,-0.030096691,0.004379371,0.0777559,-0.047132883,0.056266345,0.06095115,0.03589461,0.044828318,-0.05972359,0.043572597,0.23678538,0.08422532,0.02398603,-0.055544846,0.1186193,0.14088938,-0.012780357,0.085593864,-0.012934461,0.10210834,0.028424516,-0.036581278,-0.091051534,-0.06064436,-0.035250485,-0.0067841746,0.0018855855,-0.016668731,0.07216503,0.0008871965,-0.043297585,0.03664498,0.09367925,0.05343066,0.16699228,0.050403744,0.11723162,-0.06351672,0.040113397,0.041549668,0.105988525,0.16306046,-0.052237596,-0.055504642,-0.036751293,-0.057667177,0.004230939,-0.007484369,0.022727743,0.12301777,0.110239774,-0.032193787,0.10212531,-0.065670386,0.31217793,-0.0107649155,0.05880458,0.02143174,0.092113405,-0.045278437,0.019520637,-0.048084192,0.014153242,0.042299837,0.0016105175,-0.09739926,-0.039710846,0.115973316,-0.04251189,0.073229745,-0.032821976,-0.020485386,-0.115545765,0.006592728,0.06257543,0.0064317975,0.08606799,0.0018363371,-0.016008327,0.122300655,-0.07168317,0.029029157,0.083175324,-0.054761283
ATVI,0.089186996,0.0950815,0.16771097,-0.040647216,-0.0039023235,0.08611215,-0.0061868653,0.1227677,0.00046160445,0.16561823,0.08195719,0.20072073,0.0029428229,0.0004953295,0.09586935,0.13735116,0.054651313,0.07034238,0.082509115,-0.03278105,0.31930172,0.34897247,0.045638666,0.05930814,-0.056169253,0.2986411,0.233961,0.09328172,0.04554427,0.033761937,0.12771547,0.1561285,-0.006988135,0.11363877,0.031355835,0.10566079,0.028480388,0.14216003,-0.0798301,-0.057352826,0.0089005735,0.15007117,0.118520476,0.04410711,0.07820085,0.08703804,0.08059507,0.2792895,0.09665516,0.087810725,0.17155126,0.057320353,0.122515224,-0.044550724,0.04416395,0.13887222,0.118567325,0.1665396,-0.008648624,-0.054181747,0.0076579303,-0.04578244,0.018875286,0.023151722,0.025498096,0.12914939,0.11478406,0.06890071,0.10193226,-0.046841916,0.3246742,0.0041948017,0.06681157,0.029232409,0.09393364,-0.018782072,0.114611596,-0.047533605,0.022539929,0.04577261,0.007756807,-0.06496225,-0.038299933,0.11529508,0.014170222,0.07200709,-0.032787092,-0.015362785,-0.097325675,0.007883139,0.06641488,0.035048448,0.08750513,0.0150041655,0.15160653,0.12679935,-0.009561265,0.024509635,0.09918457,0.084141284
AVB,0.0887254,0.09489974,0.04112509,-0.039868847,-0.018454157,0.029120246,-0.03471096,0.114665635,-0.04013256,0.1580953,0.052557275,0.0025987336,-0.0026225466,0.00072401017,0.046120636,0.0013562641,-0.030858854,-0.0019256286,0.08053972,-0.04526402,0.026930973,0.030162029,0.040292747,0.04807841,-0.058544435,0.01661389,0.23695114,0.08572941,0.028465766,-0.0549228,0.1208062,0.14129587,-0.012610356,0.084033504,-0.01623647,0.10224418,0.028814021,-0.054421023,-0.090892114,-0.06318202,-0.037962455,-0.024980966,-0.010042325,-0.023068717,0.071740255,-0.0047990456,-0.03991592,0.0072771385,0.09497143,0.049129546,0.16774121,0.05282339,0.11767498,-0.06232903,0.03986948,0.036603317,0.10570254,0.16355208,-0.052403957,-0.05619371,-0.031527195,-0.053297866,0.006814815,-0.0075446293,0.024547815,0.12389128,0.10965942,-0.043497153,0.101438686,-0.062058993,0.31280005,-0.006349195,0.059707485,0.021420877,0.092796504,-0.04871714,0.0076271743,-0.04859166,0.013954803,0.042205803,0.0018952489,-0.09911822,-0.042125233,0.11563177,-0.04726107,0.072894074,-0.032634657,-0.021985382,-0.1147669,0.0076005086,0.0628293,0.007880937,0.085854754,0.0022173822,-0.003839558,0.1244575,-0.066741295,0.028873451,0.08475316,-0.04202511
AVGO,0.09093252,0.09866733,0.19121253,-0.040876284,-0.010888837,0.09890123,-0.0068603456,0.12374883,0.013385028,0.17004766,0.09792392,0.22378592,0.0023925677,0.0027354658,0.106907845,0.165749,0.06485387,0.08711772,0.082527906,-0.030014958,0.36531985,0.40076897,0.05244054,0.0649151,-0.056529254,0.34866253,0.23560923,0.09395452,0.049902737,0.046104066,0.1348437,0.15050864,-0.0071790265,0.117778316,0.048848107,0.11249898,0.027835034,0.18145853,-0.0815144,-0.059953466,-0.016554493,0.17908491,0.13398126,0.051973302,0.07696855,0.099811666,0.10698421,0.32534775,0.09712793,0.0947969,0.16905846,0.05483079,0.122315824,-0.044816807,0.04552678,0.16560343,0.11547749,0.17294107,-0.005386226,-0.05152498,0.02208981,-0.050092988,0.02856442,0.026099157,0.027728707,0.12667951,0.11227374,0.09047868,0.10379675,-0.046131596,0.3233114,0.00274425,0.06360543,0.025587402,0.101543486,-0.01205387,0.13832761,-0.04842267,0.018024795,0.043305263,0.009944767,-0.05825977,-0.041870773,0.11585969,0.023438193,0.071725965,-0.029233176,-0.016406823,-0.10081978,0.008856222,0.06521313,0.03443926,0.088550895,0.01410497,0.18875353,0.12781145,0.008359002,0.026088893,0.09854105,0.11185036
AVY,0.09150992,0.09323289,0.045564413,-0.043272085,-0.004949048,0.10834833,0.026607797,0.11550904,0.049595717,0.15923825,0.049017534,0.013849694,0.000758294,-0.004066281,0.054231897,0.0048093656,-0.019546568,0.0031154118,0.081080936,-0.042617105,0.030038066,0.04134675,0.039994244,0.057211183,-0.058851473,0.020754375,0.23831414,0.09395213,0.066502,0.12301059,0.12450762,0.14747083,-0.005023644,0.11986172,-0.009849772,0.101139426,0.02957531,-0.042271055,-0.08447324,-0.060135223,-0.027815722,-0.033023715,-0.012601316,-0.01338926,0.07402874,0.008987226,0.19287491,0.0053265654,0.09390527,0.05248265,0.16787848,0.051760234,0.11904467,-0.052116774,0.0410847,0.17501868,0.11747223,0.16438188,-0.018478138,-0.051310983,0.062264204,-0.05001194,0.054293692,-0.0014060959,0.025461905,0.124353446,0.11206218,-0.034174643,0.10269611,-0.046183757,0.3208946,0.027291939,0.060525976,0.023180831,0.09201139,-0.0458608,-0.0021015108,-0.049846835,0.015092015,0.045214176,0.015805043,-0.04429412,-0.040439013,0.11508031,-0.04154141,0.07259752,-0.032331172,-0.02107928,-0.10139233,0.010043327,0.06506924,0.0058336295,0.08677249,0.0107732415,0.24181482,0.12607193,0.037476875,0.029131748,0.10352966,0.15388092
AWK,0.08806318,0.09359763,0.051658828,-0.04328247,-0.017562248,0.04776176,-0.03552548,0.11355575,-0.042916987,0.15304455,0.056583956,0.020357417,-0.0027623856,0.001192309,0.044023152,0.014149744,-0.026959715,0.0051014926,0.07910517,-0.04764737,0.05469622,0.06027721,0.03614513,0.050121546,-0.058926675,0.04458259,0.23601012,0.08507781,0.028097026,-0.049392916,0.1195857,0.14064912,-0.01152493,0.093634665,-0.014145292,0.101254165,0.031209037,-0.035522655,-0.09043982,-0.0618119,-0.03596441,-0.0074566267,0.0017638095,-0.016268596,0.072539136,0.0016312078,-0.03770058,0.036899246,0.093481176,0.05370991,0.16773239,0.051805314,0.11753584,-0.062468957,0.043086804,0.049282983,0.10918645,0.1640298,-0.050607327,-0.055766456,-0.037065122,-0.05529067,0.0032291915,-0.0036377795,0.02387366,0.12252943,0.10978258,-0.031046204,0.10231985,-0.0622017,0.31454283,-0.010561796,0.059375722,0.021378975,0.09338285,-0.04589147,0.019739032,-0.048257533,0.012943529,0.038258705,0.002934955,-0.09238866,-0.040729705,0.11417657,-0.03962054,0.07333257,-0.02992258,-0.018236265,-0.11027509,0.009567827,0.061805896,0.01636394,0.085542634,0.0044090822,0.0044060145,0.12349936,-0.06823268,0.030079853,0.09171287,-0.042057343
AXP,0.08835904,0.09313704,0.056541607,-0.04230588,-0.012275256,0.034595225,0.0050179735,0.11398414,0.0065703467,0.1609235,0.052767858,0.0375079,0.002837018,-0.0040282384,0.06583069,0.020676356,-0.014732178,0.004505787,0.08126938,-0.044207778,0.07487223,0.0958983,0.040639702,0.049502045,-0.052121423,0.06492788,0.23458984,0.08637958,0.06494475,0.047806222,0.12597157,0.14326513,-0.010435237,0.08984389,0.002280824,0.1026038,0.030381188,-0.023500845,-0.08856854,-0.0603775,-0.031877063,-0.0031818748,0.01467496,-0.011409339,0.07391851,0.013139844,0.07503816,0.035838254,0.09377046,0.058837235,0.17181304,0.059390374,0.1185353,-0.06210039,0.041894153,0.07559275,0.10725558,0.16650546,-0.049852062,-0.05394278,0.027517248,-0.05513603,0.03415125,-0.00011847168,0.027025755,0.12441852,0.10949453,-0.021204114,0.10338508,-0.054832935,0.3206051,0.014914373,0.0601919,0.022319537,0.09313537,-0.045595385,0.010170151,-0.049591508,0.015198827,0.039352544,0.012585126,-0.08724916,-0.037748314,0.116423756,-0.039560564,0.07324075,-0.033567138,-0.021878827,-0.107898295,0.011418957,0.063573435,0.015697444,0.08473316,0.0037003718,0.10145071,0.122620896,-0.0027331375,0.025538865,0.08719376,0.045682356
AZO,0.08889788,0.09408598,0.13633743,-0.040032215,-0.011979029,0.092925325,-0.0071050674,0.11964548,0.00028348342,0.19696572,0.08046829,0.16322519,0.0017143693,0.0003514886,0.11051081,0.11638933,0.026080566,0.04849991,0.09102269,-0.03033381,0.26318672,0.30122826,0.06126887,0.055263966,-0.05779641,0.24788314,0.24538161,0.09031679,0.040951416,0.028737558,0.1439507,0.14345519,-0.0093997335,0.09431731,0.047745287,0.105971694,0.028434057,0.11227027,-0.084523484,-0.061126277,-0.028359767,0.11787743,0.09528374,0.019255035,0.07577224,0.054865044,0.06509825,0.2153712,0.09642456,0.08655747,0.16959782,0.057684414,0.11878895,-0.051209092,0.04229246,0.14292434,0.11218424,0.17065136,-0.021558428,-0.05430834,0.003586609,-0.054569416,0.019389179,0.010583222,0.02922728,0.12585631,0.11194625,0.047383245,0.100590125,-0.052945703,0.3297887,0.00074366294,0.060320646,0.023743413,0.092317715,-0.02046487,0.08158685,-0.04878424,0.018731624,0.04266633,0.005504556,-0.072718635,-0.03731255,0.11654043,-0.009847581,0.07481909,-0.031559363,-0.020319924,-0.107139185,0.008890744,0.07448912,0.031185511,0.08933814,0.009986736,0.13465269,0.12433232,-0.01650285,0.02754096,0.096377656,0.064601734
BA,0.08914328,0.09776616,0.07272199,-0.043453947,-0.012814648,0.081444904,-0.017932124,0.11662829,-0.014052313,0.16675007,0.060772073,0.060512774,0.0005294578,-0.0016191155,0.06559524,0.036297835,0.02106946,0.015545061,0.08337916,-0.041177996,0.13739146,0.13595146,0.04770243,0.06060174,-0.05678391,0.11504237,0.2369168,0.08794811,0.04294941,0.02037846,0.12604216,0.14398487,-0.006520544,0.11295285,0.0044312626,0.10480923,0.030694142,0.010094244,-0.0859673,-0.060488544,-0.012737708,0.034954555,0.03379125,0.005016759,0.07398279,0.042474553,0.07277409,0.078053415,0.09433057,0.05515928,0.17312501,0.053665753,0.12110833,-0.050728314,0.043158054,0.11391556,0.11714261,0.16800682,-0.022834802,-0.055169858,-0.0055158474,-0.052111708,0.024125682,0.018828597,0.02774873,0.12355101,0.11112067,-0.014732458,0.10548824,-0.049121033,0.3245104,-0.0014481694,0.060733292,0.025250182,0.0929168,-0.037823923,0.027870297,-0.048320875,0.016401887,0.047666483,0.0097851455,-0.073913686,-0.0414629,0.115211606,-0.019218788,0.07418658,-0.030408734,-0.019565789,-0.09791497,0.012146562,0.06585011,0.012734417,0.086285256,0.0115357,0.11950101,0.1266738,-0.021023512,0.027471483,0.096596524,0.052263692
BAC,0.08878256,0.094856754,0.051780447,-0.041680053,-0.016044691,0.07924505,-0.024035543,0.118110456,-0.006574575,0.16399187,0.05037221,0.029913679,0.0013989229,-0.003941506,0.0620137,0.014532875,-0.006651085,0.0060589593,0.08259707,-0.041307993,0.061726555,0.08121286,0.04431533,0.05984728,-0.055819567,0.04868672,0.23556496,0.08839531,0.03375543,0.015280807,0.12754169,0.1434924,-0.010676394,0.10633828,-0.0013681203,0.10270924,0.02887877,-0.028893799,-0.08549091,-0.060301572,-0.027892444,-0.011006746,0.008416409,-0.0060290657,0.075386316,0.022311777,0.072263956,0.026701309,0.0956341,0.05583968,0.1699753,0.052693382,0.11906934,-0.048112854,0.041639946,0.13603242,0.1108862,0.16599894,-0.01469369,-0.05354122,0.0033421256,-0.049005046,0.0199547,0.0046206266,0.02555082,0.12597743,0.1146349,-0.026251271,0.1036549,-0.050955817,0.31912106,0.0028831307,0.061636947,0.026052024,0.09196343,-0.0398391,0.009783726,-0.050077114,0.019312054,0.039809316,0.00478632,-0.07141803,-0.038767684,0.11510226,-0.036665943,0.07358992,-0.033522338,-0.021418143,-0.10259981,0.010529261,0.06460066,0.013423497,0.0857372,0.0104410015,0.15097618,0.12499806,-0.010315971,0.025474247,0.09257143,0.081359014
BAX,0.089445174,0.094362095,0.11198656,-0.04359623,-0.01420252,0.051649913,-0.012288943,0.11659883,-0.018503066,0.157047,0.0709907,0.13646826,0.0024754703,-0.003500551,0.061637696,0.07645714,0.056604743,0.047189366,0.07757536,-0.041211322,0.25525492,0.25519812,0.039680317,0.05215271,-0.05566232,0.22798723,0.23448801,0.085660145,0.04843998,0.00039598113,0.12296052,0.15474904,-0.009153568,0.09860656,0.0062919483,0.10264856,0.029440392,0.08829752,-0.08865851,-0.060288854,0.014926873,0.10669202,0.083915055,0.031404324,0.07672237,0.08024117,0.0130450055,0.18688945,0.09548223,0.064985625,0.1714372,0.054838154,0.12010896,-0.06115618,0.040159114,0.054970656,0.10970996,0.1660949,-0.046583444,-0.05423093,-0.0016424656,-0.052889567,0.013279431,0.03739742,0.025149502,0.12542492,0.10932556,0.021576323,0.101217225,-0.060195692,0.3216535,0.004415445,0.061131306,0.02672218,0.09337864,-0.032440726,0.06504527,-0.04678203,0.020635203,0.03996649,0.009911336,-0.093204446,-0.04042306,0.11518771,0.0059076175,0.07282575,-0.024703268,-0.019203637,-0.10825605,0.009024981,0.06029438,0.020651488,0.08602208,0.004213307,0.031851105,0.123373635,-0.032099888,0.025526252,0.08748448,-0.019785605
BBWI,0.09315239,0.0982378,0.2526479,-0.04153032,0.0034128726,0.20682587,0.026596896,0.12529275,0.07925263,0.20597154,0.12185709,0.32626918,0.0051615834,0.017153926,0.1391519,0.23357491,0.119887546,0.13174441,0.09602046,-0.017543523,0.5209069,0.5621707,0.06954141,0.06481246,-0.05288042,0.501717,0.24938336,0.093143806,0.04194441,0.15745813,0.14992338,0.15769888,0.004044624,0.17607954,0.07604253,0.10911287,0.02621435,0.28418356,-0.058306407,-0.06456109,0.014730938,0.27148473,0.2085222,0.088574,0.08162065,0.15736932,0.26328,0.4713463,0.105612904,0.112000406,0.17075573,0.05508305,0.1229205,-0.01465793,0.057428844,0.30431357,0.12377252,0.16710609,0.03910601,-0.051048428,0.09629353,-0.037924305,0.07239711,0.05428716,0.030527525,0.13092932,0.11455382,0.14643335,0.10269311,-0.018501252,0.33239257,0.008450145,0.063945204,0.03605067,0.102603346,-0.0019836426,0.19583213,-0.04592689,0.024984114,0.059246913,0.01445058,-0.016109597,-0.028014187,0.11532428,0.06367183,0.07079329,-0.019445859,-0.009616717,-0.07784492,0.009707995,0.0828051,0.051749557,0.09170375,0.017827712,0.38029736,0.12910496,0.077690095,0.031772427,0.12101425,0.27434695
BBY,0.08994401,0.101071455,0.12490168,-0.041744083,-0.011022106,0.2116195,0.025781617,0.12815368,0.08930138,0.17253467,0.06410001,0.1637624,0.0009291563,0.00066554546,0.08077541,0.07105878,0.07085338,0.06200213,0.089971244,-0.04062516,0.28708655,0.3023561,0.048752733,0.08184274,-0.053214327,0.26366013,0.23915918,0.094438314,0.041428644,0.166871,0.13690373,0.16447958,-0.001748804,0.17740983,0.0050206035,0.1113696,0.02801146,0.11137829,-0.067461714,-0.062225394,0.02037979,0.12987493,0.09405489,0.046031248,0.08803448,0.10246321,0.2789781,0.2202954,0.10444824,0.07241316,0.17032526,0.053032935,0.12256196,-0.020313326,0.042866565,0.31949064,0.13605654,0.16657028,0.044493783,-0.051987723,0.09964348,-0.03649371,0.08208614,0.040406685,0.025074676,0.12725115,0.12174609,0.024514444,0.102119416,-0.02179036,0.32604972,0.0066556884,0.07060005,0.03751571,0.097405404,-0.032093987,0.07961834,-0.047008,0.02941066,0.051163986,0.006167479,-0.012540612,-0.03494568,0.12025003,0.01628057,0.072399795,-0.021515913,-0.020699646,-0.07992316,0.009596512,0.074511394,0.0131312385,0.08598658,0.022106268,0.4141305,0.13044813,0.08572692,0.024475485,0.12111434,0.29488742
BDX,0.08977997,0.09151803,0.04645241,-0.04298775,-0.018145196,0.05111225,-0.032408707,0.118924364,-0.040118698,0.15548304,0.045936823,0.035317667,-0.0017850175,-0.0036335364,0.05579447,0.012262981,0.0030216295,0.0128267035,0.07924916,-0.046046644,0.08315339,0.08819359,0.037689097,0.056400396,-0.059111938,0.07407487,0.2380109,0.08590097,0.03290154,-0.038517356,0.12180075,0.14720473,-0.010838694,0.096277036,-0.0026889592,0.10268365,0.029911395,-0.011313219,-0.089286014,-0.05991897,-0.018696357,0.0037283972,0.0073403865,-0.0022131093,0.07406078,0.026649639,-0.01235579,0.037540197,0.093339965,0.047251143,0.16844122,0.05159257,0.120092526,-0.059879288,0.039697282,0.069559336,0.11073747,0.16536513,-0.04559573,-0.0544446,-0.03230038,-0.055216663,0.005560804,0.010886613,0.024656322,0.12620923,0.10929374,-0.025734596,0.09986416,-0.060101785,0.3194399,-0.00727316,0.06195079,0.02438308,0.092869505,-0.050584156,0.0081880465,-0.04879129,0.019982174,0.041991673,0.0049210936,-0.08779718,-0.039772976,0.11462326,-0.029488087,0.0728206,-0.032029986,-0.022571586,-0.10539382,0.008014485,0.06415248,0.011569416,0.08638255,0.0072148293,0.017020471,0.124041036,-0.05629205,0.02624492,0.08945372,-0.0248233
BEN,0.09041719,0.0971597,0.10999426,-0.041223377,-0.01268103,0.055811122,-0.015209064,0.117124684,-0.010786556,0.18873714,0.0663484,0.12275035,0.0029012999,-0.0024721846,0.09295667,0.08586793,0.011418141,0.029384652,0.085059494,-0.03516615,0.20200115,0.2336672,0.05547309,0.054850396,-0.05679511,0.19264543,0.24265386,0.08963738,0.03366251,0.009899847,0.13747975,0.14931569,-0.0079860985,0.099466436,0.030190676,0.10620293,0.028910492,0.067803755,-0.088182636,-0.060630098,-0.014885008,0.08109643,0.067984864,0.005385462,0.077538565,0.034844577,0.03963625,0.15873864,0.09630702,0.078524545,0.16910756,0.053968944,0.11848643,-0.061863642,0.04147283,0.06569704,0.11242246,0.16585866,-0.0481235,-0.054944113,-0.010133255,-0.053751327,0.011168506,0.008832827,0.02697073,0.12687977,0.11055521,0.025252756,0.1043776,-0.060102023,0.3183651,0.001095524,0.06087163,0.023730759,0.09195329,-0.022867426,0.05969175,-0.04921427,0.019229785,0.040578313,0.0053310767,-0.087564856,-0.040630456,0.11639073,-0.02113209,0.071600005,-0.034986325,-0.020647924,-0.10685355,0.011137065,0.07269548,0.024376694,0.08813837,0.0070842914,0.059542075,0.12606958,-0.029244585,0.02597316,0.09346224,-0.00021427125
BIIB,0.099851206,0.09771448,0.4142585,0.009410895,0.007318303,0.44602087,0.1285904,0.14394085,0.2543353,0.16998862,0.11157777,0.55967885,0.011426995,0.012062915,0.15990111,0.3835854,0.25935075,0.24412118,0.084428415,-0.013538191,0.92111135,0.9774247,0.045806304,0.12488164,-0.03741771,0.88704884,0.24040195,0.11021186,0.1540872,0.43036184,0.13199799,0.18683064,0.04122171,0.30401772,0.14370443,0.105569795,0.02889629,0.5382411,-0.026494853,-0.062044457,0.15364946,0.5205592,0.36980814,0.18208335,0.10921158,0.30728552,0.60988647,0.8366987,0.1021458,0.084324144,0.18636794,0.08226689,0.1190262,0.03107366,0.04369528,0.6490741,0.17363045,0.17004353,0.15220971,-0.047945783,0.26666236,0.011820754,0.2031925,0.12637009,0.026919767,0.12981442,0.12397438,0.2717631,0.10449227,0.014118718,0.3212407,0.08549523,0.07715204,0.06540381,0.09339341,0.0017073341,0.34246123,-0.04023112,0.05749292,0.093556315,0.048788205,0.09313814,0.0026748553,0.13893735,0.13988163,0.07219702,0.021540124,-0.005839642,-0.014970458,0.012153078,0.06855421,0.06361744,0.09021948,0.06414242,0.8425714,0.13687003,0.2614209,0.030392908,0.17529418,0.6554759
BIO,0.09085003,0.10046153,0.036424633,-0.024709024,-0.010839298,0.26424032,0.053181373,0.12013416,0.12786657,0.15853293,0.049814492,0.028139882,0.0054998603,-0.0017305613,0.052207302,-0.0045592017,0.008425336,0.0047294945,0.07876621,-0.040755324,0.08908186,0.08004316,0.040280122,0.09183477,-0.05048149,0.06388538,0.23725413,0.09401598,0.07803479,0.23784745,0.12179102,0.15053546,0.0065671112,0.20875278,-0.0117909685,0.102345034,0.030895066,-0.024454586,-0.057425205,-0.06065713,-0.023698337,0.0056420695,0.009558912,-0.0037112571,0.07646303,0.02898559,0.36579815,0.026613515,0.108741105,0.05554666,0.17540193,0.06262217,0.12090828,-0.007684201,0.041263,0.39580357,0.14465824,0.16600478,0.073421374,-0.05430814,0.14390375,-0.027232965,0.11146533,0.011837248,0.025253758,0.12917715,0.12468602,-0.04232175,0.103634514,-0.010423299,0.31927904,0.022838145,0.07035833,0.022598606,0.092370115,-0.044610906,-0.00042373687,-0.046533458,0.019139357,0.061000742,0.01892984,0.011797596,-0.023188874,0.11763487,-0.028888691,0.07292002,-0.033498153,-0.02048279,-0.0641723,0.011100892,0.062245503,0.008730607,0.08604717,0.03446372,0.5234644,0.12971886,0.1322278,0.027643327,0.133919,0.38345873
BK,0.09020758,0.0946577,0.104325525,-0.042128794,-0.016920082,0.09669928,-0.010647401,0.12445378,-0.0111532435,0.16367824,0.05390127,0.12233644,0.00012154132,-0.0025266707,0.059999328,0.053289797,0.034748793,0.049793735,0.081555076,-0.042043857,0.2185522,0.23297632,0.043746084,0.06263535,-0.057064597,0.20865937,0.23569596,0.08701633,0.0509101,0.0070033357,0.12464169,0.14621556,-0.008054196,0.11958861,-0.0016490519,0.10410029,0.028961077,0.07882303,-0.08716373,-0.060170345,0.009870376,0.0883033,0.058826737,0.024349544,0.0762295,0.06882943,0.04005776,0.17043936,0.093491,0.05492579,0.16937602,0.05748603,0.12003327,-0.05448824,0.038487144,0.12032703,0.12016621,0.16689056,-0.031125212,-0.052348893,0.004779659,-0.04998067,0.020286202,0.023828536,0.026006091,0.12672295,0.11324341,0.014525667,0.101561934,-0.060226843,0.32060608,0.0060998145,0.061285064,0.029292006,0.092373684,-0.039872587,0.060713857,-0.049993236,0.021843366,0.045569725,0.008324891,-0.07128175,-0.038167164,0.11540594,-0.0031526908,0.07230353,-0.034150697,-0.02185493,-0.096767195,0.010103449,0.06400512,0.011415966,0.086525545,0.014655534,0.111017264,0.12700418,-0.026991103,0.026342377,0.10312564,0.044668213
BKNG,0.09193773,0.09293725,0.12806335,-0.043415383,-0.014640622,0.12471368,-0.00937216,0.12390265,-0.0021997578,0.167191,0.057087123,0.15753728,-0.0007087104,-0.0017019212,0.062134933,0.07785649,0.058094878,0.06563938,0.08416602,-0.04541938,0.27510023,0.2918323,0.0426791,0.05619755,-0.058118314,0.2609083,0.23488685,0.088021666,0.049608458,0.02171672,0.13014823,0.14423911,-0.003014056,0.13368806,-0.01143527,0.1017467,0.029744536,0.11642379,-0.07880676,-0.061165065,0.018035796,0.12243806,0.08275118,0.0384692,0.075555414,0.08654976,0.07649721,0.22300938,0.09671251,0.058788713,0.16893771,0.05006741,0.120190345,-0.042008106,0.04272052,0.15393308,0.12397372,0.16549197,-0.014211891,-0.053971794,0.012639433,-0.04420175,0.030715786,0.0320805,0.025408309,0.12567136,0.11082733,0.033956543,0.101647496,-0.053598512,0.32338563,0.009056732,0.060307868,0.03165452,0.09320811,-0.04447222,0.08363724,-0.046770196,0.024241328,0.054847308,0.008413747,-0.061235555,-0.040078264,0.114922486,0.009088621,0.073106214,-0.026445715,-0.019701384,-0.087473914,0.011061482,0.06774379,0.009340884,0.0861602,0.012755252,0.15026659,0.12526172,-0.015702972,0.028096985,0.10698392,0.0773194
BKR,0.0897138,0.09528525,0.08219119,-0.037919007,-0.012611531,0.081214786,-0.014145352,0.121808894,-0.018149242,0.17789254,0.06751314,0.0884845,0.0052614408,-0.00035146624,0.07925102,0.046782,0.0334799,0.030642856,0.08728518,-0.040046014,0.16806711,0.18135518,0.049044188,0.058786318,-0.05705683,0.15123339,0.23985721,0.08956763,0.045374542,-0.0031977124,0.13554737,0.15307555,-0.0052744276,0.11243436,0.0024527311,0.105596766,0.029607352,0.039932057,-0.08313258,-0.058354884,-0.0064490866,0.057011217,0.0382903,0.02032245,0.08279484,0.06388556,0.02736976,0.11080295,0.09639547,0.06600488,0.17465991,0.060698032,0.12167093,-0.056844123,0.04091925,0.09659413,0.11728598,0.16942647,-0.036669314,-0.053728763,-0.00278138,-0.050229922,0.013001978,0.021121256,0.027486272,0.12841469,0.114704125,-0.0037171692,0.106348045,-0.054899283,0.33303568,0.008191042,0.06664042,0.029726002,0.09539028,-0.038774602,0.036952335,-0.047937714,0.02533593,0.04406093,0.009832956,-0.07959804,-0.033340484,0.1167609,-0.011179678,0.074900955,-0.033711262,-0.020603843,-0.09964065,0.01338258,0.071403965,0.018326985,0.08931805,0.0116278455,0.07392964,0.12782805,-0.038956247,0.025135517,0.096590064,0.01442612
BLK,0.08855398,0.09228473,0.087053694,-0.041223094,-0.015650474,0.05367772,-0.025296524,0.114860356,-0.030968655,0.16310541,0.06720483,0.07141665,0.002348356,-0.0030241907,0.060835134,0.052042816,-0.01670939,0.02641663,0.08117705,-0.04225709,0.124059856,0.13781708,0.043246917,0.05621774,-0.05808057,0.11388244,0.23577242,0.086963676,0.035372544,-0.008758176,0.1281151,0.14345206,-0.011158458,0.09375475,-0.003534004,0.10307449,0.029755332,0.021676697,-0.090820804,-0.058381565,-0.031135498,0.028190475,0.027183533,0.0004852228,0.073405564,0.02057124,0.03320512,0.097573996,0.0952156,0.064447716,0.1698058,0.051121894,0.119544685,-0.058799032,0.04014466,0.06974335,0.10757991,0.1666351,-0.04369243,-0.053689342,-0.015752591,-0.05322781,0.011704816,-0.00046285242,0.02628892,0.124712445,0.110437855,0.0012005046,0.10274049,-0.054548502,0.322664,0.00062539056,0.060519185,0.023317069,0.09140384,-0.036149163,0.038757708,-0.049524583,0.018497035,0.040775135,0.0075499415,-0.08607356,-0.038237523,0.11593075,-0.030975513,0.07318431,-0.03383299,-0.021688381,-0.10699767,0.010388084,0.06507554,0.009093547,0.08648682,0.0028344728,0.06519166,0.12540759,-0.04658468,0.02440488,0.08777354,0.009030573
BLL,0.09305636,0.09371872,0.08188358,-0.043964803,-0.00069562346,0.15031508,0.028089836,0.1199805,0.055218957,0.17570403,0.052429717,0.068027206,0.0012633018,-0.0021710098,0.073043734,0.046012457,-0.015102562,0.025059333,0.08389639,-0.04320194,0.11708805,0.14539137,0.042838655,0.07038767,-0.05867362,0.112421066,0.24174896,0.09880756,0.066514544,0.12987755,0.13373049,0.14276773,0.00038932357,0.14671125,0.014382631,0.103500776,0.030386161,0.013572529,-0.0708362,-0.058811158,-0.028884623,0.023486722,0.03603507,-0.005225744,0.076098025,0.019087221,0.20500718,0.090889856,0.09652841,0.066295,0.16980755,0.05786361,0.11939977,-0.045244418,0.04653699,0.19310671,0.12916046,0.16614595,-0.0044025388,-0.05367131,0.06731516,-0.036043596,0.05513209,-0.004519902,0.027417194,0.13016455,0.11590026,-0.0009386316,0.101975955,-0.043245293,0.3243705,0.03381927,0.060092084,0.022119679,0.092257515,-0.036393892,0.034044914,-0.047818422,0.0207171,0.052469607,0.015456602,-0.04042764,-0.04070632,0.116035536,-0.030366704,0.07349598,-0.031110594,-0.017725328,-0.08294512,0.010437559,0.06324516,0.016314574,0.08699538,0.017899014,0.25500524,0.12806527,0.040256143,0.026022114,0.11355704,0.16454439
BMY,0.08827264,0.09265491,0.19031353,-0.041036636,-0.012777187,0.08777186,-0.018642485,0.12662233,-0.007258471,0.1767539,0.07981071,0.24430482,0.0008496847,-0.0031651184,0.08792236,0.16249749,0.08334529,0.108898,0.091818914,-0.040227704,0.38646415,0.40749177,0.051439185,0.05372774,-0.057133317,0.3643386,0.23869371,0.08788195,0.028376307,0.00029442413,0.1387245,0.14637342,-0.0087931845,0.113947146,0.020407945,0.106563754,0.02946322,0.20106313,-0.086611606,-0.058108903,0.0024870783,0.18285978,0.13738436,0.06577326,0.07359385,0.1252338,0.019559778,0.3474035,0.095544435,0.07178499,0.16902666,0.051269952,0.12098895,-0.055317037,0.045942977,0.10333701,0.119351916,0.16683838,-0.0310222,-0.054903455,0.0031917356,-0.04704617,0.027662698,0.05110553,0.02591002,0.12702477,0.11031265,0.08747193,0.10144523,-0.05338773,0.3248804,0.004301768,0.06278695,0.025633465,0.093716204,-0.026483841,0.14506143,-0.048870746,0.02216407,0.042553388,0.001735039,-0.07758566,-0.03849237,0.115989126,0.028810792,0.07260167,-0.033663876,-0.0175016,-0.09718431,0.008438595,0.07126655,0.02712081,0.088601455,0.008263797,0.086210124,0.1288292,-0.036363628,0.025893565,0.099360175,0.020758308
BR,0.09122546,0.09456843,0.124519885,-0.041201323,-0.0001186952,0.06152633,0.032200843,0.118144296,0.050216727,0.1592759,0.06689952,0.1356708,0.0020931466,-0.001564607,0.07462077,0.09557267,0.021025037,0.052138932,0.078457296,-0.045352254,0.22682326,0.24836741,0.042085066,0.04957749,-0.057232127,0.20642038,0.23520428,0.09705731,0.06459959,0.12656489,0.13002987,0.14749059,-0.010585727,0.09298667,0.0127593875,0.10168875,0.029038068,0.08715443,-0.083242476,-0.06003326,-0.019031353,0.08606291,0.07198316,0.016935095,0.07635541,0.051169798,0.1981222,0.1947879,0.094229884,0.07434215,0.16923283,0.055836223,0.11972129,-0.046774205,0.046077803,0.1834138,0.10816745,0.1659931,-0.027444517,-0.053933118,0.06513069,-0.0572967,0.053525005,0.012335181,0.023245022,0.12455286,0.10944656,0.03612815,0.10208921,-0.043946266,0.3203928,0.029780757,0.061493352,0.022390034,0.09353245,-0.02998653,0.076395616,-0.049069986,0.020869412,0.04002791,0.016842596,-0.04336186,-0.038910642,0.116307504,-0.009247348,0.07307728,-0.033192296,-0.0148312375,-0.106734365,0.009682424,0.061773796,0.030157555,0.0887119,0.0028623454,0.24858615,0.12885836,0.03810515,0.026156504,0.08868493,0.1625286
BRO,0.08924833,0.09231165,0.030194785,-0.04199157,-0.01740478,0.065574445,-0.03527659,0.116260655,-0.031649206,0.15742595,0.047179993,0.005371568,-0.0011509256,-0.0035306364,0.04928469,-0.009632231,-0.010839116,-0.0039628204,0.07822821,-0.04588176,0.039590046,0.03903471,0.039119367,0.049612816,-0.057370182,0.02563582,0.23560984,0.085747875,0.02730656,-0.055854496,0.12032798,0.14646362,-0.0109882895,0.09779427,-0.015504926,0.1015802,0.030091245,-0.046597816,-0.09267342,-0.06079462,-0.028453484,-0.025296148,-0.021490892,-0.007176291,0.07406996,0.019996494,-0.007038079,-0.014106505,0.09228338,0.04744997,0.16720977,0.049814552,0.11816396,-0.06237729,0.038710997,0.08838221,0.10997564,0.1640472,-0.037813157,-0.05529689,-0.03236565,-0.057014864,0.0039379913,0.004521318,0.024478436,0.12510478,0.10923712,-0.044544153,0.101548776,-0.062582694,0.31518066,-0.009814079,0.060824625,0.024157528,0.09307311,-0.046375096,-0.011787988,-0.049126323,0.017466426,0.041200433,0.0030854046,-0.08049964,-0.039889287,0.11538237,-0.035914674,0.07310625,-0.032887053,-0.02254508,-0.109387755,0.009593464,0.062042538,0.0026931968,0.08739151,0.0043936,0.044911943,0.12366796,-0.04517613,0.026987039,0.09085776,-0.001606755
BSX,0.08826379,0.093722455,0.06402747,-0.04267916,-0.010209605,0.087099016,0.00018979609,0.118369766,0.013696335,0.18145247,0.061940715,0.052014202,0.0077784117,-0.0016392842,0.085958205,0.031869352,0.018503394,0.012833629,0.08391781,-0.044315066,0.114908755,0.11964782,0.05121363,0.08016097,-0.050148085,0.08567481,0.24047653,0.086886555,0.06729736,0.040750396,0.13639615,0.14639601,-0.006125072,0.10807312,-0.0033637732,0.10564349,0.029031701,0.0055103153,-0.086330846,-0.062443465,-0.018196134,0.019813899,0.020375745,0.00073017925,0.079576574,0.03213407,0.06855175,0.05111379,0.09493474,0.06341978,0.17270643,0.056452807,0.12020993,-0.05318792,0.04444346,0.116677426,0.11138733,0.1656739,-0.02759288,-0.053387664,0.020089757,-0.050419696,0.044589475,0.015729789,0.024422254,0.12587364,0.109696075,-0.019025333,0.1019155,-0.050183386,0.32730848,0.014799207,0.06141113,0.026583165,0.09167252,-0.041728243,0.019408867,-0.04843552,0.019323438,0.041972935,0.014611527,-0.07422147,-0.042090535,0.1147647,-0.023800746,0.072690025,-0.03234072,-0.019717576,-0.10451238,0.008488923,0.066963054,0.012863638,0.086241096,0.005102873,0.12515177,0.12317103,-0.0048006903,0.026111517,0.100207664,0.059510037
BWA,0.0921886,0.0954443,0.08303577,-0.04247362,-0.010418318,0.10535222,-0.01756753,0.11778688,-0.008405969,0.17315374,0.062551975,0.079319865,0.0010790341,-0.00029896945,0.07516609,0.049709287,-0.0022464097,0.024949957,0.08576763,-0.041750483,0.13537529,0.14951818,0.04676181,0.062280245,-0.057046637,0.12117375,0.23643057,0.09460347,0.03218376,-0.0014090617,0.13512577,0.14929062,-0.0069026975,0.12021091,0.00035565346,0.10363392,0.029464267,0.02221939,-0.08232738,-0.056039162,-0.022039063,0.03730536,0.033593744,-0.0006302148,0.07593527,0.029769436,0.05643487,0.102424964,0.09546982,0.06602822,0.17070866,0.05198135,0.11818625,-0.050469346,0.039411835,0.14007254,0.122250564,0.16871996,-0.017561413,-0.050563827,-0.0038367957,-0.046906378,0.01579135,0.0075925402,0.026830051,0.12764074,0.11265135,0.0027279034,0.1049055,-0.052034833,0.32147127,-0.0017986018,0.06264738,0.027932476,0.09495209,-0.038752038,0.039104894,-0.048241,0.017848209,0.045139097,0.007231079,-0.059999645,-0.036121514,0.11555782,-0.027046513,0.07223149,-0.03357918,-0.020941451,-0.095681876,0.012549225,0.06959307,0.01563771,0.08957383,0.01255811,0.12502739,0.13046992,-0.020482127,0.027474832,0.10480188,0.059289284
BXP,0.08774342,0.09507291,0.0381156,-0.039361678,-0.018603198,0.066904485,-0.033132598,0.11549238,-0.030884605,0.15994614,0.048463516,0.0046783118,-0.0020532366,0.0018802881,0.049910054,-0.002165161,-0.026730139,-0.0053665545,0.0811716,-0.044476703,0.020075954,0.02848202,0.04149922,0.048965916,-0.059131656,0.013744216,0.23750232,0.08640992,0.02926062,-0.03839151,0.12247406,0.1417846,-0.011316869,0.10012061,-0.012133941,0.10107217,0.028973658,-0.053447045,-0.09256713,-0.064093,-0.042035118,-0.03214172,-0.013294503,-0.02274396,0.073216125,-0.009958617,-0.0040161163,-0.006780807,0.094293095,0.05030303,0.1674442,0.0513487,0.11853601,-0.05999739,0.039731644,0.0922963,0.106842786,0.1636063,-0.03708035,-0.054446723,-0.025262766,-0.0552712,0.0129768215,-0.0034458116,0.0242274,0.12431964,0.10974619,-0.04235571,0.10210396,-0.060109105,0.31290334,-0.008929258,0.05936538,0.021845471,0.092791095,-0.046916354,-0.004396908,-0.048992887,0.013606593,0.04160762,0.0034361333,-0.080311336,-0.043078776,0.11588327,-0.048406154,0.07374045,-0.033023313,-0.022590525,-0.1109578,0.0084731765,0.062484242,0.008803716,0.087341584,0.003008917,0.04741799,0.12425551,-0.043349717,0.029085204,0.09199856,0.0018964782
C,0.0890056,0.094556145,0.04251181,-0.040001728,-0.016340718,0.07668446,-0.026126519,0.11941363,-0.023349416,0.16181445,0.050591685,0.023755074,-0.00055728573,-0.0034984723,0.06066959,0.0057064327,-0.00065248087,0.00535094,0.08293225,-0.041756954,0.07097916,0.074085504,0.042597845,0.054637164,-0.056145187,0.055834413,0.23695622,0.087932244,0.039802555,-0.013170609,0.12618922,0.14570756,-0.009389356,0.10794426,-0.0049824864,0.10247737,0.028614596,-0.025068693,-0.08540814,-0.05977963,-0.022965863,-0.00548145,0.0032125097,-0.0012683608,0.07548237,0.029357068,0.032361787,0.016696077,0.09538059,0.055130776,0.16914058,0.05441113,0.11869496,-0.053665545,0.039525628,0.09673119,0.11374615,0.1654545,-0.030847058,-0.053564966,-0.016138442,-0.047283705,0.0062550176,0.00749439,0.025525473,0.12658775,0.11151968,-0.0338194,0.10379577,-0.05335155,0.31901786,-0.0011025015,0.05990898,0.024848841,0.091858394,-0.043490186,0.00027326122,-0.05026982,0.020389244,0.04110501,0.0053603724,-0.077934995,-0.039022867,0.11528606,-0.031306043,0.0732051,-0.034844775,-0.022792019,-0.10398355,0.010708891,0.06379793,0.011073874,0.08613804,0.006114695,0.08771869,0.12872626,-0.034888633,0.025253281,0.096206985,0.030667812
CAG,0.09047866,0.09681764,0.22846852,-0.023112163,-0.012216173,0.23860389,0.021006547,0.13100828,0.101681046,0.17840704,0.106583044,0.28476483,-0.001039884,0.0024407879,0.12288283,0.2057516,0.08984375,0.11367376,0.09214249,-0.022609636,0.45272428,0.49387738,0.0600537,0.09484854,-0.058523364,0.4405313,0.23582244,0.09763695,0.03842411,0.16487743,0.1399102,0.15372586,-0.00048269145,0.18113735,0.07090585,0.10728158,0.030186366,0.23537847,-0.05735154,-0.059054524,0.030134898,0.23370327,0.18010435,0.06624925,0.078701496,0.13615276,0.2794154,0.41163707,0.09898432,0.10510985,0.17194314,0.051862907,0.12363863,-0.024095848,0.047513954,0.3408233,0.12861185,0.16555938,0.058229513,-0.052987218,0.08748693,-0.012777381,0.098871335,0.04034347,0.024061691,0.1324987,0.118581325,0.12116146,0.099160045,-0.024453137,0.3252348,0.0154211,0.067187324,0.032491248,0.09669962,-0.00662715,0.17361206,-0.047979638,0.027033418,0.05846019,0.00778389,-0.008464122,-0.036335405,0.12634736,0.040460207,0.07259695,-0.025711179,-0.01652753,-0.06844194,0.009215031,0.07135436,0.040995203,0.08796713,0.024336245,0.42857277,0.13035734,0.10338719,0.028306302,0.12720942,0.32460502
CAH,0.0892933,0.0992964,0.2943492,-0.04412663,-0.011573777,0.086272985,-0.022421658,0.11841924,-0.008345552,0.2401988,0.1458692,0.38981646,0.0047483696,0.0074336603,0.1916222,0.28954858,0.14137632,0.15234724,0.11030769,-0.0104644345,0.6165976,0.688978,0.09181437,0.057502642,-0.051143825,0.60293025,0.25283825,0.08761036,0.0480308,0.021321116,0.1756103,0.15065424,-0.009620319,0.10808509,0.12310822,0.114614725,0.03177199,0.36063486,-0.08703263,-0.058104187,0.0069195796,0.33042854,0.25326324,0.10386201,0.07751388,0.19089623,0.08286705,0.56138027,0.10098181,0.12969106,0.17037335,0.055674084,0.120205335,-0.043136857,0.049194783,0.13724813,0.11095845,0.17261066,-0.0149924,-0.05110566,0.0034774132,-0.051429965,0.015393153,0.07076552,0.031222355,0.124313734,0.111832835,0.18539771,0.1022839,-0.049269542,0.35844406,0.0013800692,0.062133864,0.024967913,0.09455797,0.0031804368,0.2378583,-0.046745148,0.020392627,0.04088722,0.006026879,-0.06773294,-0.036178667,0.11462757,0.082598306,0.0748319,-0.0145814195,-0.010108866,-0.10699098,0.010686103,0.09847783,0.06671055,0.0929569,0.00749192,0.15213916,0.12714209,-0.01222067,0.028646085,0.09394657,0.080060795
CAT,0.09088134,0.09296532,0.09067738,-0.0413964,-0.010543913,0.080465496,-0.018385135,0.11985999,-0.014804963,0.17690665,0.06804857,0.10494482,0.0011856277,-0.0050979853,0.07974535,0.056150496,0.033828247,0.037220664,0.088074796,-0.04103093,0.1922291,0.20414223,0.048760623,0.058975734,-0.057140775,0.17948401,0.23730323,0.09113218,0.03428233,0.01510869,0.13615239,0.14433351,-0.00762717,0.105341405,0.008062586,0.10610022,0.0297352,0.05855605,-0.08918148,-0.06023006,0.0034843143,0.073098615,0.043717187,0.021237671,0.07479193,0.06005278,0.06558911,0.14444783,0.095236644,0.06524239,0.17237642,0.05399385,0.11957455,-0.05717969,0.043465108,0.10718165,0.11491464,0.16674402,-0.030891107,-0.052175686,-0.0079836175,-0.052633286,0.014374133,0.013340589,0.027083274,0.12521966,0.11146689,0.008424051,0.104894385,-0.050788686,0.3302436,-0.0012208149,0.06280349,0.023469735,0.09290803,-0.035702728,0.051629763,-0.04846728,0.021218643,0.03891728,0.007928818,-0.075801246,-0.037082184,0.11558792,-0.008204393,0.07300684,-0.03352288,-0.017279541,-0.102044664,0.011679061,0.0691795,0.01576533,0.08377145,0.007763326,0.10708793,0.12668407,-0.030501898,0.026451264,0.09909304,0.04161167
CB,0.08919425,0.09148289,0.04239277,-0.043303065,-0.017731443,0.061729863,-0.039992757,0.1159994,-0.0363349,0.15709825,0.04911762,0.015111759,-0.0035988484,-0.0031612217,0.05617401,0.0044601797,-0.015685529,-0.00763957,0.08029879,-0.047703926,0.04102866,0.06065146,0.038492545,0.053674858,-0.059452213,0.034527272,0.23764546,0.08481892,0.025853492,-0.036339194,0.123609275,0.14304924,-0.009633164,0.099443436,-0.0044792667,0.10265367,0.031095203,-0.04534106,-0.0902157,-0.06024383,-0.032954805,-0.024144184,0.00097562,-0.012014665,0.07277155,0.012707986,-0.002364397,0.0019186363,0.09297952,0.04808841,0.16781555,0.051188715,0.11736485,-0.062771454,0.04149179,0.07849455,0.11299383,0.1643393,-0.04166445,-0.05620199,-0.031145703,-0.054379523,0.008157121,0.0004227385,0.025427569,0.124469705,0.109784186,-0.03413953,0.10249693,-0.05838332,0.31469506,-0.01101883,0.060702827,0.022032138,0.09294098,-0.047734752,-0.006531965,-0.04862268,0.015959471,0.03970824,0.0017429814,-0.085784525,-0.03926703,0.115152135,-0.041404556,0.07248793,-0.031982787,-0.019928377,-0.106066994,0.009777524,0.063718766,0.010415368,0.0880237,0.004708808,0.03339396,0.12483221,-0.05104364,0.027665116,0.08958737,-0.013965704
CBOE,0.08789537,0.09929556,0.12176634,-0.040876485,-0.015953295,0.090272024,-0.02965109,0.11844855,-0.019092266,0.16882314,0.061826684,0.13743247,0.00017419364,-0.0019684136,0.09248191,0.09371068,0.014578643,0.03092906,0.087821335,-0.04438927,0.23102647,0.2703691,0.04376257,0.055626027,-0.057973605,0.22291952,0.23595205,0.086606674,0.031971294,-0.029777916,0.12751885,0.14453524,-0.008204401,0.117067486,0.039914995,0.10230219,0.03059534,0.08399372,-0.08657719,-0.060992338,-0.03676058,0.09241665,0.08963495,0.011343427,0.074979946,0.052499674,0.026020177,0.18664004,0.09548955,0.071181566,0.16854458,0.0531275,0.117550656,-0.054146595,0.042530738,0.10898525,0.12049848,0.1648824,-0.028897371,-0.054909673,-0.021545231,-0.048377126,0.017005168,0.0024914928,0.026043959,0.12540132,0.11005097,0.036807805,0.103125975,-0.06109954,0.31644842,-0.0011229962,0.059715636,0.021927778,0.09299665,-0.039151046,0.058585957,-0.048882537,0.015875518,0.044583112,0.0030417815,-0.07574388,-0.040078737,0.117032096,-0.021665297,0.072780326,-0.03245613,-0.019013107,-0.09515201,0.009258501,0.06353274,0.031109616,0.08546072,0.01156868,0.094522774,0.123846546,-0.03436526,0.024128333,0.102139175,0.02978298
CBRE,0.0911034,0.0938238,0.052113105,-0.041523702,-0.012279868,0.05666639,-0.020768575,0.11884096,-0.02314603,0.15846539,0.052534036,0.034303397,-0.0032199118,-0.0024051443,0.05852302,0.014659804,0.0041204356,0.014339441,0.08073722,-0.04492987,0.08685422,0.08988983,0.040431716,0.05415255,-0.059157547,0.071309805,0.23625831,0.08762577,0.027479485,-0.008072892,0.12431289,0.14970323,-0.009795863,0.09727059,-0.00068831444,0.102083616,0.028076813,-0.016728852,-0.08921145,-0.06050559,-0.021371344,0.005036082,0.0075950064,0.0027482584,0.07553521,0.034667775,0.018073834,0.029379167,0.09301928,0.05017861,0.17010367,0.051186994,0.11884605,-0.062395874,0.039051935,0.06661236,0.11246356,0.1660607,-0.047268648,-0.05305141,-0.018300198,-0.051843006,0.0070674084,0.009648189,0.023714833,0.1264922,0.111614645,-0.028094314,0.10240737,-0.05579025,0.3183702,-0.0034919148,0.062325835,0.024298552,0.09392585,-0.045378663,0.008617647,-0.050153624,0.020387553,0.039805017,0.005056031,-0.09151179,-0.041274652,0.11560997,-0.027353447,0.07327674,-0.032634854,-0.023226406,-0.10687192,0.009800572,0.063190356,0.008042991,0.08690536,0.008991577,0.036663804,0.12619296,-0.04490035,0.027759496,0.092607066,-0.0166459
CCI,0.08847361,0.09527976,0.039848022,-0.040957816,-0.016428456,0.06335851,-0.031111635,0.116461605,-0.03686307,0.16861582,0.0555437,0.014718598,-1.0986812e-05,-0.0009460002,0.0632471,0.0066456385,-0.018569048,-0.0039314106,0.085396655,-0.045067735,0.030793222,0.056595825,0.04249081,0.051894482,-0.057149313,0.023603685,0.23607801,0.08603231,0.02711742,-0.035626296,0.13084647,0.14382541,-0.011152022,0.10018721,-0.0048079044,0.10293589,0.028458584,-0.031080537,-0.08587316,-0.062365703,-0.033457104,-0.02597816,-0.0055812914,-0.011647277,0.07629527,0.011565149,-0.0067716017,-0.00094981864,0.0938386,0.056537826,0.16747272,0.049979527,0.119203396,-0.059955847,0.03842351,0.07965134,0.11137107,0.1648656,-0.041991208,-0.05554025,-0.022542879,-0.054662745,0.0070866663,-0.0012630522,0.024670955,0.12418177,0.109314986,-0.034843057,0.1018338,-0.05890331,0.32283935,-0.0038852459,0.061911553,0.023528948,0.09436131,-0.04577307,-0.002198808,-0.04795461,0.0154928565,0.039870523,0.0023621544,-0.082863554,-0.042939387,0.11527588,-0.041834615,0.07329792,-0.032423355,-0.021731475,-0.105554074,0.009491932,0.063836776,0.008335328,0.08694345,0.006020207,0.034117583,0.12401607,-0.053966008,0.027969882,0.09082244,-0.011396989
CDNS,0.09763567,0.092668995,0.07496388,-0.044333763,0.0053680614,0.12398854,0.06124276,0.11879884,0.100145854,0.16136491,0.05469611,0.06748898,0.0046895845,-0.004615307,0.06006944,0.040347595,0.009191968,0.021825807,0.08039688,-0.04408165,0.11315263,0.1228115,0.039305832,0.058964536,-0.0517533,0.099880695,0.23668797,0.094124705,0.09681439,0.21504065,0.12569574,0.14631265,-0.00798865,0.10549421,0.0025328025,0.10162244,0.030914344,0.0085630305,-0.076987386,-0.057673335,-0.018498182,0.023219652,0.02372747,-0.0007419549,0.07655505,0.031715035,0.3165943,0.08049023,0.09492685,0.058691785,0.17433146,0.061255973,0.122618325,-0.039975554,0.041994385,0.28179875,0.11582062,0.1684634,0.0056260135,-0.053568587,0.12177436,-0.050150752,0.0935425,0.016435884,0.026975166,0.12681463,0.11152394,-0.0025950968,0.10276137,-0.028121103,0.32665753,0.04868551,0.06218203,0.02321149,0.0925151,-0.037339494,0.032238726,-0.047706272,0.024150074,0.040813915,0.025433943,-0.012324713,-0.03501252,0.11349916,-0.025006104,0.07303981,-0.030561889,-0.019607494,-0.091227114,0.012589719,0.061990052,0.013394706,0.08617492,0.008788139,0.3889516,0.12502846,0.09318848,0.026209459,0.095889635,0.28097153
CDW,0.09431754,0.09591298,0.07212518,-0.044075377,0.00077290833,0.09698465,0.03478208,0.12105499,0.06869977,0.16406873,0.050779603,0.0811473,0.0048717437,-0.0038679242,0.06809639,0.035365548,0.027704867,0.027727114,0.080335096,-0.044138853,0.16114148,0.17143613,0.043523986,0.060563635,-0.05465328,0.14732677,0.23979852,0.095521934,0.08112763,0.153471,0.124511614,0.14973852,-0.007573821,0.12012249,0.011446133,0.1028905,0.029616296,0.032476045,-0.08359664,-0.057114094,-0.009001607,0.0513461,0.037890382,0.019098375,0.07632878,0.061443992,0.2317856,0.10452234,0.09548247,0.05589339,0.17084645,0.05498222,0.12069778,-0.04767592,0.04198225,0.20800819,0.12259568,0.16735725,-0.01801709,-0.052180395,0.08040722,-0.04837298,0.06478931,0.021105856,0.0291893,0.1281605,0.112095885,-0.0078892335,0.10192891,-0.043619804,0.32310045,0.03417143,0.06261687,0.026097968,0.09405327,-0.042727895,0.02645132,-0.046519153,0.025750361,0.04576107,0.018978648,-0.035279058,-0.03623309,0.11497783,-0.01104264,0.07353784,-0.031299934,-0.019990508,-0.09363415,0.009601504,0.06275447,0.01712842,0.0827931,0.015104469,0.28911155,0.1269372,0.055085756,0.027517423,0.105349734,0.19304374
CE,0.0903198,0.09437495,0.07706565,-0.041954473,-0.011336215,0.08577043,-0.018404827,0.118215315,-0.0006194897,0.16270448,0.058779348,0.0625347,9.110197e-06,-0.0030234456,0.05637524,0.04078528,0.009955317,0.019284517,0.08148869,-0.041896846,0.105166286,0.119096145,0.042244025,0.06013024,-0.057628356,0.09412709,0.23579288,0.08925285,0.035774194,0.027204432,0.12334357,0.15066132,-0.009140894,0.11117952,-0.009851739,0.10351277,0.030235626,0.0059638694,-0.08151666,-0.06060236,-0.016383225,0.017088644,0.022827603,0.006566044,0.07908491,0.037764512,0.08182149,0.07447289,0.095335804,0.059722193,0.17000626,0.051227618,0.12055251,-0.047543753,0.039978914,0.1443484,0.11825403,0.16622248,-0.0117900465,-0.05293836,0.008215785,-0.051648192,0.02116979,0.011816524,0.025695864,0.12584808,0.110131666,-0.0061518922,0.103436425,-0.050027072,0.32256547,-0.0055665243,0.061790023,0.025468543,0.09326673,-0.039855983,0.03053476,-0.04883734,0.017878689,0.040642247,0.006902568,-0.06715162,-0.041028693,0.115590915,-0.023414083,0.07197418,-0.03382594,-0.018937107,-0.10009998,0.010669868,0.06241527,0.01542286,0.08526307,0.013382606,0.15799923,0.12501724,-0.0038608443,0.02610796,0.0975168,0.08630433
CERN,0.08855398,0.09228473,0.087053694,-0.041223094,-0.015650474,0.05367772,-0.025296524,0.114860356,-0.030968655,0.16310541,0.06720483,0.07141665,0.002348356,-0.0030241907,0.060835134,0.052042816,-0.01670939,0.02641663,0.08117705,-0.04225709,0.124059856,0.13781708,0.043246917,0.05621774,-0.05808057,0.11388244,0.23577242,0.086963676,0.035372544,-0.008758176,0.1281151,0.14345206,-0.011158458,0.09375475,-0.003534004,0.10307449,0.029755332,0.021676697,-0.090820804,-0.058381565,-0.031135498,0.028190475,0.027183533,0.0004852228,0.073405564,0.02057124,0.03320512,0.097573996,0.0952156,0.064447716,0.1698058,0.051121894,0.119544685,-0.058799032,0.04014466,0.06974335,0.10757991,0.1666351,-0.04369243,-0.053689342,-0.015752591,-0.05322781,0.011704816,-0.00046285242,0.02628892,0.124712445,0.110437855,0.0012005046,0.10274049,-0.054548502,0.322664,0.00062539056,0.060519185,0.023317069,0.09140384,-0.036149163,0.038757708,-0.049524583,0.018497035,0.040775135,0.0075499415,-0.08607356,-0.038237523,0.11593075,-0.030975513,0.07318431,-0.03383299,-0.021688381,-0.10699767,0.010388084,0.06507554,0.009093547,0.08648682,0.0028344728,0.06519166,0.12540759,-0.04658468,0.02440488,0.08777354,0.009030573
