,0,1,2,3,4,5,6,7,8,9,10,11,12,13,14,15,16,17,18,19,20,21,22,23,24,25,26,27,28,29,30,31,32,33,34,35,36,37,38,39,40,41,42,43,44,45,46,47,48,49,50,51,52,53,54,55,56,57,58,59,60,61,62,63,64,65,66,67,68,69,70,71,72,73,74,75,76,77,78,79,80,81,82,83,84,85,86,87,88,89,90,91,92,93,94,95,96,97,98,99
A,0.17047246,0.17224005,0.038441584,0.010710053,0.20536423,0.1200118,-0.06362076,-0.020809826,-0.09489364,0.18698956,0.015185244,0.03871801,0.08293837,0.12195269,-0.049146615,0.2862662,0.0833005,0.13637654,0.0025170185,0.12651935,0.17905203,-0.033863127,-0.0130203925,-0.035321698,0.017523445,0.22560732,0.023182213,-0.036550894,-0.042271018,0.08910116,-0.026559144,-0.016960165,-0.005359404,0.32974613,-0.025807384,-0.07113791,0.032073274,-0.011243485,0.11856413,0.2969647,-0.00523389,0.09226677,0.1331742,-0.011743372,0.19890219,0.14625521,-0.037649058,0.030734636,0.051477417,0.08664131,0.081557155,-0.063228354,0.2190499,0.05739899,-0.048937976,0.12715061,0.06877992,0.116936244,0.085293934,0.073057935,0.3062507,-0.00024309382,-0.040975794,0.09128752,0.0351393,-0.012705799,0.027597144,0.094233535,-0.05162615,-0.040899426,0.07798883,0.0252931,0.24326955,0.035851996,-0.071048245,0.15121421,-0.027703857,-0.016171051,-0.040621694,0.110426344,-0.0764001,0.087477446,0.16087544,0.19635431,-0.0016957186,0.2263566,0.07456708,0.07528322,-0.04309523,-0.042319566,0.085795574,-0.09430887,-0.036533624,-0.03814378,0.08693441,-0.0019410029,0.037878074,0.15552235,0.04375401,-0.03432182
AAL,0.20512089,0.17853573,0.039421756,0.014242809,0.20669368,0.11427685,0.029964216,-0.0019273944,-0.092008725,0.1884633,0.012497656,0.039340377,0.08336453,0.13301225,-0.02886208,0.29438242,0.23279375,0.14254797,0.23451532,0.13743348,0.17822172,-0.03249886,-0.012157697,0.028334046,0.03293105,0.22212261,0.026104629,-0.03642845,0.07970801,0.09229024,-0.025781706,-0.018032113,0.23723935,0.34152567,0.01679561,-0.06422417,0.03425709,-0.011943523,0.12097992,0.30449638,0.0024218145,0.093539745,0.34171504,-0.011826014,0.20063898,0.15361606,-0.032225635,0.15438515,0.054142967,0.2881546,0.08025807,-0.0582067,0.23381299,0.06098211,-0.051901944,0.13736068,0.07101739,0.12262435,0.12587245,0.08330582,0.311176,0.12425314,0.018958,0.09047194,0.12949686,-0.013576012,0.145269,0.09591825,0.0358794,-0.027343605,0.08022915,0.030617679,0.24691899,0.042011928,-0.0390913,0.15312515,0.078861244,0.042773575,-0.0423538,0.121503465,-0.023327202,0.08858825,0.16410074,0.19948013,0.038024545,0.23025966,0.07810027,0.0806428,0.051825657,-0.0409523,0.086731695,-0.09195741,0.008118583,-0.03256219,0.27407372,-0.0012181923,0.09976131,0.15508616,0.15363324,-0.021421924
AAP,0.20740859,0.1750943,0.040030815,0.01707431,0.20612992,0.11822566,0.08320663,0.03859461,-0.08766715,0.18269363,0.03256915,0.039419398,0.08475607,0.13847901,0.0034600506,0.2824619,0.2941248,0.13413443,0.39801753,0.14895946,0.17875573,-0.037068903,-0.012815535,0.076021105,0.08291475,0.22563592,0.02292148,-0.03689261,0.15683496,0.09291917,-0.026635319,-0.016334532,0.3692074,0.32651484,-0.020350937,-0.047915045,0.031626787,-0.012044787,0.11742504,0.3056848,0.014741234,0.09288761,0.42817205,-0.012135483,0.20127602,0.14541323,-0.036220856,0.18690032,0.05886853,0.38467795,0.07922534,-0.059887685,0.23167357,0.05913212,-0.04878202,0.14124635,0.06927911,0.1343399,0.14555933,0.082807735,0.3074824,0.20679963,0.071932405,0.09083249,0.12307666,-0.013705358,0.18431897,0.101866774,0.087182805,0.0046844482,0.07883414,0.02455765,0.24934396,0.040427893,-0.0196224,0.15101337,0.13160639,0.05391889,-0.0366387,0.11680125,-0.018118478,0.087329015,0.16029947,0.19570857,0.002266176,0.22808777,0.07527233,0.08822407,0.115751,-0.041766103,0.09128079,-0.0874991,0.05266919,-0.042085435,0.38704497,-0.0061798915,0.06897452,0.1548399,0.22120325,0.027995136
AAPL,0.19093809,0.17081687,0.039906487,0.012212016,0.20570569,0.12097615,-0.034250386,-0.00019848347,-0.096102804,0.18215564,0.018308302,0.03545203,0.08440454,0.12374515,-0.04801573,0.29027545,0.09810301,0.13331702,0.0823835,0.13499375,0.17942165,-0.039288893,-0.01327157,-0.024772543,0.0217144,0.22841004,0.019983627,-0.0358132,0.0057828464,0.09011516,-0.027556226,-0.018233668,0.0842133,0.3324061,-0.03738655,-0.071763024,0.032023057,-0.012436496,0.11779401,0.29946288,0.00044184783,0.092518404,0.14773081,-0.011025917,0.1994356,0.14722365,-0.0396287,0.038940955,0.052775256,0.099870056,0.077366166,-0.061402418,0.23044246,0.058019727,-0.04605072,0.13022229,0.0696531,0.11833488,0.10197237,0.07928371,0.30925387,0.041121177,-0.019165857,0.09105909,0.038050883,-0.010889877,0.036236048,0.09598149,-0.021799523,-0.03243705,0.07858589,0.027885526,0.24277595,0.03850208,-0.061443865,0.152353,0.005361082,-0.013013862,-0.04080247,0.11404436,-0.05149831,0.08651967,0.1617913,0.19625449,-0.015983798,0.2284581,0.074408025,0.07322404,-0.0036680996,-0.042588465,0.08575486,-0.092917174,-0.025235623,-0.035019524,0.11502525,-0.0051973164,0.034315538,0.15449971,0.065562576,-0.03477301
ABBV,0.17394671,0.17325373,0.039310724,0.0118135065,0.2044045,0.120628856,0.012121176,0.025381457,-0.09641324,0.18908936,0.019316528,0.045013957,0.085260876,0.119252816,-0.024270799,0.28731644,0.15754831,0.14904836,0.23993574,0.12698956,0.1801047,-0.040378317,-0.01274154,0.017227069,0.04361333,0.22455385,0.025164105,-0.03755205,0.03429413,0.090380326,-0.027304668,-0.011196773,0.1940119,0.33045706,-0.012359723,-0.055765055,0.03351582,-0.010704458,0.11778022,0.29939502,-0.00375614,0.092243984,0.23751521,-0.012130778,0.19872014,0.1479058,-0.037641224,0.079819724,0.05127998,0.2045418,0.08082892,-0.064443044,0.22532712,0.056840956,-0.048176438,0.12865907,0.0693795,0.11852552,0.10117583,0.07443076,0.3097174,0.11110746,-0.005797887,0.092047274,0.061448812,-0.011748973,0.09246848,0.09957827,0.027766302,-0.024374709,0.07580062,0.025437599,0.24241185,0.037400547,-0.050269987,0.1511017,0.0453083,0.0057744067,-0.04072256,0.11270988,-0.057800174,0.08791047,0.16639152,0.19993874,0.0058925636,0.2245893,0.07204163,0.07352858,0.035422675,-0.04247872,0.08844561,-0.09479454,0.013841763,-0.03770306,0.22040856,-0.0031182915,0.05877273,0.1535208,0.13277026,-0.022800945
ABC,0.17758885,0.17342693,0.03966966,0.009887416,0.20414555,0.119823866,0.01563341,-0.026548017,-0.09325823,0.20313047,0.018870465,0.06275562,0.08625104,0.12248632,-0.019279774,0.2823645,0.29397494,0.16379942,0.22468069,0.12299775,0.17966896,-0.031434055,-0.011440612,0.05480939,0.047269106,0.22532383,0.022621378,-0.037042566,0.09359811,0.08988942,-0.028301766,-0.01491271,0.22086477,0.32585248,0.048797257,-0.06903176,0.031532284,-0.009676117,0.11916358,0.29783246,-0.0064371503,0.09144067,0.42655903,-0.01005769,0.19949353,0.14609028,-0.035459332,0.19899656,0.05135028,0.36392555,0.09099807,-0.062922806,0.23617178,0.058642387,-0.04930885,0.12869269,0.06700142,0.12752208,0.11970694,0.07158625,0.30608153,0.107960284,0.015616462,0.09105035,0.17237376,-0.012746533,0.16655192,0.10707995,0.020490952,-0.015197061,0.09377779,0.0228132,0.24316652,0.037299678,-0.034019306,0.15083005,0.07863102,0.071739666,-0.041005388,0.11586958,-0.041735888,0.08613425,0.15875986,0.19750355,0.07881135,0.24126829,0.07185901,0.07601292,0.059023872,-0.04098496,0.08614254,-0.09034717,-0.0021982417,-0.038889274,0.3186257,-0.004273303,0.14496148,0.15104744,0.16837436,0.0027611665
ABMD,0.17121299,0.1837472,0.04148382,0.03221002,0.20405272,0.117046624,0.12410545,0.095658556,-0.08580312,0.19854951,0.01742681,0.05314678,0.08354663,0.16734144,-0.01247444,0.292999,0.60800004,0.14476167,0.46406886,0.17737289,0.18520544,-0.037627768,-0.010699816,0.22897615,0.098825864,0.22437519,0.023488015,-0.034649346,0.12343984,0.09655313,-0.027978256,-0.015108224,0.411817,0.3316035,0.08139959,-0.0020009466,0.0534725,-0.012733523,0.11918536,0.3039072,0.018276382,0.09322676,0.89669704,-0.0118521135,0.20204537,0.14765911,-0.025734195,0.45260805,0.055660218,0.85940945,0.09012532,-0.041199148,0.22829843,0.0592634,-0.048643515,0.15034436,0.071020715,0.118383534,0.090259396,0.122738615,0.31072846,0.24591503,0.054297104,0.09135215,0.34110287,0.0003667362,0.46977326,0.0970249,0.11767793,0.0701388,0.091532156,0.033497915,0.24096732,0.047085077,-0.050551664,0.15381527,0.3641522,0.19504264,-0.0405175,0.12138457,-0.025659047,0.08654669,0.16911566,0.20654431,0.13126959,0.2320528,0.07436147,0.079612255,0.11996033,-0.04196409,0.10884295,-0.07245319,0.15187432,-0.025430314,0.81675166,0.0070073083,0.23950571,0.15497878,0.44035518,-0.018854506
ABT,0.17332286,0.17578702,0.03844782,0.013207246,0.20526767,0.11924426,-0.061528623,-0.020967493,-0.094340034,0.19108003,0.017436627,0.04286103,0.08410796,0.12349601,-0.05758199,0.29591116,0.17050552,0.13614741,0.002639141,0.12841082,0.18128777,-0.03932649,-0.013874102,0.007860029,0.0075696763,0.2258986,0.022593513,-0.03749831,-0.055880487,0.089135766,-0.02726771,-0.016603949,-0.001586318,0.3338887,-0.021845568,-0.06388938,0.032402545,-0.011667643,0.118358865,0.2969857,-0.002462367,0.09223467,0.23116168,-0.010871561,0.19903964,0.14741948,-0.03445962,0.08219071,0.051799815,0.17953628,0.083689615,-0.061008416,0.220828,0.056846566,-0.048058648,0.129038,0.06922071,0.11876822,0.08810346,0.080771506,0.30918482,0.0015987828,-0.045266256,0.092295066,0.076794304,-0.011175506,0.071964115,0.09370212,-0.04559338,-0.021499876,0.076450236,0.025136132,0.24044219,0.03787402,-0.0755012,0.15099627,0.023577305,0.007312404,-0.039978065,0.11148365,-0.071445234,0.08784111,0.16373822,0.19758427,0.0030651204,0.22881247,0.07314951,0.07611138,-0.045362934,-0.041783586,0.08624184,-0.0927842,-0.004311051,-0.041364923,0.2085185,-0.0045690835,0.05759076,0.1555396,0.10606492,-0.038385965
ACN,0.1759325,0.17059962,0.038788967,0.010684263,0.20505929,0.121228576,-0.04455937,-0.027921967,-0.09331641,0.17985687,0.015820386,0.034896754,0.082195655,0.11602321,-0.038656484,0.28746632,0.103957355,0.12795025,0.08362214,0.122919686,0.17962784,-0.03882516,-0.012896337,-0.027464744,0.034446668,0.22840373,0.0213793,-0.037694152,-0.016547699,0.08911074,-0.027008954,-0.016797833,0.058856085,0.32679918,-0.030378833,-0.07002586,0.030720053,-0.012245301,0.117388144,0.29741913,-0.0059122704,0.094098754,0.16070074,-0.010718003,0.1999164,0.14593212,-0.036555186,0.04417213,0.051515933,0.11080898,0.07704068,-0.06433969,0.22487922,0.056450795,-0.04713185,0.1280634,0.06822668,0.12356773,0.0888588,0.07164167,0.3050345,0.038565744,-0.023382895,0.09382722,0.037461616,-0.010924164,0.04059303,0.09386633,-0.023944385,-0.037504572,0.07654279,0.023156997,0.24105316,0.037698843,-0.07052787,0.1504454,-0.021888128,-0.006602175,-0.04002048,0.11157078,-0.063264415,0.08711902,0.16014025,0.19736385,-0.0064731166,0.22605321,0.0718514,0.07669708,-0.033315115,-0.04248913,0.08622768,-0.09424375,-0.026232112,-0.04054942,0.10915237,-0.006532684,0.035770886,0.1573526,0.054378666,-0.035037965
ADI,0.17004956,0.17235783,0.038719654,0.013954967,0.20533194,0.11406028,0.026649175,0.019119076,-0.09009823,0.19162533,0.014190143,0.052234884,0.08405964,0.13912347,-0.031167455,0.29703856,0.14355446,0.14816715,0.19151087,0.14638689,0.17801198,-0.037852474,-0.011641759,-0.010505634,0.032805454,0.22096853,0.029569808,-0.035985883,0.007860765,0.09199955,-0.027958311,-0.01748968,0.19002089,0.33255178,-0.019031044,-0.06700563,0.03336136,-0.011663986,0.12004373,0.3026309,0.0042721024,0.09347385,0.20477064,-0.015438244,0.19922152,0.14574654,-0.03751463,0.08085446,0.05552264,0.15486434,0.08593331,-0.05877634,0.22176582,0.0604117,-0.051189117,0.1479223,0.07351076,0.12031534,0.08625294,0.07980952,0.31095022,0.10930906,0.01660337,0.091423556,0.070420675,-0.015626818,0.07288499,0.094003424,0.03805399,-0.034910426,0.08014853,0.028415767,0.24254985,0.03745243,-0.062283814,0.15027583,0.034417387,-0.00037544593,-0.04233613,0.111877576,-0.063657664,0.0873269,0.16133773,0.19600452,0.008765776,0.22824733,0.07429129,0.07845309,0.028568529,-0.040704146,0.08740424,-0.08894529,-0.0067841783,-0.0044733705,0.13922398,-0.0022380948,0.060605682,0.15406993,0.095775396,-0.03106514
ADM,0.17730795,0.17260547,0.04084393,0.011854697,0.20568359,0.12000305,-0.028422667,-0.036527656,-0.09344643,0.19549301,0.0194917,0.051301606,0.08387706,0.12006865,-0.039761826,0.28460285,0.15718071,0.14040889,0.09282771,0.121438,0.17992157,-0.03748735,-0.01252969,0.0035791798,0.011878137,0.2319745,0.0220858,-0.039841793,0.03322611,0.089951664,-0.023950785,-0.015573341,0.11034345,0.3263519,-0.0033341497,-0.06694088,0.031376366,-0.01133975,0.11842334,0.29698205,-0.0050434656,0.09336385,0.22972618,-0.011232482,0.20146982,0.14621437,-0.037277516,0.090009354,0.05151488,0.17738117,0.08430506,-0.06404776,0.2249827,0.059094142,-0.048356812,0.12805577,0.0678042,0.12190745,0.11089,0.06992913,0.3043291,0.04788929,-0.010126208,0.094305545,0.07645248,-0.013567602,0.072913125,0.096258275,-0.01265135,-0.02429784,0.07826975,0.023571063,0.2420723,0.037292853,-0.049948752,0.15053532,-0.0042760298,0.016318649,-0.040545195,0.1112912,-0.059765622,0.087206036,0.16257454,0.19893582,0.032784384,0.23493806,0.07571677,0.07655706,0.00960508,-0.043843545,0.08824748,-0.09590908,-0.00899405,-0.034001336,0.19634269,-0.0058160126,0.07444006,0.15618297,0.09764211,-0.018922359
ADP,0.17103511,0.17234135,0.04105907,0.010912303,0.20501083,0.12017481,-0.03561271,-0.0025563017,-0.096078396,0.18257475,0.019073108,0.035214566,0.08445969,0.12695739,-0.057857536,0.28659126,0.03006601,0.1305659,0.077102125,0.13429502,0.17925745,-0.03759657,-0.013234187,-0.05281378,0.009204229,0.22375591,0.02243846,-0.036820352,-0.038479105,0.09004493,-0.028025616,-0.018508816,0.062573954,0.32546335,-0.035354123,-0.07547749,0.030709943,-0.011892542,0.11783649,0.30102876,-0.0011817757,0.09234989,0.057476062,-0.01138402,0.19931781,0.14631458,-0.035844795,-0.0074848197,0.0524332,0.015735425,0.07641856,-0.06348566,0.22052267,0.058958717,-0.048492216,0.13287185,0.06929922,0.117530786,0.09037109,0.07037351,0.3070198,0.03977528,-0.0458182,0.092443384,0.0048253313,-0.011631716,-0.011196159,0.09233999,-0.02468254,-0.03889368,0.07800749,0.024484951,0.2447303,0.03761895,-0.07272741,0.15099026,-0.025335696,-0.03637795,-0.04156866,0.110403076,-0.072114825,0.087191485,0.16019127,0.19546118,-0.0145079605,0.22769609,0.073673144,0.07340553,-0.018136576,-0.04261069,0.08653326,-0.09540876,-0.03805218,-0.03762756,0.024903862,-0.005842112,0.009767761,0.15455091,0.029445205,-0.034556814
ADSK,0.19449587,0.17161635,0.04031891,0.017419305,0.20663007,0.11988914,0.0072136577,0.019845724,-0.09610354,0.186611,0.017800596,0.045600835,0.08378814,0.13166885,-0.028383572,0.288489,0.16829795,0.13646998,0.2229023,0.1320228,0.17841642,-0.036657408,-0.011724625,0.0009795818,0.05022784,0.22063917,0.021145262,-0.034102622,0.034326375,0.08907865,-0.025019601,-0.015784957,0.17946124,0.32848293,-0.006335702,-0.06759614,0.032602243,-0.013538759,0.11956843,0.2991893,-0.002013377,0.094321564,0.24984503,-0.0128299,0.19978985,0.14655527,-0.03467308,0.09767689,0.053623207,0.19559476,0.08348116,-0.06305037,0.2324095,0.060744245,-0.047798447,0.1309104,0.06867753,0.11814985,0.10910615,0.07474167,0.3084622,0.10096662,0.0053691613,0.09014574,0.08183814,-0.011085056,0.08870326,0.09666035,0.02148024,-0.032348312,0.08130522,0.025575563,0.24249855,0.036391553,-0.045013815,0.15039861,-0.010874439,0.015796538,-0.04242803,0.11897551,-0.043233074,0.08647376,0.1653018,0.2007705,0.016794555,0.22505032,0.07551071,0.08554435,0.026023313,-0.041623514,0.08778083,-0.09094628,-0.020904478,-0.0379728,0.19058478,-0.0048112273,0.069705784,0.15470093,0.101900764,-0.014261354
AEE,0.17433968,0.17502397,0.03914761,0.011060074,0.20547336,0.11984004,-0.07751588,-0.030509187,-0.09514539,0.18633908,0.019642644,0.04015638,0.084250264,0.12318478,-0.05890798,0.28437012,0.060062796,0.13496813,-0.027799167,0.12088003,0.18038203,-0.040374897,-0.013849679,-0.046022415,-0.0011247024,0.22108428,0.023005523,-0.037836596,-0.04065053,0.08883408,-0.029225934,-0.016336499,-0.030675545,0.32892495,-0.030717678,-0.070774734,0.029117903,-0.010455824,0.117621765,0.29607916,-0.0062526963,0.09140204,0.102642685,-0.009924643,0.1993117,0.14606005,-0.03804224,0.019076373,0.053088687,0.053525895,0.08009147,-0.063712776,0.2187542,0.05961953,-0.04946755,0.12790795,0.06718482,0.1188493,0.096369,0.070880935,0.3056516,-0.014444165,-0.043999903,0.09429455,0.026876323,-0.013631981,0.00054646656,0.09321938,-0.060853988,-0.04137571,0.075307325,0.023361722,0.24364546,0.037973154,-0.07115699,0.15190984,-0.025996527,-0.026020534,-0.04049271,0.11131708,-0.07580203,0.08687645,0.15944184,0.19339672,-0.009934608,0.22755238,0.0752362,0.07494901,-0.052519318,-0.04295076,0.08672735,-0.09719878,-0.03888137,-0.03641855,0.034940343,-0.0036242083,0.025896218,0.15535559,0.029482521,-0.03787354
AEP,0.17125067,0.1746203,0.039256647,0.01126207,0.20525767,0.12016069,-0.07921771,-0.03483716,-0.09501677,0.18351617,0.01964014,0.03976,0.083849385,0.12384136,-0.05717034,0.284956,0.04393998,0.13467595,-0.042629696,0.12291094,0.17953372,-0.039044827,-0.013364058,-0.04828307,-0.00011904724,0.22727269,0.021720514,-0.035949294,-0.05875523,0.0888717,-0.029197522,-0.01644283,-0.041118853,0.3296634,-0.0366304,-0.07243979,0.02923011,-0.011640545,0.1172956,0.29600894,-0.004857671,0.09161846,0.069261335,-0.009398632,0.19921303,0.14606552,-0.038211994,0.0048430823,0.050601862,0.027835626,0.07892251,-0.06279042,0.21794501,0.058020502,-0.04846622,0.12788062,0.06670363,0.11832595,0.09614408,0.07043752,0.305743,-0.023472384,-0.043741092,0.092515975,0.012906931,-0.013640318,-0.0061584488,0.092533045,-0.063999124,-0.04176397,0.07753622,0.022837412,0.24392045,0.03840695,-0.07415122,0.15221871,-0.025669053,-0.033013932,-0.04005339,0.11040368,-0.08035367,0.08631167,0.15950736,0.1938477,-0.012913592,0.22759824,0.074079715,0.07491201,-0.057020515,-0.04284118,0.08714449,-0.095543146,-0.03316751,-0.038492642,0.03188312,-0.0037834644,0.014799865,0.1554823,0.030657189,-0.03792196
AES,0.17639045,0.17689551,0.03933075,0.011734806,0.20628601,0.120447874,-0.042460553,-0.010728052,-0.09587224,0.19282103,0.015698217,0.042958137,0.08348604,0.123514116,-0.041571654,0.28737342,0.10509712,0.13622423,0.060398985,0.1306948,0.18177322,-0.034555167,-0.01242172,-0.002117074,0.02620966,0.22533181,0.020818964,-0.036780044,-0.01913623,0.08901127,-0.026425533,-0.01601609,0.05136442,0.33346194,-0.025124583,-0.05581362,0.032350637,-0.011805367,0.117782086,0.30200964,0.00048153987,0.09264047,0.16571046,-0.01046489,0.20083243,0.14773601,-0.03295192,0.031091876,0.05238025,0.1345082,0.080604345,-0.06503939,0.22540775,0.059836112,-0.048940912,0.13293514,0.06967819,0.12151619,0.091153905,0.07478395,0.30553812,0.0343174,-0.024636978,0.09175825,0.033566378,-0.013264455,0.051174104,0.09537865,-0.022498503,-0.036955338,0.078023426,0.024661332,0.24530098,0.037569813,-0.06643897,0.15374136,0.012094876,-0.015693335,-0.03933932,0.112775125,-0.062314186,0.08522383,0.16316128,0.19715525,0.0027670376,0.22897758,0.07699499,0.07452123,-0.021240346,-0.041692235,0.08863698,-0.097987354,-0.008590318,-0.035168678,0.15666582,-0.0058464706,0.03201174,0.1553679,0.094432816,-0.033354517
AFL,0.17204843,0.17103116,0.03961502,0.011286642,0.20609543,0.12122449,-0.070351034,-0.0268902,-0.09555218,0.18108094,0.019181358,0.038133297,0.084069975,0.11745441,-0.0581911,0.2886296,0.02776473,0.13485624,-0.014746845,0.12538278,0.17893681,-0.041010395,-0.013724148,-0.046929758,0.004415281,0.22461727,0.022695139,-0.03760017,-0.054688185,0.08889995,-0.027026549,-0.018047834,-0.015311271,0.32780367,-0.052227214,-0.07243059,0.029216943,-0.0118845105,0.11834306,0.29727116,-0.004819579,0.0927649,0.054222107,-0.011175543,0.20044172,0.14693806,-0.03765945,-0.012633644,0.05206063,0.033653874,0.07747756,-0.06356935,0.21962291,0.058848646,-0.047921527,0.12963812,0.06856616,0.11894976,0.08719063,0.072603956,0.30629,-0.0073305145,-0.04927469,0.092032045,-0.0028005969,-0.012011705,-0.012823792,0.0918559,-0.05671439,-0.037858434,0.07725881,0.024521789,0.24030375,0.03842257,-0.07148117,0.14994076,-0.017796183,-0.038550206,-0.041030712,0.11020434,-0.07193263,0.087767005,0.16115372,0.1945489,-0.03030292,0.23042558,0.07261324,0.07457408,-0.048605196,-0.042089567,0.086952895,-0.09521334,-0.031835478,-0.039469093,0.04287528,-0.004383348,0.0057894923,0.1553736,0.043984197,-0.039325453
AIG,0.18562469,0.17184004,0.039711796,0.011097975,0.20603856,0.12231049,-0.030198665,-0.015212707,-0.096377924,0.18411611,0.017174501,0.036273994,0.08406325,0.11987683,-0.045612596,0.2874903,0.13368323,0.13360399,0.0816194,0.1274188,0.1773828,-0.03604073,-0.012942158,-0.0141638275,0.02229768,0.2204789,0.021138228,-0.038465712,0.015532188,0.0896047,-0.026894096,-0.018937333,0.10145875,0.32710618,-0.02006602,-0.070221566,0.031326927,-0.011255495,0.119427726,0.297357,-0.0039380467,0.09278486,0.20101595,-0.010506947,0.19963422,0.14780378,-0.038782574,0.071111664,0.050921056,0.15103686,0.080739975,-0.06431655,0.22688065,0.059883475,-0.04725554,0.12896504,0.06781705,0.11846008,0.1057646,0.072105035,0.30469498,0.04142329,-0.016158115,0.091863155,0.06217078,-0.0119953565,0.06539239,0.09376807,-0.016798262,-0.036373083,0.078902885,0.02314043,0.24163315,0.037876002,-0.057972305,0.14901581,-0.021373319,0.0028822348,-0.040407725,0.11262308,-0.04994542,0.086862385,0.16109928,0.19574076,0.0037433244,0.2271127,0.072798975,0.07404945,0.00057290494,-0.04230313,0.08667973,-0.09712188,-0.032205045,-0.0390042,0.147266,-0.0034155175,0.05087316,0.15487881,0.078547016,-0.034649238
AIZ,0.17579925,0.1719659,0.039630122,0.011046752,0.20533127,0.12208822,-0.024224263,-0.02598387,-0.095051855,0.19771932,0.018176975,0.051394403,0.08418979,0.11422308,-0.035711106,0.28539005,0.28197917,0.14679646,0.112404376,0.12436148,0.17911191,-0.03628461,-0.013719764,0.058963276,0.028617987,0.22050115,0.021284036,-0.039874904,0.02727075,0.08849189,-0.025683127,-0.017162655,0.10870114,0.32745156,0.0069036037,-0.053466104,0.030651333,-0.010627866,0.11898457,0.29702568,-0.005003188,0.09241637,0.39238703,-0.010538414,0.20026588,0.14675167,-0.037253607,0.17168942,0.05098451,0.33411983,0.08871361,-0.063761696,0.21964338,0.06017252,-0.04681083,0.127494,0.067314975,0.12104161,0.09111828,0.07128333,0.3047288,0.055825688,-0.012806009,0.09478061,0.14640954,-0.011013113,0.158869,0.095286466,-0.018990327,-0.0030686408,0.07962924,0.023982687,0.24360548,0.0380036,-0.06099748,0.15053302,0.07960327,0.04362137,-0.040734045,0.110332936,-0.055205613,0.08716816,0.16147862,0.19865641,0.0296656,0.23276196,0.07291646,0.07489301,0.00020284206,-0.04263366,0.08686423,-0.083765276,0.024158528,-0.03990755,0.3552954,-0.005531326,0.10712804,0.15570946,0.19039175,-0.028823353
AJG,0.17417037,0.16955002,0.04007529,0.012145631,0.20518157,0.11992106,-0.07077564,-0.036972076,-0.09427734,0.17978208,0.018565122,0.03623895,0.08427375,0.120397024,-0.051540136,0.28371614,0.057993468,0.13226463,-0.011801701,0.11973067,0.17904976,-0.040158704,-0.013702661,-0.047568787,0.012439532,0.22187765,0.02110666,-0.038130652,-0.042865608,0.087886915,-0.02756998,-0.018147191,-0.025052376,0.32482114,-0.047159262,-0.07482687,0.029317835,-0.011583701,0.11821756,0.2953019,-0.006739998,0.09253903,0.096607596,-0.010859422,0.19983631,0.14589994,-0.036921527,0.011663433,0.049400754,0.051075008,0.078100346,-0.061717838,0.22080679,0.058686167,-0.047749247,0.12567623,0.06724797,0.11786649,0.089972265,0.06972115,0.30355185,-0.014047459,-0.04296401,0.093514875,0.013986509,-0.01266497,0.008765242,0.09294675,-0.05400138,-0.039839506,0.07583879,0.02316005,0.24086311,0.038352504,-0.07278764,0.14917736,-0.0389091,-0.026030064,-0.040099643,0.110549204,-0.07454543,0.086066544,0.1586968,0.19528188,-0.026534084,0.22832367,0.07129205,0.07605287,-0.0540993,-0.042634796,0.08601314,-0.09428644,-0.041722164,-0.037581116,0.05377415,-0.004824832,0.01273296,0.15566118,0.025055245,-0.03805433
AKAM,0.2020772,0.17175448,0.040013805,0.012374524,0.20627868,0.11811412,0.17394383,0.10735631,-0.08078267,0.19875918,0.026419587,0.057102196,0.08381653,0.12126601,0.056672227,0.28650087,0.32594585,0.16091086,0.6661711,0.1278921,0.18120456,-0.022805847,-0.011630181,0.09451846,0.15942247,0.24021246,0.021997727,-0.037646003,0.24072668,0.09514599,-0.026646588,-0.013096498,0.56423014,0.3262316,0.059208747,-0.033435475,0.030846719,-0.011758242,0.12225056,0.29767054,-0.0032646996,0.09279906,0.48065034,-0.011703169,0.19793998,0.14641602,-0.031921767,0.21489182,0.057953134,0.43956783,0.09099332,-0.061272465,0.23775229,0.059003852,-0.048414376,0.13055238,0.06765832,0.12850383,0.15156636,0.089007184,0.30539846,0.34026653,0.10809868,0.09197931,0.1717411,-0.009549268,0.22577332,0.102405585,0.17628972,0.003114581,0.09738695,0.03144747,0.2524388,0.03702617,-0.009936959,0.15063803,0.16149627,0.08217196,-0.039148137,0.11589658,0.007689774,0.08722967,0.169392,0.20916067,0.10008052,0.24552101,0.07439531,0.08519249,0.15946198,-0.040558755,0.09378874,-0.08225995,0.06072195,-0.03468567,0.4370456,-0.0056509487,0.14632174,0.1553102,0.24794409,0.031022213
ALB,0.17080572,0.1746638,0.03838748,0.014382012,0.20748828,0.12204827,0.016722845,-0.009302808,-0.09604612,0.18707062,0.014640059,0.042353325,0.083545044,0.1281466,-0.015577417,0.29377353,0.1195095,0.13752352,0.21431288,0.13257763,0.17832875,-0.030394856,-0.011083417,-0.003953784,0.047657482,0.22684932,0.025245622,-0.034301955,0.068559885,0.090872526,-0.0259678,-0.015749032,0.19750375,0.33223724,-0.021580897,-0.06159234,0.037952386,-0.012471788,0.11837711,0.29948395,-0.00020741532,0.09264284,0.18628742,-0.012450866,0.19999269,0.14913142,-0.04060147,0.051559936,0.054475017,0.16032116,0.080584906,-0.06582466,0.22373101,0.058724675,-0.049340427,0.13081846,0.07138802,0.11909055,0.09925322,0.080700636,0.31187546,0.114312254,0.011037505,0.09033032,0.044192754,-0.012203041,0.05722304,0.094772026,0.02146285,-0.032882392,0.08075948,0.02879189,0.24643134,0.03668667,-0.04631425,0.15270329,0.029696746,-0.0040123896,-0.040425725,0.113111034,-0.039655536,0.088223666,0.16095784,0.19614713,0.0039362274,0.22939019,0.07287623,0.075092226,0.03919155,-0.039903622,0.089253776,-0.09604331,-0.0028437227,-0.035144515,0.18140715,0.0015455931,0.03981135,0.15554771,0.107636504,-0.020272069
ALGN,0.18533769,0.17970395,0.04006318,0.0142540485,0.20626168,0.11927982,0.036162667,0.043061778,-0.09633148,0.18768919,0.014365826,0.039136454,0.08325393,0.116714664,-0.004047363,0.29558676,0.21453226,0.1325124,0.31739703,0.1265031,0.1811938,-0.033011578,-0.012549419,0.028082207,0.07589723,0.22544275,0.020890154,-0.035701003,0.07281561,0.093719065,-0.027680498,-0.013982765,0.2587756,0.33548868,-0.0262653,-0.062220987,0.035134114,-0.012180196,0.11861025,0.29829118,-0.0011961116,0.09287013,0.30352914,-0.0116852075,0.19813667,0.14621788,-0.031158864,0.12177249,0.051914394,0.25027213,0.08008246,-0.05945445,0.22928497,0.059486773,-0.04699379,0.13157016,0.06849903,0.11744799,0.091790095,0.08471134,0.31086177,0.14570774,0.020174375,0.09048223,0.10900185,-0.008445889,0.10954972,0.09576292,0.05185488,-0.015239678,0.0790879,0.024421033,0.24463676,0.038589567,-0.05114847,0.1514694,0.04464042,0.019418243,-0.04029253,0.1133772,-0.04644475,0.08750315,0.16558702,0.19861764,-0.008284047,0.22749577,0.072431445,0.075294614,0.056721777,-0.042173896,0.08902274,-0.09091007,0.004777316,-0.042151418,0.27549264,-0.0032258555,0.07309078,0.15490669,0.14478065,-0.011893332
ALK,0.17777808,0.17294344,0.038793907,0.013016596,0.20506015,0.11773595,-0.010457792,-0.0040749907,-0.09462392,0.18431625,0.013545062,0.036657292,0.08396982,0.12930231,-0.020680543,0.283574,0.09887049,0.13500941,0.1811477,0.13306934,0.17772676,-0.036253072,-0.011429887,-0.009419443,0.056263123,0.22253457,0.023301296,-0.038378853,0.029795017,0.08940646,-0.02706419,-0.014486195,0.14493586,0.32745835,-0.033820074,-0.06323903,0.03246007,-0.010328922,0.11795743,0.30073962,0.0010446222,0.094693765,0.14022036,-0.010417059,0.20144427,0.14893627,-0.03249653,0.023850594,0.0535509,0.10891792,0.07767706,-0.0617771,0.22088051,0.060460214,-0.050702237,0.13598716,0.06920043,0.121038996,0.09441538,0.07404738,0.30517292,0.08842827,-0.0030379947,0.094841465,0.026245072,-0.014917605,0.035031453,0.09525769,0.008538991,-0.035068937,0.07732488,0.024943806,0.24559909,0.03994132,-0.062247783,0.14983477,-0.0008217469,-0.027001498,-0.042021893,0.11229993,-0.060507763,0.087321684,0.1631548,0.20099093,-0.007185761,0.22521149,0.07388027,0.078769475,0.0013974309,-0.04275336,0.08591713,-0.09276725,-0.009720825,-0.03789571,0.13464321,-0.0052489787,0.019176474,0.15548725,0.08465116,-0.018421616
ALL,0.17284201,0.1819003,0.04035097,0.010403082,0.20481086,0.12168533,-0.07799309,-0.03892107,-0.095512725,0.18192463,0.020900719,0.039180316,0.08436088,0.11632359,-0.05040182,0.30313444,0.14547199,0.13446532,-0.0014431328,0.119746625,0.18000327,-0.041538063,-0.01347287,0.010778788,0.01465733,0.22185376,0.022020124,-0.038081333,-0.040429316,0.09118928,-0.02724135,-0.018626768,-0.017119229,0.34324476,-0.055961974,-0.064867996,0.030405894,-0.011217456,0.117750905,0.2975893,-0.0048362925,0.09221875,0.24606232,-0.010462664,0.20002025,0.1471851,-0.037458215,0.07200946,0.052947003,0.22020301,0.079480454,-0.06443289,0.22158682,0.05915962,-0.0478503,0.12730499,0.06838592,0.117530525,0.08696906,0.09034276,0.31723773,-0.006816633,-0.040917553,0.09321661,0.032639965,-0.011833172,0.07973555,0.092189364,-0.054794416,-0.027748697,0.07711434,0.027553719,0.2408151,0.037547436,-0.0761723,0.15593977,0.077306435,0.012844797,-0.04170943,0.111944094,-0.07577589,0.0904752,0.15841246,0.19374192,-0.033792336,0.22764648,0.07313133,0.07399701,-0.048584457,-0.043253012,0.087106675,-0.09214707,0.007545892,-0.03832628,0.21537477,-0.0052585155,0.010102611,0.15514342,0.13323116,-0.04006169
ALLE,0.16785382,0.17132014,0.038990762,0.011468127,0.2063142,0.11847607,-0.062154427,-0.023748007,-0.09787056,0.1843209,0.017918926,0.03830235,0.08455926,0.1252154,-0.04778127,0.28480417,0.09032347,0.13523437,0.019053407,0.12372741,0.17839122,-0.033914283,-0.012217227,-0.025592048,0.01971727,0.22400767,0.021879598,-0.036273032,-0.036140274,0.089000955,-0.027200915,-0.017541619,0.0054829493,0.32461396,-0.0307286,-0.06897694,0.030239258,-0.012003224,0.1195246,0.29764828,-0.0058931685,0.09228134,0.12159056,-0.011131993,0.19911288,0.14706329,-0.034703907,0.024227798,0.050454937,0.076961696,0.080291666,-0.061584618,0.21869075,0.05921665,-0.04918267,0.12816149,0.06865058,0.12061749,0.08724318,0.07302836,0.30589026,0.0051565915,-0.034186848,0.090027034,0.024936642,-0.013450116,0.022438131,0.092480406,-0.043111105,-0.040470924,0.07987591,0.022914078,0.24504325,0.036841594,-0.070292994,0.15052709,-0.031170832,-0.018320052,-0.039357305,0.110432684,-0.07332735,0.08576144,0.15964459,0.19703798,-0.0059749745,0.22751755,0.07268353,0.07280943,-0.04614356,-0.04169926,0.08711599,-0.09473455,-0.02879795,-0.037617452,0.11283223,-0.0065213665,0.024586994,0.15403332,0.054114435,-0.038984545
AMAT,0.18936461,0.17153347,0.03880913,0.012747243,0.20728818,0.1176804,0.05715211,-0.00083460286,-0.08877577,0.18853118,0.013881134,0.049123846,0.08336779,0.12711419,0.0001241453,0.287853,0.123798564,0.14488924,0.33986896,0.12964237,0.17896363,-0.03813363,-0.01185637,0.0032580234,0.07595542,0.2218393,0.024876513,-0.03654212,0.12639722,0.09032516,-0.027451053,-0.018382777,0.30951828,0.32801628,-0.027552485,-0.07105798,0.029617347,-0.012324236,0.12332076,0.29792643,-0.0016716453,0.093671955,0.19460107,-0.011257626,0.19781932,0.14586316,-0.033569813,0.06520214,0.051989757,0.17729416,0.08520232,-0.060882002,0.22995572,0.06096342,-0.04992068,0.13171855,0.07086097,0.11832747,0.1131513,0.07140057,0.30596343,0.17714953,0.035813466,0.09050712,0.059989728,-0.012962021,0.060486726,0.09468478,0.059381537,-0.02855777,0.08009508,0.025895087,0.24075286,0.03939741,-0.030984335,0.15002376,0.04262484,0.0058037452,-0.039950103,0.11250896,-0.021389,0.087701604,0.16352239,0.19816159,0.0011681654,0.22887498,0.07667419,0.07861339,0.08088096,-0.041285783,0.08636697,-0.09508123,-0.0198954,-0.041679733,0.16250049,-0.0017181188,0.049827196,0.15517163,0.11263814,-0.0065174885
AMCR,0.17461786,0.17847957,0.040709034,0.010103263,0.20484333,0.120593,0.16316386,0.10278147,-0.090871565,0.1817193,0.021491237,0.036981903,0.084185004,0.11846591,0.054956105,0.2969253,0.14686103,0.13899401,0.64425224,0.1155907,0.18024823,-0.034051478,-0.012646731,-0.005052455,0.15145554,0.22418383,0.020062223,-0.038432736,0.23119417,0.08960896,-0.02826206,-0.011061879,0.546373,0.33992848,-0.020273931,-0.065975726,0.029390553,-0.01113279,0.11728485,0.29657915,-0.007191203,0.092048526,0.20202775,-0.008878421,0.19934879,0.14645563,-0.036664665,0.080224365,0.057868924,0.1661496,0.077294305,-0.060671616,0.22133255,0.058212258,-0.04717344,0.12475015,0.06860742,0.11701626,0.117301226,0.08589397,0.31339008,0.32646638,0.101432614,0.09384407,0.07281904,-0.0115018,0.06751099,0.0915975,0.16407698,-0.03494231,0.07616776,0.026567841,0.23948923,0.038564224,-0.010944826,0.15397625,0.049357846,-0.0011698194,-0.040563278,0.11193818,0.0050497055,0.08845964,0.16921705,0.20633565,0.01014071,0.22552656,0.07415275,0.07449471,0.155581,-0.04369639,0.08644596,-0.09364123,-0.004934568,-0.033678412,0.16539693,-0.0055227205,0.056244757,0.1556393,0.10756031,0.025512014
AMD,0.31462997,0.18940648,0.061402008,0.024698775,0.20401908,0.12075488,0.570511,0.37212503,0.04396397,0.2033385,0.02534698,0.057272546,0.091130406,0.15073694,0.24846576,0.3191127,0.27873224,0.16440701,1.7160773,0.15995415,0.18308978,-0.031877235,-0.014004491,0.07546931,0.3623525,0.24041735,0.024181455,-0.03393524,0.75576115,0.09419566,-0.025787361,-0.010880435,1.4997382,0.35219648,0.033925258,-0.043341506,0.05018962,-0.008296382,0.13807175,0.30902496,0.011878418,0.096193224,0.4517908,0.021914415,0.20248386,0.15045258,0.011548609,0.18344837,0.057121377,0.42211565,0.09576218,-0.05231315,0.26421022,0.060259238,-0.049169317,0.14471331,0.07627966,0.12673828,0.21216524,0.10513416,0.33317703,0.8691164,0.32626072,0.092734754,0.16322067,-0.0064556412,0.20369142,0.10455288,0.51212925,-0.0076022595,0.08437273,0.040801812,0.25546318,0.03886178,0.10241726,0.16248724,0.1716744,0.07203676,-0.037499875,0.124545835,0.18306093,0.09258171,0.18284029,0.2174205,0.07929692,0.23313451,0.08448492,0.11905769,0.52901644,-0.03751865,0.11483833,-0.07857111,0.057223983,0.010691445,0.39832675,0.04957079,0.11522333,0.15438761,0.22908711,0.17160943
AME,0.17328954,0.16906354,0.038276598,0.015061848,0.20639478,0.12013849,-0.06997995,-0.024560668,-0.095196664,0.18207926,0.015873548,0.035524238,0.08346415,0.124402374,-0.05506178,0.28150058,0.14317441,0.13412635,-0.013937674,0.12606774,0.17985953,-0.037683565,-0.013578866,-0.01136654,0.0068738908,0.2200748,0.021451637,-0.03815952,-0.033945814,0.088450976,-0.025995038,-0.016995762,-0.004863851,0.32748795,-0.02091081,-0.07186896,0.02973887,-0.011267383,0.11987595,0.29637253,-0.004089072,0.09260063,0.21733311,-0.011794545,0.1996509,0.14538631,-0.035337895,0.07846126,0.05257968,0.16836596,0.07710536,-0.06340799,0.21734644,0.06036425,-0.047766432,0.1289369,0.06892407,0.118419774,0.08530221,0.07007505,0.30454227,-0.008522663,-0.02984282,0.09287374,0.070162386,-0.012508001,0.0723204,0.09226161,-0.05687812,-0.03759871,0.07837939,0.022631302,0.24109784,0.03779257,-0.066590086,0.14819069,-0.025488516,0.010419901,-0.040115293,0.11171002,-0.07729873,0.087687045,0.15953732,0.19650123,0.008076005,0.22812636,0.072564185,0.07568206,-0.03254818,-0.042305347,0.08743094,-0.09322652,-0.028467081,-0.03560046,0.16314706,-0.0058839843,0.057017263,0.15616108,0.08381958,-0.032574326
AMGN,0.1687508,0.17224501,0.03958108,0.01351846,0.20457934,0.11769516,-0.030185692,0.0017037354,-0.098027155,0.19712844,0.019943284,0.05444394,0.08445041,0.12651278,-0.04334931,0.28920928,0.20540567,0.1510515,0.089985475,0.13642952,0.17981994,-0.037883613,-0.013489202,0.016434072,0.025401354,0.22449522,0.02361437,-0.0358903,0.017478608,0.09021853,-0.02761317,-0.015911251,0.07400146,0.32835704,0.020699795,-0.070524395,0.03213325,-0.010755777,0.11674158,0.30056614,-0.00092499657,0.09187363,0.30627924,-0.011885822,0.19855201,0.14687599,-0.03547792,0.13252637,0.05340136,0.24753028,0.08839781,-0.059118148,0.22701043,0.057181768,-0.048007376,0.13235246,0.07057833,0.117752776,0.097359926,0.07343584,0.3072499,0.046136312,-0.021912081,0.08970504,0.11913086,-0.0119456425,0.10449654,0.10128875,-0.021703042,-0.02990283,0.08224255,0.025500052,0.2429378,0.038161356,-0.05303799,0.14987841,0.016242975,0.033353638,-0.038868472,0.110645965,-0.066175774,0.08762664,0.16056904,0.19687226,0.043569967,0.23443407,0.072754,0.07104923,-0.0025646836,-0.042465884,0.085964486,-0.09057,-0.024131045,-0.039798517,0.21339211,-0.005645804,0.10096616,0.1531232,0.111662805,-0.02280349
AMP,0.1907565,0.17306453,0.038394228,0.013736289,0.20679915,0.12031848,0.048606113,-0.003763372,-0.08554859,0.19443136,0.018006366,0.04987994,0.08398998,0.12134041,-0.010193274,0.28957966,0.21064717,0.14468,0.30973476,0.12787095,0.17876685,-0.035398234,-0.012806084,0.01978327,0.06310812,0.22235975,0.022702865,-0.040678654,0.12975349,0.0902856,-0.026931375,-0.016606526,0.29474825,0.32939512,0.010060199,-0.06483185,0.030805822,-0.011193637,0.11982761,0.29829693,-0.0035785972,0.093025014,0.3108464,-0.011667684,0.20099041,0.14721617,-0.03382591,0.13268155,0.052614592,0.25412655,0.08620024,-0.062785536,0.23735128,0.059873402,-0.047673263,0.12799196,0.06873077,0.12546815,0.13809398,0.07447998,0.30545628,0.15898831,0.04105999,0.09424934,0.11250637,-0.011055015,0.12449104,0.100724235,0.051763933,-0.03505891,0.0792949,0.025432663,0.24077371,0.03722163,-0.02153814,0.1490068,0.0171862,0.032122985,-0.04032821,0.114907384,-0.025341049,0.08944267,0.16781107,0.19851458,0.03359022,0.23030885,0.07001208,0.07748206,0.08723355,-0.042230662,0.0886038,-0.09656111,-0.018584523,-0.03790654,0.24499208,-0.0056813955,0.0901722,0.1565752,0.13206959,0.0075122714
AMT,0.1706403,0.1747276,0.03936803,0.011313852,0.20580252,0.119395666,-0.07424169,-0.034566443,-0.09570356,0.19190696,0.020095654,0.04212793,0.08373362,0.12256993,-0.054975145,0.28781608,0.104265206,0.13706334,-0.000991758,0.12348632,0.18024774,-0.03454379,-0.013328165,-0.026124852,0.010083515,0.22830495,0.021169439,-0.036661334,-0.05524116,0.08895007,-0.028046958,-0.017401807,-0.014630966,0.32870543,-0.014032699,-0.074496076,0.031092232,-0.01256742,0.11695107,0.29661754,-0.0047748755,0.09174951,0.16341583,-0.00948461,0.20013265,0.14638281,-0.037855756,0.053608123,0.05013418,0.110837854,0.08265372,-0.061354026,0.21839076,0.05725413,-0.04750368,0.12705156,0.068206325,0.12022568,0.09030598,0.074363135,0.30641237,-0.013984442,-0.041562114,0.09141481,0.052927762,-0.012450183,0.03245054,0.094559446,-0.052345656,-0.04250548,0.07860844,0.02389425,0.24666914,0.037434403,-0.07251059,0.15193376,-0.018266581,-0.008545408,-0.03887198,0.11036115,-0.07948622,0.085518554,0.16219775,0.19567856,0.008390032,0.22958608,0.07431352,0.07399778,-0.04880966,-0.042496275,0.08888203,-0.09536487,-0.033176947,-0.035415575,0.088460214,-0.0064553693,0.04837577,0.15557641,0.041283872,-0.0371851
AMZN,0.16731167,0.17524025,0.040428028,0.028770741,0.20613927,0.11966281,0.09292191,0.07218003,-0.09398987,0.18526053,0.016842267,0.042450797,0.08418843,0.14459907,-0.016638644,0.29446247,0.11850877,0.13421811,0.39440227,0.16346607,0.17948984,-0.039328195,-0.0133282095,-0.01501607,0.08307273,0.22639464,0.021509625,-0.035931204,0.0881929,0.092436984,-0.026667811,-0.018571842,0.3490123,0.33196846,-0.030012857,-0.072632626,0.045248486,-0.01258051,0.117735505,0.2993858,0.016185049,0.09169839,0.15997194,-0.0106536355,0.20039022,0.14712304,-0.023999015,0.03223734,0.05190959,0.10502853,0.08139772,-0.06191403,0.22013634,0.058989074,-0.0487808,0.14952517,0.07071363,0.11836621,0.09037243,0.077907816,0.30589345,0.20708257,0.03341809,0.08844294,0.043093298,-0.012783926,0.018927818,0.09520232,0.09562959,-0.03604208,0.08301744,0.025838168,0.24179018,0.037206527,-0.050001066,0.15128945,0.007169578,-0.018215533,-0.039248325,0.11121116,-0.0409654,0.08838603,0.16173708,0.20104443,-0.0066887364,0.23066497,0.076978885,0.06997885,0.09536086,-0.04164247,0.08608212,-0.092038415,-0.015459247,-0.03859108,0.14817168,0.005671095,0.037965696,0.15380432,0.06986561,-0.018966768
ANET,0.17644985,0.17553058,0.044639662,0.015202548,0.20544244,0.121674836,0.063265406,0.061272286,-0.09392269,0.18886079,0.020603068,0.036816794,0.083923094,0.12339017,0.004783665,0.30081105,0.20270355,0.13686463,0.3756128,0.13215294,0.17858303,-0.035326958,-0.013894729,0.015394978,0.07874299,0.22048338,0.023112774,-0.03815145,0.09639099,0.089997806,-0.026237912,-0.007001022,0.31614828,0.33482537,0.006553728,-0.06575951,0.03245639,-0.012149587,0.119665444,0.29925108,0.0004683286,0.09332205,0.29829678,-0.009642113,0.19944277,0.14829357,-0.0313541,0.12577915,0.05400955,0.24210027,0.07805052,-0.06498129,0.22373825,0.060686998,-0.048668694,0.1342371,0.073173806,0.12282184,0.102309436,0.08182931,0.31378207,0.17835273,0.02233937,0.09391591,0.10356035,-0.0133421775,0.11313995,0.09582905,0.06797293,-0.018207997,0.07854404,0.029007683,0.24339163,0.037485193,-0.03985314,0.15192685,0.02745082,0.029057635,-0.043185964,0.115896836,-0.038051262,0.08925161,0.16686165,0.20212655,0.029679667,0.23049966,0.07369152,0.081112675,0.07704052,-0.041260418,0.09069171,-0.085048564,-0.006890688,-0.02787387,0.23399375,-0.0047929436,0.08905186,0.15602253,0.12637109,-0.011175718
ANSS,0.17329036,0.17347844,0.04000148,0.012840904,0.20523937,0.120180756,-0.073626645,-0.034314025,-0.09545803,0.19039746,0.017342042,0.04437655,0.0843651,0.12129698,-0.05307495,0.29045436,0.1298716,0.13827996,-0.017663367,0.12477237,0.17907739,-0.038218856,-0.012275439,-0.014293212,0.011359274,0.21959952,0.02153501,-0.03806572,-0.046685547,0.08908051,-0.028020997,-0.017635785,-0.029639885,0.33068228,-0.0079376735,-0.0718785,0.030843088,-0.011210922,0.118977785,0.29585245,-0.0059055965,0.09215022,0.19405743,-0.010568395,0.20074724,0.14640993,-0.03522852,0.07268081,0.051069014,0.139776,0.08566983,-0.063752234,0.2196097,0.059448984,-0.048559144,0.12845786,0.067515954,0.118484914,0.08842784,0.074883446,0.3062151,-0.01560038,-0.03774453,0.09347235,0.064849325,-0.013860265,0.050529376,0.09507124,-0.054406896,-0.03916212,0.075934395,0.024135038,0.24133113,0.037489597,-0.0746131,0.15051419,-0.0007486008,0.0031424072,-0.040702432,0.1116238,-0.07180357,0.08665196,0.1609557,0.1974303,0.01446379,0.22752522,0.07329939,0.07436409,-0.057219982,-0.042024314,0.08714707,-0.09568483,-0.026550345,-0.037300415,0.12433443,-0.005597368,0.060581043,0.15500909,0.062160656,-0.035480943
AON,0.173448,0.17174843,0.039793372,0.011684943,0.20567769,0.11989932,-0.06532857,-0.022388585,-0.09419282,0.18121031,0.01807182,0.034745995,0.08398566,0.11877898,-0.0494821,0.28860068,0.055876173,0.12784396,0.008292887,0.12668757,0.17954059,-0.03947439,-0.012972176,-0.04574702,0.015825862,0.22472164,0.020740293,-0.037498,-0.03689009,0.08912075,-0.025980633,-0.01797533,-0.005099967,0.32778987,-0.043622874,-0.07395411,0.031030754,-0.012069963,0.11828351,0.29855746,-0.0058650975,0.09228082,0.092019804,-0.011308908,0.19921786,0.1479785,-0.036377534,0.008731853,0.05185119,0.047371887,0.079223745,-0.061677653,0.21999294,0.05861184,-0.046862677,0.12927276,0.068227395,0.11766859,0.08552551,0.07387704,0.3056719,-0.00029527768,-0.0377163,0.092720434,0.011371158,-0.011060927,0.004730855,0.09256674,-0.049491607,-0.037608936,0.078515016,0.02396358,0.24069034,0.03873238,-0.071580686,0.15151964,-0.016021406,-0.027194135,-0.040584467,0.11062576,-0.07380575,0.08579852,0.1587142,0.19343482,-0.021141812,0.22737348,0.07171823,0.07641896,-0.044928037,-0.04287363,0.08594471,-0.093012616,-0.030687917,-0.033253975,0.0492541,-0.0057642236,0.0110354815,0.15600678,0.044270143,-0.038667683
AOS,0.17765749,0.17699361,0.039308436,0.012506235,0.20572884,0.11869564,-0.043432713,-0.0096626,-0.096394315,0.18806277,0.016413419,0.043123156,0.08388331,0.12750429,-0.03655786,0.2947382,0.100509115,0.14135388,0.09278293,0.12950407,0.1789496,-0.03172828,-0.012485325,-0.011835452,0.03722823,0.22533831,0.021813415,-0.03678487,-0.009083416,0.09147868,-0.027351651,-0.01702997,0.070285305,0.33793247,-0.013040911,-0.067055866,0.030408192,-0.011903062,0.11795521,0.29782462,-0.003625895,0.091658965,0.16241004,-0.011434801,0.20068966,0.14872116,-0.036372833,0.04669883,0.052931402,0.14402717,0.07995717,-0.062195193,0.22764015,0.058707513,-0.050238796,0.13129517,0.070908606,0.1189781,0.09787602,0.079306155,0.30942267,0.04247847,-0.02234945,0.09099185,0.05006597,-0.015195193,0.03742185,0.09555618,-0.019406602,-0.038347486,0.078075424,0.027183238,0.2435318,0.037880618,-0.063760936,0.15540001,0.03761801,-0.006508779,-0.040313102,0.11184061,-0.059571326,0.08992264,0.16114885,0.19719993,0.018319577,0.22786756,0.07435408,0.07388003,-0.020737939,-0.041941907,0.087300844,-0.096255735,-0.008341767,-0.03718859,0.13897249,-0.0046586245,0.045117408,0.15513372,0.09422195,-0.031751797
APA,0.19114763,0.17647406,0.0444085,0.016305216,0.2074905,0.12292855,0.045495585,0.051920325,-0.09757383,0.18738128,0.018568542,0.04382465,0.08262189,0.13143064,-0.010066389,0.30199963,0.2453514,0.13917041,0.3403264,0.1400444,0.18047285,-0.029256733,-0.011854839,0.045032848,0.06868735,0.22587773,0.021004803,-0.039659094,0.07931198,0.09182006,-0.023207102,-0.010788613,0.28501895,0.33345827,-0.013620462,-0.052018136,0.03302811,-0.0096442625,0.12063746,0.30399552,0.009978972,0.09342125,0.3400971,-0.010460846,0.20070416,0.1502661,-0.038664706,0.1379987,0.056756582,0.28874382,0.08534868,-0.06448244,0.23876905,0.060321715,-0.045567557,0.1344669,0.07112831,0.12555782,0.10647522,0.08058066,0.31394258,0.16186818,0.015687244,0.09162342,0.11581703,-0.011323214,0.12550889,0.0967965,0.062112972,-0.011528745,0.083479464,0.02959914,0.24676812,0.035538144,-0.047370277,0.15213643,0.052789167,0.027249286,-0.03901882,0.11483897,-0.035692275,0.089580975,0.16604492,0.20307016,0.013318211,0.22900939,0.07460377,0.07801558,0.059392005,-0.040344417,0.091466084,-0.083505765,0.019045286,-0.037657715,0.3074412,-0.003830906,0.08970086,0.15567194,0.16229118,-0.0057451017
APD,0.17231266,0.17139174,0.03898537,0.012187809,0.20590852,0.119223,-0.033328846,-0.0027866475,-0.09591494,0.18112224,0.01571275,0.034526832,0.08294215,0.12577432,-0.037536584,0.2846396,0.040790245,0.13161035,0.09805311,0.13536672,0.17950048,-0.039701257,-0.012593541,-0.032206677,0.034887843,0.22443976,0.022296436,-0.037803583,-0.00668687,0.088658206,-0.026773669,-0.0176791,0.07232891,0.32710844,-0.044631273,-0.07528956,0.031060379,-0.011237901,0.1172504,0.29934347,0.005098991,0.09285341,0.08185224,-0.011746218,0.20014074,0.14630783,-0.037783474,-0.0025434233,0.053795062,0.06896266,0.07626368,-0.06099998,0.22290906,0.058242835,-0.04859283,0.13296041,0.06758373,0.11914324,0.084569275,0.070591524,0.30566978,0.04481037,-0.02012626,0.09184411,0.004443262,-0.012317421,-0.001978239,0.09295522,-0.017248552,-0.041216712,0.07861328,0.024652833,0.24296995,0.039044034,-0.06725514,0.15104863,-0.01261864,-0.025356496,-0.040438388,0.11060262,-0.07295757,0.08675456,0.15884793,0.19655488,-0.022482771,0.22740634,0.07400926,0.07432854,-0.0133867785,-0.04178243,0.08635688,-0.09395613,-0.040349927,-0.04036042,0.062337715,-0.0039197654,0.0068834145,0.15561426,0.05680704,-0.032084424
APH,0.1713784,0.17065567,0.039156016,0.011912581,0.20545495,0.12049933,-0.044269394,-0.009051017,-0.09636662,0.17920972,0.017104357,0.035960563,0.083833896,0.12096978,-0.05719365,0.2891777,0.038961984,0.13443899,0.048126392,0.13097014,0.178844,-0.037905484,-0.0124704875,-0.035936832,0.007025793,0.22303706,0.020647772,-0.037584983,-0.05159006,0.08921847,-0.028107822,-0.01802298,0.03976363,0.3289409,-0.04827839,-0.072103046,0.030385165,-0.011075515,0.11872233,0.2995076,0.0016484419,0.092507705,0.06262355,-0.009321079,0.19848454,0.14606443,-0.03584632,-0.010249414,0.051286697,0.047190808,0.0761189,-0.06394187,0.21927665,0.05873763,-0.04821738,0.1324534,0.06799305,0.11953973,0.0873315,0.07393174,0.30612382,0.027841486,-0.04876745,0.09239569,-0.0024250336,-0.013455778,-0.012987955,0.093745865,-0.029596828,-0.038591195,0.07756926,0.026073558,0.24085768,0.037137188,-0.0742328,0.14944889,-0.011703961,-0.034653865,-0.04089313,0.110586084,-0.07913926,0.08724478,0.15819637,0.19394453,-0.02380374,0.22945711,0.0728719,0.07322677,-0.028177764,-0.04130472,0.08716872,-0.0955344,-0.023957822,-0.036688577,0.060345497,-0.005238794,0.001352936,0.15499976,0.048789795,-0.03959931
APTV,0.17597377,0.17683572,0.038098585,0.010969009,0.20689681,0.12074075,-0.036586855,-0.010416949,-0.093036935,0.19360438,0.01796392,0.043579496,0.08394486,0.12190354,-0.046689525,0.2915523,0.26905283,0.14565071,0.07690512,0.13242611,0.18119657,-0.031091508,-0.01210409,0.045825552,0.01625001,0.22487709,0.024017416,-0.036403064,0.0124764405,0.09199168,-0.024453793,-0.01605824,0.08507507,0.33523673,0.031098008,-0.06231723,0.033196807,-0.013164682,0.121611774,0.29850468,-0.0003520865,0.09430879,0.39309287,-0.013469253,0.2037928,0.14776464,-0.036956653,0.17819259,0.0535669,0.33495328,0.084287055,-0.06418952,0.22417481,0.061482854,-0.0495979,0.13029727,0.06869292,0.11859669,0.092201054,0.07753712,0.3083647,0.032989334,-0.0034656646,0.09338902,0.14842555,-0.011772858,0.16931008,0.094254896,-0.027937822,-0.024968065,0.07983461,0.0252636,0.2432596,0.037694357,-0.052903242,0.15339501,0.06018842,0.059748154,-0.039774593,0.1185179,-0.059315912,0.090145215,0.162386,0.1981231,0.056946717,0.23079437,0.07201606,0.085327104,0.00152798,-0.04358244,0.08891218,-0.096846506,-0.0014251918,-0.035429243,0.31750596,-0.004222773,0.1197059,0.15662077,0.17020097,-0.02464921
ARE,0.17670518,0.17601684,0.039759114,0.012466166,0.20404437,0.11950618,-0.08247823,-0.039380305,-0.09391759,0.18758316,0.018610269,0.04312369,0.08529336,0.11815488,-0.057201326,0.28630748,0.10865771,0.14121889,-0.044355243,0.121509306,0.1811988,-0.030309133,-0.012491327,-0.02620846,0.0058717616,0.22688603,0.02146554,-0.038766056,-0.043319516,0.08905117,-0.02886682,-0.015512787,-0.04513385,0.3294257,-0.009280611,-0.07192916,0.030908298,-0.010414697,0.118972294,0.29687285,-0.0063136374,0.09098682,0.16871557,-0.010023467,0.19819537,0.14576335,-0.035068996,0.052733004,0.049921174,0.1260757,0.08112855,-0.06187074,0.22056521,0.05812648,-0.04780552,0.12668332,0.06746737,0.12119622,0.09891081,0.07327577,0.3059523,-0.029025134,-0.0467012,0.09562829,0.05997711,-0.010908429,0.03932614,0.09483977,-0.06429517,-0.038601093,0.07273146,0.024519084,0.24763072,0.04029033,-0.07163188,0.15279579,-0.02377351,-0.0025405972,-0.04261671,0.11175753,-0.07211357,0.086142644,0.16302806,0.19510919,0.022709742,0.22444703,0.07416967,0.07623105,-0.055242836,-0.042869568,0.086487845,-0.0939665,-0.036115967,-0.038831607,0.09681902,-0.005058095,0.04838048,0.15527098,0.036636245,-0.034965444
ATO,0.17160419,0.17380694,0.039738573,0.011808671,0.2058491,0.11935223,-0.07598502,-0.03334762,-0.09577669,0.18425605,0.018845666,0.04025632,0.083966576,0.12528993,-0.057286087,0.27773902,0.06238822,0.1378449,-0.03258346,0.12175251,0.17882979,-0.03744355,-0.012524553,-0.047245573,0.0043030754,0.22334076,0.022309281,-0.036449328,-0.039273508,0.08840762,-0.02928377,-0.016886849,-0.02800452,0.328457,-0.02473135,-0.071590275,0.029785149,-0.0114354305,0.11807066,0.2963526,-0.004620914,0.091162756,0.10196048,-0.009872772,0.19857104,0.14544979,-0.037242565,0.017507222,0.049616244,0.06293778,0.08102414,-0.06357362,0.2217302,0.059518874,-0.04945539,0.12683904,0.06717415,0.11748252,0.09576842,0.065760404,0.30200413,-0.016409654,-0.04145203,0.09285692,0.028472306,-0.014349682,0.0024209348,0.093864396,-0.059090376,-0.04304774,0.077463835,0.023257231,0.24398357,0.037797116,-0.07282029,0.15125433,-0.051779684,-0.020878604,-0.04027017,0.11120012,-0.07008053,0.08617503,0.15872863,0.19410354,0.0015861876,0.22747344,0.07461202,0.07427492,-0.05009184,-0.042641327,0.08735283,-0.09703805,-0.03513619,-0.03751774,0.03748724,-0.0043671504,0.025446707,0.15527749,0.023617558,-0.037611715
ATVI,0.17394568,0.17098507,0.041608617,0.019660141,0.20596987,0.11824939,0.052290976,0.056442544,-0.0963155,0.18592119,0.017691918,0.04085334,0.083818175,0.1572475,-0.030697087,0.287979,0.12409266,0.13448809,0.30619827,0.15894723,0.17941365,-0.038296618,-0.012036487,-0.01215051,0.05119968,0.23113617,0.021625936,-0.035136,0.051601775,0.09493239,-0.028748337,-0.016131012,0.2685625,0.32701814,-0.019958258,-0.064506486,0.04067248,-0.013424069,0.11980941,0.29853323,0.009342031,0.09231057,0.1722256,-0.011341818,0.19805135,0.14807518,-0.034864247,0.04645776,0.052229445,0.12499396,0.07915969,-0.0622379,0.22524254,0.057359423,-0.049241953,0.14494482,0.07007326,0.11802456,0.09039259,0.06918076,0.30458692,0.15874122,0.0027408227,0.08987364,0.05740687,-0.012933046,0.039025098,0.09365186,0.052008294,-0.028573997,0.08043159,0.023893468,0.24146879,0.039105166,-0.058488984,0.14971358,-0.010049472,-0.0128313005,-0.041389488,0.112331726,-0.050782792,0.08523106,0.16944863,0.1976181,0.010023821,0.23235221,0.07418089,0.07401849,0.061634734,-0.042179983,0.08632195,-0.09331198,-0.015738435,-0.037105832,0.15542538,-0.005282942,0.034202144,0.15495048,0.07482891,-0.027037933
AVB,0.17941934,0.17306831,0.039913632,0.01111998,0.20457172,0.12020385,-0.08396589,-0.03802745,-0.09234485,0.18321447,0.019596398,0.039116204,0.084226385,0.11679821,-0.056165785,0.28622565,0.031123238,0.1332809,-0.031571746,0.12118818,0.18045187,-0.035677914,-0.013506234,-0.050323196,0.008948995,0.22303204,0.021562971,-0.038880803,-0.060629733,0.08857756,-0.029067732,-0.017213143,-0.04269997,0.3262228,-0.03941199,-0.07236065,0.032159045,-0.010677926,0.11761676,0.29619431,-0.006628533,0.092650965,0.053462874,-0.010506436,0.19900087,0.14493716,-0.033881087,-0.008242771,0.050067868,0.024812706,0.07741371,-0.062021255,0.21884814,0.05906068,-0.04674797,0.12604387,0.06706078,0.12103748,0.09395689,0.072803326,0.30542475,-0.024169158,-0.046115506,0.09674301,0.007855739,-0.008826323,-0.01775078,0.09306563,-0.057001486,-0.034860216,0.07355392,0.024133626,0.2434313,0.039611187,-0.0762066,0.151767,-0.021072349,-0.035930425,-0.041195344,0.11140133,-0.07869619,0.088360175,0.15945464,0.19653241,-0.014145952,0.2246271,0.07518944,0.07791002,-0.053575255,-0.043565225,0.08571245,-0.09396224,-0.0338882,-0.039705355,0.033239905,-0.0068807304,0.011257507,0.15645215,0.034880675,-0.035446566
AVGO,0.16746701,0.17367083,0.039788425,0.021310613,0.20604393,0.116156384,0.0069815246,0.029921316,-0.09749414,0.18510664,0.013407066,0.04555077,0.08363897,0.13814695,-0.02951328,0.2910368,0.10068452,0.13585626,0.2077165,0.14741735,0.17991649,-0.036330916,-0.010672532,-0.027934767,0.039424844,0.23023562,0.022904165,-0.034995884,0.018253058,0.09210248,-0.026987344,-0.016859476,0.16913196,0.3352735,-0.02908673,-0.061129726,0.037774578,-0.012595104,0.11976648,0.30070844,0.0076007117,0.09335953,0.15842137,-0.011546215,0.19929439,0.1459496,-0.03772565,0.04621201,0.058270004,0.111053154,0.08106087,-0.057218656,0.22171104,0.058120213,-0.050389037,0.13719521,0.07067736,0.12094532,0.09043148,0.07579763,0.30813158,0.1008419,-0.01267684,0.08878288,0.042021845,-0.016057603,0.040355112,0.094399296,0.020124637,-0.03637874,0.08265059,0.027588189,0.24322914,0.038177792,-0.05929053,0.14999348,-0.0062988307,-0.007593814,-0.03783035,0.11273274,-0.0592957,0.08626832,0.16507974,0.20072554,-0.0048746243,0.22664715,0.07284556,0.07226468,0.022152714,-0.0407372,0.08775999,-0.09166103,-0.014868967,-0.03460421,0.1093249,-0.0040919334,0.03540687,0.15362242,0.057237092,-0.024942033
AVY,0.17707512,0.16958044,0.03964685,0.016827744,0.20575857,0.11895273,-0.032427132,-0.006979745,-0.0966057,0.19137818,0.015919615,0.044940803,0.083652854,0.12794639,-0.039252978,0.2896872,0.1120198,0.13768622,0.08023651,0.12734142,0.17997128,-0.038880486,-0.012737911,-0.021688182,0.031257138,0.22037128,0.021847233,-0.038007382,-0.00790157,0.08871253,-0.026753154,-0.018177813,0.055524796,0.3267193,-0.01273673,-0.07432365,0.03352828,-0.010682583,0.118467,0.29814738,0.00095743407,0.09148122,0.17373498,-0.011984963,0.19886017,0.14531264,-0.0360661,0.056848742,0.05103237,0.1208765,0.08210458,-0.06242743,0.22629479,0.06000419,-0.048337195,0.13053063,0.06807524,0.11571857,0.098025575,0.07372126,0.30557457,0.03666452,-0.01880697,0.091986,0.057335548,-0.013129745,0.036630597,0.096240625,-0.018553026,-0.039586455,0.07792036,0.023417737,0.24165039,0.037882186,-0.06288716,0.1492457,-0.015834363,-0.0057535428,-0.040360942,0.11047716,-0.057868302,0.08724141,0.1603975,0.19927956,0.008822847,0.22726995,0.07359205,0.07322902,-0.018913645,-0.04234125,0.08573053,-0.094251886,-0.029879931,-0.033919685,0.09729921,-0.0053613335,0.055066228,0.15483171,0.046392266,-0.03216555
AWK,0.17070708,0.17358235,0.039691076,0.01167912,0.20472434,0.11975309,-0.06311515,-0.043860428,-0.09589212,0.18589379,0.01924933,0.04207702,0.08395182,0.122904174,-0.0462913,0.2815378,0.06754227,0.13975194,0.03203581,0.120563254,0.18045333,-0.03754921,-0.012031022,-0.04380875,0.021566762,0.2251016,0.022982523,-0.03642004,-0.035987798,0.088954255,-0.029281355,-0.016678639,0.016105935,0.32734242,-0.029914109,-0.07196685,0.030011596,-0.010792254,0.11797544,0.2966589,-0.006650255,0.09165004,0.100528575,-0.010130342,0.19727296,0.14538428,-0.03709826,0.023288481,0.050631333,0.0559953,0.07919858,-0.063745394,0.22010946,0.057974335,-0.049063943,0.12792227,0.06680163,0.11951128,0.09432486,0.068998,0.3035149,0.012272421,-0.031625256,0.09254387,0.026903376,-0.013166152,0.009401042,0.09311943,-0.040025964,-0.04255858,0.07750435,0.023204876,0.24452876,0.03795038,-0.07347883,0.15199345,-0.034604557,-0.025135214,-0.0402698,0.11213281,-0.076513894,0.08692617,0.15923047,0.19531868,-0.0048693083,0.22569242,0.07468591,0.074047685,-0.051585726,-0.042683546,0.08653744,-0.09696784,-0.032567915,-0.04101832,0.05399501,-0.004693225,0.026210992,0.15462266,0.02940011,-0.035206262
AXP,0.17861739,0.16955431,0.03982888,0.012503371,0.20587467,0.12192033,-0.0024288632,0.0010882616,-0.094328135,0.18412983,0.017069455,0.035053935,0.08375583,0.1293769,-0.030252924,0.28243166,0.24171269,0.1279664,0.16318865,0.1356366,0.17921595,-0.0378094,-0.013122965,0.040153354,0.03018244,0.21876192,0.021064349,-0.03879089,0.0662169,0.089062825,-0.02765438,-0.01892206,0.17074804,0.32776892,-0.018158384,-0.060894176,0.030146942,-0.011657156,0.11925872,0.29797298,0.0016230554,0.093059056,0.34029347,-0.0108951405,0.19981846,0.14768311,-0.0362104,0.14044404,0.05160386,0.28436452,0.08013908,-0.0630476,0.22810833,0.06046538,-0.047267288,0.13388288,0.06918822,0.12383085,0.119894885,0.071107015,0.3046483,0.08270267,0.006288846,0.093230955,0.12430351,-0.010533806,0.12467337,0.096954286,0.006166905,-0.010485709,0.078795776,0.026710033,0.24180049,0.03794789,-0.04566162,0.14853248,0.053627003,0.028753448,-0.04040415,0.111977056,-0.045531467,0.087077096,0.16113912,0.1954884,-0.0017812662,0.22743261,0.07228215,0.07702329,0.03197778,-0.04272986,0.088114336,-0.08932097,0.010776229,-0.03767001,0.30600184,-0.004920423,0.08666795,0.15579754,0.15911292,-0.007880464
AZO,0.1702387,0.17409527,0.03978464,0.011656098,0.2070415,0.1172556,-0.052849997,-0.025754754,-0.09600279,0.18096672,0.01711077,0.035215184,0.083999075,0.13421226,-0.054758683,0.28855544,0.03918179,0.12646025,0.055062737,0.12209868,0.17833403,-0.04119363,-0.013260908,-0.0412135,0.009644287,0.22670412,0.023957156,-0.035269294,-0.039940856,0.08945589,-0.028396696,-0.017139118,0.037712105,0.32749468,-0.045995936,-0.07442849,0.030389527,-0.0131807625,0.11885617,0.29656,-0.004099604,0.093135476,0.065713555,-0.0109113455,0.19976714,0.1451202,-0.036590997,-0.009404868,0.050628636,0.04982316,0.07962133,-0.06327429,0.2199749,0.059366077,-0.051264435,0.12855881,0.06765778,0.119658284,0.089324296,0.072832346,0.3075335,0.014536172,-0.02812345,0.090811074,0.0043386016,-0.01658681,-0.019261844,0.09411415,-0.029504113,-0.042985223,0.08000918,0.023912136,0.24224813,0.038484637,-0.06981766,0.15122601,-0.0067507233,-0.03790936,-0.039791837,0.11032436,-0.07407096,0.086064324,0.15806788,0.19498351,-0.018776651,0.2294379,0.07611314,0.07781286,-0.032044496,-0.041438337,0.08740435,-0.09674168,-0.030639518,-0.037341323,0.0532598,-0.0036388487,0.009264689,0.15562119,0.047407106,-0.038092136
BA,0.17338961,0.17189635,0.03995331,0.011217564,0.20538852,0.11876405,-0.06970092,-0.028298834,-0.09532937,0.17987959,0.019148808,0.034762256,0.08417183,0.12100964,-0.05504031,0.28553325,0.15653601,0.13353309,-0.018885918,0.12361752,0.18019369,-0.038736694,-0.013707731,0.003031212,0.0117583275,0.22144613,0.021956138,-0.038846295,-0.016537376,0.088394076,-0.0275538,-0.018843014,0.0070468783,0.32616585,-0.039307788,-0.068293504,0.032232072,-0.011417396,0.118681714,0.29763588,-0.0049969773,0.09191251,0.2119015,-0.011980111,0.1999588,0.14611746,-0.035359565,0.0687832,0.05178082,0.15962578,0.076261505,-0.061728936,0.21931927,0.059109755,-0.048216395,0.12874106,0.0696182,0.11953168,0.09135106,0.06850556,0.30553314,-0.014998753,-0.036455996,0.093056604,0.06755836,-0.0122830495,0.054250594,0.093710676,-0.051954143,-0.024776772,0.07759435,0.024329677,0.24239157,0.037623785,-0.06651001,0.15120506,-0.010703346,-0.0072979107,-0.041296937,0.11158785,-0.06984939,0.08679496,0.1623462,0.19591005,-0.015644375,0.22855921,0.0711712,0.074511945,-0.034166858,-0.042123746,0.08534836,-0.09183082,-0.01306738,-0.03443165,0.19260505,-0.0051186383,0.036808085,0.1553961,0.09456617,-0.034690063
BAC,0.17647381,0.17102554,0.039005548,0.011935886,0.20686409,0.121485956,-0.02725594,-0.002209168,-0.095193386,0.1814603,0.014355188,0.03506046,0.083821304,0.122611284,-0.028346132,0.29063594,0.13758333,0.13108593,0.13300891,0.13558269,0.17780748,-0.03488446,-0.013668645,-0.013720823,0.04640748,0.22206444,0.020600848,-0.04121074,0.006569512,0.090406194,-0.025554754,-0.013150696,0.09901833,0.33235675,-0.016274728,-0.06832967,0.030811662,-0.010749046,0.12051822,0.29940566,-0.0010401029,0.092809096,0.20439142,-0.011349574,0.19983557,0.14761227,-0.034542568,0.07445484,0.053721253,0.15226693,0.07961834,-0.06313575,0.22323424,0.061830886,-0.046630487,0.1307485,0.06870307,0.12110679,0.10136904,0.07406062,0.30609483,0.05953277,-0.014436536,0.093700446,0.06099121,-0.010757789,0.06387414,0.094171524,-0.009055618,-0.03102003,0.082070336,0.024840334,0.24218287,0.03764391,-0.053743638,0.14922222,-0.019012362,0.002033431,-0.03981091,0.112324156,-0.056574404,0.087277494,0.16847503,0.20016333,0.00288257,0.22811171,0.07150913,0.07539564,-0.010458946,-0.042210415,0.0880561,-0.09475884,-0.027580552,-0.037562065,0.1480528,-0.0045581833,0.051148597,0.15611027,0.07839677,-0.026649285
BAX,0.17250277,0.17424801,0.039060507,0.011174601,0.20562363,0.12039699,-0.056777917,-0.017546264,-0.093955815,0.18385807,0.02014769,0.04193596,0.084306724,0.12068136,-0.057032973,0.28825724,0.056101207,0.13560943,0.024243314,0.12763962,0.17950468,-0.04065971,-0.013641387,-0.04227037,0.00072092004,0.22937912,0.022484273,-0.03678705,-0.038514674,0.089254126,-0.026303917,-0.017101131,0.02006866,0.32652703,-0.0384562,-0.07021049,0.030450547,-0.012928786,0.11911013,0.29664585,-0.0025067437,0.0922519,0.09458131,-0.010082679,0.1995755,0.14647311,-0.037575632,0.009577271,0.05093083,0.051998056,0.07951406,-0.063469686,0.22164458,0.05620604,-0.048280038,0.13198139,0.067880526,0.11750865,0.08756979,0.07389119,0.30451727,0.011053897,-0.044504084,0.09096195,0.018471412,-0.012058213,0.005673893,0.09303039,-0.04097361,-0.04075319,0.077202246,0.024615135,0.24043676,0.037527137,-0.07124531,0.15120935,-0.008350991,-0.026609985,-0.041041665,0.11152916,-0.06734936,0.08650969,0.16005343,0.19494995,-0.006017193,0.23106301,0.0733412,0.076232456,-0.036058825,-0.042583525,0.08565314,-0.093776524,-0.027995035,-0.04100954,0.057266243,-0.004936926,0.019682284,0.15556325,0.050851937,-0.037098017
BBWI,0.17723235,0.1744063,0.039017364,0.009283917,0.20691496,0.11953028,-0.059470136,-0.018681433,-0.09590483,0.1984392,0.01951864,0.05379144,0.08486326,0.12317207,-0.052539427,0.28459713,0.24618419,0.1462025,0.012218658,0.12483218,0.1814652,-0.03625352,-0.012275238,0.035168234,0.0050312486,0.22061294,0.023264118,-0.036966044,-0.01979908,0.08952172,-0.029046591,-0.01579215,0.027688064,0.32769057,0.014979091,-0.06029529,0.03206401,-0.012477137,0.11727664,0.29633117,-0.004754698,0.09356605,0.36587837,-0.011075243,0.20062067,0.14729175,-0.03629104,0.16263667,0.051820487,0.31089756,0.088440575,-0.063366786,0.22329812,0.06095563,-0.04981011,0.13114318,0.06744851,0.11970237,0.093821526,0.07406546,0.30724147,0.0073996447,-0.03507672,0.09246594,0.13371854,-0.012384782,0.1544549,0.09479448,-0.044636995,-0.030145876,0.081578486,0.025965815,0.24360423,0.038774498,-0.068651594,0.15319183,0.04828366,0.054108065,-0.041017473,0.11308357,-0.062009208,0.0869357,0.16441897,0.1989192,0.049474575,0.23073182,0.07268315,0.07730095,-0.02612783,-0.0430336,0.08711113,-0.09461695,-0.0053788647,-0.038983822,0.29928195,-0.004588425,0.11382946,0.15506302,0.15941767,-0.035986837
BBY,0.23650803,0.18146484,0.040693864,0.023259103,0.2084251,0.12021131,0.15676157,0.06608698,-0.06304787,0.1859037,0.020902619,0.03931323,0.08413663,0.15938327,0.023099544,0.29010552,0.17296296,0.13434832,0.5822599,0.15653838,0.1815464,-0.032341197,-0.0109275505,0.010480517,0.111981064,0.22978553,0.020889848,-0.039135877,0.23977739,0.09177737,-0.024299525,-0.014397694,0.5400676,0.3314286,-0.030758772,-0.057707302,0.041044373,-0.01088861,0.11978351,0.3068997,0.012796898,0.093938105,0.24540788,-0.011271663,0.2028801,0.14753576,-0.036675453,0.08599261,0.056551173,0.19430792,0.08564599,-0.059670098,0.24734218,0.0632029,-0.046777025,0.14404279,0.06899244,0.1314556,0.1651668,0.07612218,0.3091774,0.30019712,0.09349448,0.09193832,0.08264035,-0.009645527,0.08194346,0.103723824,0.1479633,-0.02300683,0.08163521,0.027476296,0.2537707,0.039566264,-0.008044878,0.15418695,0.008955222,0.0010839901,-0.039002463,0.11867001,0.026778378,0.09016852,0.1651533,0.19648083,0.0019655637,0.22897398,0.08980743,0.0905442,0.1683315,-0.040510435,0.09152723,-0.09110647,-0.0062885433,-0.036382213,0.22354567,0.008448124,0.051143445,0.15595144,0.11638658,0.033896588
BDX,0.1697841,0.1724506,0.03907138,0.011624154,0.20551912,0.11892798,-0.08081132,-0.03578941,-0.095372796,0.18419123,0.017830847,0.038454756,0.083845794,0.1229868,-0.055698507,0.28375542,0.057229068,0.13873145,-0.036426365,0.12034104,0.17821462,-0.03821142,-0.012829177,-0.044580653,0.0050283223,0.2308399,0.022215515,-0.035998493,-0.029597228,0.08889602,-0.026697226,-0.017034255,-0.017369457,0.32865962,-0.03373263,-0.07453564,0.02943029,-0.012545891,0.11827466,0.2960018,-0.006269268,0.09165436,0.09851832,-0.0097160805,0.19841933,0.1452542,-0.036039963,0.016832452,0.050007164,0.05247908,0.079167895,-0.060654834,0.2174226,0.055882566,-0.04864146,0.12595406,0.06748483,0.11693224,0.08929978,0.07206839,0.30277336,-0.02515272,-0.04283915,0.089817256,0.026701543,-0.01247593,-0.0005191844,0.09357621,-0.064141795,-0.042164087,0.07782765,0.024029348,0.24270242,0.038704213,-0.0690144,0.14987937,-0.02682353,-0.020669421,-0.040617947,0.111770995,-0.076367736,0.08611161,0.15951498,0.19330975,-0.0018336289,0.2311117,0.0739961,0.07464833,-0.042116717,-0.042475753,0.0857629,-0.093501724,-0.035568833,-0.04010907,0.03322885,-0.0038984865,0.021975819,0.154966,0.028519463,-0.037327264
BEN,0.18734068,0.17084655,0.03871754,0.010814175,0.20682952,0.12193881,0.043627672,-0.0070673376,-0.09125782,0.18656188,0.015510391,0.03736931,0.083934195,0.11531781,-0.0100240465,0.2859844,0.13348237,0.1326743,0.29089916,0.122679844,0.18010442,-0.036349975,-0.011960197,-0.013325437,0.062040575,0.22251542,0.019613698,-0.040710222,0.124613225,0.08960101,-0.025689494,-0.017301222,0.2843416,0.32581687,-0.021738045,-0.069004506,0.030024523,-0.010836918,0.12055066,0.29679015,-0.0050536213,0.09326945,0.19928285,-0.011258241,0.19886883,0.14816757,-0.0364736,0.06958585,0.051538464,0.14925243,0.080800936,-0.06390934,0.23465504,0.060253568,-0.046112083,0.12776455,0.068553336,0.12985083,0.13530731,0.06907089,0.30453742,0.15348741,0.03663858,0.094400615,0.06231714,-0.009819372,0.065497756,0.10152076,0.047601514,-0.033913344,0.07868514,0.023751672,0.24148177,0.03819724,-0.030698884,0.1502263,-0.029303608,0.0009881873,-0.04044707,0.11139619,-0.024157345,0.08607602,0.16429798,0.19784355,0.005328253,0.22695717,0.070191495,0.08088343,0.07830252,-0.041583203,0.08826196,-0.09408598,-0.030353468,-0.038432844,0.14596134,-0.0053117275,0.04930401,0.15590721,0.07879402,0.00917352
BIIB,0.18939368,0.20501173,0.040449146,0.014813047,0.20497577,0.11965667,-0.0032024104,0.0032812096,-0.09887807,0.19405678,0.01837792,0.04389508,0.083507344,0.12672512,-0.034302767,0.34174255,0.44625857,0.14290394,0.15658078,0.13533884,0.18720749,-0.034222372,-0.013721589,0.14546351,0.02647065,0.22195424,0.022437103,-0.036733344,0.05245145,0.096665956,-0.027218252,-0.01691656,0.16855967,0.37147006,0.025687546,-0.030926567,0.03285853,-0.011376439,0.118547045,0.30744532,0.0011755885,0.09241035,0.67352206,-0.010159761,0.19907948,0.15711096,-0.038061444,0.32307518,0.054811265,0.64408445,0.08138369,-0.05074411,0.2355906,0.05836523,-0.04725277,0.13301452,0.076897204,0.120378494,0.11563695,0.124012575,0.3387468,0.08442363,0.0016255751,0.08845186,0.22472562,-0.0031950679,0.32901204,0.09911022,0.0067498237,0.036623538,0.09152314,0.042633656,0.24766897,0.03930796,-0.044975426,0.1758476,0.2797109,0.13551196,-0.038343534,0.12732947,-0.030571662,0.10745003,0.16242644,0.19938296,0.07691625,0.22613718,0.07993656,0.07146981,0.025474735,-0.04305742,0.09393166,-0.08000845,0.10038553,-0.042443693,0.6043343,0.0070042536,0.1380256,0.15293682,0.34816977,-0.016100347
BIO,0.18128818,0.17093016,0.040368572,0.018393867,0.20393038,0.12107817,-0.02069388,-0.0011942573,-0.09662014,0.18246989,0.020009791,0.034667537,0.08403024,0.118556336,-0.043818526,0.2840848,0.0047363043,0.1424393,0.0795009,0.12907074,0.17946205,-0.039303288,-0.01379009,-0.06333368,0.017210886,0.22513303,0.020648025,-0.03774493,0.014533002,0.08847985,-0.027290277,-0.01834603,0.07258685,0.32572776,-0.053968213,-0.07480824,0.0362222,-0.010516668,0.117355675,0.29755113,0.0039608455,0.09298542,0.01849234,-0.009679101,0.20016953,0.14675587,-0.03553788,-0.029293247,0.05024315,-0.016135974,0.07945223,-0.06343041,0.22768226,0.05820085,-0.048037082,0.13349666,0.06773286,0.12036851,0.10441419,0.07082683,0.30277628,0.041897405,-0.01973347,0.0923994,-0.0092610475,-0.012280703,-0.034169763,0.09533884,-0.008885652,-0.039074007,0.07728647,0.02346272,0.24274524,0.036303487,-0.058582284,0.14936087,-0.04218141,-0.047623876,-0.039983556,0.1099202,-0.054129362,0.08671543,0.1589299,0.1937305,-0.029017657,0.22724633,0.07487158,0.072274536,-0.0074637234,-0.04424749,0.08593094,-0.097047254,-0.042998835,-0.03769589,0.0072068134,-0.0057139248,0.00244884,0.15398519,0.016816808,-0.025015883
BK,0.17434514,0.17494756,0.039436642,0.011870306,0.20620623,0.12036313,-0.05024408,-0.011528213,-0.094987735,0.18362364,0.018662307,0.034012526,0.084236294,0.120827205,-0.052307658,0.2960142,0.16880058,0.1341356,0.039086945,0.13037226,0.1786944,-0.03654948,-0.014335763,0.00070149545,0.015838025,0.22014554,0.022626624,-0.039193228,-0.018976247,0.090770304,-0.02733929,-0.018745774,0.026382037,0.33335182,-0.006169051,-0.068081275,0.030053673,-0.011983529,0.119323075,0.29904574,-0.0038995752,0.092809826,0.24977973,-0.011593517,0.20082694,0.14786355,-0.034076706,0.09946701,0.05273691,0.19677196,0.079447776,-0.06435618,0.22168113,0.059770025,-0.047934026,0.13063538,0.06944285,0.116270825,0.0929011,0.080483265,0.3083251,0.019318886,-0.038230047,0.092649706,0.084336415,-0.011063933,0.09116335,0.094890505,-0.038480844,-0.037215948,0.078949556,0.02437159,0.24312907,0.037127733,-0.064711034,0.1506289,0.015101492,0.01547355,-0.040106274,0.112900816,-0.06678638,0.08921385,0.16251305,0.19676048,0.017193936,0.22809885,0.07205585,0.07499783,-0.033172175,-0.04300366,0.08648622,-0.09575052,-0.016531885,-0.037137583,0.1901428,-0.005505167,0.067038774,0.15557098,0.10241291,-0.037000965
BKNG,0.17114623,0.1742938,0.039235167,0.01123219,0.20626926,0.12169619,0.029441424,0.0057920106,-0.09676818,0.19063434,0.01667856,0.037590668,0.083408415,0.12627563,-0.0040923664,0.2834764,0.24362704,0.1403665,0.282574,0.13546337,0.18416473,-0.035003703,-0.013380952,0.03461809,0.0720648,0.23347753,0.02212441,-0.03571697,0.06881715,0.09091578,-0.02722653,-0.017043823,0.2322618,0.32565022,0.020029847,-0.057292104,0.031196928,-0.013044421,0.12077519,0.29737145,-0.00043750834,0.09348594,0.35653704,-0.011250041,0.20081566,0.14642023,-0.0364085,0.15802872,0.052757166,0.29942247,0.07796416,-0.06641921,0.22492242,0.056696415,-0.048360992,0.13316059,0.06778203,0.11948891,0.10472865,0.071828455,0.30430573,0.14399578,0.02299869,0.089616895,0.13236247,-0.011550408,0.1500554,0.0963573,0.044770956,-0.029384747,0.08016008,0.02478907,0.24015516,0.037949882,-0.046928287,0.15343828,0.040745944,0.048580956,-0.039494,0.11357344,-0.04520478,0.08814369,0.16336694,0.2027048,0.049970035,0.23422164,0.072807804,0.0732709,0.036927164,-0.04279756,0.08726242,-0.09469333,0.0013988763,-0.03632787,0.2851891,-0.0062687397,0.10517274,0.15504587,0.15119249,-0.019293554
BKR,0.18068506,0.17481583,0.039992474,0.019128002,0.20662722,0.122295305,0.016237138,0.033126734,-0.09454515,0.19850633,0.017608227,0.04598513,0.08299457,0.13601969,-0.0271595,0.30126816,0.119734675,0.14417239,0.21060178,0.14737913,0.18391764,-0.03127062,-0.01302683,-0.015147982,0.03838306,0.22417656,0.020160608,-0.040031508,0.043376677,0.09031436,-0.024495512,-0.017988104,0.18111247,0.33246076,-0.009747289,-0.06629342,0.033948198,-0.010976024,0.11937214,0.3006208,0.013402394,0.09235069,0.18520099,-0.009903409,0.19941932,0.14964713,-0.039331887,0.062996544,0.053234015,0.14219499,0.08765145,-0.061019972,0.23117939,0.057900146,-0.047255557,0.13961188,0.07216076,0.12810646,0.11412552,0.080688536,0.30831116,0.11139494,-0.0032780515,0.09303634,0.0665683,-0.013136007,0.06681289,0.09643683,0.02530589,-0.034313764,0.079355195,0.02755577,0.24391554,0.03480236,-0.054457635,0.15228653,0.030274963,0.003553681,-0.03811678,0.11335436,-0.048991702,0.08993084,0.16454315,0.2004076,0.01738486,0.22844198,0.07527118,0.076291844,0.029876992,-0.043100324,0.089342654,-0.09606042,-0.006180275,-0.037190333,0.13396673,-0.0010873452,0.057658188,0.15689994,0.09563267,-0.0124621615
BLK,0.17516625,0.17171988,0.039160945,0.010986775,0.20716216,0.12096868,-0.061978906,-0.021847308,-0.094199434,0.18094435,0.015992384,0.032956004,0.0832682,0.11769234,-0.042356413,0.2833267,0.11797786,0.1303958,0.036894236,0.12587644,0.17959355,-0.038354427,-0.012913246,-0.020597745,0.024711061,0.22166994,0.021111645,-0.03943556,-0.030250449,0.0893147,-0.026265107,-0.017577736,0.017685764,0.32498363,-0.02555181,-0.07098704,0.030932128,-0.012026083,0.11926179,0.2964885,-0.0032965764,0.093125775,0.1795397,-0.011280462,0.2003064,0.14731932,-0.037903663,0.05788651,0.050669223,0.12985963,0.07639126,-0.06369546,0.22165968,0.05930841,-0.047405012,0.12812072,0.06819938,0.11692156,0.08603053,0.06880336,0.3051023,0.015349481,-0.0347358,0.09260394,0.05228246,-0.011623384,0.054003857,0.093079165,-0.043353617,-0.03737898,0.07867581,0.02443061,0.24187498,0.03793694,-0.06876452,0.15035833,-0.020585692,-0.0038511977,-0.041102864,0.111179315,-0.07067129,0.08656832,0.16274853,0.19797033,-0.0011411011,0.22886655,0.07321781,0.07678873,-0.04009182,-0.041686296,0.08667455,-0.09398165,-0.020821955,-0.03634426,0.12850472,-0.005120881,0.042751156,0.15651241,0.067092255,-0.03131326
BMY,0.1692695,0.1747355,0.039259832,0.012417786,0.20421115,0.11877037,-0.049424537,-0.024640653,-0.09775272,0.21051946,0.018270217,0.07108375,0.08490912,0.11839173,-0.046797857,0.28542143,0.37847707,0.17619726,0.036716744,0.12401066,0.17958546,-0.016422637,-0.012810402,0.094632044,0.012327829,0.25067604,0.023524426,-0.0368516,0.0081293285,0.09425379,-0.027633961,-0.017247237,0.060149603,0.33257413,0.08927477,-0.061356597,0.031119278,-0.009852592,0.123615876,0.2981078,-0.0032953122,0.09235473,0.55182505,-0.011001922,0.2029241,0.14681078,-0.034238152,0.2758143,0.05522599,0.4906114,0.10226363,-0.060643926,0.22347753,0.057860546,-0.048153676,0.13024509,0.07078624,0.119041905,0.10034482,0.07105602,0.30435434,0.016753748,-0.02138517,0.091864325,0.22631116,-0.010575227,0.25148368,0.09673195,-0.03763628,-0.0051478446,0.097723074,0.025667137,0.25640967,0.039190285,-0.056205075,0.15087369,0.14538263,0.109199665,-0.04092356,0.11877207,-0.06260834,0.087707736,0.15948473,0.19519727,0.13290033,0.24446258,0.07061443,0.07145022,-0.009507485,-0.042310674,0.08618547,-0.079717,0.030303076,-0.041211072,0.43986666,-0.004202366,0.18257725,0.15305167,0.22959498,-0.027595196
BR,0.17039238,0.17187455,0.04014973,0.012258336,0.20482913,0.11882981,-0.062483713,-0.023487242,-0.09598405,0.19007753,0.019735837,0.04072953,0.08573468,0.124606475,-0.058139734,0.2856105,0.09086366,0.13398804,-0.0030832812,0.1263308,0.17942964,-0.039898388,-0.012832962,-0.031112812,0.00589687,0.22370212,0.024050288,-0.03550683,-0.04972938,0.08881845,-0.02797664,-0.017827474,-0.006864853,0.3259091,-0.019237991,-0.07440074,0.03075364,-0.012540143,0.11843057,0.29774585,-0.0036709583,0.09220278,0.14424601,-0.011344843,0.19844577,0.14439408,-0.035267077,0.04287885,0.05197194,0.09203573,0.0826318,-0.06353536,0.21941036,0.059264023,-0.049728513,0.12910764,0.06774847,0.1191203,0.09018038,0.06969126,0.30336457,-0.0012262985,-0.036121212,0.09216456,0.045856733,-0.013974853,0.021853236,0.09485215,-0.048320025,-0.04199435,0.07844345,0.024558576,0.24270418,0.03779792,-0.068678394,0.1502088,-0.009025868,-0.01413705,-0.0420379,0.11086589,-0.076830834,0.088200256,0.16032845,0.19524626,0.0018186681,0.22675857,0.07513748,0.07424108,-0.04248171,-0.042780533,0.08640994,-0.097969,-0.039748028,-0.034838267,0.07076023,-0.004698612,0.040693544,0.15381007,0.058468305,-0.036137808
BRO,0.1747435,0.17179309,0.0392277,0.010645874,0.20499395,0.12072554,-0.058577806,-0.016905265,-0.09514941,0.18280685,0.01838786,0.03362445,0.08440816,0.12156423,-0.054562293,0.28500974,0.033528015,0.13948135,0.020134714,0.12784512,0.17859823,-0.03982222,-0.013224997,-0.05639068,0.008856565,0.21852317,0.021712132,-0.039123327,-0.03515538,0.08949779,-0.028152894,-0.017409323,0.010340713,0.32770756,-0.0496095,-0.075243525,0.029808499,-0.010665169,0.11943352,0.29826748,-0.0045929807,0.09186469,0.06340529,-0.010065092,0.19923116,0.14579016,-0.03780423,-0.0083463825,0.051846314,0.020806696,0.07828781,-0.06356755,0.22191161,0.059316717,-0.048105087,0.12844913,0.06746519,0.11780006,0.08968614,0.071698904,0.30420542,0.008773845,-0.040805515,0.09402556,0.0022015236,-0.013448205,-0.0077463686,0.093235105,-0.04560754,-0.040041104,0.075276345,0.023778755,0.24173184,0.038213246,-0.072808504,0.15043718,-0.030545266,-0.034867145,-0.04102484,0.109434836,-0.06618139,0.0864083,0.15849131,0.19381438,-0.025383592,0.22684272,0.07173359,0.07497816,-0.038848825,-0.042945683,0.08591785,-0.09559579,-0.03841996,-0.03684979,0.027157292,-0.004010007,0.006347375,0.15527594,0.022782557,-0.038563084
BSX,0.17338812,0.17309016,0.03982544,0.0143040605,0.20520821,0.11745054,0.029902516,0.015292533,-0.09596147,0.18430297,0.018871166,0.037967917,0.08450975,0.1276938,-0.010516696,0.28336772,0.043236244,0.14071496,0.2505857,0.13078803,0.18046185,-0.03733487,-0.013550051,-0.040477753,0.05313529,0.22986704,0.024413474,-0.036627427,0.08548889,0.08920956,-0.027057514,-0.01769716,0.23128426,0.32793444,-0.032509208,-0.061403222,0.031581335,-0.011958109,0.11752958,0.29833978,-0.0022112667,0.09214726,0.073046625,-0.010941917,0.19893295,0.14589444,-0.036129303,0.0009239949,0.05341292,0.035271324,0.08192044,-0.060628496,0.22508252,0.056208,-0.049748626,0.13084395,0.069148645,0.117236376,0.10493572,0.07158598,0.30457836,0.12913449,0.01932126,0.09056078,0.0147925075,-0.013604885,-0.009309233,0.09466557,0.03117001,-0.045518488,0.07740277,0.023887305,0.2438313,0.03789343,-0.04636291,0.15150891,-0.034336694,-0.030825624,-0.039833784,0.11152049,-0.034510374,0.08653727,0.16108641,0.1976281,-0.0066240393,0.22984643,0.07280135,0.074168555,0.050786875,-0.042636666,0.08554426,-0.09351152,-0.025372379,-0.037859663,0.04886007,-0.0035978556,0.016935103,0.15439035,0.038672518,-0.015402142
BWA,0.17605695,0.17656386,0.03923349,0.011630248,0.20742296,0.1198693,-0.049046353,-0.028625607,-0.09345285,0.1906648,0.01634039,0.04086864,0.083894625,0.12249065,-0.041468054,0.29461643,0.19917627,0.14173628,0.045170955,0.12686642,0.18077023,-0.02759357,-0.012550272,0.014172719,0.021453489,0.22594883,0.021855861,-0.036234032,-0.0028488599,0.091554746,-0.024647225,-0.01575588,0.058650896,0.33681014,0.008834641,-0.061739057,0.029735558,-0.013441872,0.121279076,0.29724428,-0.0021108156,0.093309514,0.29507408,-0.012917427,0.20350115,0.14824739,-0.036709383,0.12358373,0.053533208,0.23848538,0.08416381,-0.061709117,0.22369936,0.06033337,-0.048360724,0.12786505,0.070537515,0.119791485,0.088209674,0.08097251,0.31018946,0.015990723,-0.010245839,0.09261593,0.10268911,-0.013114121,0.11399314,0.09443748,-0.036326736,-0.025874302,0.07675884,0.028706118,0.24381757,0.038757246,-0.055675175,0.15275156,0.030460367,0.030061888,-0.040896893,0.11666412,-0.06056439,0.08833124,0.16214997,0.19904518,0.0262075,0.22663352,0.07400811,0.08262098,-0.00672853,-0.042663805,0.08793481,-0.09287545,-0.00677336,-0.030825362,0.22926706,-0.004312508,0.08506672,0.15676728,0.12358193,-0.031672522
BXP,0.18249786,0.17368299,0.039398976,0.011510737,0.20492327,0.11983224,-0.050836116,-0.013139216,-0.090876624,0.18459587,0.019393599,0.037126638,0.08421844,0.122705035,-0.051571157,0.29066908,0.056314524,0.135201,0.038692206,0.12834094,0.18054123,-0.034426518,-0.013380874,-0.040370494,0.015723065,0.22172666,0.021990046,-0.040979054,-0.036516685,0.08986941,-0.02784393,-0.016172312,0.027211681,0.32822955,-0.028974922,-0.07140911,0.03173256,-0.010612037,0.11788556,0.29844618,-0.003889223,0.09147918,0.0936668,-0.010976613,0.19989228,0.14631578,-0.035251796,0.012165654,0.05211917,0.05489499,0.07925834,-0.061501164,0.21889514,0.059080034,-0.047263443,0.12926169,0.06899212,0.121727355,0.09421612,0.076141775,0.3081256,0.0185951,-0.03396903,0.09772769,0.025002254,-0.010006808,-0.0012589581,0.092705294,-0.036295056,-0.036585182,0.07394758,0.025351955,0.24452126,0.039250433,-0.069468625,0.15191191,-0.007384233,-0.024009457,-0.04143709,0.111810945,-0.07426131,0.08781195,0.16095236,0.19671562,-0.001682125,0.22755376,0.073448606,0.08027378,-0.031742666,-0.042202506,0.08621,-0.09406605,-0.02537879,-0.0378339,0.061030805,-0.005879812,0.023470163,0.15761971,0.05203964,-0.035160676
C,0.17565197,0.1727988,0.03953859,0.012600288,0.206305,0.12170537,-0.02367984,-0.008210966,-0.09566748,0.18559204,0.014506109,0.036135033,0.08396824,0.12010174,-0.027312018,0.2936502,0.1877702,0.13582936,0.14315481,0.13223088,0.17692403,-0.033958413,-0.013623703,0.008603094,0.047301777,0.22317928,0.02123247,-0.03948235,0.009777442,0.091006264,-0.024710745,-0.0125135,0.10669482,0.33203065,-0.0001042448,-0.06717252,0.030177515,-0.0108708255,0.11988844,0.2990914,-0.0025867135,0.09280628,0.27387857,-0.011074256,0.1996991,0.14750811,-0.03612528,0.11526199,0.054359112,0.21902916,0.07905744,-0.06419568,0.22255023,0.061003774,-0.0471011,0.12997521,0.0689345,0.11706765,0.08951337,0.0776612,0.30710456,0.065188825,-0.011063216,0.09267916,0.0952694,-0.012188017,0.10407704,0.093475565,-0.0062162504,-0.031188559,0.08163079,0.025677277,0.24415904,0.037641186,-0.061201803,0.15007612,0.001620857,0.023680197,-0.040473744,0.11372331,-0.06572162,0.088577345,0.16903545,0.19918554,0.024024662,0.22797045,0.07195874,0.074693434,-0.009855486,-0.041391846,0.08742843,-0.096040264,-0.020898629,-0.038981505,0.2117195,-0.0049245805,0.07485677,0.15538417,0.11414745,-0.026986554
CAG,0.18504046,0.17845906,0.03904418,0.022537362,0.20442389,0.114476316,0.047177345,0.040365867,-0.092179954,0.19280952,0.01713465,0.04891093,0.08180049,0.14947142,-0.049600497,0.29234374,0.15864447,0.14200604,0.26374552,0.1594431,0.17888717,-0.038955197,-0.013733182,-0.0024878522,0.047899194,0.22420348,0.025865406,-0.037813228,0.025513813,0.09102323,-0.028390754,-0.018403864,0.22957048,0.33741277,0.0011555068,-0.07011864,0.041283406,-0.010100607,0.11764109,0.30265287,0.013311654,0.09200992,0.23773897,-0.0111842025,0.19801727,0.14483246,-0.03851396,0.09700955,0.053130724,0.1844947,0.08805473,-0.06162954,0.2269263,0.05656452,-0.049479146,0.14608844,0.06787506,0.11700122,0.10427114,0.08137721,0.30948037,0.14073882,0.010684716,0.0945025,0.08807587,-0.019047633,0.07764985,0.09357579,0.04128041,-0.035589095,0.07839082,0.023209833,0.2426548,0.03742507,-0.057915226,0.15273911,0.02065979,0.015834773,-0.038860276,0.11702552,-0.04855804,0.08735657,0.16051808,0.19392413,0.029579319,0.22859554,0.07497325,0.07346778,0.052492037,-0.043380905,0.086121626,-0.09781649,-0.01773262,-0.03821005,0.15389432,-0.0023279935,0.07260221,0.15623847,0.07996079,-0.02407261
CAH,0.16987461,0.1713458,0.040488016,0.012438983,0.2048623,0.11901745,-0.040332578,-0.0075199082,-0.09738404,0.1916726,0.017520929,0.051055513,0.08459429,0.1219775,-0.042066783,0.28150427,0.20029292,0.14895634,0.07050842,0.13451658,0.17959735,-0.035826936,-0.01284587,0.010987768,0.018006943,0.22119817,0.023154005,-0.037942298,0.0253966,0.08970054,-0.027665053,-0.018814651,0.08689816,0.3244524,0.013195258,-0.06931724,0.030828973,-0.010435212,0.11826174,0.2983204,-0.0015834058,0.0912359,0.29310054,-0.011134155,0.19870839,0.14562456,-0.035180684,0.12218482,0.050591663,0.23244993,0.08248323,-0.06137785,0.22833058,0.05847999,-0.048600078,0.1319295,0.068382114,0.11758241,0.099585034,0.06753872,0.3047326,0.02907379,-0.019035934,0.09162317,0.111263424,-0.012606498,0.098566286,0.10091223,-0.030624166,-0.031354167,0.084541544,0.02324016,0.24282111,0.036843386,-0.05121598,0.14956057,0.010835504,0.0323882,-0.04080913,0.11195137,-0.06532508,0.08662772,0.16095005,0.19740216,0.04186088,0.22722201,0.07176666,0.072419964,0.0029743388,-0.04228784,0.08619473,-0.09384251,-0.027294964,-0.039184153,0.20134057,-0.005141452,0.09675589,0.15360244,0.10459046,-0.019693874
CAT,0.17810008,0.17631212,0.038950965,0.01227184,0.20643197,0.12062406,-0.024725799,-0.023606664,-0.09609035,0.18347242,0.01943824,0.03445141,0.08336598,0.11809818,-0.03909108,0.29075935,0.11332098,0.13058768,0.106367856,0.12505189,0.18053988,-0.037435632,-0.012633685,-0.024460364,0.021622518,0.2205948,0.020530783,-0.0378395,0.040543463,0.08982192,-0.026337948,-0.017443232,0.120172404,0.33295554,-0.027776629,-0.06785315,0.03169018,-0.01173486,0.1186352,0.2988357,-0.0019717515,0.093029074,0.17275214,-0.011093378,0.19942683,0.14870328,-0.037814427,0.053571396,0.052081887,0.12193513,0.077148765,-0.06115364,0.22794458,0.059559822,-0.04677055,0.12773386,0.06797035,0.12094763,0.11189371,0.073020004,0.30654705,0.052991427,-0.00462428,0.09250296,0.046742298,-0.011423754,0.048640855,0.09604922,-0.014412284,-0.03704911,0.07767725,0.025594532,0.24414189,0.03882574,-0.04874303,0.15245506,0.00461822,-0.004118102,-0.04035829,0.11244824,-0.050910085,0.086922675,0.1620821,0.19870234,-0.0042513236,0.22688694,0.07130322,0.07629588,0.012613982,-0.04233806,0.08780503,-0.09326272,-0.02403722,-0.036223967,0.12030929,-0.003062643,0.040024973,0.15615067,0.06546807,-0.017526794
CB,0.17319903,0.1711326,0.03996755,0.0107826255,0.20551948,0.121723175,-0.079626895,-0.038176283,-0.0949274,0.18222329,0.020005371,0.033583328,0.08426634,0.11582705,-0.055963933,0.2829182,0.029207174,0.13159679,-0.034520254,0.11916212,0.17842147,-0.040483184,-0.0130527355,-0.058834285,0.0066485237,0.22482781,0.021083497,-0.03777871,-0.0315134,0.08779818,-0.027275521,-0.01806051,-0.020311132,0.32404906,-0.05401253,-0.076003365,0.029241454,-0.012044944,0.11888928,0.2959418,-0.006702208,0.09183629,0.055837896,-0.010116734,0.19997475,0.14683792,-0.038272556,-0.012083884,0.049838137,0.012619723,0.07916555,-0.06334765,0.220576,0.058650754,-0.04661201,0.12569353,0.06671953,0.11767725,0.088095844,0.06883029,0.30327082,-0.024282552,-0.043112636,0.092751384,-0.0053825118,-0.011967052,-0.013739704,0.09296696,-0.06251145,-0.036566377,0.07668026,0.022954637,0.24030386,0.037632905,-0.0701423,0.14923824,-0.042214636,-0.0373683,-0.040679477,0.10930239,-0.07558426,0.08663045,0.15836537,0.1937068,-0.035464376,0.22921062,0.07281995,0.075193584,-0.044806257,-0.04253616,0.086675465,-0.09441781,-0.044630796,-0.038840868,0.017244928,-0.0053505376,0.002214823,0.15550113,0.014890587,-0.038170684
CBOE,0.17390761,0.1709352,0.040022016,0.009904634,0.20522504,0.12133464,-0.06788733,-0.02603222,-0.09392573,0.18317376,0.019522127,0.03584338,0.08409353,0.117928654,-0.053940788,0.27788877,0.07436928,0.13531482,-0.0117222145,0.124190934,0.17963171,-0.03598757,-0.013704859,-0.042784445,0.010546042,0.22348839,0.020412289,-0.03816812,-0.02520838,0.088925235,-0.029040478,-0.016985325,-0.009602405,0.32502735,-0.0202642,-0.07167439,0.031097043,-0.011953145,0.11719697,0.29613346,-0.0055265627,0.09178984,0.12151636,-0.009535521,0.19971977,0.14435606,-0.03658824,0.028260436,0.05138015,0.07940802,0.079554826,-0.06287941,0.21788698,0.059142683,-0.04667673,0.13005744,0.06652932,0.117261335,0.09267025,0.06661804,0.3006629,-0.004735347,-0.032821078,0.09306848,0.03592766,-0.01186258,0.013485692,0.09310976,-0.054430958,-0.036691446,0.07439092,0.022705203,0.24467236,0.039269872,-0.06695569,0.14965114,-0.054572277,-0.014657946,-0.040360987,0.11054416,-0.073538736,0.086117364,0.15850823,0.19379474,0.008313347,0.2264707,0.07441795,0.07679947,-0.035852898,-0.04347948,0.08503399,-0.092261516,-0.031660378,-0.038181283,0.057245877,-0.0040572733,0.035078872,0.15577574,0.025204044,-0.035566006
CBRE,0.18447307,0.1745874,0.040078945,0.012172684,0.20657457,0.12290735,-0.0069806976,0.012602188,-0.0925533,0.18706797,0.014370106,0.04068486,0.08401269,0.12224951,-0.032982513,0.29490435,0.18317354,0.13599157,0.19356568,0.12751001,0.18053997,-0.030223746,-0.014448557,0.008381595,0.038806804,0.22739471,0.027333528,-0.0406392,0.013900742,0.089833796,-0.025323816,-0.016407687,0.15335035,0.33344722,0.001949314,-0.06769301,0.031033337,-0.011379622,0.120485775,0.29785484,-0.0041089696,0.092292584,0.27094963,-0.011191482,0.20055081,0.14808904,-0.038012534,0.11143404,0.054514118,0.21667144,0.08041285,-0.06782859,0.23116313,0.060753044,-0.050049074,0.12984732,0.06957886,0.1191075,0.097917154,0.080334045,0.31008393,0.08577019,-0.015013248,0.09521402,0.09313635,-0.015209606,0.101160385,0.09780268,0.011450961,-0.032545153,0.078301094,0.027547423,0.24623054,0.036250494,-0.054936074,0.15173021,0.019069903,0.028145986,-0.042664245,0.11634716,-0.05974894,0.091372676,0.16300054,0.20400718,0.023519956,0.23029898,0.07340765,0.07841907,0.014102131,-0.041501585,0.08969283,-0.095951185,-0.019525431,-0.018418072,0.20945697,-0.002855651,0.07318962,0.1569805,0.11091424,-0.035141632
CCI,0.17317975,0.17435507,0.03977161,0.009113435,0.20559978,0.12031402,-0.07467945,-0.032059085,-0.0954438,0.18849894,0.019370414,0.03834141,0.0842365,0.119229995,-0.05735211,0.28134707,0.07788218,0.13408788,-0.0070802458,0.12159231,0.1799659,-0.03444785,-0.012764148,-0.03141613,0.004642118,0.22209474,0.02029515,-0.038036574,-0.03137573,0.08863057,-0.027831774,-0.017185349,-0.01808691,0.3272352,-0.02761557,-0.073395744,0.030539699,-0.011269614,0.11700351,0.29548904,-0.0048139985,0.09169404,0.11007577,-0.00924062,0.19859232,0.14583862,-0.03723418,0.023730244,0.050186303,0.059669573,0.080167696,-0.061551332,0.22056922,0.0585699,-0.046419017,0.12732926,0.06671264,0.12191468,0.089406915,0.06743702,0.3022038,-0.014333636,-0.042100992,0.093302004,0.029730383,-0.011196423,0.004041385,0.093236595,-0.052131332,-0.039479494,0.07682779,0.022310367,0.2453991,0.03798088,-0.07078111,0.15138608,-0.045914605,-0.024757883,-0.038763806,0.11088709,-0.07491326,0.08540353,0.16035955,0.19466004,-0.0021487102,0.22718698,0.07523064,0.07432167,-0.042772382,-0.042385623,0.087416396,-0.09393688,-0.035854794,-0.03933647,0.09586232,-0.0067031756,0.029885111,0.15539768,0.042711966,-0.03596761
CDNS,0.16896075,0.17106147,0.03904718,0.015170537,0.20567301,0.11947573,0.017826322,0.035617273,-0.09763948,0.1924397,0.014614627,0.046262473,0.08377352,0.1443612,-0.036485143,0.28894436,0.1322596,0.14668101,0.22154287,0.14877318,0.17937446,-0.03002831,-0.011531569,-0.014117796,0.035766564,0.22817037,0.022952996,-0.036205385,0.013551656,0.09090018,-0.028741278,-0.016981706,0.19025213,0.32645115,0.001066383,-0.054503772,0.034657553,-0.010837702,0.11844191,0.3007321,0.008346004,0.09273215,0.1995415,-0.011719931,0.19983155,0.14681037,-0.03555931,0.07477488,0.055388197,0.15542191,0.08315085,-0.0651136,0.21916854,0.059414104,-0.049336772,0.13837229,0.068804175,0.119286,0.09029399,0.073900536,0.3087482,0.11791685,-0.015693938,0.09181553,0.071831316,-0.012263685,0.05584703,0.09269311,0.02533833,-0.039578326,0.07989076,0.024720127,0.24764636,0.037210375,-0.07206045,0.15010992,-0.003937835,0.0044880286,-0.04119465,0.11125578,-0.07309358,0.08720213,0.1591241,0.1982971,0.030391812,0.22642295,0.07488391,0.074383155,0.033133432,-0.040729765,0.08704135,-0.095326684,-0.007383827,-0.03586121,0.1242619,-0.00584542,0.060246192,0.15429127,0.073447764,-0.03308327
CDW,0.17088395,0.17280662,0.03915103,0.0139959045,0.2043393,0.11765248,-0.016995097,0.011460565,-0.09817982,0.18085913,0.017274825,0.038662836,0.08441116,0.13089246,-0.042922042,0.28209752,0.061617542,0.13281529,0.13121136,0.13795714,0.18166362,-0.038690645,-0.01184877,-0.03595357,0.026602669,0.2174207,0.024273261,-0.03739082,-0.00447404,0.08952004,-0.02955624,-0.017879749,0.11197864,0.32580295,-0.046027817,-0.07092333,0.032058895,-0.009716807,0.11914455,0.2976325,0.0033264165,0.0916904,0.10163803,-0.010746511,0.20101032,0.14725818,-0.03516599,0.0125845745,0.052041117,0.057022274,0.07666215,-0.061268985,0.2219557,0.06162903,-0.05000434,0.13570571,0.06968121,0.11832078,0.100088656,0.07095741,0.30388147,0.07030776,-0.024428647,0.09334111,0.015428563,-0.01404237,0.011857248,0.09717331,-0.00345527,-0.039919913,0.07907066,0.02436718,0.24203226,0.03829877,-0.066191345,0.15084593,-0.033055782,-0.024181588,-0.03935063,0.11114407,-0.06402234,0.08732939,0.16220053,0.19708803,-0.023510832,0.22497006,0.074585475,0.07604793,0.0023213774,-0.042262275,0.09009465,-0.09408231,-0.02074416,-0.041694276,0.0741861,-0.0035570338,0.015818413,0.15358019,0.045423433,-0.027811687
CE,0.18248214,0.17097056,0.03816928,0.024862163,0.20621753,0.120847374,0.115086116,0.09073576,-0.08483762,0.18928821,0.013463646,0.04346361,0.083761714,0.1626464,-0.009075016,0.29249692,0.10072914,0.1440301,0.4455731,0.1722245,0.17872415,-0.030883763,-0.011859044,-0.025946904,0.099737555,0.22411296,0.022143029,-0.037846465,0.11162597,0.09102315,-0.027167521,-0.01704069,0.40231562,0.3286527,-0.011245668,-0.07105029,0.050793108,-0.010896992,0.12007755,0.29825428,0.021183178,0.093021005,0.15693834,-0.011588477,0.20078719,0.14648724,-0.03771378,0.051098567,0.052846625,0.11655591,0.08107236,-0.06294681,0.22845569,0.059981965,-0.047170322,0.14803529,0.070186004,0.12464908,0.12259123,0.07995565,0.30948836,0.23595116,0.057795074,0.09228951,0.05329967,-0.012911364,0.04266584,0.09794863,0.10825587,-0.037204705,0.07785556,0.028404687,0.24644238,0.036659367,-0.04689839,0.15170419,0.018861553,-0.004525934,-0.03979649,0.11205683,-0.028055467,0.08859286,0.16287483,0.19644885,0.015762925,0.22540794,0.07146509,0.07508463,0.108929925,-0.04166758,0.09112656,-0.09393544,-0.0132040605,-0.027058102,0.10252252,0.010956764,0.045332924,0.15504389,0.07343264,-0.0077617653
CF,0.19117887,0.17534111,0.040126853,0.015626498,0.20762697,0.122060955,0.01733192,0.039615765,-0.09565978,0.20068695,0.017810527,0.057446077,0.08429668,0.14602143,-0.022706877,0.29547432,0.27988106,0.16542499,0.22609222,0.15310189,0.1802462,-0.0242997,-0.014226887,0.046174172,0.047846623,0.23166631,0.018076941,-0.03401019,0.06731235,0.094118424,-0.02894986,-0.013727606,0.1992066,0.3344425,0.04566289,-0.059101395,0.03773225,-0.010928068,0.121093035,0.30197948,0.00802765,0.09326172,0.39863774,-0.00992107,0.20127527,0.14760283,-0.037083957,0.19580394,0.055979025,0.3429174,0.098411754,-0.06300234,0.23198068,0.06032796,-0.04424592,0.13891841,0.07516042,0.1277951,0.11690098,0.08036654,0.31062937,0.11932581,0.008827005,0.091628715,0.15856095,-0.009808719,0.167284,0.09804403,0.027692199,-0.016281769,0.090254515,0.029132076,0.24761342,0.04097815,-0.04208625,0.15350032,0.06380154,0.063855715,-0.038190436,0.116855584,-0.041429453,0.08839019,0.16400361,0.2023117,0.089376464,0.23372474,0.080530494,0.07824636,0.034499526,-0.043219797,0.08930777,-0.08973516,0.00540602,-0.040128123,0.298034,-0.0055723116,0.12089166,0.15521169,0.15367156,-0.011028755
CFG,0.17732581,0.17372832,0.040168904,0.011966176,0.20576991,0.11915384,-0.04567458,-0.010061832,-0.09395319,0.18745512,0.014409695,0.034893174,0.0836679,0.122385055,-0.04152629,0.2936605,0.20464507,0.13696003,0.058454882,0.13264866,0.1767304,-0.0355379,-0.013755817,0.0149722565,0.031040872,0.22282898,0.024395771,-0.041499622,-0.008185398,0.091086894,-0.025162622,-0.017650142,0.045194462,0.33333018,0.007718768,-0.06561804,0.031078927,-0.010021094,0.120469086,0.29827535,-0.002785178,0.09226212,0.2985533,-0.010652624,0.19912313,0.14767386,-0.03492774,0.1281127,0.053215742,0.24153468,0.08091686,-0.06243138,0.22247805,0.059967466,-0.04919164,0.13235065,0.06953229,0.119081676,0.09632625,0.07794804,0.30513248,0.025471173,-0.025542444,0.09424636,0.10617038,-0.012509916,0.116482586,0.095345035,-0.032596137,-0.036619492,0.083753884,0.028393438,0.24210382,0.03601726,-0.05841571,0.15015447,0.012377428,0.028775087,-0.03715743,0.116446786,-0.06463309,0.08856833,0.16584334,0.19685985,0.02869346,0.22939578,0.07277518,0.07631634,-0.022985704,-0.041862085,0.08691108,-0.09638901,-0.019611225,-0.03773912,0.23360702,-0.0044343695,0.08587308,0.15622666,0.12681052,-0.03339063
CHD,0.17345005,0.17337783,0.03826181,0.0100406,0.20578513,0.12001498,-0.08403984,-0.037005134,-0.09804007,0.19050625,0.015867569,0.04396297,0.08383665,0.12315331,-0.058583133,0.27919352,0.12169944,0.13926303,-0.045393303,0.11978318,0.17905729,-0.03920354,-0.013149783,-0.018506393,0.0039039794,0.22453187,0.02222769,-0.035628736,-0.035355017,0.088799365,-0.028889723,-0.015725752,-0.022736832,0.3259135,-0.008219264,-0.071948975,0.029518923,-0.010753818,0.11971517,0.29581594,-0.007540859,0.09260105,0.18669695,-0.01054862,0.19827875,0.14485365,-0.037620008,0.06674,0.049029835,0.13062124,0.084924996,-0.06269567,0.22131509,0.05959782,-0.048961293,0.12812166,0.06680865,0.11802763,0.095512666,0.067666925,0.30333444,-0.030379258,-0.04430365,0.09147888,0.060401596,-0.012915265,0.043755803,0.096620895,-0.063506395,-0.03655398,0.079791844,0.022392247,0.24283724,0.03793879,-0.07165085,0.15068822,-0.048012532,4.3310225e-05,-0.04217083,0.1112399,-0.07139323,0.08635846,0.16050681,0.19457701,0.008351255,0.22797588,0.07474366,0.07176174,-0.050903924,-0.04236985,0.08632296,-0.0955759,-0.033800498,-0.039169706,0.1074768,-0.004631743,0.058779836,0.1540991,0.052492864,-0.034614705
CHRW,0.17251153,0.17290886,0.03843432,0.014369357,0.20575182,0.120951936,-0.039942913,-0.012250567,-0.0965784,0.18387514,0.019768808,0.035831347,0.08419265,0.12458365,-0.050282944,0.28263372,0.073454864,0.13639487,0.040750716,0.1319986,0.17848115,-0.03461194,-0.012836002,-0.027924871,0.012574732,0.22260179,0.022241242,-0.03759294,-0.053588934,0.090222836,-0.028358765,-0.01669674,0.030447751,0.32529,-0.023626804,-0.070653915,0.03241448,-0.010934826,0.118559055,0.29975557,0.0013076155,0.091637805,0.11057246,-0.009939101,0.19921073,0.14675196,-0.03486663,0.027057387,0.05269413,0.068260565,0.080341205,-0.061337374,0.21727288,0.058760554,-0.04796409,0.1336304,0.06811096,0.12317172,0.08896354,0.06916386,0.3042924,0.022423193,-0.04155553,0.09316588,0.03153673,-0.01140021,0.008194244,0.09162995,-0.036291987,-0.03809858,0.077978164,0.023337584,0.24196218,0.038453795,-0.07359317,0.15016356,-0.024317324,-0.020511972,-0.04202823,0.11213021,-0.07763149,0.08675836,0.15814188,0.19490953,0.0053463057,0.22779931,0.07259235,0.0734139,-0.028779667,-0.041855454,0.08672534,-0.09450525,-0.02128999,-0.037449867,0.09009155,-0.0048172623,0.027723115,0.15513681,0.057954352,-0.030586965
