,0,1,2,3,4,5,6,7,8,9,10,11,12,13,14,15,16,17,18,19,20,21,22,23,24,25,26,27,28,29,30,31,32,33,34,35,36,37,38,39,40,41,42,43,44,45,46,47,48,49,50,51,52,53,54,55,56,57,58,59,60,61,62,63,64,65,66,67,68,69,70,71,72,73,74,75,76,77,78,79,80,81,82,83,84,85,86,87,88,89,90,91,92,93,94,95,96,97,98,99
A,0.1147329541022757,0.1887114963307085,0.0835363654628844,0.1294128788394506,0.0068793716149566,-0.2130486131890824,0.0797190686719019,0.4439516897644532,-0.0732172266141982,-0.5090169386531225,0.0147937228296496,-0.3119863166995168,0.0722804233904161,0.1687522575131467,0.2690257155050507,0.0468737459362765,0.2543801086133366,-0.0495680392566348,0.0229536768533972,-0.463206122373862,0.0684930478690371,-0.0347560833374809,0.3170037369633337,-0.2054230400436874,-0.0454859548059709,0.0140093212384296,-0.3796662030854089,0.0773969638821233,0.0080459673704796,0.1069099981853206,0.2700389078864679,-0.2057009471354425,0.4108447840276131,-0.4403186947244432,-0.3105639469404326,0.2782785259528855,0.0767222188448977,0.1312304948305449,-0.3457662937538832,-0.185640534801569,0.0593011762525001,-0.1964356072939207,0.0189539886330754,0.1254283707838452,0.1592112373073468,-0.1988978547740733,-0.368191668830598,-0.3206230234590536,0.2141548684498137,0.2958037571022004,0.1447441662209438,-0.0247651736353757,-0.2483310042650244,-0.1522379647970104,-0.0707931832203929,0.0655963999216268,0.1898581112142313,-0.0130390584011349,0.0505175896973365,0.120870723639512,-0.0437979973962922,-0.1897777356549932,0.2589565416125126,0.4144849355411556,-0.1803851598907898,0.313505714963468,-0.2155414847686791,0.0785827800134669,-0.2583074139453306,0.1380615348844496,0.0901036875306122,0.2022626694241977,0.1567366977495756,0.219593624628195,0.342483029164971,-0.1645265780151651,0.2920823620253152,0.111018832123031,-0.0648645589880473,0.110778699861468,-0.3115677533803457,-0.0873808000783363,-0.1060635764071973,0.2422513995816087,-0.0882876781045653,-0.1254511813085323,0.1646036775247973,-0.0409222807096684,0.1407799684473377,0.1449558118200806,0.2618891187992535,0.0002221107578344,-0.0630199414008761,0.0331831665131506,0.2766315889041804,0.119586624747061,0.0009765221803795,-0.0200639811665283,-0.1713914644118677,0.0306677507934999
AAL,0.1449097699141857,0.195963669940755,-0.0046756384490233,-0.0597566635239471,0.0826639744330218,-0.2333931334500915,0.0233239811455958,0.3774872893152649,-0.0016029332690178,-0.3396508694913066,-0.0995015619305761,-0.2931945945821001,0.0020819499322244,0.0918870079784135,0.2684430235178407,0.0438039998859583,-0.0026988430476734,-0.1235321119852262,-0.016979421404275,-0.4317151117561893,0.0583017502419919,-0.0056276585045419,0.1376353988158063,-0.1176276753824226,-0.0388880716347131,-0.0107821069637007,-0.2042987652375857,-0.0341098225537158,-0.0538929709696776,0.0649560269813515,0.17826637476471,-0.1099295646420671,0.3711557205924445,-0.2773473679724302,-0.2635785513917694,0.238002051314134,0.0380431294234757,0.0390201456556274,-0.1805698719741613,-0.2242090430463838,0.0677975344574123,-0.205221146017616,-0.0393317675595268,-0.0192324152042527,0.1944142608016587,-0.0230334661202876,-0.3020330655352885,-0.1633146028205205,0.1805541665115775,0.2265351898908805,0.046786466104675,-0.0080597996849127,-0.0843490700146845,-0.0924201384610073,-0.0050032060902322,0.0609520942534292,0.0597030932582807,-0.0112637570694139,-0.0177083474218524,0.0676432137476986,0.0441188127561093,-0.0866481955499244,0.0539433437238404,0.2736545162475679,-0.1143897493084687,0.2247717855951752,-0.0517609004856665,0.0536491931796718,-0.2356216478862605,0.2342073596156896,-0.0574688096586436,0.1102739198236303,0.0453708731939576,0.1428059372657121,0.2468373944516482,-0.0961555325369717,0.1616108784395637,0.0808479172410443,-0.0503279597537838,0.1144345744611009,-0.0784069852342018,-0.0890505965340487,-0.2379392972134315,0.2693971967351722,-0.1155697958383477,-0.0391707486560567,0.1982641199914117,0.053174498250546,0.1519440832150845,0.0846181104260094,0.2777733578832383,0.0494249489869184,-0.0537672280796255,0.0482226839020705,0.1628400396522334,0.1251696585336627,-0.0359319858298491,-0.0809526868863402,-0.1182953003464204,-0.0685469890734202
AAP,0.1182457009379408,0.1712446065416835,0.0724457936863484,0.097975395311285,0.0157161198495708,-0.2186345148065158,0.0795761973268844,0.4305991850217041,-0.0628517046749021,-0.4887330063649912,0.0033282140095159,-0.311408851702699,0.0595412553574717,0.1584213201269994,0.2740842857460478,0.037496437549597,0.2081474543904122,-0.0597659756158971,0.0193650763273161,-0.4633696430141442,0.0763979631651005,-0.0318917035791938,0.2873039829707741,-0.1964661493955738,-0.0576389697580887,0.0118948588013334,-0.363506763355444,0.0540712539428188,0.0008083969171558,0.0877062066634923,0.2613847231517651,-0.1910013007026082,0.4150715812357837,-0.4190175570497914,-0.2915758453150788,0.2733044308911789,0.0692593424804352,0.1254543857103097,-0.3296103907030141,-0.199093810571922,0.0529943022559852,-0.1936311093760592,0.0044043578654587,0.1062130667161541,0.1650138531931849,-0.1771428522578124,-0.3569807358720359,-0.2998178146667763,0.2037512909121918,0.2800440144973199,0.1304288598024798,-0.0250722628331518,-0.2253906952010755,-0.1347267827853869,-0.0581206617092615,0.0675344574161206,0.1792094642697481,-0.0218769320208086,0.0425760128020652,0.1027179751817662,-0.0369078371114211,-0.1686044607758581,0.2337497376578383,0.3933865771385874,-0.1731638259869336,0.3108517509895506,-0.2026157236882326,0.0801831413509006,-0.2528904492315499,0.1435924770995273,0.067079372502391,0.1893730648014207,0.1442783764874313,0.2097436351700874,0.3367455262015685,-0.1560824579860795,0.2723824976552783,0.1013360889541264,-0.0616746886293188,0.0970909863671784,-0.2897333843764244,-0.0907718699794571,-0.1284387595336988,0.2496997350216004,-0.0871595243895144,-0.1135857216209651,0.1678941826613848,-0.0203752878299903,0.1571834736074623,0.1408018976089023,0.2623826644251174,0.0045085275392816,-0.0627052944088191,0.0460001628326424,0.2667249643608784,0.1229338853529617,-0.0108329818447185,-0.0280841446431142,-0.1719677551464583,0.0061377060552372
AAPL,0.1123903161937822,0.1786476379539669,0.066615994755094,0.1039703028165903,0.0243129864747434,-0.2193769690130601,0.0770701200863201,0.4332240287725482,-0.0685777633924013,-0.4810321048864622,-0.0022201179197181,-0.3103782424325958,0.0711951441632099,0.1602947528710205,0.2628474001567721,0.0286481744903875,0.2221086434314422,-0.0596697688232645,0.0128155023054898,-0.4661645131761971,0.0755800963553972,-0.0230814587787919,0.2812323370486857,-0.1938224148370646,-0.0441581589746121,0.0212144881540365,-0.3643152875041491,0.0632407191884221,-0.0057279110503304,0.0978807470942453,0.2517462431017214,-0.1847189373560094,0.400233835081809,-0.4282639389662231,-0.2957904939848871,0.2724365480927426,0.0701846270390305,0.1086119110941102,-0.3123152692292771,-0.2023444512333168,0.0550753771154019,-0.1851743709049418,0.0141603051606072,0.1026380974338932,0.1632424624402082,-0.1786186098614247,-0.3474807757876837,-0.2993909606241816,0.203847058719333,0.2724987819807179,0.1267514417760825,-0.0314378482111368,-0.222537083053691,-0.1417339047910185,-0.0514106888671597,0.0583137026638909,0.1740689428249876,-0.010725377872252,0.0372181374362805,0.1043201160629334,-0.0282546910546434,-0.1751895630863076,0.2358306043950671,0.3847759295648288,-0.1732121042229912,0.3055690474573876,-0.1971638448910707,0.075447466700955,-0.2586994181402722,0.1483766791170115,0.0582543130874176,0.1873936557422274,0.1495041819722867,0.2037155665624352,0.331950342691499,-0.1519073631459969,0.2575735682695866,0.1048452235902013,-0.0650815289119255,0.0969816575575459,-0.2778221407134317,-0.0781809959550977,-0.1303142793422737,0.2389235422141446,-0.0864635717682243,-0.1129908054585526,0.1715241545139911,-0.0186390427867339,0.1463819293085049,0.1410712256761746,0.2654082868485882,0.0096883195617592,-0.0496787008110127,0.0382375844514392,0.2666874791236399,0.1103706118148774,-0.0071414609510597,-0.0245675671365902,-0.1575692476845083,0.0043098305493513
ABBV,0.1148664112955902,0.1784553315142909,0.1053076832929545,0.1512480092131305,-0.0162245792485669,-0.2068831009918042,0.0915888769869979,0.441545418797854,-0.0803418530498823,-0.5274824686630657,0.0319167235985482,-0.3097259309410193,0.0712146588142194,0.1776020592449907,0.2726246478471257,0.0626363592018838,0.2699268626025395,-0.0437995303461946,0.035234285935357,-0.4667851917929888,0.0706413894318203,-0.0475055875209868,0.3427402133181872,-0.2222029273771417,-0.0559871038629939,0.0085478353617115,-0.3952212359927419,0.0788427684723475,0.0191643474067663,0.1009582423395588,0.2970806675847245,-0.2191194615744023,0.4209057779398196,-0.4384661160037274,-0.3108322551190642,0.283680473758796,0.082856010048512,0.1528133054139862,-0.3815650614943991,-0.1802965391917819,0.0576202242545697,-0.2045031219031632,0.0152895768088373,0.1501632924332763,0.1557949553771119,-0.2178238593814285,-0.3870221575078936,-0.3387586278762918,0.2205796233275118,0.3097883192592106,0.1659378361822502,-0.0195531103469615,-0.2664529345149807,-0.1550538476862524,-0.0885544035827334,0.0836635586111977,0.2064904855227059,-0.0201194486059055,0.0592672157779401,0.1311093572879201,-0.0604681587576393,-0.1940526697128131,0.283601123098792,0.4340659588434903,-0.1910934307667437,0.3277622784462002,-0.2355642328499274,0.0873157166633784,-0.2471845315565448,0.1202096337188136,0.1156272050587421,0.2163791178065694,0.1620173847070335,0.2304588212209057,0.3584226901844244,-0.1670861935964896,0.3245886292061998,0.1103318145306836,-0.067687508596651,0.1157949474852597,-0.3485197045630887,-0.0923240834403711,-0.0877815859056779,0.2553394907029743,-0.0951388368124596,-0.137531953282512,0.1636635549767522,-0.0502826776052862,0.1530099814220119,0.144220068057081,0.2655547672119199,0.0003139048515287,-0.0761411005602867,0.0393678076281932,0.2951509675957122,0.1287057313358261,0.0089455052922098,-0.0152638717480241,-0.1859481004014777,0.0478295577268812
ABC,0.1189314393464778,0.1836844641820006,0.0835131644798618,0.1191427562002573,0.0049452302596632,-0.2145268497676655,0.0790878100598459,0.4410696647158175,-0.0680091084861917,-0.5098361058808281,0.0130911447484517,-0.3147145772859323,0.063747596500688,0.1661690311213774,0.2773815424324858,0.0516362302302363,0.2381271010396951,-0.0518099546144102,0.0247934636105879,-0.4636490764868768,0.0695387099776157,-0.0379313439313854,0.3156427304587955,-0.2050127614747385,-0.0523724671560183,0.0086302231337007,-0.3751721101461359,0.0694752564424265,0.0088611574683106,0.0994914366753751,0.2723126094253582,-0.2056450150185524,0.4197822479979377,-0.4320036575035689,-0.30579643755664,0.2773683230040604,0.0757729791448655,0.1370289895456637,-0.3493789191754383,-0.1874122705991622,0.0582800823636278,-0.2015014600181028,0.0115958334428022,0.1226613903414469,0.1614603817082668,-0.1930480227379375,-0.3704131258676865,-0.3167999629510575,0.2128318412169261,0.2971563702211544,0.1436734091333801,-0.020908243538837,-0.2447525464262712,-0.1466952183230392,-0.0703463732403074,0.0695197056441239,0.188846037371093,-0.0187427668334274,0.0521535334090792,0.1184148653854591,-0.0453192570155406,-0.1829607132361812,0.2514482127781809,0.4143605710507075,-0.1780135312802388,0.3141181972160496,-0.213414893937156,0.079275482007231,-0.254658410840696,0.1391034549825558,0.0889841035153996,0.1994872382849245,0.1521866847304226,0.2202477581045951,0.3415611575905715,-0.1651277377209262,0.2946435063808155,0.1073517084521452,-0.0619981240349683,0.1086846989820127,-0.3119623510588846,-0.0927292128528752,-0.1080810012395361,0.24598205255447,-0.089011739480474,-0.123250098649814,0.1615782144911694,-0.0399670688703914,0.1462004484423308,0.143456969041811,0.259059488491127,-0.0023797948305265,-0.0680939201003778,0.0378304237343498,0.273069619991476,0.1247949765623711,-0.0026735560559115,-0.022540841502638,-0.1776837976901915,0.0277030655701661
ABMD,0.1127301729237809,0.1896496201394515,0.022730923190509,0.0475841216805934,0.0699200430786366,-0.2313767038218891,0.0562841370068653,0.4215933306044654,-0.0543971824978865,-0.4173586663806386,-0.0453852050027184,-0.3060223365134219,0.0688923044936758,0.1387161526326208,0.2474340565998012,-0.0002171933157829,0.1620861564594301,-0.0819371122393131,-0.0120353237387874,-0.4621241847825559,0.0756393319284179,0.0031921070642239,0.2099576340899156,-0.1598193650882159,-0.0254299317009782,0.0321003349996996,-0.3159018678847252,0.0430051380034277,-0.0355035565326367,0.0978303962003085,0.2007272069845044,-0.143205466895792,0.3681123004492856,-0.4021236407543154,-0.2816143566286718,0.2590321827682843,0.0563859462066049,0.052520591289212,-0.2291811132124748,-0.2216848672461953,0.0561064827601994,-0.1665192266808825,0.0118084969160561,0.0478669118698377,0.172522509323531,-0.1255979202672886,-0.302911443017539,-0.2489096529910302,0.1885612079846944,0.2308720365913801,0.0841996562875141,-0.0418524615879896,-0.1671746119494684,-0.1288506598724275,-0.0124174701673776,0.0334295739948547,0.1294281249938301,0.0053689483559855,0.0064090546142559,0.0799963231836453,0.0129166657373938,-0.1524526926131514,0.1770544882939513,0.3238279034053659,-0.1531059879986376,0.2726972155080055,-0.1427159406084335,0.0610626006995229,-0.2675746097454082,0.1855584531480318,-0.0077408271321085,0.1529092334620833,0.1284135777599429,0.1696295468652831,0.2953500499658471,-0.127028817507647,0.1801898804448293,0.0999322874543771,-0.0640356898838074,0.0855035129249541,-0.1861035662337074,-0.057086677891063,-0.1805006084827025,0.2216389834620147,-0.0835591261260259,-0.0835853086153806,0.1850110767520607,0.0189371747877322,0.1349915970275996,0.1308603196782156,0.2690662288655077,0.028283993295312,-0.0189172068361617,0.0325695565189697,0.2317527033928172,0.0879949188435981,-0.0191108978995303,-0.0365760942352055,-0.1179652083666525,-0.0407800466353979
ABT,0.1172889171021899,0.1789675145268892,0.1082223284301872,0.1503054317708188,-0.0194778795124022,-0.2065777993706044,0.0901172558741385,0.4428308051037921,-0.0770667417912908,-0.5323008543735985,0.0333381943815748,-0.3119010782757539,0.0677179687640123,0.1771498812381861,0.2776227130393454,0.0683554795517198,0.2676269215192984,-0.0442394350414098,0.0370025593405693,-0.4671736412326637,0.0689465377967733,-0.0505039601699461,0.3473292427804793,-0.2230989486989127,-0.0588427682168056,0.0053933273029455,-0.3950695518134652,0.0778915232138045,0.0218052385529752,0.1008005248118293,0.3000889228086137,-0.222750873078757,0.4262315073318666,-0.4364630028846276,-0.3132139895871828,0.2844394205815412,0.0839993504130027,0.1577742962421778,-0.3876996970656766,-0.1768090409201464,0.0588111142311141,-0.2084749913054029,0.013013894409773,0.1516291211679298,0.155387402139307,-0.2178102845156734,-0.3910533015503351,-0.3398456549837493,0.221038107447953,0.3147494869560681,0.1673097090375649,-0.0168633075197787,-0.2683182246678552,-0.1542519361420907,-0.0921654448654366,0.0857105088803436,0.2078346308949069,-0.0219450106939369,0.0625627404893934,0.1328965207481362,-0.0634187746750698,-0.1929937614235868,0.2820498730272108,0.438735592000664,-0.1895704113252972,0.3275514690812968,-0.2358717396899915,0.087178566765101,-0.2451925037719403,0.1196691347813409,0.1208718551235181,0.2166310915645183,0.1594664276450533,0.2329343812598845,0.3580225252741695,-0.1704253971582632,0.3313572056911978,0.1095012779922434,-0.0666476279832096,0.1188887384069557,-0.3529419369395507,-0.0969127861566045,-0.0837449745573638,0.256735354634091,-0.0956404076241539,-0.1376909741831646,0.1606204416068119,-0.0542403387051169,0.1525073686567089,0.1429368891148713,0.2626880479492307,-0.0031536620263126,-0.0814200851444654,0.0399622586310113,0.2933907641126775,0.1328853517719475,0.0087469380807619,-0.016049619837615,-0.191012232062337,0.052379532282514
ACN,0.1166644781511173,0.1822584507755929,0.1084957464948664,0.1500219215220805,-0.0207903532848279,-0.2021576163954617,0.0877768074732683,0.4359869543935337,-0.076744777294161,-0.5215349808154089,0.030820203239354,-0.3057851800086062,0.0672937519521566,0.1749248696785224,0.271765942681964,0.0732885124644582,0.2631598128654966,-0.0470166262681113,0.0362833973940868,-0.462932475353851,0.0657170552177729,-0.049790284152817,0.343207722482423,-0.2203424570970965,-0.0546704704392006,0.0043159522434794,-0.3859330101545448,0.0768297830673805,0.019645994308366,0.1030344668459414,0.2981700789624531,-0.2201003281340564,0.4196589745932438,-0.4270168963397899,-0.3164188573151779,0.2831642209972586,0.0844409631756825,0.1511656732611845,-0.3831101968836936,-0.1755816252134217,0.0614845861793693,-0.2114039114119404,0.0122853461868371,0.1484472527955191,0.1571317440703915,-0.2123360669112614,-0.3925110132120062,-0.3354644533556825,0.2232782213541677,0.31554672240088,0.1667632687760017,-0.0155939906265548,-0.2629855216348594,-0.1560900078839852,-0.0931018044083324,0.0882913898840023,0.2005566476734334,-0.0186175407262138,0.0580194098995612,0.1364222324225941,-0.058794284374208,-0.1929331104087485,0.2766989258918584,0.4351405224217821,-0.1895345332906054,0.3244446220134119,-0.2267764128634685,0.086531441605355,-0.2453575937215356,0.1264736693674784,0.1164347739679296,0.2166054676176588,0.1547240353909067,0.2291995783301554,0.3550195399381404,-0.1643892300138443,0.3305086724078015,0.1108099002226967,-0.0687704225032897,0.126266775758227,-0.3431224910129438,-0.0944396040299862,-0.0890526666978643,0.2622658768735612,-0.1027371398792669,-0.1358725003861427,0.1667060923622995,-0.0515048858132012,0.1507489480618126,0.1378561850938726,0.2691895171488966,0.004355869337446,-0.0821127753364638,0.0376073621147337,0.2909354121694686,0.1324432923392511,0.0119519615228836,-0.0177384836642306,-0.1855222467998521,0.0542481918517534
ADI,0.1191505554141075,0.1798111965361406,0.0583373595553077,0.083159344437186,0.0303317208557524,-0.2200257903235285,0.0709771443116798,0.4289605271195966,-0.0575501610817568,-0.473097296449485,-0.0091476660450932,-0.3114755208257948,0.0600178760359066,0.1524851751585076,0.2714611293177641,0.0303495467693932,0.195106319718856,-0.064832598582932,0.0109707956763795,-0.4623434631097497,0.0740804359996565,-0.0244424891937746,0.2693106087197236,-0.1845754553345544,-0.0500192168299435,0.0134890136198308,-0.349256083887461,0.0518107562221031,-0.0077266305972089,0.0917993930125374,0.2441592361112207,-0.181383365651398,0.407553935457471,-0.4162432709183363,-0.292691844384512,0.268951852881666,0.0660181537966252,0.109808196187609,-0.3048382634950572,-0.2022342992947619,0.0562146400464282,-0.1908006693148893,0.0053985781894857,0.0885955469472633,0.1683478314857306,-0.1615179012866729,-0.3460857017334117,-0.2861391991366479,0.2016317912138273,0.2731730759907306,0.116628937731442,-0.0270901843691927,-0.2114259079410627,-0.1341522767214458,-0.0477684418993156,0.0584555957154437,0.165645240953094,-0.0160432015701629,0.0353626519095515,0.09841486163639,-0.0239599460807957,-0.1649963119367295,0.2148262826652315,0.3808442555998111,-0.166642130769201,0.2996962130609639,-0.1854542918336924,0.0744313464006683,-0.2585572379833775,0.1573907542072141,0.0497537383845334,0.179190961390799,0.1379905720084476,0.2021096036858571,0.3252990870035448,-0.1523008550111756,0.2527800930121414,0.1024881336757983,-0.0599662788335584,0.0972415507129398,-0.2619876532170749,-0.0874428997414878,-0.1424810568692698,0.244570989123853,-0.0863943990227874,-0.1053665170455646,0.17203089193793,-0.0130409680062197,0.1501982825218387,0.1384545468043482,0.2638621757986348,0.007354124244956,-0.0557062116086162,0.0419328091971878,0.2536205626069178,0.1183361572042561,-0.0146007692572984,-0.032896134087391,-0.1612006242374371,-0.0045548345808398
ADM,0.1112914035788201,0.1777561288653758,0.1072469874756021,0.1585126595818207,-0.0166297047793533,-0.2080565761043979,0.0946969073845082,0.4435848342982585,-0.0851977520883736,-0.5276214315851577,0.0330806630393423,-0.3094419820569871,0.0775529986315747,0.1806910872025685,0.2657745190757955,0.0584624576630394,0.2794818574714175,-0.0431916811198042,0.0343183523034335,-0.4699873212617978,0.071934281932294,-0.0447448499897529,0.3440027771589303,-0.2252085196727699,-0.0527525921523024,0.0145763788005393,-0.4017664424119223,0.0828426578960365,0.0177963313322062,0.1034792287355404,0.2981414518020512,-0.2178766750300747,0.4144774857437627,-0.4432887768410863,-0.3108883282357041,0.2848186500376444,0.0845156050542669,0.1478100582673935,-0.3800033832910623,-0.1829591265896653,0.0559967627033644,-0.198827500502613,0.0191764647417376,0.1547099256849412,0.1536099665265001,-0.2251879647225617,-0.3834091634237084,-0.3432079842861851,0.2204332733511972,0.3060280134503327,0.1685218665066681,-0.0235593487888105,-0.2677131220728064,-0.1574594332284013,-0.0877631606453913,0.0818774130208747,0.2085050590250171,-0.0163887004027116,0.0577099703919243,0.1318516344923015,-0.0595522635916034,-0.1976512116229642,0.2914618950796149,0.4314542348165472,-0.1934977502634888,0.3293687200470785,-0.2386127758943483,0.087720581139954,-0.2478200154812272,0.1176138581512005,0.1150563061653236,0.2193035081592355,0.167381854591675,0.2292362293703823,0.3605005728408391,-0.1640750357325662,0.3216440522927417,0.1105029192557068,-0.0709853399384535,0.1138690406979437,-0.3516700836537225,-0.0852807029261828,-0.0846369381399121,0.2518354982672039,-0.0951240010012945,-0.1401603681839199,0.1654785574663377,-0.0498749572011134,0.151445290481235,0.1452945659889214,0.2677125061848802,0.003984739149674,-0.0706439318433938,0.0387377810478433,0.3020018102617695,0.1230678610429916,0.0117887413232536,-0.0112078923626581,-0.181429605400769,0.0485784980005482
ADP,0.1121580959314427,0.1827308843357925,0.1091655140694013,0.1622489272905335,-0.0205156777038846,-0.2036531847594172,0.0916404822229317,0.4431151993382585,-0.0842921607756312,-0.5305757703143729,0.0348349113082862,-0.3080217816957541,0.0761063096382353,0.1810205479165869,0.2675352222089354,0.0653778224473483,0.2855135346042435,-0.0404119343251356,0.0348375895431196,-0.465641426859777,0.0683285597438123,-0.0469259764643406,0.3498976799511637,-0.2247871695282428,-0.0498545516009013,0.0121057581537487,-0.4004124258496342,0.0877038856496309,0.0207368869685747,0.1080515292351337,0.2982901421043594,-0.2210875640331212,0.4146018286914812,-0.4443333663651738,-0.3158328581305794,0.2838501065592185,0.0857144851314403,0.1508038769779872,-0.3837070148883824,-0.1763603830042754,0.0594269250199478,-0.2037455541552586,0.0210147151490302,0.1557998170487974,0.1535577153225549,-0.2251520221325104,-0.3885195370261488,-0.3448397203493771,0.2234904608006724,0.3123364109023098,0.169510216673129,-0.0209094147271056,-0.2717608620904302,-0.1613575899980938,-0.0913378290113127,0.0822127855455642,0.2074586242196734,-0.0149813216830198,0.0601782061483048,0.1374573308682166,-0.0602411131049243,-0.2009019652231889,0.2912928498687261,0.4383374475909284,-0.192694988548815,0.3279618648678492,-0.2376736724360042,0.0869008877995666,-0.2502368501860717,0.1205869639935521,0.1195355624062985,0.2204914736939595,0.166560237008972,0.2309890859923734,0.3603747465879474,-0.1678326666367016,0.32743584710965,0.1135180930629672,-0.0701199728428152,0.1201117888272723,-0.3527792831043604,-0.0883877522243778,-0.0823803592371706,0.2523774878486569,-0.0969467513171133,-0.1409778996072546,0.1640435603448743,-0.0554139662451003,0.1468596700753806,0.1443588150363635,0.2672029205106282,0.0014243400956472,-0.0727289243208755,0.0338913705269931,0.2989732700076895,0.1248592916233936,0.0141132588770208,-0.0116656682828361,-0.1820152175094356,0.0553353957599214
ADSK,0.1185435628681109,0.181466248844107,0.0367608578828129,0.0515147716635422,0.0523484462491151,-0.226434413094127,0.0605452448817376,0.4189477187701674,-0.0499214502263136,-0.4360623325501974,-0.033156562244482,-0.3076434584194868,0.0558523570753313,0.1403490125774992,0.2635531806679623,0.0179504048446136,0.1572819836786762,-0.0781644718448852,-0.0015447548183239,-0.4593383634100524,0.0746583839522138,-0.010760419882193,0.2290804005291853,-0.1674017464445734,-0.0408795499673597,0.0189380128411175,-0.3207898257269436,0.0380755781505465,-0.02418367727344,0.088320714258923,0.2191779143128698,-0.1572952338438102,0.3891487841138266,-0.3961724945343288,-0.2822207239909696,0.2616721919664973,0.0587512836541848,0.0797319825472417,-0.2606641518433342,-0.2136409101418057,0.0563321736789021,-0.1821191640321219,0.0010166810387285,0.0592753912197452,0.1742439529155953,-0.1305596930029812,-0.3236257351624469,-0.2564806496823634,0.1930519379861058,0.2493593885765323,0.0950896457278435,-0.0318390694964882,-0.1793178812551655,-0.1255353481577118,-0.0272313389619678,0.0492039246334615,0.1401740448865772,-0.0083199600788261,0.0179748066917857,0.085314918259644,-0.0021411909363819,-0.1494992274477776,0.1811513534325221,0.3451871265321368,-0.1551407934597246,0.2818330758454222,-0.1543025509833077,0.0682258188887536,-0.260103166655361,0.1775574913899008,0.0128336267785705,0.1603954846238638,0.1247052666838867,0.1819269165992321,0.3053260217777244,-0.1358707564982453,0.2112050471555195,0.0980334178951384,-0.0602603729047843,0.091274767883116,-0.2116188033791392,-0.0758313638023717,-0.1713038923045615,0.2396460891893635,-0.0873991202762086,-0.0884839733916337,0.18038599034905,0.0098297763916632,0.1475137046709945,0.1304553200207068,0.2680395801582833,0.0204330742937478,-0.0396403909458123,0.0408099154008558,0.2353534571170299,0.1073344409268004,-0.0198503174716283,-0.0395630566430006,-0.1398184514337886,-0.0300209698562682
AEE,0.1168702373105105,0.1764920027091047,0.1352095197636687,0.1827534119657239,-0.049438247943603,-0.1953650753962936,0.1022876276399946,0.4408839684859084,-0.0873340070979191,-0.5525406545438051,0.0532977671285499,-0.3045934089912515,0.0687457188158823,0.1874017802578066,0.2742452979135361,0.0918610988361567,0.2974290361648731,-0.0343068606198648,0.0516925220750198,-0.4638854196113928,0.0654302100614574,-0.065964156188601,0.3830150599796414,-0.2418706149718407,-0.0632403312641622,-0.0010523772620235,-0.4111822255615269,0.0853043447185138,0.0360643522867017,0.1023635069454947,0.3316601944728598,-0.2406870946048594,0.4302219222314608,-0.4338582638509373,-0.3215062509155706,0.2902879366276866,0.0922615147684348,0.1809375951203266,-0.4294895711139533,-0.1646678798681235,0.0603229346145924,-0.2202053292664852,0.0137866408574547,0.1827541773056721,0.1501785960446514,-0.2431085952416514,-0.4163822184206897,-0.363719504529891,0.2332468072403269,0.3358104152239538,0.1945590569832298,-0.0097400198992864,-0.2921798471673325,-0.163789214869364,-0.1176960074953271,0.1059979427400887,0.2245913509634491,-0.0259507553506363,0.0716108587782895,0.1525438786965187,-0.0805758403984018,-0.2047259874800272,0.3137088027712926,0.465571585503363,-0.2021707484492678,0.3411132922021752,-0.2571886423098865,0.0956632052843445,-0.2351417319115364,0.1011658708417886,0.1544645326910169,0.2373467764932851,0.1653807532048577,0.246122059533729,0.3757655587273114,-0.1734058321609594,0.3742704458766434,0.1132749797141534,-0.0717322871016941,0.1344861687440276,-0.3930662965366358,-0.101925939696572,-0.0583530765089378,0.2714550232004517,-0.1076052065335653,-0.1541389199555619,0.1610110876517314,-0.0704254928615725,0.158504157997693,0.1403811765445524,0.2680704293436886,-0.0006288263913675,-0.0969518648781345,0.0405464599962142,0.3144792444044813,0.1423789877716977,0.0230042517667582,-0.0104950159748026,-0.2029651061307187,0.0812102293441936
AEP,0.1182316715360813,0.1777412457810492,0.1362889732588439,0.1832846477148724,-0.0490357499576895,-0.1970857809426967,0.1022191287368904,0.444312798255903,-0.0865636201667491,-0.5572214797064899,0.0548813723748014,-0.3082407345873507,0.0681800119864028,0.1880324352755429,0.2785118895384559,0.0928649501013532,0.2968586575532513,-0.0349647102053724,0.0525633398453858,-0.4665321364695803,0.0659180924380302,-0.0669997564241798,0.3855601405992991,-0.2426647727685554,-0.0663214172615389,-0.0023929346360242,-0.4132775254009151,0.0852963011721119,0.037553353893884,0.1017194239369205,0.3326253056531011,-0.2432117014677758,0.434381718958425,-0.4360745077621971,-0.32254858251566,0.2908825511424735,0.0927446095167623,0.1841449951621194,-0.4332543885249175,-0.1640120334912127,0.0606081090909109,-0.2216355278241363,0.0126480157301424,0.1838283306366483,0.1504704142212155,-0.2438346813752225,-0.4185842362015643,-0.3652689919643255,0.2324334506247715,0.3387576398295625,0.1951780877030785,-0.0087838665403253,-0.2936783936862467,-0.16297050282371,-0.1189948186230811,0.1064723286038024,0.2265857168090079,-0.0283317839165338,0.0743799625316254,0.152300241091866,-0.0831218701798433,-0.2046190263372786,0.313379674684999,0.4681623401423412,-0.2016538361368175,0.341897692281667,-0.2583834514767525,0.096023235915851,-0.2342825910035466,0.1002615270267227,0.1572238678778068,0.2374701829519653,0.1653980833891945,0.248320562837785,0.3760977315648118,-0.1750229927882005,0.3776706455236797,0.1127320936211849,-0.0702909722889326,0.133790962505741,-0.3974424196716154,-0.1051332162881784,-0.0567808048586113,0.2728914657011301,-0.1065544220745159,-0.1544357826625516,0.1592357215624558,-0.0733472791893453,0.1588450709319598,0.1408981929727766,0.2671416305968065,-0.0034085623207453,-0.1006089148412056,0.0415721190560451,0.3143955877547797,0.1453501230555172,0.0219370493498419,-0.0103705654832782,-0.207423523067314,0.0829200795642768
AES,0.1094305991400122,0.17318115326163,0.0764859794758622,0.1152201988719451,0.0144596911663786,-0.2141956573194769,0.0822717887750474,0.4276199260907785,-0.0732126412170521,-0.4809669161785804,0.0050101289421652,-0.3054825233932781,0.0726684213970955,0.1648731464921145,0.2589832878912215,0.0362803283291594,0.226704281032534,-0.0595707092412119,0.0164778648227292,-0.467020057167032,0.0760376276427945,-0.02766736891658,0.2877149450493548,-0.2004833998458617,-0.0465608174530893,0.0200285878766957,-0.3665668535260914,0.0633446693455913,-0.0022727920387112,0.0956367057654561,0.2629138773939969,-0.1866655449439219,0.3970055366522614,-0.4231425980200572,-0.2956361295803906,0.2744218816006321,0.0730019164732301,0.1126529231886238,-0.3234187284903378,-0.1990842064697759,0.0547715460181984,-0.186302216460652,0.0125023077770865,0.1129882028898257,0.1619584311566284,-0.1848643898898572,-0.3526001105751943,-0.3045929162441849,0.206287099837223,0.2754804330173898,0.1366347309405821,-0.0304377370395517,-0.2265623567144622,-0.1429414285444899,-0.0597563186984218,0.0665034380373047,0.1783932738141283,-0.0107637270865442,0.0367321425887713,0.1098074303056426,-0.0332664915234625,-0.1756075939969932,0.2458565747235386,0.3873157763266579,-0.1783403568214883,0.3087897120885494,-0.2017049329664314,0.0802039214497338,-0.2519878777575068,0.1420244688942042,0.0661782194110914,0.1927744248055517,0.1504768432792724,0.2041501083152823,0.3373765585542266,-0.1479454082444286,0.2671416691685261,0.1045922188037609,-0.0688312752785063,0.10013946269875,-0.2890129087884959,-0.0751991738417472,-0.1258496241649594,0.2456579386010436,-0.0920869077673178,-0.1175252056345577,0.1758837799357467,-0.0180648636879426,0.1524002384297974,0.1376010415632949,0.2719440786598734,0.0162407326031338,-0.0520743662277919,0.0399808909878078,0.2770556908395038,0.1114725153710579,-0.0001628764911441,-0.0223465080260101,-0.1578935487544909,0.0104557457234709
AFL,0.1149920809646753,0.1799656915938128,0.1170446693208781,0.164336847089583,-0.0289563532118266,-0.2011891666508652,0.0938456461934203,0.4405601920034184,-0.0827337258448601,-0.5346514609771553,0.039521832011246,-0.307398147447305,0.0709861530692122,0.1811859265350078,0.270968842780978,0.076523781915981,0.2816621708472748,-0.0410719960708872,0.0406518154940976,-0.4650246977607052,0.0660757628770618,-0.0535785001121458,0.357620163123306,-0.2289071049127375,-0.0555703255906404,0.0057595865050868,-0.3989350379162811,0.0829526138522749,0.025105238894366,0.1043892812817112,0.3087682734093921,-0.2267477473857154,0.4203054164183523,-0.4360743487747482,-0.3172656313123135,0.2860933451718714,0.0877212859119995,0.1594515572260453,-0.3971594941090834,-0.1729900760613634,0.0597121137516659,-0.210110896562584,0.0157264125551226,0.1623798339788102,0.1526047694370554,-0.2271124694475598,-0.3961850647826455,-0.3474141965682233,0.2239840017372454,0.3191527867484748,0.1767664217710216,-0.0167256317229902,-0.2753259853721319,-0.1590873979498443,-0.0999951898647647,0.0908761021051336,0.211137599764062,-0.019520835453374,0.0632253145578835,0.1410390563692416,-0.0669696612613709,-0.199260049316129,0.2946096023434567,0.4435592071689625,-0.1942064446438716,0.3308724423954715,-0.2400835067927956,0.0885176456196752,-0.242893751242996,0.1158856321675806,0.1294050025601427,0.2243007697805853,0.1630348357251486,0.2346450806687477,0.3625204832362905,-0.1680198591410448,0.3412766664864887,0.1117689992429093,-0.070237206885193,0.12542916864433,-0.3628131783770864,-0.0935557377784612,-0.0766944313925754,0.2596698508698544,-0.101034617709498,-0.1434180239303501,0.1633144864289645,-0.0587424215531285,0.150876112717969,0.1415578819782751,0.2669891395518464,0.0020648085908302,-0.0821866941284774,0.0370805583658985,0.3018509193534381,0.1314337880307156,0.0166258613064761,-0.0127006418593792,-0.1892559438386109,0.0629370727616141
AIG,0.1205795752501005,0.1785793052648344,0.0662654297555569,0.083256876594283,0.0218164464573938,-0.218978973601661,0.0724612593136882,0.4231667529458872,-0.0582291976826494,-0.4667585456975553,-0.0105216344886242,-0.3080006406198373,0.0549297534193742,0.1523262782741272,0.2686657488180481,0.0435932751654378,0.1860953933162766,-0.0688964869623305,0.0142142752315804,-0.4607372839609829,0.0717986968987988,-0.0285325794091018,0.2696826917310936,-0.1885884165906078,-0.0500092840496527,0.0102581087818467,-0.3407970329009864,0.0453117745076239,-0.0071195119453825,0.0878848549130074,0.253653562974008,-0.1791316939182163,0.4020216720051724,-0.3964325438050365,-0.2911458520079106,0.2684879095087116,0.0682605250218312,0.1100921624531728,-0.3102159601810018,-0.2002367110794077,0.0568445515887591,-0.1956160958660276,0.0007553600566535,0.0943645430176238,0.1675228276208304,-0.1586685174967695,-0.3509605532085769,-0.2829129273035494,0.20333363457978,0.2739290207432452,0.1235636478779017,-0.0225059090397934,-0.2061159052935085,-0.1335618697033312,-0.0554032941657806,0.0692931104806419,0.1614939889594306,-0.0159647477442767,0.0327044562973227,0.1043962354274567,-0.0244669509979939,-0.1593431806606961,0.2136634199785743,0.3770854455726448,-0.1669619336354426,0.2969097629525798,-0.1798188007248051,0.0767887649218257,-0.2475777059536597,0.1553760788565356,0.0530355744991463,0.1809443861024325,0.1307827051062592,0.1987438424979819,0.3239054029775513,-0.1436928114994908,0.2605135221118954,0.0997691313748952,-0.0628359921004005,0.1047302039393611,-0.2612882424190498,-0.0857644064914126,-0.1403560104615209,0.2530629170322909,-0.0961844020699889,-0.105363413567957,0.1752191104300831,-0.0114191936165988,0.153879089974024,0.1290312523328279,0.2690159397458203,0.016624495475642,-0.0601320839819366,0.0436004296647256,0.2568250929313285,0.1209694120551927,-0.0074850912981512,-0.0338940444367861,-0.1599859009382494,0.0015177361482321
AIZ,0.1152102786357302,0.1773975135148035,0.1080903375138449,0.1515066766295585,-0.0212757657942112,-0.2040908239615496,0.0904045027786155,0.4382208741434881,-0.0776945065849563,-0.5279171519023047,0.0329089148307629,-0.3071267232863289,0.0670503873832559,0.1757516765891258,0.2737825481682285,0.0687821544045834,0.2670187121338881,-0.0439827557621578,0.0365498085473582,-0.4634806027983507,0.0683221412866051,-0.049746690660086,0.3450828847071331,-0.2222981754158648,-0.0569431606466262,0.00593688403534,-0.3934487766312194,0.0777477214404009,0.020994307580805,0.1011908513863691,0.2991113381377128,-0.2209918440644149,0.4223647242541197,-0.4344276368474674,-0.3124556470150091,0.2840599271348504,0.0830277010873279,0.1557051257020162,-0.3857073762084237,-0.1777932124154455,0.0587635681690778,-0.2086577146333394,0.0131004076091605,0.1499774020734841,0.156597838325625,-0.2173241468880212,-0.3914089251734447,-0.3385931657628339,0.2220926397688764,0.3137925279340105,0.167321916964266,-0.0173239151466685,-0.267085038829577,-0.154274107610578,-0.0913598043814396,0.0870057937920842,0.2055320373121381,-0.0212116513009134,0.0606772925753363,0.1338010725469727,-0.061672123250599,-0.1933736173654951,0.281245187222007,0.4368545922627665,-0.1887634018884653,0.3270185233162473,-0.2342059546160664,0.087881983804258,-0.2460525497251808,0.1214678849448617,0.1181825340340772,0.2174556746415495,0.1591987089978819,0.2316984386930459,0.3583841657873534,-0.1682629674447305,0.3297431013699876,0.109770606103798,-0.0670108166411875,0.1203123515381208,-0.3490826736525164,-0.0963048804833582,-0.086505005835274,0.2594414619252492,-0.0973976007001727,-0.137365189822259,0.1627562690208379,-0.0526639899127356,0.1531250910808458,0.1430059732465248,0.2653312958699712,-0.0002475620299504,-0.0802497820343088,0.0390745485264838,0.2926403503277171,0.1321524640804862,0.0094943189266786,-0.016444648679283,-0.1885606385220196,0.0521204184943255
AJG,0.106993598438483,0.1820014243636523,0.1227969688159507,0.1880201531326817,-0.0311597026503003,-0.2002101248840205,0.0988269261503369,0.4475907030496063,-0.0943465518031382,-0.543347948447666,0.0480899856959345,-0.3065451933828552,0.0859414207165321,0.1900376549259458,0.2627043594384159,0.0699669493843565,0.3137566467243554,-0.0350772092977863,0.0401675143213036,-0.4697598893228069,0.0685107475042675,-0.0509736416915259,0.3691761342762558,-0.236312722371545,-0.0492170905706248,0.0153490795436028,-0.4173595785130665,0.0990995419424463,0.0268906878632013,0.1125930587707631,0.3132940386735761,-0.23083560961732,0.4142267576554728,-0.4556452755990718,-0.3232522418884415,0.290003888080256,0.0923194462012728,0.1565661998324548,-0.4029396585971592,-0.1717750458943581,0.0595487110235801,-0.2030052839729346,0.0262272981466336,0.1738242640637568,0.1489136971806605,-0.2451080440304448,-0.3979617299621945,-0.3622960085405758,0.2286055719697524,0.3205584880310679,0.1843186967303988,-0.0230973574568322,-0.2877857004904279,-0.1687045865699625,-0.1020629450877864,0.0875885266204627,0.2207138334724761,-0.0120937234530466,0.064977720263414,0.1469788825605157,-0.0695544043329337,-0.212361440178474,0.3163974715279418,0.4511956934394921,-0.2019841647179622,0.3366524731369757,-0.2530399169252986,0.090813281125871,-0.247824438221196,0.1086225810117627,0.1371645481434117,0.2324772309615875,0.1764998620302094,0.2375286927734883,0.3707582118387736,-0.1699728952836619,0.3445278885818875,0.1162630841758902,-0.0751337102759908,0.1240352839313186,-0.3790742522098148,-0.084375786603216,-0.0664575225253072,0.2535828313013417,-0.0998858809040375,-0.1514529156884758,0.1650606915919166,-0.0638905436986429,0.1470544791359555,0.1465821942296681,0.2711517181354418,0.0034604837879463,-0.0744236553488135,0.0326688789918148,0.3153296806562214,0.1239442770327389,0.0233241861213672,-0.0040699649019912,-0.1847939252262219,0.0703274712394113
AKAM,0.1193520705545383,0.1837068754467412,0.0937180927766344,0.1281411995982418,-0.0058524927203847,-0.2104157634150753,0.0823650863392952,0.4393958458023375,-0.0694954724283517,-0.5159454341009378,0.0185530148506438,-0.3123061576534354,0.0623178059692706,0.1684209797026342,0.2771997330892249,0.0622748469130286,0.2441076617026954,-0.0504323699191491,0.0297814580356402,-0.4626141401049362,0.0668683945454034,-0.0437610337551181,0.3264178928601269,-0.2112056095586819,-0.0537839947176274,0.0053620688569697,-0.3778574109313997,0.0704577648995497,0.0130470716117835,0.0999394620982618,0.2835308101915337,-0.2115733711066785,0.4204536098246039,-0.4271264063067024,-0.309453722555933,0.2799268558092617,0.0786584628514939,0.1453461705633116,-0.3633960735801447,-0.1809447338981732,0.0598413316179081,-0.2069436158283808,0.0094552266335729,0.1327100768737328,0.1596636477430043,-0.1990944952354952,-0.3794955557169158,-0.3223634504399706,0.2162670100267837,0.3047016837383119,0.1526841354750221,-0.0174623731355906,-0.2511258373397924,-0.1488869757312788,-0.0807076602813266,0.0786952733580599,0.1924807714689018,-0.0202896822430713,0.0549840860763576,0.1251346970050732,-0.0516181610917532,-0.1842043396858632,0.2587487239960991,0.4220780076401864,-0.1803653852633858,0.3164465747836033,-0.2178546158920682,0.0819443047050931,-0.2481194690710132,0.1333646688705378,0.1011991273166917,0.2061089523651108,0.1504062230890376,0.2239202600209401,0.3455704031437873,-0.1652091979754693,0.3099296870024984,0.1075493034913555,-0.0629506325534882,0.116952744695808,-0.3229949405896618,-0.0969572814754797,-0.1002327700330656,0.2533034098871569,-0.0945232769807108,-0.1274116944789587,0.1618739029405968,-0.0453701783701305,0.1491281186270446,0.1403309758990242,0.2619464941281213,-0.000476300738843,-0.0754468092818163,0.0379459753621428,0.2778381628907219,0.1300306898575447,0.003253963860552,-0.0221103824442252,-0.182408122905787,0.0381260819249842
ALB,0.1143367642288332,0.1772457534110135,0.0121042935114184,0.0154645493890172,0.0784589464236288,-0.2347018899993178,0.0508382882420835,0.402923269091884,-0.0427931002582582,-0.3865785060073152,-0.0610088715723387,-0.3004948735308419,0.0548626388626639,0.1271029789976633,0.249129221056836,-0.0011038787193608,0.10911306679736,-0.096613800638084,-0.0175366007029992,-0.4582615510933398,0.0780723777323355,0.0058114274459344,0.1758314336954944,-0.1485162352304979,-0.0313552979170456,0.0284011501078441,-0.2881920354495024,0.0191922162182664,-0.0459455731391692,0.0818523305551441,0.1919955042011863,-0.1252108715601604,0.3632234053252164,-0.3706046364115023,-0.2677567880287836,0.2539502269405711,0.0498817225757011,0.0396050507987387,-0.2058029671940816,-0.232381553336773,0.0545173912606925,-0.1674585138526307,-0.0047872395691368,0.0245941063096565,0.1799554231248356,-0.0965872902417201,-0.2929491492150206,-0.2214968343730644,0.1802153288657098,0.2169061953831683,0.0702430248625154,-0.0398780411030232,-0.1373512462283554,-0.1131246740999594,-0.0021848143709666,0.0390950357222088,0.1097923165626907,0.0015665372349752,-0.0062420722477782,0.0674259894868849,0.0245935458549189,-0.1289051551039648,0.1428341452716337,0.2973966475115143,-0.1424207200995829,0.2624198525439414,-0.1171298992880984,0.0617253627980676,-0.2580385668163965,0.1984392798875578,-0.0341884166334994,0.1381715946857081,0.1082875961381192,0.1555187718365697,0.2839774535096249,-0.1121224295585587,0.1587437136084631,0.091621805011574,-0.0622778084954214,0.081340413854756,-0.1526858326325421,-0.0584868911354456,-0.2074076248525212,0.2350974462767082,-0.0903550998769712,-0.068658581996419,0.1944696393726984,0.0419894381181375,0.1494652851141933,0.1194642077911603,0.2781678502591983,0.0408032294368121,-0.0190149685885962,0.0415173942165331,0.2185514637608299,0.0925799751171942,-0.024952386075425,-0.0471117146308734,-0.1123649146524536,-0.0640129760682246
ALGN,0.1230810104146677,0.1814648996959878,0.0065177157875878,-0.0024461592187394,0.0817012514029124,-0.2368521400604046,0.0467971327701253,0.4012789468650826,-0.0335846405967986,-0.3817957062006852,-0.0685297828383518,-0.3023848629933878,0.0437078029229238,0.1194332811678425,0.2561507464232045,0.0039216044018761,0.0865680766262209,-0.1010725357205329,-0.0173591535227994,-0.4544536452918674,0.0755056150151198,0.0043351277394295,0.1680111173138191,-0.1410885803145059,-0.0348875179784327,0.0198168137550437,-0.2740797777654621,0.0078083690967821,-0.0473934698152167,0.0763614120977846,0.1866182967280728,-0.1230879705741836,0.3696763379670318,-0.3551429258136704,-0.2646592473291883,0.2495762822418763,0.0461822591960922,0.0436326058823214,-0.2020741038112062,-0.2308858768255828,0.055322049255817,-0.1741429351796017,-0.0111972676691089,0.014840110566057,0.1824582500184219,-0.0825468176141072,-0.2935958968006086,-0.2098734449878174,0.1787811855865758,0.2182603428967258,0.0627795285146098,-0.0332226078122545,-0.1280865548089431,-0.1074479942639288,-0.0016763937953663,0.0409113168812979,0.1023386282114047,-0.0042469975521098,-0.0062198308378196,0.0638990027836874,0.0271546182696495,-0.1194202944392559,0.1249953592184966,0.2940528048311476,-0.1361343700986836,0.2551739929547771,-0.1073756173559044,0.0595780815557833,-0.2539826880583831,0.2020494610604427,-0.0368408693900804,0.1316679710585143,0.0968593803772471,0.154358837187611,0.2761961663393615,-0.1120102371971466,0.1590201188708051,0.088134203586587,-0.0573229412986426,0.0831706697549047,-0.1394853848849603,-0.0680581321539837,-0.2113094934040645,0.2385569848320736,-0.0903584468631486,-0.0627430341191358,0.1909387026292582,0.042984919452652,0.149684330508619,0.1148661012628354,0.2722510077546468,0.038203754142879,-0.02691944527898,0.0450783273157536,0.2050896387262157,0.0995012350110316,-0.0310808142253154,-0.0543006076295511,-0.1172375088516103,-0.0663060889496918
ALK,0.1357533102439184,0.1788137221851488,0.0439718561575627,0.0202583495367458,0.0385303878989605,-0.224583276038012,0.0560682643326727,0.402671455481406,-0.0305186667230033,-0.4251207845520222,-0.0417221721202418,-0.3044640660238418,0.02200081729088,0.1265355992447317,0.2793011781633304,0.0514363136968354,0.0965113157474776,-0.0894374816168427,0.0069957526721523,-0.4463614354495321,0.0674990959862095,-0.0283004025930718,0.2208778132191388,-0.162602183390561,-0.0594686794070975,-0.0062045334426885,-0.28671819049764,0.0053059805796943,-0.0205507972760443,0.0679499914727071,0.232632714483933,-0.1568822510423698,0.4043755717958031,-0.3412276497456535,-0.2755994600725867,0.2556705158797985,0.0549824190090883,0.098619744352821,-0.2742085883399825,-0.2083336044207996,0.059750461734685,-0.2086566956104797,-0.0253346128822965,0.051427014917358,0.1814410326054744,-0.103528502241276,-0.3415363298727576,-0.235561780137659,0.1939439676513381,0.2622475936627119,0.0943185853733988,-0.0109312123985904,-0.1603709801138814,-0.1097932487163259,-0.0418829079769385,0.0752915045182611,0.1252216785118292,-0.0255005078520581,0.0180556684831956,0.0872785604597968,-0.0054763965633589,-0.1235596721734186,0.1472050588915163,0.3446665849343838,-0.1454308056725602,0.2730318542375043,-0.1335325789499724,0.0724728435984971,-0.2361714028076293,0.181440568443661,0.0171540316385165,0.1547889899384665,0.0912345977302527,0.1823968271375076,0.2986433375686217,-0.1287401837565634,0.2351730587627468,0.0890890985591399,-0.05259859199603,0.1059314126807578,-0.1992819201597792,-0.1013582404132893,-0.177632564806158,0.2708389459167082,-0.1040127438149954,-0.0797582205765454,0.181992828460526,0.0130541804037725,0.1651634548064514,0.1115649849439316,0.27068934759847,0.0241990979607521,-0.0703934031921889,0.0540374417842451,0.2176945310990597,0.1351869114962834,-0.0228523199185261,-0.056575576993867,-0.1578128325000577,-0.0252465771018149
ALL,0.1167891427651389,0.1792055427277255,0.1157638848385293,0.1591781122918928,-0.0278494992557812,-0.2047462695036113,0.094852997931062,0.4423559473788861,-0.0815702471722428,-0.535986511152612,0.0377040591324955,-0.3092039099803856,0.0682498085753698,0.1795328128206554,0.2741849734336494,0.0754351081071121,0.2743847450550402,-0.0421656959572624,0.0411117948928515,-0.4661525928072239,0.0678757865063027,-0.0543510333022757,0.3562339351301198,-0.2286831482181376,-0.0586960018245559,0.0039283124201944,-0.3990895647625773,0.0788256496137551,0.0240767265278608,0.1007292024714001,0.3093882670042668,-0.2263014468187473,0.4249385197996347,-0.4330563996042135,-0.3142398252643747,0.2872095562820657,0.0856942079496752,0.1620928689193551,-0.3979804028654427,-0.1754985525784494,0.058775872719939,-0.211175148979875,0.0131850773847381,0.1616049727229654,0.1543650482105391,-0.2251467646279356,-0.3970303376453321,-0.3458294604193461,0.2241898670360339,0.3183628729465855,0.1758243795434173,-0.0152326348934699,-0.2730846517107358,-0.1562027361041953,-0.0988605806070782,0.0926934243090736,0.2109549161183397,-0.0227644099002448,0.0637069055468937,0.1384975224785526,-0.0671844374751627,-0.1951172287574786,0.2908860860738541,0.4420914204850695,-0.1933596414354952,0.3308354499687059,-0.2406405446712266,0.0900202262496792,-0.2403191318802786,0.1135906592736308,0.1289225988011314,0.2232954741238937,0.1615483011726209,0.2355507212862568,0.3624338358651811,-0.1670759352342934,0.3413330644897914,0.1093725269578473,-0.0686325077297971,0.1224027651538879,-0.3630565187783891,-0.09590813961137,-0.0760677461753758,0.2607449111201915,-0.100077940350134,-0.1420861473988191,0.161043657206795,-0.0585351572889111,0.1544415303848809,0.1415375100398225,0.2649073326986942,0.0002870647809451,-0.0845930250324427,0.0402508199439967,0.3000172280950715,0.1337100633468927,0.0142424122279619,-0.0135908803584698,-0.192240168536572,0.0600058920418753
ALLE,0.1197399020570432,0.1789813920089817,0.0896759157743382,0.1222202803394081,-0.0020269619106378,-0.2121354108720875,0.082419578626936,0.4379471767325388,-0.0671007499987024,-0.5136210928571543,0.0183804925688783,-0.31261444341932,0.0600839003510595,0.1662032834990945,0.2797537751728297,0.0572245190584025,0.2357559487946997,-0.0519226968063621,0.0292687555405562,-0.4634418779764283,0.0698548410645949,-0.0423997875199611,0.3204656585904679,-0.2082781971548684,-0.0579977250075713,0.0040510347710129,-0.3772880354490683,0.0656646445773815,0.0120916726085115,0.0955575015878622,0.2795887633519799,-0.209591930741693,0.4258352272801823,-0.4268280369827195,-0.3063288751047883,0.2793203721645821,0.0760905731602518,0.1451621434402145,-0.3610559104892768,-0.1862556257519493,0.0578750950491139,-0.2064953911425679,0.0074860808503423,0.1277037253970966,0.1620350298895077,-0.1951858012371086,-0.3783653405163752,-0.3193846109562347,0.2143267885829356,0.3031072728424979,0.148107101161373,-0.0170433533138802,-0.2482238122227897,-0.1446650910266991,-0.0767465366854182,0.077575400607598,0.192402659149683,-0.0246498417510299,0.0559671713765992,0.1196397053568172,-0.050636616399574,-0.1808929379577889,0.2529832487844192,0.4191283399192858,-0.1799177785256975,0.3179839412526538,-0.2176474786870051,0.082197566004897,-0.2495099904607577,0.1334870194435488,0.0965810291498061,0.2030538477522894,0.1493146522756943,0.2244799332154775,0.3449558103642763,-0.1654289020091723,0.3064805480133166,0.10565627085905,-0.0620661370383435,0.1118938684986348,-0.32005724253837,-0.0989010489075645,-0.1049077326015597,0.2559331886832746,-0.0918518367462585,-0.124651024827257,0.1627775208951765,-0.0419406853264392,0.1530954871247705,0.1422232560430203,0.2618202690415357,-0.0024258785961775,-0.0773757337482996,0.0422723961818036,0.2754588560442599,0.1326555168293344,-0.002391389178948,-0.0240316289462939,-0.1855874925044527,0.0316853111863627
AMAT,0.1188061082289306,0.1779966861640134,0.0049205644663714,0.000913060733126,0.0850757770293222,-0.2361444412438017,0.0472888079259479,0.4005828096577378,-0.0368777365892371,-0.3789494838313076,-0.0683998822586787,-0.3019998601267925,0.049080939280193,0.1219662581525885,0.252889665341275,-0.0038743012382736,0.0919865006090779,-0.1001871397999706,-0.0205137263853518,-0.4571552800246332,0.0785771262802464,0.007411125741388,0.1637367714113634,-0.1407155758246187,-0.0343468791309096,0.0251664998354405,-0.2769998665347597,0.0107668422771902,-0.0485621983361054,0.0780765939388049,0.1844488446802373,-0.1210813894890177,0.3655876804280958,-0.362720145010913,-0.2643864485083342,0.24968954248642,0.0464316322420875,0.0375349701568261,-0.1963183557172046,-0.2335953459131013,0.0546059123373351,-0.1685914203696891,-0.0089077600686435,0.0135069088037445,0.181904304938976,-0.0834612265805546,-0.2893696766312529,-0.21085163708546,0.1774342217110543,0.2139046502996242,0.0610955852539496,-0.0386970528331622,-0.1275196298674652,-0.1084638733366293,0.001871974815717,0.0373468706770495,0.1025608127403475,-0.0012714099189106,-0.0090828989049422,0.06134988319947,0.029020039905739,-0.1217112246043185,0.1278948396361883,0.2916238579697249,-0.1378832561820983,0.2570001427474463,-0.107428231408769,0.0600841028861474,-0.258971512739222,0.2041219128407181,-0.0424536637411537,0.1312604257462347,0.1005874747164217,0.1515550022756167,0.2786127717907806,-0.1112275798188632,0.1518501472983218,0.0904114086294555,-0.0600085464730246,0.079513801146667,-0.1380353574009769,-0.0626768180109007,-0.2160476497896208,0.2369120622156232,-0.0893792570635462,-0.0630568653707907,0.1944131885329929,0.0476207954096466,0.1498981791058226,0.1161511139379757,0.2754704695391027,0.0402635440688836,-0.0210736513797318,0.0443192594371573,0.2087556510026295,0.0953406240618687,-0.0314042220021927,-0.0531050957456391,-0.1123184741245292,-0.0704177266764387
AMCR,0.1251868711249008,0.1625027232896239,0.1304668134347234,0.1424459222877959,-0.0456632667192721,-0.1951020163865656,0.0967368800081669,0.4114825208262916,-0.0713873722600161,-0.5117703504545504,0.0359573860223289,-0.2921452729040356,0.049510343165168,0.1729720666613934,0.2700538504159485,0.0916519765303941,0.2318098512686123,-0.047341210100397,0.0482469247312446,-0.4548802863586652,0.0691585841974313,-0.0707716344362956,0.3413480910204464,-0.2280498641547546,-0.0786388801623201,-0.0037980235339197,-0.3738046062598153,0.0500707586947234,0.0278774807790362,0.0793446179982898,0.3259875687968841,-0.2180789061682744,0.4246833199647031,-0.3843185033605016,-0.2983066950959229,0.279617667611112,0.0839805047786601,0.1670697222235783,-0.407151840273677,-0.1757138204221291,0.0612902796583657,-0.2245566101827951,-0.005738487329031,0.1547624129672762,0.1585951216126743,-0.2079933110856268,-0.4075361493302055,-0.332858131919019,0.2253436302091106,0.3184009585700382,0.1807167143750329,-0.0092800391731751,-0.2578205453340362,-0.1410625543136393,-0.1117251971342929,0.1194394052658449,0.2016924749443417,-0.0319858276158232,0.0545307503100796,0.1335271916198013,-0.0722048734073368,-0.176836740241057,0.2766503187002647,0.4366880961331023,-0.1868789660999851,0.3244540620436683,-0.2268201595386178,0.0935524612361791,-0.2137136532937323,0.1066567838359832,0.1302626799506861,0.2192162779185652,0.1354927240942933,0.2297548874020665,0.3621049853750286,-0.1531466056118931,0.3577052791858392,0.1037647896103725,-0.0646242751447302,0.1296051349839941,-0.3553098980961234,-0.1091259188880992,-0.0791484612480074,0.2819841001242209,-0.1165620294730795,-0.1389811532635504,0.1660828292763463,-0.0463937536324634,0.1725768682607918,0.1239603452697883,0.264686943259108,0.0098859333068879,-0.1050300814233277,0.0546925100495,0.2875411997548678,0.1472966516820455,0.0148796326013566,-0.0233392510377464,-0.1996383435156737,0.0663750529862224
AMD,0.1157696172949654,0.1761585667237722,-0.0198082306100712,-0.0386625635872136,0.1094215378534543,-0.2399252324678491,0.0355733666677426,0.3784734283691269,-0.02843106595578,-0.3192350137354939,-0.1002488116065966,-0.2898252294889014,0.0448978522946936,0.1059060400363764,0.2332324002508484,-0.0160593473630254,0.0372019448418592,-0.1204872706113262,-0.0369987409276682,-0.4506757712374891,0.0789333861582077,0.0234833672171847,0.1063723140778658,-0.1192596213536729,-0.0215083530612373,0.0322055258554966,-0.2329231030758889,-0.0113707182728767,-0.071617096012675,0.0718142980229899,0.1564054918940367,-0.0853343917305902,0.3314795498888452,-0.3240877783531458,-0.249213592587685,0.2391612834491703,0.0374113736758483,-0.006287088546942,-0.137270340302356,-0.2490018845078694,0.0546865915399463,-0.1560795536514318,-0.0159547958891405,-0.0231660721222743,0.1880039025686289,-0.0430636109525792,-0.2581423666169258,-0.1693155615797721,0.1659928180590759,0.1805112958021248,0.036029770191086,-0.0445081727539131,-0.0805176984744541,-0.0966803154891781,0.0247050235070216,0.0297543316978539,0.0653573230831353,0.0111412683284976,-0.0377382803229285,0.0464152351073383,0.0600747152241288,-0.0981873150620991,0.08452267030609,0.239249945311067,-0.1243621433863752,0.2319665496511283,-0.0624346755804461,0.053686118441945,-0.2541412047411376,0.228858582794286,-0.0923231639379436,0.1070733381856004,0.077963547991103,0.1210379382796686,0.2532066348375696,-0.0827203291532193,0.0986789202867551,0.0840973291159726,-0.0637240315355996,0.0766439385410618,-0.06904521417556,-0.0447942468295381,-0.2558932931811706,0.2360027538084438,-0.09847480668263,-0.041144652422589,0.2122608097886556,0.082608978800714,0.1504329480577489,0.0994443934799975,0.2880377976232738,0.0665204923141956,-0.0009630198530671,0.0440604458329085,0.1883876435425703,0.0804407266749364,-0.0332920101215113,-0.0630230882313314,-0.0798012018018065,-0.1019975403665403
AME,0.1151145756431443,0.1753014240679784,0.111310198528958,0.1562529521867294,-0.0230947195822811,-0.2055492220740569,0.0942490130374757,0.4414593462566392,-0.0812672195544665,-0.5340948631196762,0.0367419990684734,-0.3097182439886735,0.0700966190276415,0.1796593762870337,0.2732636318141015,0.0652543971719045,0.2744375232702189,-0.0413437971292992,0.0382360433105028,-0.4649674134043772,0.0708115206646288,-0.0508977635603909,0.3497789837629794,-0.2260023802310893,-0.0598550892250829,0.0080655145453678,-0.4000428311416859,0.0804279679870693,0.0226967568428328,0.0997216071305199,0.303284176658732,-0.2234218684389022,0.4231638089247549,-0.4392892403317915,-0.3109867495423936,0.2840606131378496,0.0844080020799643,0.1598386631422992,-0.3913259297279579,-0.177693898342676,0.0565349146747141,-0.2058108768424396,0.0146439677955466,0.1563604539683596,0.1541274624863309,-0.2246420339308382,-0.3905268648187771,-0.3440785388366811,0.2206845792191269,0.3129632695469607,0.1701491780302812,-0.0186974706766574,-0.2716060213030181,-0.1547907555469889,-0.0931094999304798,0.0864384885241635,0.2112901957380322,-0.0228717277046334,0.0624860233762427,0.1320882315446282,-0.0656863811217542,-0.1954721182371613,0.2897327692638577,0.439695959334151,-0.1925669732404073,0.3320968310182677,-0.2415035993270754,0.0896075469887506,-0.2456928490625993,0.11583025729658,0.1218486302049512,0.220600649836316,0.16376172119974,0.2336059018521699,0.3633851473976485,-0.1693183097400163,0.3325461937289869,0.1106863237997818,-0.0677142191059631,0.1163329415363475,-0.358777582597142,-0.0955403947573678,-0.0835486587258226,0.2584794589938102,-0.0959380920114889,-0.1407484025926982,0.1620382776229896,-0.0534059341974256,0.1554875867997437,0.1452220360298405,0.265393577937922,-0.0013757461403085,-0.0793178167852886,0.0405104657654773,0.2993184771731609,0.1311328431621655,0.0100134977507067,-0.0135281560431937,-0.1903246698226702,0.052345367528168
AMGN,0.1234931861220501,0.1695019824012959,0.1261536581967207,0.1549270731978864,-0.0413519437044214,-0.2001241406565458,0.0980676283474649,0.4323528066286416,-0.0752318503956742,-0.5390341184035158,0.0435601602265005,-0.3067174008356755,0.0546352589366277,0.1781449615866231,0.2845821111835094,0.0910798302365903,0.2561813065064759,-0.043976830848218,0.0484706481584114,-0.4637660460882304,0.0679264861517184,-0.0658750387637963,0.3606964289305429,-0.2331193402688801,-0.0738185343965353,-0.0064902199770916,-0.3944994289507091,0.0670435229829546,0.0310023437934427,0.0880317813434609,0.3241192080073825,-0.231710147800331,0.4362279898015428,-0.4148688097334945,-0.3099298262419075,0.2856467620631534,0.0871618369031078,0.1796679087347117,-0.4177019387242968,-0.170653890313334,0.0576840443867132,-0.2225026661631141,0.0001022479388464,0.1657654249407885,0.156700061589622,-0.2213178270390967,-0.410756135603006,-0.344675928759396,0.2262288298342002,0.3284391797655685,0.1811698725281069,-0.007379529028507,-0.2738007885037046,-0.1499934897333253,-0.1098929353257376,0.10818495038166,0.2135640497102537,-0.0336661059058462,0.067266294190718,0.1396634817995414,-0.0761974780735644,-0.1865860927973293,0.2878647105633897,0.4516555001991047,-0.1940281550448976,0.3349331854707064,-0.2429663188090069,0.0964416370737705,-0.2293631006522398,0.1082720522489547,0.13930332521348,0.2259038079409222,0.1514276055266532,0.2399491479908498,0.367478578732805,-0.1685133595584017,0.3614077729839932,0.1058528248724405,-0.0659273529708967,0.1262269814549224,-0.373862100296477,-0.1096084447639981,-0.0756126237468551,0.2788991968424477,-0.1061831337208168,-0.1430616898432376,0.1614368179964534,-0.0573280421130216,0.1694377255593704,0.1357720801866712,0.2671919046578843,7.765677350850261e-05,-0.100170801210431,0.0498254807820793,0.3011660239906841,0.1483515906944184,0.0133959522644062,-0.0184211410185473,-0.2060209556012615,0.0640956061247749
AMP,0.1167429642327741,0.1834558460871099,0.0617306703327303,0.0874729921654731,0.0280512218942688,-0.2197351102706823,0.070091621581156,0.4271044760178982,-0.0606203064823039,-0.467657493235784,-0.0108372289010626,-0.3083435929034268,0.0624779630660345,0.1534757606916878,0.2641513680317328,0.0350261543390223,0.1979506531317363,-0.0670474141773409,0.0106198031422229,-0.4605280140405922,0.0715629736716677,-0.0234185086469094,0.2693159566583941,-0.1864011694560758,-0.0432561919630833,0.0154135360919456,-0.3452232883549837,0.0543383216920592,-0.0099001063694553,0.0950988661208185,0.2458114836296658,-0.1783528925739214,0.3977174318987472,-0.4093208087680072,-0.2946983078474987,0.2697627304843738,0.0678293469376443,0.1034463575608178,-0.3022501380086254,-0.2005741129784534,0.0574010039177096,-0.190289673019658,0.0074835333125027,0.0919350012962333,0.1670268100658149,-0.1617871492394087,-0.3455600132068405,-0.2851048374241827,0.2032828148780464,0.2714644141801212,0.120367524873033,-0.0267888454743029,-0.208888923785719,-0.1370053086013932,-0.0498085098602531,0.0607486258742163,0.1615801380139195,-0.0107697002384351,0.0317076657415238,0.1032624228528264,-0.0219490172605489,-0.1654396547740577,0.2161611779306999,0.3751868813857881,-0.167157198182876,0.2960074675636867,-0.1807285216198773,0.0738023852325487,-0.2542899139801061,0.158691800516574,0.049589129220516,0.1806333262330935,0.1365856766096201,0.1982035634937463,0.3226471277796017,-0.1454601999657433,0.2516022403373574,0.1023475229676086,-0.0631543628747413,0.1026370978652034,-0.2584687278381707,-0.0807662086301012,-0.1406952358334454,0.2443334977786789,-0.0920599376251014,-0.1055536327631878,0.174800013275921,-0.0131747147014165,0.1466683036812473,0.1337184106486967,0.2687455250701883,0.0146117508196494,-0.0527549971977881,0.0381869441584699,0.2558424040876894,0.1140668201439208,-0.0082406196555258,-0.0310630664983957,-0.1553225494910809,0.0001206759311332
AMT,0.1218107740340555,0.1806574202717491,0.1044015595767397,0.1369561572426237,-0.0180360808796984,-0.2076798255423134,0.0870743332782751,0.4398081043803473,-0.0711464298877158,-0.526227925109426,0.027224464570976,-0.3122435027942881,0.0585375612295653,0.1713984158392134,0.2809447822353373,0.0742476622126937,0.2488306216395013,-0.0475887483907429,0.0361510219510668,-0.4622815354241495,0.0662315264059211,-0.0522569214139412,0.3399276003177297,-0.2183897294003094,-0.0611571485742605,-3.961881658320792e-05,-0.3830932715911035,0.0687706534211572,0.0206925779936814,0.0965126902340321,0.2974474998484358,-0.2195364911035126,0.4282676228375933,-0.4228643945101521,-0.3113212790265917,0.2812882970195661,0.0814624762329112,0.1586258442267742,-0.38346531059284,-0.1765036175766086,0.0602457906654998,-0.2140307790440829,0.0068763059874375,0.144412650813258,0.1588066610161577,-0.2071720070972076,-0.3921635429452113,-0.3307564893642372,0.2198259472209021,0.3147165645203557,0.1625687915492399,-0.0128267604751479,-0.2596450259202001,-0.150008488176138,-0.0920965194032249,0.0880365439911968,0.2001958628210344,-0.0258356024369306,0.0609593658206354,0.1313206122068917,-0.0600241097139619,-0.1856275799929682,0.2681212086027021,0.4351954992836975,-0.184649850831529,0.3225303433586395,-0.2266011592401771,0.0868276141563867,-0.2425656618592288,0.1251878867102593,0.1160790304845701,0.2128426525247932,0.1503840870865616,0.2309609096117787,0.3533975590288526,-0.1676323530449869,0.3302240917099672,0.1073836938155357,-0.0632961987431623,0.1212773810607192,-0.3412441344979253,-0.1029883955755349,-0.0904909218014425,0.2622403266250737,-0.0984396024813587,-0.1330048175559234,0.1611765546410788,-0.0508632528895669,0.1546606885516713,0.1386764915719438,0.2633875212802936,-0.0018552355020807,-0.0856725252148037,0.0418781764947169,0.2850458549488405,0.1383262052420939,0.0066699939515356,-0.0214287735896104,-0.1917790622870769,0.0487612079922926
AMZN,0.1203505906617667,0.1809917290311045,0.0621866317487439,0.0816266491232689,0.0259032886358537,-0.2191688501925179,0.0695410093546591,0.4241805325768757,-0.0569028670994633,-0.4662480021186731,-0.0124641996810206,-0.3081830688997319,0.0562718520059801,0.1515492384018973,0.2690820706082861,0.0391790412197058,0.1874822501919011,-0.0682308881410497,0.0124529587744365,-0.4604140467558537,0.0709359691039387,-0.0260549494833276,0.2680395911700216,-0.1857334949355424,-0.0481542077552723,0.0115531563006513,-0.3412440270753621,0.047504596388973,-0.0088346364289266,0.0909702889220209,0.2486459401793008,-0.1792211477071763,0.4020064690741123,-0.4025930953712928,-0.2937024700851031,0.2680383359514284,0.0672432333982937,0.1068020948475119,-0.3041456441218226,-0.2011150411917624,0.0575881550196956,-0.1943685309203903,0.0024198610981721,0.0893852489066876,0.1680382772882066,-0.1572988960584491,-0.3485693341155241,-0.2824577576962806,0.202662423305047,0.2730676186333397,0.119662271068577,-0.0243303563155789,-0.2065154277263551,-0.1344320387846866,-0.0511917924104433,0.0647644995603312,0.1597483467215603,-0.0145930718172689,0.0321879004012419,0.1022234145526204,-0.0223759901134276,-0.1617866566167413,0.2108511674159208,0.3764573920395525,-0.165010218915531,0.296064985404163,-0.1781937756057252,0.0740736698612208,-0.2526199745403846,0.1593600102155165,0.0492768623592091,0.1792116270502609,0.1320672757099041,0.1984636408738803,0.3221253623838345,-0.1455828002408931,0.2546036155926705,0.1018568004173838,-0.06214246156468,0.1037429529776948,-0.2562796418589244,-0.0856820087281294,-0.1429348128120507,0.249613960399077,-0.0938028380886742,-0.1043907948907257,0.1749181138096077,-0.0115197129701516,0.1506816425872934,0.1313922528327521,0.2679279141835096,0.0145555330772102,-0.0574191381950213,0.0411691946832335,0.2534027969652372,0.1188656142832966,-0.0099190132113814,-0.0338100176638785,-0.1581260976496715,-0.0011312139141254
ANET,0.113935852559221,0.1812362332551322,0.0307299574301243,0.0496871940666465,0.0606140668615899,-0.2289173242768222,0.0587441315295165,0.4191160635678083,-0.0523701620290421,-0.4277083837669313,-0.0373292973447844,-0.3062680326327919,0.0611791479530516,0.1396651129992872,0.2571037869266958,0.0069857597933336,0.1573271066554936,-0.0800210974772239,-0.0056618873703559,-0.4596327523904387,0.0764725229872221,-0.0043508132363215,0.2201557139013084,-0.1635934418772698,-0.0363001409528904,0.0237624764671189,-0.3199684337617761,0.0397006159695088,-0.0288391261720997,0.0904699291490268,0.2100253396584359,-0.1510396353220693,0.381308818816956,-0.3985857726148559,-0.2802013841552728,0.2599617154285478,0.0565415543748772,0.0690535272089497,-0.2474776884077482,-0.2183999929074316,0.055235278470634,-0.1754230154734669,0.0041868592533721,0.0537754418777726,0.1732210900212684,-0.1279262106039782,-0.3142763241751199,-0.2529925388223499,0.1899607385749344,0.2418578277004844,0.0899509007387469,-0.0361451169214489,-0.1736874771987695,-0.1256168814995392,-0.0201024945143556,0.0423988390044031,0.1363417232666087,-0.0044940342733776,0.0140536778773206,0.0813329492321411,0.0031831312935392,-0.1496960715000091,0.1783831022996188,0.3350788032428281,-0.1538210364201208,0.2787837056060921,-0.1496910983607458,0.0656055926836015,-0.2634310248459019,0.1804087729166533,0.003310866295204,0.1565323162880452,0.126091489035293,0.1764269816779057,0.3010313287670716,-0.1326457072328627,0.1975900793921178,0.0976379865809623,-0.061553696675844,0.0866554664619463,-0.2017313547059596,-0.0688490756240374,-0.1749388560710476,0.2331177616754451,-0.0848165354743433,-0.0857332133412265,0.1816166817096241,0.0132981016463265,0.1439151147915167,0.1313919148532647,0.2685773570114298,0.0221695302242416,-0.0324638096008158,0.039027294189628,0.2339116348737856,0.100533308450702,-0.0215715902361835,-0.0386440043584213,-0.1328493204198783,-0.0364672452348497
ANSS,0.1201555157363254,0.1867548185374671,0.0519702122284937,0.076835079233168,0.0366694606986176,-0.2226560890401284,0.0637609637030467,0.4323431809820484,-0.0534254472425721,-0.4706057081046548,-0.0155358273545064,-0.3136467412500338,0.0579498882109872,0.1491891445378153,0.2734426773736993,0.0291988619319512,0.191216572943148,-0.0665021314929461,0.0084657358006385,-0.4593831841392736,0.0708211181352792,-0.0208694307764649,0.2657452245158228,-0.1788850088792807,-0.045057619721339,0.0128576047599695,-0.3433939415300146,0.0530750585621166,-0.0098688331624995,0.0964461124444193,0.2354952090810108,-0.1797671835687408,0.4078227547899726,-0.4160562589924457,-0.2964170637117748,0.267457905189807,0.064491631411368,0.1048523204589033,-0.2952424545759005,-0.2016617027363863,0.0586172327493203,-0.1919560439786628,0.0069408490318074,0.0805747101348535,0.1686659229910402,-0.1545251451159398,-0.343633366936589,-0.280931722892276,0.2011421531174433,0.2726133432390801,0.110835129279826,-0.0259332334135541,-0.2076997359519441,-0.1346329517567462,-0.0432428040235723,0.0531319510317934,0.1600004877884719,-0.0141711943040927,0.0357960610423219,0.0977000920426459,-0.0201179051633992,-0.1649678963835483,0.2051231651054472,0.3776327255408486,-0.1615943093197435,0.2933833560182305,-0.1785338968766386,0.0696601677755416,-0.2621957965249394,0.1642192373901867,0.0454125138659897,0.1744823756719552,0.1353556714933239,0.2003192889464772,0.3176857224231856,-0.1542337247879026,0.2460735638899226,0.1031267296421108,-0.0579159909011157,0.0989736939588802,-0.2507327745528966,-0.0881458556493432,-0.1436302079676176,0.2388648754039607,-0.0838339616005358,-0.1015365871437556,0.168157316885437,-0.0160322551275945,0.1415669040891566,0.1385472635879661,0.258979156016234,0.0032825812614462,-0.0547926906680842,0.0372323033418818,0.2436288449201403,0.1171430285199702,-0.0172211145787192,-0.0340260182280075,-0.1590286783778971,-0.0048850253235048
AON,0.114029542395386,0.1774123318061125,0.1169229253637864,0.166396292904429,-0.0280870672122633,-0.2026792316737642,0.0964260144379031,0.4428152131329645,-0.084600944118797,-0.5391430399533617,0.0416674590320976,-0.3087995794365565,0.0733877816289497,0.1822449716329396,0.2716684748743181,0.0714770915964098,0.2856248405255508,-0.0390600405544652,0.0409034396279632,-0.4669383927419235,0.0694548462387033,-0.0534694144751823,0.358928823576233,-0.2307810280501747,-0.0574915135350595,0.0074647386369712,-0.405208785194002,0.0846516682662031,0.0252340124144651,0.1030194397074017,0.3093427906259954,-0.2275937657104805,0.4233230231757769,-0.4418800543069816,-0.3156260777995632,0.28688554155924,0.0873066140593147,0.1623061051624909,-0.4000917401556906,-0.1740926178502723,0.0582239221266442,-0.2084667161017941,0.0163539435485737,0.1642375203897431,0.1533260038969191,-0.2310525063325783,-0.3970421004165528,-0.3507906155589451,0.2246529692371763,0.3191580247324097,0.1768825144244824,-0.0176249871006684,-0.2780081522896102,-0.1590593788205412,-0.0990618418284247,0.0900120442581661,0.2148481875210941,-0.0211596943028092,0.0641198803529966,0.1396638461603746,-0.0682691224624939,-0.1997317182875098,0.2981380227354594,0.446132119161779,-0.1957892177691846,0.3341877123313485,-0.2456277166248152,0.0906607138020457,-0.2437863253224385,0.1125582470164962,0.1306785434050756,0.2255303138648672,0.1659910184107691,0.2365349538210613,0.3658212543304778,-0.1702841837137367,0.3423047829907688,0.1114002534276895,-0.0695939643818742,0.1213495342196091,-0.3683909104997366,-0.0947388567140346,-0.0755696055227578,0.2593881132042531,-0.0989045758421222,-0.1445594310557049,0.1623324937346069,-0.0589180539903918,0.1541100900679381,0.1438162526675757,0.2661889364743869,-0.0003063855615226,-0.0819553129486011,0.0390722810679176,0.3041066242262822,0.131972413855431,0.0151726055105493,-0.0118534070718792,-0.1920016192087675,0.0612747583480179
AOS,0.1281928526851433,0.17665651650168,0.0812306362967359,0.0937751302138369,0.0045765366786244,-0.2160553612183345,0.0771246564751297,0.4314267584843118,-0.0536881697477781,-0.5014953269523701,0.0068870140593298,-0.3149369727356724,0.0442102517564283,0.1554457424765533,0.2893763524985187,0.0608079397131464,0.1951496058412526,-0.0599814117922331,0.027313442540205,-0.4592745970753415,0.0686602056544664,-0.0441913750205349,0.3014648226956856,-0.1979599385292074,-0.0670448444996094,-0.0044054121378381,-0.3570899038467529,0.0464513638842943,0.0082825169933104,0.0842728208278141,0.27312207249167,-0.2023862468599909,0.4320284663352364,-0.4046750263239207,-0.298702052614668,0.2735658240529814,0.070274512954888,0.1448214366163856,-0.3502636783870688,-0.1895710389008017,0.0576503791013046,-0.2123029134615043,-0.0059279849198743,0.1102168674556987,0.1681447323215635,-0.1730131636502925,-0.3755294879054743,-0.3006901617163415,0.2091162611954686,0.2997766451195678,0.1361044158262647,-0.0121437966553613,-0.2296308066764255,-0.1331275605412417,-0.0725220977039071,0.0807008865338407,0.1796344224812145,-0.0323002943061693,0.0520945453798722,0.1110598864178177,-0.0451340685760828,-0.1646272558886023,0.2255175340210683,0.4091877949534933,-0.1702576237559865,0.3098598495829461,-0.2015326822137956,0.0812594216818991,-0.2439055155445242,0.1422404775327662,0.0840510641766097,0.1925070487515443,0.1328300492981177,0.2194364862007785,0.3359716384113874,-0.1614833133535807,0.2993146307087627,0.0998577296840059,-0.0556682906907491,0.1094135812088621,-0.2987370892603134,-0.110032517091628,-0.1194789005346719,0.2637997584863442,-0.0928275379332961,-0.1144895339086674,0.1627880390317578,-0.0322046991969804,0.1604450257185312,0.1353585477532192,0.2595946008496972,-0.0024104630118066,-0.0848851394468244,0.0492680387421432,0.2594994708377756,0.1413729886643301,-0.0106235158701569,-0.0347617991406773,-0.1885753478676651,0.0190003321311036
APA,0.1268068801825554,0.2008484491073575,-0.0344295331830807,-0.0674957362979507,0.1208082606654467,-0.2422504823556856,0.0147518468140646,0.3784727628356825,-0.0110180130888644,-0.3030735196365991,-0.1199207691478719,-0.2918329124570641,0.0285468537238258,0.0914877711359316,0.2412340139318109,-0.0006019912790648,0.0044924793972899,-0.1298269211412374,-0.0415557485322231,-0.4376017927122339,0.0642033949795333,0.0250217606428827,0.0936904549526282,-0.1013578488010589,-0.0114749414152636,0.0196295767373433,-0.1987938955390938,-0.0197798317901681,-0.0772426730850666,0.0781053956211849,0.1372499043094826,-0.0800504291119489,0.331094088666906,-0.3001182618127929,-0.2576968137481572,0.2322915874888,0.033589867309985,-0.0157288634036318,-0.1152947915813022,-0.2416383568429576,0.0645838964629682,-0.1696468006353082,-0.0209353151920576,-0.0464847333795365,0.1936030074184614,-0.0124898875025256,-0.2566925424726329,-0.1459422018429104,0.1668800959382889,0.1857736916132746,0.0202680850238873,-0.0333503657211868,-0.0601021442740585,-0.0947400843566788,0.0299370307998918,0.025855414208249,0.0410140237326851,0.0145183233856156,-0.0407985794522088,0.0506256248649604,0.0730941987199489,-0.0899602416025488,0.0451431307804093,0.2296600277909557,-0.1088597767821482,0.2091093294480507,-0.030439481372385,0.0431136068229992,-0.2547911595721841,0.2531939581344037,-0.1043854915366866,0.0931762304444622,0.0568012602091061,0.115308965091312,0.2292575946296006,-0.0806635055985105,0.0904372017336727,0.0836200434335324,-0.0567241565512264,0.0925807736025294,-0.0300253707227821,-0.052476187234936,-0.26537053828704,0.2342952109334479,-0.1032466008454157,-0.0268636680606363,0.2080657721840237,0.0785686880363295,0.1330330252268551,0.0895454780377991,0.2814688530974862,0.0635434090864174,-0.0078399506363382,0.034866764213669,0.1571031325570815,0.0869554149830714,-0.0374607875155198,-0.0734835012774209,-0.0755638173841492,-0.1003000160485288
APD,0.1183117065969349,0.172631150162801,0.1110693210510513,0.1466801840165092,-0.0225991737480911,-0.2068369906377849,0.0939185538156882,0.4377597454798659,-0.0773917544541057,-0.5280433582109317,0.0339852334617988,-0.3091570886425329,0.0644163221085185,0.1769794304038218,0.2764984691579435,0.0685668091083233,0.2581804104563758,-0.0452530402556489,0.0386495341873984,-0.466482802242207,0.0717142775735188,-0.0533047686382033,0.3436330244902438,-0.2245782406605554,-0.0644688578136859,0.0044757602624951,-0.3933057931923579,0.0714554830184696,0.0215542484828652,0.0931681880639773,0.3049523728406517,-0.2204297611338942,0.426126072499448,-0.4279150310975735,-0.3065646132418999,0.2838532909991567,0.083499387465863,0.1597469494957699,-0.390574266281472,-0.1800761358267323,0.0557920967569972,-0.2088987085124569,0.0080928882135396,0.1531645145045929,0.1567740218841621,-0.2169663491116709,-0.391381618028367,-0.3380290227949595,0.2201769435198968,0.3119683445437233,0.1692301690458889,-0.016772866530932,-0.2646060073451158,-0.1502129552303627,-0.0935670948005095,0.091413073077578,0.2076988501030137,-0.0255437166208365,0.0596758218670035,0.1300312633542797,-0.0642464533455646,-0.1878583097838398,0.2823941175899419,0.4355640950843141,-0.1910874137686093,0.3299260496594861,-0.2361853806082117,0.0911823378836303,-0.2400131056086993,0.1160466379442948,0.1197223716335255,0.2177338723868073,0.1575089417691521,0.2316047065193947,0.3610518245595363,-0.1649765700987128,0.3321973614311484,0.1070879469374996,-0.0666491164568889,0.1149770610904888,-0.3549551877068382,-0.097259017803366,-0.0865257537345947,0.2624450262659712,-0.0981993553298488,-0.1380904124730078,0.1633730574549611,-0.0487213058862649,0.1615230589766382,0.1411239486514476,0.2658412040907895,0.0014711808903622,-0.0822673209072454,0.0451745311122467,0.2972051948315443,0.1343118925760152,0.0091820859241275,-0.0166998420674145,-0.1916681130593449,0.0484438519377151
APH,0.1163289776258319,0.1782525073932974,0.1014496475111684,0.1427449383414565,-0.0122534494669372,-0.2070113705913796,0.0880995210634464,0.4391375679903005,-0.0748587236969926,-0.5231277906904784,0.0287713075791555,-0.3102749438608805,0.0683274759749096,0.1740685539710761,0.2748136020089504,0.0610136350518778,0.2595497612741908,-0.0461352482406802,0.0337228282689721,-0.4652063499963835,0.0697276504698062,-0.046343835443741,0.3354596436165564,-0.2173288657435437,-0.0570701456248486,0.0073744341611499,-0.3889212840347383,0.0754900789840824,0.0171755448903181,0.0997703394999629,0.2913364857966986,-0.2168982619876628,0.4229638393982454,-0.4349735178128297,-0.3110341094597651,0.2820965027736657,0.0813997798131227,0.1501653712039347,-0.3755186673541935,-0.1814925092849152,0.057630362149931,-0.2047865120382115,0.0132597180646346,0.1426165387386447,0.1570326294839097,-0.2107648533788261,-0.3848069811743376,-0.3327370720779585,0.2181945751362481,0.3084774135917936,0.1600324678761317,-0.0185042414522731,-0.2612771102958069,-0.1515783855358831,-0.0859139961980734,0.081923112161814,0.2023987937243313,-0.0213414685016399,0.0585575864464267,0.1271576137784007,-0.0581873913310049,-0.190019942922098,0.2736626748505094,0.4303803993029738,-0.1878126779782097,0.3250116778287347,-0.2297404256502264,0.0854738663974481,-0.2480480698918763,0.1252253058379845,0.1106031663716582,0.2128195473182061,0.1575768214710423,0.2287890104850994,0.3546529204073693,-0.1672446969540068,0.3205920305038822,0.1091809976512515,-0.0662579706783125,0.1157511290225187,-0.3401639546695473,-0.0959509038492633,-0.09361074738265,0.2568610249764169,-0.094532032520993,-0.1335431741602274,0.1639827967790717,-0.0479158113091,0.1530840244138503,0.1433742009333529,0.2651327530239995,-0.0005381004387242,-0.0781481129060123,0.0405577294515557,0.2886016948073504,0.1307617213823138,0.0049218906944118,-0.0186588605464788,-0.1867335493497378,0.0440439521448788
APTV,0.1214197505038213,0.1794038644603392,0.0293167191787817,0.031617398560567,0.0590449940512384,-0.2291412169805934,0.0555515701145801,0.4102548923004757,-0.0414372595492007,-0.4172318801194714,-0.0437792406466724,-0.3046054004474678,0.0475140927044564,0.1321692600282966,0.2643308102192603,0.0179820485306128,0.1260834899047713,-0.0877402129763532,-0.0050897370220683,-0.4571523459485629,0.0746796037963713,-0.0085940083148673,0.2084826900231231,-0.1588355891058961,-0.0428516140714157,0.015765640993812,-0.3025752639413204,0.0240365034301633,-0.0305735057366913,0.0815632514725402,0.2118994365971716,-0.1471396413105547,0.3864791738786594,-0.3758292829664066,-0.2766005845808764,0.2575136632042115,0.0545173660129571,0.0708477092525094,-0.2450298947193756,-0.2188279753830506,0.0559871881745163,-0.1835928598754523,-0.0069648884741835,0.0443483739601154,0.1778744244309323,-0.1115164013476997,-0.3178796286871463,-0.2390637384111914,0.1888237187009085,0.2423747200296042,0.0853821066426532,-0.029191966984418,-0.1608002593665067,-0.1173434512826363,-0.0218313381794774,0.0516621965552536,0.1267717236606924,-0.0100176150981482,0.0110864464757649,0.0786213149694262,0.0057205987072652,-0.1360193074062025,0.158749961223679,0.3298555399054302,-0.1477752483696446,0.2726239220447109,-0.1372885150609142,0.0665784314798564,-0.2538464353532635,0.1844324643257262,-0.0005868627720228,0.1505503323239399,0.1108985708470744,0.1736955330293088,0.294851853052879,-0.1274736192273466,0.1993377948325778,0.0932960146352978,-0.0580014605049127,0.090560329005945,-0.1891272205330633,-0.077965181757231,-0.1837690364374657,0.245226608916257,-0.0901117194280551,-0.079027830614178,0.1837481121225148,0.0202455016999933,0.151955301812544,0.1226267700088752,0.27025086971288,0.0259245905500745,-0.0419113832196158,0.0445966507302777,0.2231677397620954,0.1099769198735826,-0.0243662548976678,-0.0466031381675447,-0.1363561158822299,-0.0403713077694148
ARE,0.1212133611843919,0.1781813200612209,0.1184000679777498,0.1538158678616793,-0.0323831948990698,-0.2025894393024452,0.0929889380553086,0.4385345508143947,-0.0762325345458347,-0.5373391877589495,0.0382844885804525,-0.3091752804441458,0.0600030573584032,0.1772817597476441,0.281343465691367,0.0844126120982082,0.2635517657015538,-0.0427228811159059,0.043372302477291,-0.4619452649656166,0.065838001946216,-0.059838712579616,0.3572557439462785,-0.2283441082388199,-0.0646456679168856,-0.0020517964299286,-0.3934402116585487,0.0736560208830266,0.0273560269299799,0.0963001733154141,0.3131958477622777,-0.2290900938476152,0.4311471223637894,-0.4240068934493096,-0.3139393482543119,0.2854733797431919,0.0860990531159753,0.1705520199426112,-0.4048681404527746,-0.1713302730310833,0.0597622210803802,-0.2185949396915389,0.0069334790707703,0.1599801351628942,0.1565329238053476,-0.220423755522645,-0.4037728997755445,-0.3431137386628499,0.2255120816045668,0.3250178551149853,0.1759970393982468,-0.0106655548414307,-0.27230771024603,-0.1540405342587087,-0.1030784963015199,0.0979600633016269,0.2096479129093733,-0.027339522053036,0.0656552573120477,0.1394511348365708,-0.0698262276185492,-0.1913687822113201,0.2847322981107974,0.4478984896101591,-0.1912828253231574,0.3307458355108663,-0.2382516054038487,0.091419412001954,-0.2378733050095513,0.1162922229570302,0.1321310533163846,0.2229550772953605,0.1546335756674556,0.2379390369429352,0.3631058980527362,-0.1695756352279317,0.350080090950717,0.1090648789634628,-0.065421015587509,0.1272907995372309,-0.3634840637576161,-0.1049691074864977,-0.078353293958986,0.2693018401567074,-0.1032640279613827,-0.1408242403708152,0.1606600022996572,-0.0589925872629502,0.1590779787971331,0.1389753776372215,0.2659752924749821,-0.0015500584245266,-0.0925224994439587,0.0429001012191316,0.2962642143742924,0.1423089265965819,0.0126331737097887,-0.0178448788430304,-0.1991487464680376,0.0618341801892962
ATO,0.1192436088966443,0.1723803302118676,0.1350761427012297,0.1758657668353662,-0.0500524930757703,-0.1963777455606719,0.1017114963743425,0.4377068228042273,-0.083188081074408,-0.551415575697923,0.0525082799107407,-0.3060633482432299,0.063146000924079,0.1851991111942919,0.2794588584440984,0.0941627311848543,0.2845325741740137,-0.0373727078331633,0.0518922824074664,-0.4642138238372414,0.0666546250570586,-0.0676490377320609,0.3782836580704719,-0.2410335497229926,-0.0690021496726589,-0.0034819094277027,-0.4069264394600996,0.079372300594849,0.0361513533897585,0.0966365169473824,0.3318849105645636,-0.2393944690931786,0.4341830490541346,-0.4278735277668886,-0.3173632408095675,0.2880614232955176,0.0912581395473519,0.1842080182737508,-0.4303569113449498,-0.1652262392466846,0.0595550868391732,-0.222510836994724,0.0085380090165889,0.1795825088998983,0.1521204503868042,-0.2380811297698644,-0.4169060181354008,-0.3591943275320092,0.2306384077352104,0.3354081880008621,0.1919681870146837,-0.007662705785225,-0.2877925235579054,-0.1588658326130176,-0.116974413383045,0.1089495465848624,0.2222567356527267,-0.0301149627921636,0.0722260457501439,0.1489211661016373,-0.0821781986609526,-0.198762878916149,0.3063995812884406,0.4638217365459436,-0.199558985348274,0.340363480084833,-0.2541787349195643,0.0970105963500671,-0.23171286012754,0.1024809202767516,0.1525156310602779,0.2348119525498903,0.1609209109222304,0.2454769397592632,0.3750696946529633,-0.1727587946614865,0.3745381853200103,0.1104278357235708,-0.0691700396339663,0.132172079628372,-0.3913570218593286,-0.1071590212551784,-0.0627425871743966,0.2766035220333623,-0.10759880107217,-0.1515585902319715,0.1602227583786018,-0.0678061458009794,0.1634659727369261,0.1388450807719484,0.2685143715706453,-0.0014527757511969,-0.1003684235019668,0.0443437484607688,0.3108211570455391,0.1466727992279293,0.0201935500680878,-0.0127219908211255,-0.2070970716336638,0.0782091105643209
ATVI,0.1202990273048988,0.1754182496218031,0.0800347059298205,0.1015970120830327,0.0082661160039514,-0.2173888327129054,0.0799070309017275,0.4298193561317224,-0.0622796976260775,-0.4907234777151302,0.0048494883277769,-0.309616731164867,0.055521091272493,0.1585608780587558,0.275302617400335,0.0501703729212842,0.2062971438533749,-0.0611112643461654,0.0232353733304406,-0.4635484377427273,0.0725435589869436,-0.0367007325111889,0.2947967120036304,-0.2003887230435689,-0.0575784212706144,0.0071392282216023,-0.3620814845148634,0.052366386884764,0.002427063353376,0.0881583266683588,0.2694603066991322,-0.1943732808584323,0.4167932134732141,-0.4097624773705865,-0.2958043792464754,0.2753587174385287,0.0710081097259939,0.1299153524961551,-0.3385551679104067,-0.1960896434621852,0.0562663325511492,-0.2013041008860942,0.0017945145299892,0.1122682917557888,0.1664433140557205,-0.1779295528883878,-0.3661529373591454,-0.3017732876379331,0.2091465306971846,0.2879777416598759,0.1369577167706825,-0.0201116351496526,-0.2269672024051883,-0.1368367841884648,-0.0658690745472919,0.0762192769446952,0.1786261086405642,-0.0226908697252068,0.0442992044596797,0.110137603911768,-0.0390063965259761,-0.1681787948260764,0.2342319733549935,0.3976313723976266,-0.1740399357050277,0.3094678426483482,-0.2013226638086128,0.0817894430228017,-0.2462349796833034,0.1414495466100245,0.0751414720486683,0.1934442803683929,0.1401026453973244,0.2128976966956989,0.3367809050313926,-0.1526080604309908,0.2846617181493902,0.1005480027597165,-0.0615701065239076,0.1053894544740696,-0.2933328141097389,-0.0928112660806501,-0.1220528089034369,0.2567619213430014,-0.0931479470563704,-0.1153413071405958,0.1687982867054486,-0.0256948758648601,0.1583827197131833,0.1366153899786334,0.2654135334535696,0.007127581337448,-0.0697925393998792,0.0463960637151675,0.2682394333992545,0.1279035902811551,-0.0061183838395901,-0.0288723507269242,-0.1748345890275516,0.0137289374029509
AVB,0.1244811771734227,0.1755882341699137,0.1157649870004959,0.1411226210596583,-0.0317801937697257,-0.2029901163584212,0.0890588634335502,0.4342466145352812,-0.0685450890416389,-0.5335752905541036,0.0346694466173986,-0.3088941371574867,0.0505314297466115,0.1717965818170689,0.2875852356423465,0.0889910081649523,0.2445544430576086,-0.0466515294906435,0.0442396572241827,-0.4579794978295145,0.0646525034018119,-0.0611318240634372,0.3522137590179716,-0.2232419388974753,-0.0694754245561774,-0.009414661027702,-0.3829439979966023,0.0646419944522005,0.02739195106124,0.0910484605629228,0.310912994079684,-0.2273298724595512,0.4381191136049585,-0.4125243958601916,-0.3121007199082977,0.2833749443854085,0.0826419630600176,0.1735257469386863,-0.4034912993097633,-0.1712022778591842,0.0609427254297584,-0.225039399998408,-4.100345559358787e-05,0.1522113085023322,0.1593141788483093,-0.2086465627139217,-0.4062154682217971,-0.3348602734733019,0.2243498851689235,0.3268568331830239,0.1715325436135605,-0.0042842020634546,-0.2660461313267976,-0.1476113369615609,-0.1033896322026432,0.1011587205941549,0.2046248835475856,-0.0333641073406574,0.0668876417346248,0.1369515035693304,-0.0690992457405597,-0.1836142156978117,0.2699683724165087,0.4458320824162213,-0.18660169441856,0.326944931107648,-0.2315732206498678,0.0902509854677017,-0.2346332415170073,0.1198704427834511,0.1290693642152696,0.2177698742666529,0.1451787292736172,0.2375769060817316,0.357922128300692,-0.1705909030722897,0.3516395406610372,0.1059019535769184,-0.0627371266820695,0.1290288919024466,-0.355247160603264,-0.113372522725633,-0.0823406855879497,0.2756186147783757,-0.1047194737174579,-0.1359337512413938,0.1593705994103763,-0.0578343185330288,0.1614803489898574,0.1354593668746475,0.2636138250935448,-0.0042659195361973,-0.1010751464553444,0.0464440316498053,0.2860077382877664,0.1502545532628231,0.007461581735523,-0.0236550963801618,-0.2050811678105802,0.0597913377556524
AVGO,0.114896687058668,0.1797545316727145,0.050892464907363,0.0787947558715458,0.0398968681646659,-0.2236801400911389,0.0682328321133254,0.4289572727235191,-0.0587938500837864,-0.4654024939633537,-0.0151916652051431,-0.3116834158615537,0.0646687438964035,0.1517470598449571,0.2675015378704048,0.0191335597898413,0.1941471543917625,-0.0669361455329113,0.0052348245982455,-0.4650429792515042,0.0756872248232618,-0.0168069546072679,0.2584220012642467,-0.1810778738907427,-0.0436689697690248,0.0206918334911474,-0.3487271746604568,0.0545810271838777,-0.0141422137622892,0.0939848849964305,0.2345716011681871,-0.1738929314064634,0.4002626880534005,-0.4212281810337632,-0.2904067079238059,0.2685028365464135,0.0643227805235524,0.0977247922532364,-0.2887587535939219,-0.2075213633404905,0.0544593058095018,-0.1821771479632105,0.0083066386206334,0.0820947031979189,0.168268327638388,-0.1581923301068789,-0.33482095738353,-0.2812266591785957,0.1975311414770146,0.2621724391155586,0.10970602253065,-0.0330693880086794,-0.2059129514988434,-0.1340695796200212,-0.0379567719666224,0.0502347405376046,0.1606296229390115,-0.0110266089999745,0.0304786787797998,0.0923011809294769,-0.0173740486885113,-0.1637875214204239,0.2114414310266978,0.3689140017805647,-0.1640305286741249,0.2956528912918613,-0.1806905641008103,0.0716203475468294,-0.261821632029153,0.1615010992790226,0.0382965491301836,0.1749731921537484,0.1402936684047733,0.1959869573921399,0.3198645391354435,-0.1482284154766722,0.2334977200364714,0.101568863881073,-0.0601092749137871,0.0899681974301913,-0.2499662049915314,-0.0795526610820315,-0.1487910371304206,0.2348612117745573,-0.0819093065731453,-0.1016857063995066,0.1723366393076413,-0.0073122364374923,0.1466733497096208,0.1403681144179208,0.2636447820242084,0.0098199821797456,-0.0437924655889973,0.0391518858987981,0.2513024134220157,0.1085472289951662,-0.0154897609522378,-0.0307075367613652,-0.1516524045399974,-0.0148372012969872
AVY,0.122802213175249,0.1713130604928772,0.0917366636954871,0.1113311786308923,-0.0059791003649852,-0.2140413872434191,0.085261919830541,0.4309191991719142,-0.0634629976325943,-0.5081076144658183,0.0143782707851044,-0.3107614320520151,0.0513292832769441,0.1624040470096138,0.2819837350907039,0.0617287422001563,0.2133522643685412,-0.055888924478112,0.0313906385370216,-0.4620154786014267,0.0720757306252637,-0.0461502752868953,0.312394214392806,-0.208494009098047,-0.0656260581964855,0.0004037956575724,-0.3697241567297314,0.0524229361117554,0.0108167798924178,0.084818794961686,0.2842576472122858,-0.2051146097763098,0.4273675252658209,-0.408987926975447,-0.2963093207908446,0.2781988093495797,0.0730384893906993,0.1484917930572069,-0.3618869332097578,-0.1896067322798123,0.0554813580907602,-0.2093175592530738,-0.0016298737500213,0.1260632013291584,0.1645038603660925,-0.1882517048925684,-0.378260474840136,-0.3120406538935414,0.2124264818546399,0.2986414029219884,0.148038791073709,-0.014435423082268,-0.239703028922547,-0.1365804438511922,-0.0773709896867248,0.0863327797185897,0.1882757762509384,-0.0301862476865925,0.0527651688290843,0.1152501784372173,-0.0512410091489488,-0.1697371994156169,0.2452075028278831,0.4122706917348964,-0.1772966697281806,0.3171963197997202,-0.2131572253214851,0.0856396427224509,-0.2405151404590146,0.1324569209422351,0.0926674235811935,0.2016449184973903,0.1415056214011326,0.2217884529266874,0.3454626725353092,-0.1585227588022297,0.3066907392369518,0.1002862885237138,-0.0599070673342794,0.1095471501950489,-0.3153849039687233,-0.1025532777495444,-0.110059597335631,0.2645010909921916,-0.0951371136532897,-0.1221269779846326,0.1642796686023141,-0.0351358477105691,0.1642569595105278,0.137642386059709,0.2636738535955524,0.0020420414770823,-0.0815479200351181,0.0497951911873016,0.2736688917819329,0.136856868253666,-0.0040417544067405,-0.028619382842377,-0.1882369980688371,0.0255740964698881
AWK,0.1164889073048003,0.178942170040162,0.1188669921308562,0.1649289335717597,-0.0312906208343579,-0.203376795330116,0.0963439331597914,0.4446970807949892,-0.0834971186084794,-0.5421897469346888,0.0409220514175771,-0.3103924787393882,0.0691961319255605,0.1825751938479856,0.2745644177218819,0.0766021900125549,0.2824654533517394,-0.0394845998825013,0.0426120841151557,-0.4660166394785403,0.0679924791088168,-0.0557098613542829,0.362293846667202,-0.2311064432519213,-0.0592588713872387,0.0044873257819711,-0.4033707170652528,0.082604472267893,0.0268930686534526,0.1018772897023879,0.3119814607726582,-0.2291443804120221,0.425805700963669,-0.4368039733219013,-0.3155452168043079,0.285859847892866,0.08741322985434,0.1665368704318382,-0.404128247205067,-0.1726038071491786,0.058602982730771,-0.2120923640375787,0.0144461883986561,0.1660515397521214,0.1531891208617358,-0.2302409425567972,-0.3997594288370588,-0.3503900156716595,0.2257117939018607,0.3216526519523509,0.1783686942425356,-0.0148651189582223,-0.2783571946459928,-0.1589161987747682,-0.1017442943358963,0.0926681465812419,0.2145365774594366,-0.0230584054920923,0.0660612893094378,0.1408190303849278,-0.0698708463929953,-0.1987845548946615,0.2972657208381432,0.4489334910360508,-0.1955953538261853,0.3336380107844088,-0.245501925299862,0.0913594487563972,-0.2424487163272071,0.1120519165069969,0.1336762279731056,0.2261798151343466,0.1642387386767358,0.2379098656847983,0.3660255827141875,-0.1706772407537632,0.3472698110815262,0.1110689180112737,-0.0690416056685821,0.1236255565922606,-0.3696243399271424,-0.0974285697993009,-0.073194633705814,0.2613593200617136,-0.1003521798665752,-0.1453003652179461,0.1610063042178262,-0.0611010064550844,0.1543868939360577,0.1431590495541977,0.2653613928141016,-0.0013293655647198,-0.0856112871323511,0.0401684137574059,0.3036176377645693,0.1350720197460324,0.0153746728086658,-0.0126210750354323,-0.1943653943626123,0.0637633548308207
AXP,0.1226535906506096,0.1740934404465065,0.0814918901676986,0.0995115202749846,0.0047061339982872,-0.2127275776646829,0.0779686237464806,0.4243340957211702,-0.058789004579534,-0.4884068347347315,0.005694215745365,-0.3075242947276081,0.0521010577580646,0.1564007361844312,0.2771200174781415,0.056445096295618,0.2008996267121231,-0.0611898835638749,0.0247821240803595,-0.4589356267230624,0.0701680737436174,-0.0398678780633449,0.2952210358865752,-0.1983357803418711,-0.0605743834644888,0.0026429939344436,-0.3554886099228864,0.0496417160117716,0.004545573991808,0.0868461688273427,0.2707998928496246,-0.1957761391066571,0.4179712137867633,-0.4029772777483628,-0.2964011615601203,0.2734496698445942,0.0715007754329605,0.1328357940350705,-0.3413128783418374,-0.1922185184215707,0.0572853482530179,-0.2054702387112631,-0.0017566936457473,0.1105319323624221,0.1656897410043356,-0.1738760574398476,-0.3693413143157602,-0.2994870765021805,0.2091664430285036,0.2919428283957678,0.1372664168791212,-0.0167594080305535,-0.225921769462306,-0.1357678231171241,-0.0694039054318929,0.0796308795954182,0.1761976655504326,-0.0244459088199565,0.0450563275898053,0.1116010222378007,-0.0403957309779165,-0.1661033624112145,0.2290853027186016,0.3996176991907028,-0.1724975390509781,0.3087089519259487,-0.1973040900438239,0.0810549552505056,-0.2437788016614734,0.1436309216824765,0.0769843631557692,0.1920625642428944,0.1348946671389849,0.2127067557932657,0.3351326077753913,-0.154208501212691,0.2899047238735535,0.1007119796210617,-0.0611924289928472,0.1104168039230418,-0.2926775355061347,-0.097433789729763,-0.1231367343903387,0.2620396245749254,-0.0969856018438174,-0.1145876817979595,0.1691588675892916,-0.025974417913076,0.1591105004588092,0.1327362014307526,0.266309938368282,0.0072019252726469,-0.075637230260611,0.046613118703415,0.2646068169682363,0.1322323608730796,-0.0061415553988259,-0.031504722629357,-0.1780666921490527,0.0172736412317134
AZO,0.1053607472665296,0.1693213660150404,0.1055067437364863,0.161067677199086,-0.0134360375876339,-0.2109868409412139,0.0993556164790307,0.443456349741412,-0.0900378467090297,-0.5267019978110965,0.0341031213208923,-0.3100993367271465,0.0833079458646583,0.1833241440413706,0.2618185892709318,0.0472198672135148,0.283509763519902,-0.0424103356741496,0.0312275884222191,-0.473593944683671,0.0775312189132708,-0.0401652374659832,0.3372650639819831,-0.226445157929031,-0.0527421127911211,0.0218370921005223,-0.4090772804609563,0.0848419434983993,0.0154402163414436,0.1004524315748975,0.2951728153061805,-0.2125690836811986,0.4095020195633764,-0.4505537755345384,-0.3036173126550556,0.2854310883018983,0.0831863421914643,0.1431429148772345,-0.374861589295751,-0.188012230132953,0.0523061968196418,-0.189921454043741,0.0220259925680297,0.1544315073259644,0.1536084341072437,-0.2287954798909988,-0.3751382369984779,-0.3438066002648053,0.2164051817697391,0.2956516463272392,0.1665580055490358,-0.0299590024788918,-0.2671428439905495,-0.1547818098178629,-0.0825891744054295,0.0770346113648473,0.2117600263812337,-0.0155246736484756,0.0556214959600173,0.1254535888869796,-0.0588450132380128,-0.1966507966424809,0.2973710919924948,0.4237473887572231,-0.1948840588478273,0.3314195524016223,-0.2432563551560496,0.0894776886851531,-0.2491946454556136,0.1129820867830759,0.1096208090221797,0.2184319724801811,0.1737633914299802,0.2254690156185307,0.3629765020719799,-0.1620491614930652,0.3094418753273458,0.1085466070356333,-0.0717880873312576,0.1028379095150855,-0.3522264642018581,-0.0784765061743385,-0.0868788422992344,0.2449407382766854,-0.0892362885408852,-0.14011828470906,0.1649486815885149,-0.0437178087094538,0.1542301224541047,0.149324952280134,0.2662476359449172,0.0051220763867674,-0.0611607900499834,0.0403761072057269,0.3059672837249973,0.1153194607004146,0.0106165839292879,-0.0077966218710278,-0.1769218648497187,0.0402554701203744
