,0,1,2,3,4,5,6,7,8,9,10,11,12,13,14,15,16,17,18,19,20,21,22,23,24,25,26,27,28,29,30,31,32,33,34,35,36,37,38,39,40,41,42,43,44,45,46,47,48,49,50,51,52,53,54,55,56,57,58,59,60,61,62,63,64,65,66,67,68,69,70,71,72,73,74,75,76,77,78,79,80,81,82,83,84,85,86,87,88,89,90,91,92,93,94,95,96,97,98,99
A,0.044646837,0.08996644,0.025591545,0.16699624,0.19487618,0.06239241,-0.050289467,-0.08665933,-0.037446886,0.106000535,-0.028053755,-0.01651543,0.08922982,0.18273094,-0.058200058,0.10682672,0.2136172,0.02564773,-0.015257232,0.20355731,0.02378118,0.13325159,0.041722517,0.13805422,0.11712385,0.16491796,0.0021378696,0.06970138,0.079332665,0.12650445,0.061058693,0.06287052,-0.07383612,-0.017596098,0.07023561,0.02021094,0.2527526,0.22249173,0.0032028276,0.10067253,-0.035801694,-0.048618127,0.046855018,-0.030814596,-0.0044539757,0.23387767,-0.029001739,0.12516648,-0.0495044,-0.020103473,0.08750194,0.089632764,0.16171008,0.04918445,0.012860067,0.030824427,0.106099136,0.09644831,0.079540476,0.036286805,-0.0523865,0.090869054,-0.06335208,0.0133988485,-0.02590369,0.16556129,-0.00034591276,0.33709034,0.23273177,0.024073618,0.02237662,-0.025143404,-0.0056179073,0.08834578,0.07982507,0.12624349,0.096350126,-0.064350426,0.17037421,-0.004418321,0.05897835,0.015774611,0.06865142,0.040548936,-0.004653372,0.16999254,-0.025318919,-0.030189464,0.037701406,-0.03441101,0.08981096,-0.06329581,0.0108311735,-0.012158304,0.1430057,0.08973677,-0.029587435,0.040113136,0.06246552,0.08879009
AAL,0.044687428,0.07769896,0.007351596,0.23141637,0.19911015,0.06233535,-0.061594993,-0.08751354,-0.041798133,0.111701496,-0.036020044,-0.010614697,0.0882303,0.19345272,-0.05053451,0.11038838,0.21486783,0.024878003,-0.014464803,0.20199254,0.02047773,0.13246505,0.031028418,0.13573682,0.117276974,0.16290197,0.00048782304,0.061209835,0.082944885,0.12787983,0.06525695,0.03782514,-0.08240653,-0.018733054,0.09759101,0.017540786,0.26260066,0.22402774,0.0030461662,0.10347216,-0.031563368,-0.03212525,0.025852906,-0.039533567,-0.01048087,0.23999318,-0.029021168,0.1253891,-0.056988508,-0.014447883,0.045866128,0.09019576,0.16446982,0.0471837,0.0237437,0.028462816,0.1115537,0.10304078,0.07731138,0.04240593,-0.04183487,0.09241191,-0.06253217,0.015038505,-0.026949074,0.15249573,0.0028173104,0.33221218,0.23184559,0.0017829649,-0.016351506,-0.020162392,-0.004285205,0.08872566,0.091380954,0.1279359,0.09892441,-0.06676479,0.1717817,-0.0033690725,0.013283245,0.022772623,0.077109024,0.033487134,-0.011809334,0.1271404,-0.030144071,-0.028536541,0.037389047,-0.032367915,0.06337757,-0.06498437,0.0036850981,0.005410854,0.14136818,0.12087406,-0.028490419,0.042226844,0.037418153,0.1047029
AAP,0.047610782,0.0831007,0.007852701,0.2710505,0.19631171,0.06280554,-0.051989153,-0.08688624,-0.0454934,0.1071486,-0.032153435,-0.008746292,0.0880506,0.19125195,-0.057427056,0.11885539,0.21200004,0.028781328,-0.008900955,0.2079609,-0.025516856,0.13703084,0.024849381,0.13775946,0.11465,0.1700681,0.019042056,0.058365036,0.079520755,0.12754104,0.05515493,0.02321652,-0.07269174,-0.016901864,0.11232774,0.022069804,0.27132386,0.22924143,0.0049340073,0.101688445,-0.036293127,-0.027905533,0.006271858,-0.03398655,-0.012217909,0.2333506,-0.02160833,0.13123381,-0.055555474,-0.01932541,0.013639353,0.08703976,0.16317001,0.0481445,-0.0037928,0.029993448,0.09801528,0.11610347,0.072488315,0.03572964,-0.052387092,0.092605464,-0.06313574,0.014428869,-0.028040621,0.15382682,0.03544364,0.32880354,0.2295322,-0.019506764,-0.038486622,-0.00951973,-0.0058102645,0.08865102,0.100843295,0.12805967,0.102991685,-0.06596857,0.17167343,-0.0041651987,0.001012668,0.049499977,0.12002836,0.029431053,-0.031810354,0.078632385,-0.025237286,-0.03030662,0.03846866,-0.03249161,0.027189031,-0.06305365,0.01061701,0.00019616261,0.13998023,0.1622923,-0.026501171,0.04065436,0.03801576,0.106198
AAPL,0.045076564,0.06072843,0.0025287801,0.15577902,0.19651362,0.062046885,-0.058946416,-0.088246986,-0.044267207,0.106906116,-0.033510458,-0.03153937,0.08786261,0.17988834,-0.058775365,0.10615684,0.21122658,0.023589157,-0.013566852,0.20356318,0.04086387,0.13064483,0.023767937,0.13862878,0.11255787,0.16111836,-0.00427074,0.06108043,0.07897344,0.13017571,0.057596974,0.032077007,-0.08217923,-0.014725827,0.07013449,0.019998506,0.25697994,0.22353584,0.0038142875,0.101988345,-0.03276929,-0.04161953,0.012911437,-0.037312455,-0.01309647,0.234033,-0.030263402,0.12757543,-0.055805814,-0.018115293,0.033125777,0.0874729,0.16207226,0.044556167,0.03606255,0.031119715,0.1024923,0.1039379,0.08531904,0.03341283,-0.045846947,0.091435626,-0.062043134,0.01325573,-0.02880438,0.14557227,-0.009258634,0.32744804,0.22800246,0.023787156,-0.0026040599,-0.035714988,-0.0057843793,0.08828074,0.07431561,0.1296693,0.09777318,-0.070468664,0.17231053,-0.0035915952,0.045468107,-0.0013788678,0.0417289,0.029811349,-0.0174019,0.15991226,-0.029376693,-0.029294545,0.03836225,-0.033995315,0.08961482,-0.06528984,0.007266149,-0.010644112,0.1397469,0.083147734,-0.030560315,0.04249765,0.05170193,0.10088249
ABBV,0.044853628,0.115861885,0.080425665,0.38963568,0.19954787,0.062148876,-0.027558953,-0.085343294,-0.036425278,0.10797258,-0.027380476,0.0025081858,0.08773218,0.1809845,-0.057123624,0.123992145,0.21492565,0.03204912,-0.007155314,0.20457113,0.094234236,0.13504384,0.07554051,0.13850993,0.11875179,0.16700344,0.051288597,0.055732977,0.08050452,0.12684333,0.062367015,0.08280364,-0.073984884,-0.02038926,0.17644505,0.024621192,0.2852587,0.22440144,0.0023339875,0.10023156,-0.032668304,0.001164522,0.112207636,-0.022789963,0.0058651455,0.23078941,-0.015237641,0.12991038,-0.053018793,-0.02157041,0.15136278,0.09110599,0.16161673,0.050474115,0.035661496,0.030183502,0.107635826,0.1306486,0.092842594,0.05110265,-0.050927464,0.09485267,-0.06329565,0.0146340355,-0.029710487,0.17648482,0.070517495,0.337005,0.22728606,0.076254636,0.0839822,0.007771399,-0.005594656,0.089234784,0.18207464,0.1257919,0.09967298,-0.06432162,0.17220396,-0.0050659236,0.15924266,0.09297347,0.1731224,0.04382029,0.008293614,0.31669164,-0.012441415,-0.030805307,0.03657826,-0.021251034,0.15796366,-0.05947697,0.0073972642,0.02792957,0.15065703,0.2389805,-0.014794668,0.045744345,0.1349027,0.15947577
ABC,0.04870387,0.0629017,-0.021798693,0.22609064,0.19794618,0.061896015,-0.053065963,-0.08363396,-0.044919092,0.10627354,-0.032388747,-0.008302411,0.08803109,0.18264641,-0.05769591,0.11244797,0.21254595,0.024180025,-0.015795276,0.2034944,-0.00589028,0.13400817,0.01548551,0.13898756,0.11580253,0.15829861,0.01949136,0.06304389,0.08122053,0.12961727,0.057527144,0.037718117,-0.08072231,-0.020399546,0.092160404,0.020135894,0.25514153,0.22285731,0.0031559635,0.10153376,-0.032201245,-0.028760249,-0.00957495,-0.036851764,-0.00806093,0.23410586,-0.02457971,0.12484205,-0.054898813,-0.015298858,0.045784116,0.09068328,0.16157205,0.044494454,0.0002851449,0.030358307,0.1037482,0.112900294,0.06931919,0.034982592,-0.059659272,0.09289782,-0.0635106,0.014464088,-0.02977141,0.15904006,0.01877341,0.3354339,0.22973941,-0.02753843,-0.037072103,-0.013476528,-0.0041784383,0.08731838,0.08351339,0.12738465,0.09889964,-0.06950499,0.17237796,-0.0023700204,-0.0006608926,0.043151975,0.10010278,0.03571468,-0.02430237,0.08541171,-0.024129208,-0.028992197,0.03937739,-0.035846893,0.029383264,-0.06400764,0.008015454,-0.011895824,0.137159,0.13212816,-0.022377778,0.046753347,0.022056945,0.094276
ABMD,0.057855703,0.1628752,0.19871074,0.4553277,0.22907272,0.06157498,-0.049779177,-0.08313504,-0.027690157,0.12770838,-0.030708313,-0.00676387,0.094978206,0.22425228,-0.049490236,0.13725124,0.2158311,0.030586895,-0.0101432055,0.20188351,0.21122292,0.1359666,0.13329233,0.1391969,0.11357439,0.16077861,0.030113611,0.09237503,0.080182984,0.13641395,0.087225944,0.15242371,-0.06338394,-0.0033585932,0.23171619,0.022287533,0.28849104,0.2347307,0.0041097812,0.10606441,-0.026596136,-0.016407281,0.24445741,-0.032969106,-0.004996583,0.2600932,-0.021604273,0.14075565,-0.053284936,-0.013111286,0.3286646,0.097317904,0.16279657,0.049832355,0.07523897,0.035646852,0.12933858,0.12902924,0.114648655,0.0665153,-0.038229175,0.10192806,-0.054348342,0.023535289,-0.025716793,0.14899969,0.05831837,0.3280931,0.25062028,0.15992752,0.1981526,0.0042051673,-0.0038511492,0.09491612,0.2729329,0.13057733,0.10309162,-0.063202664,0.17549217,-0.0023543425,0.3560088,0.0764466,0.15169807,0.047566336,0.061757557,0.6147532,-0.02438407,-0.028734,0.04291247,-0.00014757365,0.27909195,-0.062524594,0.014708608,0.06674198,0.1519472,0.3024754,-0.021056736,0.046243176,0.2956356,0.20375206
ABT,0.04438792,0.057099305,-0.039362088,0.12410256,0.19422182,0.061937142,-0.057301126,-0.08639774,-0.043947674,0.105589576,-0.032894813,-0.019404508,0.08694051,0.18269745,-0.058443412,0.09771335,0.21132536,0.02355304,-0.0154575035,0.2011941,-0.02786809,0.13087285,0.009489871,0.13877916,0.11323567,0.16433749,-0.015648551,0.05756933,0.078302935,0.12752539,0.054779474,0.013232332,-0.08183646,-0.01805107,0.036795676,0.01931372,0.24871594,0.2205103,0.0036941096,0.10017451,-0.033206493,-0.045638684,-0.030774616,-0.03602481,-0.0136343725,0.23206855,-0.032565996,0.12291383,-0.055073347,-0.020551503,-0.0015685856,0.089787595,0.1610263,0.044897884,0.010716915,0.031246375,0.09597244,0.093917884,0.07438783,0.03265088,-0.047388777,0.092010215,-0.06372754,0.0140167475,-0.029703002,0.1510601,-0.025744764,0.32865942,0.2252186,-0.030263571,-0.056959596,-0.043630272,-0.0064630285,0.086603254,0.029148756,0.12542684,0.096017174,-0.06962864,0.17098126,-0.004068669,-0.053161882,-0.010665223,0.026273042,0.024361664,-0.040746104,0.01027596,-0.029026749,-0.029611217,0.03733793,-0.034903154,0.01918085,-0.06452601,0.0068176165,-0.016069494,0.13896248,0.053542066,-0.031747222,0.040244937,-0.007160485,0.06299651
ACN,0.04719101,0.054689933,-0.03195065,0.08432631,0.19412357,0.06213475,-0.05705931,-0.08687668,-0.045922093,0.10533911,-0.032796323,-0.02889464,0.08758272,0.17773089,-0.05876202,0.11552097,0.21150367,0.023939721,-0.015551351,0.20478466,-0.017424883,0.13157137,0.00348752,0.13722038,0.11417129,0.16240543,-0.00054731965,0.05527323,0.07773374,0.12696692,0.059302285,0.039968617,-0.0797686,-0.017235445,0.035686225,0.020367518,0.2615002,0.224732,0.004038308,0.10054217,-0.033737775,-0.056034643,-0.0260745,-0.03592292,-0.00834438,0.23126765,-0.028545992,0.12747511,-0.055532433,-0.021524169,0.042018186,0.09053439,0.16169876,0.04626082,0.0023991875,0.031012885,0.09908265,0.10804449,0.074046746,0.032498553,-0.05539695,0.092155196,-0.063144594,0.013965301,-0.029147815,0.1579912,-0.020887194,0.32742485,0.22477423,-0.030730475,-0.043298,-0.027562857,-0.0071199387,0.08759739,0.036211587,0.12568036,0.09775052,-0.069093496,0.17042075,-0.005032573,-0.0059551857,0.000584038,0.03872236,0.030515432,-0.026686102,0.07965039,-0.028130393,-0.029180681,0.038178958,-0.03518949,0.027943373,-0.06462822,0.007677108,-0.025825012,0.13537881,0.038395666,-0.032405313,0.039206743,0.018148731,0.076791085
ADI,0.044555873,0.062539,-0.021110844,0.1335036,0.19794257,0.061959673,-0.054849803,-0.08461222,-0.043138992,0.10834753,-0.03214363,-0.024728583,0.089783266,0.17983824,-0.05759653,0.114069,0.21127272,0.02457641,-0.017690971,0.20723931,-0.009634007,0.13217482,0.012285113,0.13918126,0.112539686,0.1538584,0.004695013,0.06090134,0.08163528,0.12963933,0.056698617,0.022405108,-0.077392176,-0.018545294,0.06204994,0.021122057,0.26493716,0.2221083,0.0034798793,0.10228291,-0.0327611,-0.04234895,-0.019557241,-0.033666637,-0.015220216,0.23266174,-0.030376978,0.13053451,-0.054419674,-0.019954327,0.007442195,0.0902936,0.15977913,0.04713255,0.01619183,0.030734658,0.10072344,0.112812325,0.07382685,0.033510916,-0.053538058,0.09133207,-0.064187616,0.014390886,-0.02769477,0.14902648,-0.009681481,0.32928574,0.22640488,-0.014997117,-0.045878068,-0.026171032,-0.0069695823,0.08761977,0.06695723,0.12729488,0.098156855,-0.06715214,0.17103821,-0.0044567864,-0.02883121,0.009702679,0.047645643,0.02912625,-0.027973864,0.04938379,-0.026366152,-0.030007327,0.038207255,-0.0343875,0.0391389,-0.06369132,0.01012437,-0.0119108725,0.13701989,0.07441507,-0.031236377,0.04276687,-0.0005466528,0.09475372
ADM,0.044493377,0.061227374,-0.02181685,0.11016397,0.1951319,0.06178496,-0.06098023,-0.08693482,-0.047416516,0.10553051,-0.035738997,-0.021201842,0.08680753,0.1847886,-0.05911905,0.1027138,0.20935646,0.022953108,-0.015552461,0.19983418,-0.04603345,0.13104656,0.013789211,0.13809411,0.10992183,0.16534199,-0.01077329,0.060337916,0.07843159,0.1261853,0.057276234,0.0005908739,-0.07783255,-0.018276615,0.049892124,0.018116474,0.25200891,0.21942864,0.004553538,0.102792695,-0.031289183,-0.06312097,-0.0095001105,-0.04083925,-0.018641312,0.2313358,-0.031060126,0.12411051,-0.05930005,-0.01850852,-0.023844127,0.088622764,0.16079912,0.04375814,-0.010613374,0.03161283,0.094868064,0.09274224,0.07260844,0.03216114,-0.06162263,0.09186134,-0.06275512,0.014040306,-0.03030352,0.14012304,-0.024968956,0.32690468,0.22515862,-0.030268382,-0.042278267,-0.046497285,-0.006256249,0.08790947,0.05208413,0.12508954,0.09501517,-0.07152513,0.16992575,-0.0039084014,-0.03765076,-0.02249812,0.0085152425,0.02290281,-0.04356435,0.022891559,-0.029357085,-0.029887857,0.03628259,-0.03481458,0.018399514,-0.06489849,0.0039995834,-0.020653766,0.13672245,0.054956175,-0.0326406,0.039733313,-0.00056502223,0.08661043
ADP,0.046675593,0.055681963,-0.040450096,0.06475526,0.19306102,0.06214452,-0.054706506,-0.08658019,-0.04447108,0.106700905,-0.032310493,-0.027137818,0.08599594,0.17779842,-0.05785114,0.10780941,0.21111819,0.022977263,-0.016078547,0.20199129,-0.020511765,0.13025537,0.0051154606,0.13780296,0.112509325,0.1647862,-0.004532255,0.059325933,0.07932468,0.12768799,0.05428757,0.013095392,-0.07950924,-0.017126516,0.010136906,0.019155301,0.2558648,0.22321363,0.0041918196,0.10139482,-0.034210827,-0.055777848,-0.0373016,-0.03385092,-0.015393816,0.2302499,-0.031338133,0.12494694,-0.054796174,-0.019230928,-0.0053077117,0.09065776,0.16141045,0.04658681,0.0008382164,0.033006523,0.097526066,0.100945845,0.0723664,0.03069232,-0.05258344,0.091821685,-0.06383406,0.013706647,-0.028011724,0.14628232,-0.032878242,0.32745814,0.22641435,-0.038031608,-0.06348985,-0.03638865,-0.0057103727,0.08688718,0.021527348,0.12485217,0.09743423,-0.06756626,0.16975912,-0.0044009853,-0.04420089,-0.009393491,0.013433851,0.024819707,-0.026606563,0.03133598,-0.028126916,-0.02980004,0.037863836,-0.03394965,0.01567369,-0.06334182,0.007929813,-0.029920483,0.13653046,0.012897864,-0.034452748,0.040683955,-0.0046893433,0.059430666
ADSK,0.04718224,0.070174545,-0.010486745,0.45062903,0.19707343,0.062079996,-0.033369813,-0.085054815,-0.043586522,0.10992145,-0.031749953,0.023140458,0.08845164,0.18061738,-0.059799768,0.14207356,0.21336704,0.029273398,-0.015244387,0.20974115,-0.0038639065,0.14108595,0.018957205,0.13791649,0.11499682,0.15788722,0.053649526,0.061763108,0.0831597,0.12763591,0.0609758,0.030674426,-0.07542294,-0.017558808,0.21008426,0.020115107,0.29765466,0.235499,0.0047058817,0.101408005,-0.03548493,0.013425119,0.008020066,-0.030878564,-0.008942038,0.23828773,-0.022314252,0.14596131,-0.054785244,-0.020371605,0.010360792,0.09110459,0.16292356,0.05521948,0.014359493,0.031012468,0.10416937,0.14945179,0.07401037,0.032090098,-0.042504758,0.092286974,-0.06291297,0.014872886,-0.02465517,0.1484755,0.08931081,0.33114994,0.2309913,-0.02006267,-0.031493552,0.019707073,-0.0074873716,0.08793342,0.20889644,0.12647015,0.10866851,-0.05115061,0.1744431,-0.0038809646,-0.007960841,0.1067314,0.2069206,0.031758554,-0.012942944,0.07712456,-0.010725444,-0.028464777,0.03903023,-0.030968256,0.036955006,-0.063016385,0.021777503,0.042252038,0.13785134,0.2774693,-0.015755435,0.04220411,0.019206539,0.16530406
AEE,0.04803715,0.047127903,-0.048457395,0.076319985,0.18990502,0.062594354,-0.060917605,-0.086330906,-0.04729085,0.105260044,-0.033863153,-0.028728195,0.085214294,0.17540184,-0.05916071,0.098950684,0.20912173,0.022071037,-0.013298705,0.20010768,-0.026934765,0.13136744,-0.0067508454,0.1383966,0.10957444,0.16589633,-0.0006032251,0.052213743,0.07777871,0.12541617,0.05648168,0.012943495,-0.08252829,-0.016578,0.01247884,0.017375711,0.2491796,0.21957757,0.0039503574,0.100652486,-0.030196179,-0.05611474,-0.042718127,-0.039747193,-0.01587953,0.22801526,-0.029700771,0.12396969,-0.058263436,-0.020861134,-0.008306015,0.087987155,0.16007689,0.043793283,-0.0035412908,0.031392965,0.095467314,0.092162386,0.073295,0.03336758,-0.06250702,0.09023112,-0.062538885,0.014028475,-0.031018756,0.1435301,-0.028369492,0.3286366,0.22382556,-0.03970997,-0.067849375,-0.03703977,-0.006198637,0.087947175,-0.0031775432,0.12335385,0.095383555,-0.069240205,0.16967951,-0.005473336,-0.042228106,-0.0055136792,0.027693726,0.0254401,-0.029766362,0.02643831,-0.030398108,-0.028917434,0.035413176,-0.033742845,0.01095134,-0.0650996,0.008582272,-0.040127065,0.13469002,0.031860936,-0.030622914,0.04018727,-0.007397324,0.04013952
AEP,0.047323696,0.053040415,-0.041900195,-0.018702768,0.19001995,0.06248066,-0.061679926,-0.086384505,-0.046694234,0.105733305,-0.03492159,-0.03391243,0.086104706,0.17703913,-0.05805385,0.100980006,0.2091131,0.022601672,-0.01606986,0.19939452,-0.038254477,0.12965247,-0.008356607,0.137563,0.10994321,0.16260053,-0.016967312,0.05466436,0.0759585,0.12552671,0.05695896,-0.0008358564,-0.08391584,-0.017300613,-0.017577555,0.017207403,0.24630381,0.2205383,0.0038809162,0.10043232,-0.02946145,-0.06865695,-0.04979053,-0.040755734,-0.016267236,0.22848946,-0.031818837,0.122747004,-0.058995508,-0.019921824,-0.029364884,0.08868374,0.15991804,0.042474538,-0.0050380304,0.030898016,0.09569241,0.088751554,0.07274282,0.03273104,-0.06495182,0.09049442,-0.0635152,0.014070369,-0.031757727,0.14055897,-0.058447383,0.32794297,0.22221665,-0.053557616,-0.08352742,-0.052005373,-0.0055015646,0.08805617,-0.008403084,0.12330491,0.09605315,-0.06987661,0.16921663,-0.0050515383,-0.0729906,-0.035882834,-0.02659867,0.022591831,-0.041556373,-0.015724614,-0.030489692,-0.029124266,0.035474688,-0.03401549,-0.008455411,-0.06567663,0.00833394,-0.0420143,0.13468593,-0.026818514,-0.037306752,0.03700243,-0.02399303,0.040734723
AES,0.046607897,0.052422293,-0.03645719,0.16826755,0.19491744,0.062559426,-0.0576981,-0.08602589,-0.04204031,0.10557097,-0.033112068,-0.0013881344,0.08740002,0.17687541,-0.058082547,0.1141181,0.2106818,0.025328912,-0.0153923035,0.20415702,-0.008853348,0.13334629,0.0028644893,0.13704485,0.1187605,0.16123362,0.006980911,0.056799013,0.07808117,0.12665677,0.060535856,0.024611663,-0.08063349,-0.017517809,0.057032753,0.019278489,0.2641871,0.22231516,0.0035991762,0.100191936,-0.030657321,-0.037553944,-0.0311036,-0.03387265,-0.0080606155,0.23043777,-0.031716734,0.13192447,-0.057595666,-0.024163049,0.010891728,0.0894814,0.16254446,0.047326125,-0.002751451,0.030803401,0.101972096,0.111589864,0.07674489,0.030518305,-0.05746402,0.091194354,-0.062638275,0.013745815,-0.028968614,0.15125512,-0.0007856833,0.3287422,0.22694498,-0.028924927,-0.053348742,-0.02646086,-0.0071944576,0.08734629,0.05446416,0.12615976,0.101275995,-0.06848453,0.16984007,-0.0061938614,-0.020151008,0.020949379,0.07098146,0.02958807,-0.02523116,0.06681904,-0.02545644,-0.028979862,0.034883276,-0.031693935,0.029565081,-0.06503239,0.00967066,-0.026106471,0.13470416,0.09108586,-0.030252814,0.04393865,0.009293489,0.069548264
AFL,0.045505024,0.06343494,-0.016780324,0.116655335,0.19584668,0.06215772,-0.058010887,-0.08711674,-0.03840384,0.106199324,-0.032758124,-0.030665595,0.08592361,0.18119255,-0.05840987,0.10105606,0.20916401,0.022802792,-0.016393498,0.19965598,-0.031156348,0.13003664,0.012472097,0.13769971,0.10916766,0.16169754,-0.009119716,0.054312162,0.076483764,0.12699953,0.053701244,0.0329339,-0.0809485,-0.01711196,0.029419102,0.020180088,0.24735658,0.2208666,0.004322557,0.100715466,-0.0325846,-0.059588887,-0.010394925,-0.037848227,-0.018540984,0.23569384,-0.031861328,0.12336548,-0.0564449,-0.020203684,0.04103738,0.0880886,0.1594453,0.04465969,-0.003794713,0.03203906,0.09602587,0.09238786,0.07360782,0.03349161,-0.057845145,0.09092473,-0.06336087,0.014208823,-0.030259326,0.13867837,-0.020386126,0.32659766,0.22165959,-0.03398478,-0.035030488,-0.036565438,-0.006016277,0.08748692,0.011044611,0.12498622,0.095034584,-0.06944043,0.17023718,-0.0045057107,-0.011690207,-0.0002699569,0.043844745,0.024601134,-0.041878216,0.07429845,-0.030077266,-0.02934439,0.03714148,-0.025813837,0.030246109,-0.0639684,0.007324498,-0.03394056,0.13493626,0.05260164,-0.031226186,0.04198437,0.027765576,0.04986526
AIG,0.046438925,0.07950891,0.004544232,0.14532486,0.19666754,0.061346434,-0.054664817,-0.08663136,-0.043122876,0.107553676,-0.03223008,-0.025559835,0.08742133,0.18547516,-0.060471922,0.10218455,0.21197225,0.023266714,-0.017861053,0.2020246,-0.0031496547,0.13006458,0.03377509,0.13721383,0.11156843,0.16096926,-0.012632225,0.06137137,0.0802394,0.12667757,0.05741189,0.02428113,-0.07974538,-0.017585877,0.07029013,0.019116487,0.24988627,0.22157863,0.004043985,0.10214883,-0.033665545,-0.057702877,0.023246543,-0.035505652,-0.015299985,0.23282778,-0.030861627,0.121582195,-0.053671837,-0.019986823,0.029681887,0.08901866,0.16015339,0.046561986,0.0038768835,0.032316685,0.10019657,0.09088868,0.07477921,0.03128452,-0.057990022,0.091218,-0.062393103,0.013955429,-0.027719263,0.14805275,-0.012350767,0.3286342,0.22600414,0.0035237651,0.0007383488,-0.045213547,-0.006036464,0.087841325,0.07268484,0.1262396,0.09717226,-0.06804219,0.17179352,-0.004235128,0.026645258,-0.0137233175,0.017535776,0.02996952,-0.036125075,0.11581084,-0.028987573,-0.028846124,0.03755392,-0.03293349,0.062201135,-0.06469968,0.00892818,-0.011868646,0.14134221,0.08058366,-0.03358873,0.043423243,0.03393637,0.09967142
AIZ,0.04609663,0.05390532,-0.036265694,0.18446301,0.1941285,0.062035214,-0.057977334,-0.08798529,-0.04533953,0.1089015,-0.0326804,-0.033529907,0.09050016,0.17982414,-0.05901645,0.111796156,0.21202984,0.02418467,-0.015223712,0.20169918,-0.04118552,0.1307731,0.002493416,0.13828036,0.11245199,0.16367182,-0.006491028,0.06420434,0.08565159,0.12831098,0.053923372,0.009748766,-0.08108764,-0.014983486,0.09158955,0.019733131,0.2595205,0.22548367,0.0039940104,0.100944445,-0.03372995,-0.054245465,-0.034812894,-0.036747675,-0.015335174,0.23214026,-0.029381849,0.12634397,-0.054905377,-0.021667544,-0.012833547,0.08787212,0.16018255,0.04578269,-0.007518593,0.033810772,0.0949259,0.10220337,0.07373091,0.032086644,-0.05278623,0.09343676,-0.06311849,0.016222537,-0.029812463,0.14676017,-0.01025177,0.32896233,0.2358886,-0.055094436,-0.07225732,-0.039058223,-0.006626174,0.08813462,0.109142765,0.1258507,0.09954117,-0.06971687,0.17064102,-0.0055097714,-0.065900646,-0.0068589523,0.023173764,0.026135238,-0.04080259,-0.011471383,-0.030777182,-0.02913881,0.037008464,-0.033610888,-0.0075081065,-0.06529542,0.008127712,-0.00014658086,0.13545218,0.113886446,-0.031948514,0.04027532,-0.018403303,0.108518034
AJG,0.045150988,0.05627694,-0.037794273,0.14964357,0.19351253,0.06226532,-0.050733604,-0.0871012,-0.0465241,0.10654589,-0.03176739,-0.029763892,0.086451314,0.17933601,-0.058280915,0.100087315,0.20981193,0.0254611,-0.0148554295,0.20079759,-0.053994957,0.13023052,0.0035775276,0.13827062,0.11104224,0.16168568,0.01324654,0.055389214,0.07822355,0.12657146,0.054199196,0.0024884045,-0.07917719,-0.01618485,0.051175833,0.019605383,0.2569971,0.22079569,0.0034318436,0.10163312,-0.03295908,-0.041427918,-0.028482163,-0.03516771,-0.016744234,0.23141015,-0.023970332,0.12439494,-0.055389352,-0.020241138,-0.025866926,0.08912204,0.1623467,0.049376167,-0.0048634727,0.032181587,0.09377298,0.09840546,0.07326454,0.031572808,-0.05763837,0.09092595,-0.063709304,0.014007829,-0.02922707,0.14230059,-0.0053299777,0.32370323,0.22363417,-0.050536603,-0.06826277,-0.031692423,-0.006025782,0.08731286,0.044986352,0.124457814,0.09486988,-0.068936884,0.1699461,-0.0047248118,-0.06541107,0.018805485,0.059475336,0.024750818,-0.046804637,-0.020549953,-0.02583313,-0.030056546,0.0361498,-0.03563951,-0.013213515,-0.062732294,0.0070079714,-0.025466252,0.13658693,0.07822352,-0.027608141,0.039012417,-0.02050113,0.07073163
AKAM,0.049598344,0.06426188,-0.01784503,0.52228975,0.19835998,0.062094733,-0.033165477,-0.08473933,-0.045143824,0.10897057,-0.03282118,0.018559802,0.087928936,0.18080026,-0.05811332,0.12841097,0.21200429,0.027138188,-0.016714968,0.20145151,-0.023265718,0.13317922,0.018061686,0.1388612,0.11425966,0.16225737,0.051008485,0.059425917,0.08183243,0.12622601,0.05660551,0.014071642,-0.07716785,-0.018590536,0.2485916,0.018659078,0.26462933,0.22194114,0.0028712954,0.10229868,-0.033546474,0.016533323,-0.0039617307,-0.035120703,-0.014330745,0.23404843,-0.02225066,0.13102153,-0.053672694,-0.019401979,-0.005944196,0.091888934,0.16356355,0.061032973,-0.0011824612,0.030644609,0.09914993,0.14897631,0.072510906,0.031662494,-0.029931787,0.09184791,-0.06295297,0.014101267,-0.029038947,0.14876783,0.111920126,0.32814986,0.23074555,-0.038882874,-0.04701064,0.029420555,-0.006116301,0.08718416,0.24755855,0.12619697,0.100052066,-0.042937767,0.17124179,-0.0039758403,-0.034075756,0.12641953,0.24220851,0.0270713,-0.03327863,0.029847648,-0.016406938,-0.029476123,0.038746685,-0.034128968,0.011862785,-0.06508702,0.027716935,0.054086775,0.13664097,0.32480437,-0.012269674,0.042732805,0.004645977,0.19123653
ALB,0.046962008,0.08130603,0.016751043,0.24282598,0.2020724,0.062148098,-0.05793616,-0.08790629,-0.044102937,0.111192346,-0.033406857,-0.02017301,0.08972123,0.18586731,-0.058139704,0.104280606,0.2107762,0.026016008,-0.012481287,0.20684117,0.013869533,0.13600984,0.024945889,0.13849483,0.11518094,0.16294248,-0.0032763109,0.07413167,0.08426673,0.13302633,0.05906565,0.05561122,-0.0779051,-0.01565571,0.120144136,0.020491801,0.25343972,0.22125927,0.0031721443,0.10272527,-0.03267442,-0.04415771,0.018900122,-0.035778373,-0.0015148483,0.23604855,-0.031092593,0.13226368,-0.054933812,-0.016246304,0.085014164,0.0870191,0.16365045,0.046610393,0.018610809,0.032135133,0.103391066,0.10182987,0.07518709,0.03540173,-0.055749163,0.09439204,-0.06294328,0.020516746,-0.028641228,0.17014521,0.0024589002,0.33666125,0.24266744,-0.0029284917,-0.015615698,-0.033186093,-0.0044021867,0.08884621,0.14592943,0.12787151,0.099957414,-0.06966197,0.17247716,-0.003098581,0.04173303,0.01637888,0.050550513,0.03738416,-0.0046180747,0.15528655,-0.026972327,-0.02929345,0.038859084,-0.03214916,0.065948516,-0.067384124,0.010853536,0.0124973785,0.13813128,0.15486363,-0.030317696,0.043000817,0.057648282,0.13085589
ALGN,0.046799265,0.1704751,0.20608963,0.46715707,0.23097712,0.062420778,-0.050396055,-0.082242385,-0.026175344,0.12742227,-0.027389964,-0.02524817,0.09632883,0.22850253,-0.05229717,0.11605881,0.21365677,0.028232284,-0.00200288,0.20521514,0.21994027,0.1408321,0.13933082,0.14150713,0.117205456,0.15949956,-0.0028027669,0.09035605,0.08633794,0.13962813,0.09425737,0.15786377,-0.059072137,-0.003136877,0.23921515,0.023538373,0.26534122,0.22877677,0.00348288,0.10267635,-0.022525255,-0.011399232,0.2525435,-0.02851251,-0.0055790003,0.26627636,-0.028134186,0.1278365,-0.050095063,-0.014476877,0.3367352,0.09759997,0.164967,0.04927227,0.08294128,0.035250634,0.13053377,0.10828181,0.114915475,0.06507048,-0.04062633,0.100160524,-0.053008147,0.025183052,-0.02491571,0.16276334,0.06464074,0.33708844,0.25264293,0.16853984,0.20855245,-0.0024556406,-0.004994765,0.093186095,0.28398037,0.13366531,0.1057313,-0.06475069,0.1789786,-0.002977481,0.37324893,0.08385586,0.15948987,0.057687137,0.068656415,0.6352558,-0.027158624,-0.028730677,0.045990214,-0.002301626,0.28893664,-0.061267834,0.013178401,0.07004321,0.15115377,0.31234437,-0.029010963,0.041441157,0.30357668,0.2137433
ALK,0.044207968,0.052058317,-0.013339486,0.24051362,0.19329178,0.062220156,-0.055403437,-0.086442485,-0.042702753,0.107207224,-0.0337322,-0.014406316,0.08696471,0.18237025,-0.0568526,0.11870374,0.21441501,0.025943022,-0.0136736855,0.20546451,-0.011594342,0.13534093,-0.0002424065,0.13783106,0.12127079,0.16446584,0.008681454,0.05951681,0.078446046,0.12723881,0.06187201,0.035297114,-0.081914715,-0.018438794,0.09591447,0.018403698,0.26523924,0.22486782,0.0032418557,0.1027608,-0.031444058,-0.03356438,-0.025550602,-0.03822141,-0.0072883535,0.23108241,-0.023764687,0.13116997,-0.056330994,-0.019143749,0.036733307,0.08977545,0.16093393,0.048891217,0.012641959,0.030576676,0.102975935,0.1136073,0.07413748,0.03504603,-0.04971428,0.09187023,-0.06378805,0.015864193,-0.031301886,0.15761517,0.019111019,0.3341391,0.22665082,-0.020066805,-0.04782272,-0.014394119,-0.0063067675,0.087100446,0.08351825,0.12652649,0.10086165,-0.06129444,0.17133531,-0.004291717,-0.004974626,0.036669172,0.107275024,0.032951713,-0.02715864,0.072055094,-0.025365965,-0.03028048,0.03562028,-0.02899873,0.027107187,-0.06593385,0.007302709,-0.009346724,0.13596815,0.13443832,-0.02492175,0.042100437,0.01843236,0.08982953
ALL,0.04533387,0.05589148,-0.02937818,0.10696317,0.19290605,0.062061712,-0.05917979,-0.086370915,-0.04055247,0.107178494,-0.032703586,-0.031015685,0.08730735,0.18013217,-0.058431804,0.096010566,0.21032801,0.022920657,-0.01645714,0.20041998,-0.014650917,0.12992302,-0.002222916,0.13812982,0.112606004,0.16201024,-0.016446922,0.060861934,0.08400946,0.1264602,0.055351347,0.03480939,-0.08160651,-0.018524988,0.053675033,0.018225964,0.245461,0.21818976,0.0034381691,0.10192335,-0.032304205,-0.05934465,-0.027370645,-0.038208462,-0.010250019,0.22951284,-0.032987542,0.123235434,-0.054329578,-0.01956134,0.03415388,0.08907915,0.15924269,0.044090714,0.0064694807,0.032622185,0.10106714,0.08876551,0.07217832,0.031192835,-0.05515016,0.09162794,-0.0635428,0.013786465,-0.030536667,0.14787257,-0.035332203,0.3296009,0.23095936,-0.025512263,-0.04220064,-0.052061185,-0.006114647,0.086999685,0.06472805,0.12501903,0.09528377,-0.07034862,0.17024067,-0.0044290554,-0.011288825,-0.028304344,-0.005948808,0.027698062,-0.02944937,0.07193123,-0.030713804,-0.029251536,0.037186593,-0.033242658,0.024205856,-0.065576576,0.008348376,-0.018808994,0.13469781,0.06351648,-0.03194101,0.040133387,0.021584224,0.08342241
ALLE,0.047009513,0.051191747,-0.043716833,0.24656871,0.19352415,0.062521465,-0.056539275,-0.08747488,-0.04559084,0.10545221,-0.03419056,-0.019242704,0.08618264,0.17841122,-0.058405787,0.10006979,0.2098021,0.02379721,-0.01549682,0.20039451,-0.03408218,0.13193925,0.0025821775,0.13886952,0.11248041,0.15569372,-0.0070046596,0.07285043,0.07759112,0.12718248,0.0542498,0.020843418,-0.07463482,-0.017479548,0.12530445,0.018327862,0.24783494,0.22220877,0.0035125874,0.101646036,-0.032021925,-0.048744522,-0.03567644,-0.037273914,-0.01565592,0.23178348,-0.03135094,0.12583175,-0.05642872,-0.020387277,0.011376258,0.0892652,0.16459633,0.046841763,-0.008737657,0.031837426,0.09970576,0.08969682,0.07319538,0.032033794,-0.05507879,0.09158966,-0.06377109,0.019364804,-0.028604202,0.14676318,0.0032062111,0.33061025,0.23106527,-0.046720967,-0.063850924,-0.03628352,-0.0060354844,0.08792392,0.15475506,0.12419031,0.09805573,-0.06894113,0.16936803,-0.00494555,-0.041265987,0.01230821,0.054207876,0.030381262,-0.035689272,0.024082892,-0.02557521,-0.02952717,0.037616603,-0.035469547,0.0021635816,-0.06483327,0.0068770014,0.019903876,0.13763422,0.16294602,-0.034893807,0.039910965,-0.011863038,0.13335674
AMAT,0.04506758,0.058714654,-0.012993378,0.27728823,0.19882257,0.06222616,-0.05367654,-0.084621064,-0.035843074,0.10796347,-0.03132786,-0.012239944,0.089403,0.18306726,-0.05905264,0.11555338,0.21510784,0.028009783,-0.012237608,0.20841463,0.008548958,0.13349119,0.014281629,0.13925304,0.11503201,0.16058761,0.0041751005,0.071233004,0.08593289,0.129484,0.062625766,0.052602116,-0.07160445,-0.01267384,0.13753104,0.024483778,0.26416603,0.22466062,0.0041914918,0.10464906,-0.03405453,-0.04194117,-0.0078003015,-0.031284094,-0.00701046,0.23635553,-0.02976058,0.12843198,-0.053863496,-0.020277083,0.06269352,0.09008902,0.16143492,0.048215,0.018750966,0.030301087,0.10821243,0.11383054,0.07327213,0.034372985,-0.048443634,0.092191435,-0.05947443,0.021197982,-0.021534227,0.1598965,0.034942128,0.33294865,0.23438542,-0.014935056,-0.028814934,-0.019649617,-0.006865686,0.088139296,0.1594673,0.1280882,0.100999705,-0.06703316,0.17115599,-0.0049792808,0.02351312,0.02727026,0.079825535,0.038603395,-0.015352614,0.1119367,-0.027381608,-0.029423198,0.04229466,-0.03179294,0.04457885,-0.06282181,0.012058392,0.029605573,0.1394392,0.1701329,-0.027244285,0.04276246,0.036167115,0.14639696
AMCR,0.044659525,0.060373504,-0.025052905,0.1345625,0.19737172,0.061823346,-0.058346655,-0.0876903,-0.044227384,0.10711421,-0.034162115,-0.025629856,0.08659439,0.18048945,-0.059772573,0.12349195,0.21005362,0.024100982,-0.019065596,0.20260434,-0.025553945,0.13060412,0.013022547,0.1371884,0.11329739,0.1591536,0.0041822493,0.05635538,0.07923654,0.12737972,0.05519406,0.028908907,-0.08253613,-0.017842598,0.05658305,0.018391337,0.26723665,0.22752382,0.0037523862,0.10118389,-0.03173968,-0.044776108,-0.0105883945,-0.037871294,-0.012896134,0.23435828,-0.02693923,0.12686977,-0.056535695,-0.021043401,0.022191033,0.08898311,0.15954518,0.044647492,-0.0051559024,0.029611066,0.09724727,0.11721208,0.07470638,0.030881733,-0.04771208,0.09116039,-0.061988436,0.013668239,-0.03004735,0.15489939,-0.0045041163,0.33218688,0.22710878,-0.04072178,-0.05323404,-0.020967748,-0.0064104404,0.08887931,0.061265558,0.12609795,0.10040438,-0.06977433,0.171854,-0.0043252558,-0.027963199,0.018448863,0.06458858,0.03192753,-0.033559732,0.040955663,-0.028110018,-0.030449165,0.035346925,-0.035342082,0.008065052,-0.06522886,0.007442057,-0.015525421,0.13749588,0.06823306,-0.029002815,0.04145564,0.0002197288,0.093437925
AMD,0.05084838,0.08342647,0.04993,0.6580117,0.20370872,0.062037256,-0.040337138,-0.085860215,-0.039650787,0.11997953,-0.02657463,0.008961352,0.0999534,0.18707928,-0.058241703,0.15086776,0.22260581,0.030732565,-0.009462684,0.2119006,0.101745784,0.1392703,0.038223974,0.13958219,0.11701628,0.15796515,0.048484173,0.09063919,0.10334834,0.13394895,0.08897294,0.086946845,-0.05795417,-0.0133407395,0.3428414,0.024554674,0.3058637,0.23911451,0.0058337357,0.10621551,-0.024871161,0.0250981,0.06640988,-0.019796913,-0.009834681,0.24232472,-0.007958811,0.14627711,-0.05107101,-0.007571064,0.15169181,0.091727436,0.16270448,0.05774743,0.045517206,0.0274207,0.123554274,0.14718124,0.09032624,0.03931021,-0.034347318,0.10222117,-0.06147035,0.024483368,-0.01049779,0.15603502,0.14784233,0.32985893,0.255619,0.046590973,0.03897129,0.042089224,-0.004687058,0.09035291,0.3703505,0.13229768,0.10909642,-0.057036728,0.17325425,-0.003992092,0.1378519,0.14505316,0.25912994,0.04394723,0.028108824,0.3066539,-0.02103731,-0.029771158,0.038515642,-0.027660511,0.14106719,-0.055988267,0.02857685,0.1066587,0.15442106,0.41833678,-0.015520068,0.048349716,0.12658009,0.27366713
AME,0.046024024,0.05166083,-0.03589815,0.11982231,0.19279273,0.062144086,-0.055532634,-0.08778077,-0.044834614,0.10624849,-0.032615304,-0.030986315,0.08859675,0.18324848,-0.05850864,0.100112304,0.21111122,0.022426784,-0.015128329,0.20240004,-0.02203683,0.13124558,0.002032306,0.13711439,0.11297268,0.16341689,-0.005773682,0.055934943,0.07874992,0.12920919,0.05457301,0.011134572,-0.07983862,-0.017481152,0.03041736,0.019643292,0.2491242,0.22093725,0.004396897,0.10087931,-0.034459576,-0.057738453,-0.036325805,-0.03416182,-0.015186422,0.231296,-0.030666653,0.12264663,-0.054784182,-0.022188589,-0.00994309,0.08845711,0.1610078,0.047122795,-8.063391e-05,0.031234682,0.10061094,0.09409669,0.07500255,0.032517355,-0.054335702,0.09167305,-0.06265173,0.013959609,-0.028155304,0.1496228,-0.017530289,0.3285975,0.22663513,-0.04153608,-0.06725343,-0.036447354,-0.006630428,0.088075794,0.025017764,0.124596834,0.09631017,-0.068221174,0.17007093,-0.0053676926,-0.04786539,0.003952544,0.045777775,0.025996879,-0.034682393,0.02619695,-0.029920407,-0.029868657,0.035887823,-0.034042522,0.009253643,-0.0644598,0.007964145,-0.031574633,0.13477208,0.05660511,-0.032966666,0.038454518,-0.00878112,0.053339068
AMGN,0.04509727,0.052479148,-0.03464472,0.12000076,0.19293237,0.061957326,-0.05241245,-0.086253,-0.044142883,0.1091578,-0.029873226,-0.02391031,0.09070522,0.18526465,-0.057611275,0.10197976,0.21075366,0.024520434,-0.016531445,0.20218717,-0.030200455,0.13149159,0.0031771678,0.1366193,0.11255883,0.16195467,-0.009902582,0.062392294,0.08343574,0.12662372,0.054470398,0.028496122,-0.07628232,-0.018012127,0.05783455,0.021054987,0.25124133,0.22085816,0.0033587627,0.10060187,-0.034363966,-0.052719276,-0.02902323,-0.032826923,-0.007215781,0.23071387,-0.029940404,0.12337696,-0.0518197,-0.019855775,0.025061555,0.090109915,0.16018717,0.048722964,0.0026434306,0.031776123,0.0979213,0.09608945,0.07355229,0.032870635,-0.05175814,0.092539996,-0.06325123,0.013957202,-0.027037349,0.14406665,-0.0332053,0.32568944,0.23625247,-0.031482857,-0.049681388,-0.044382624,-0.0054971576,0.086984485,0.0723455,0.12564017,0.09619423,-0.06572749,0.17040116,-0.004408654,-0.022849843,-0.02294104,0.005247552,0.02630189,-0.03201015,0.055420525,-0.027261298,-0.029671116,0.035934135,-0.03391704,0.015323728,-0.063178465,0.009307217,-0.013699187,0.13681507,0.06954183,-0.03388205,0.03992927,0.014961511,0.08400926
AMP,0.045599625,0.062374286,-0.025001757,0.08455517,0.19796786,0.06202598,-0.05996816,-0.08839839,-0.043592375,0.10783126,-0.03435536,-0.023442637,0.08786468,0.18337066,-0.057995386,0.10468055,0.21236788,0.025164064,-0.014326192,0.20221725,0.0012277756,0.13294637,0.0122211175,0.1368187,0.11295183,0.16137981,-0.0034608357,0.05960653,0.083792746,0.12706277,0.062301945,0.025246982,-0.08179953,-0.016956048,0.037835494,0.019390482,0.2521291,0.2221758,0.0032313485,0.101402715,-0.032214686,-0.055299923,-0.017677864,-0.038504098,-0.011240056,0.23852834,-0.027190752,0.12406609,-0.056350835,-0.019917551,0.018669646,0.089906275,0.16136277,0.046485376,0.002422616,0.031158416,0.10538265,0.094973005,0.07305889,0.03310296,-0.051492296,0.09219158,-0.063783795,0.016106196,-0.031158224,0.14774457,-0.02969908,0.32779798,0.22985187,-0.022578668,-0.047532793,-0.04368779,-0.006152924,0.0881377,0.04820939,0.12711161,0.09748127,-0.07134649,0.17013934,-0.004910823,-0.00548866,-0.014682077,0.01404421,0.031501114,-0.019746564,0.08380779,-0.02675804,-0.029090429,0.03754647,-0.035897456,0.03811285,-0.06568465,0.0036750697,-0.022058241,0.13622423,0.04361763,-0.03309436,0.040155515,0.019283306,0.07731067
AMT,0.048127033,0.05222083,-0.038957905,0.06865622,0.19426703,0.062303245,-0.058150753,-0.08576422,-0.046569094,0.10826019,-0.0319803,-0.035729,0.086269386,0.17639005,-0.058236435,0.09908157,0.21012864,0.023577303,-0.016940609,0.20036137,-0.048531584,0.1302565,0.0012606978,0.13918108,0.11149093,0.16154525,-0.01341543,0.057076883,0.078872144,0.12595373,0.054022923,0.011316615,-0.07938995,-0.016703956,0.014407035,0.017534073,0.24900024,0.22035177,0.0032191984,0.09897998,-0.030993454,-0.06089013,-0.032850854,-0.03710871,-0.015072159,0.2287709,-0.032584235,0.1227351,-0.055655293,-0.020787876,-0.008575089,0.08891134,0.16055356,0.044299982,-0.008152168,0.031171056,0.095924065,0.08915554,0.07332114,0.031156551,-0.061918624,0.09138823,-0.06318809,0.016156048,-0.030387446,0.1447077,-0.03383895,0.32769942,0.2255175,-0.050383236,-0.07519463,-0.041737296,-0.0058775954,0.087200105,0.017654266,0.124460384,0.096030205,-0.068163656,0.1704642,-0.0045575127,-0.06231189,-0.012417639,0.02131841,0.02863989,-0.045357887,-0.0010261983,-0.030176885,-0.028170047,0.03600274,-0.035258144,-0.009672865,-0.06354888,0.009791553,-0.03148094,0.13565446,0.020120833,-0.033746857,0.038495913,-0.016053371,0.04758459
AMZN,0.04449106,0.056413103,-0.019809917,0.24968049,0.19399017,0.061598495,-0.054772705,-0.0883853,-0.041486967,0.105456375,-0.031209828,-0.028592099,0.08580807,0.18502405,-0.05846229,0.10897501,0.21539654,0.02476345,-0.011399306,0.20555855,0.014075717,0.1327125,0.011208319,0.13794574,0.11683671,0.15716472,-0.005372327,0.05421927,0.07811001,0.12675633,0.061537877,0.026211517,-0.077856526,-0.018456575,0.10606536,0.019307636,0.25866047,0.22259198,0.003176093,0.101123735,-0.034206294,-0.026496205,-0.008837771,-0.033353444,-0.0123650655,0.23289317,-0.0290782,0.12731825,-0.05311627,-0.019745603,0.033647995,0.091991596,0.16377576,0.04697185,0.003937518,0.03141154,0.10553934,0.10369753,0.07429948,0.033813834,-0.038692504,0.0917964,-0.059828896,0.0127783865,-0.0278093,0.14922452,0.011349157,0.33041447,0.22260088,-0.00907369,-0.03616158,-0.020223856,-0.0064986795,0.088294566,0.10059242,0.12609334,0.0994748,-0.06564246,0.17207229,-0.0039656237,-0.005025707,0.026783183,0.087585196,0.031609353,-0.009795584,0.10490258,-0.027627546,-0.02925113,0.03605236,-0.034826607,0.047154114,-0.063596815,0.009933434,0.007929772,0.13838965,0.13766322,-0.025801567,0.040860698,0.03115074,0.11242099
ANET,0.050575525,0.15949634,0.19186854,0.24870758,0.21675096,0.061819486,-0.052949067,-0.083537966,-0.021432418,0.112232134,-0.029273381,-0.013319518,0.090174556,0.22591494,-0.047334976,0.13074929,0.21803911,0.029125772,-0.0018137097,0.20305008,0.17790397,0.1341419,0.11956325,0.13792095,0.1223585,0.17052099,0.0063566417,0.0710136,0.08273195,0.13467401,0.06738555,0.14325766,-0.074600145,-0.017790852,0.12305256,0.020802043,0.2729304,0.22729938,0.0032218862,0.10024821,-0.03512695,-0.042418472,0.21809831,-0.031933367,0.020428017,0.25753552,-0.025542544,0.13045557,-0.050813273,-0.020984862,0.29303616,0.09095164,0.16449028,0.0505177,0.065872386,0.034029536,0.11555825,0.11441847,0.102602795,0.06392538,-0.04707416,0.09870763,-0.060891822,0.022625454,-0.024339546,0.18299067,0.015251513,0.33656892,0.23085727,0.14991342,0.16497113,-0.013505053,-0.005693687,0.08922605,0.13142017,0.13329263,0.100337565,-0.06666674,0.17591113,-0.005415151,0.32074392,0.034294307,0.089621335,0.05576809,0.05481507,0.5527481,-0.027112853,-0.028599503,0.041764304,-0.0040888265,0.24515039,-0.064808235,0.014712825,0.012830958,0.14266022,0.15091124,-0.02570308,0.04711534,0.27364436,0.1363863
ANSS,0.045767717,0.052895494,-0.03715189,0.097512096,0.19615248,0.0620076,-0.052140757,-0.08642197,-0.044874944,0.10776756,-0.030706802,-0.02615518,0.08780652,0.18485457,-0.058541734,0.10488953,0.21176423,0.023880884,-0.017518535,0.20152771,-0.015637806,0.13100354,0.008603995,0.13944045,0.112088814,0.15734014,-0.01063291,0.06100311,0.08152546,0.12963131,0.05549833,0.018482236,-0.07564335,-0.017765012,0.03178771,0.019504592,0.25283504,0.22317672,0.003622258,0.10177186,-0.03387467,-0.050956428,-0.026962133,-0.03201424,-0.016215172,0.23204827,-0.030669793,0.12417705,-0.053380277,-0.020059232,-0.0013636313,0.0900909,0.16134813,0.049718168,0.004757341,0.03347122,0.10006814,0.09458356,0.07353788,0.03166242,-0.05322824,0.09203178,-0.06306699,0.0141451135,-0.026206758,0.14378542,-0.028238622,0.32598707,0.22603919,-0.031355757,-0.06287233,-0.03932043,-0.006700482,0.08728492,0.046767533,0.12567593,0.09711856,-0.06530004,0.17056699,-0.0039442163,-0.035856962,-0.0017380901,0.03312846,0.024529122,-0.021519508,0.04642508,-0.027977737,-0.029741498,0.038193285,-0.03442423,0.024169832,-0.063299686,0.010779712,-0.024077473,0.13470565,0.040684547,-0.030861815,0.038305447,0.0011570118,0.06690013
AON,0.044727147,0.07509392,-0.008804306,0.15482128,0.19397807,0.062274825,-0.0535631,-0.0875487,-0.04738422,0.10595119,-0.030841215,-0.03004343,0.08597821,0.1799982,-0.057570986,0.09871295,0.20939144,0.022774506,-0.017557688,0.20090479,-0.019420227,0.12996288,0.026876368,0.13780892,0.11173147,0.16166842,-0.011799306,0.055916525,0.0771384,0.12643743,0.05143991,0.012948662,-0.07741206,-0.016201027,0.07251455,0.020264458,0.24761893,0.2205949,0.0042319167,0.10162116,-0.03482572,-0.054131053,0.008618901,-0.033825316,-0.015020072,0.23239198,-0.030111467,0.12215869,-0.053748105,-0.01958545,0.010713838,0.089225404,0.16056487,0.049659796,0.0013219565,0.03260445,0.094466746,0.09103621,0.07320781,0.032446526,-0.06136597,0.09104481,-0.0640179,0.014237754,-0.027099244,0.14018106,-0.0053191334,0.3251041,0.22290318,-0.008543126,-0.014421407,-0.045277074,-0.006104484,0.087409824,0.081081726,0.12626114,0.09563859,-0.06666999,0.17301759,-0.0045671463,0.00810957,-0.0084110405,0.022860352,0.024576055,-0.041306414,0.0823151,-0.029275086,-0.029532103,0.03666167,-0.035748295,0.047798842,-0.06383945,0.009842403,-0.0074335895,0.13831986,0.09164402,-0.035972778,0.039305113,0.017819688,0.104468375
AOS,0.045192868,0.062920205,-0.026310515,0.18574236,0.19391468,0.06160023,-0.056681514,-0.08832303,-0.043642078,0.10890644,-0.032017052,-0.026269145,0.087922975,0.1810723,-0.059375126,0.10274276,0.21220973,0.023476731,-0.018133417,0.20270146,-0.0145334955,0.13071531,0.014741123,0.13751835,0.11306092,0.16350767,0.0038950145,0.05727859,0.0835111,0.12795293,0.056594577,0.0153808,-0.080344364,-0.01739164,0.06984664,0.02016003,0.25110808,0.22358651,0.0036956985,0.09932129,-0.033728786,-0.043226503,-0.013528636,-0.035735767,-0.0151265785,0.23119846,-0.029981703,0.12421693,-0.05400619,-0.021907054,-0.0024842806,0.08907269,0.16036208,0.04575741,-0.0033394434,0.0307884,0.10091169,0.10185762,0.074058615,0.031007152,-0.056598235,0.09121679,-0.06272411,0.014378965,-0.029303387,0.14688139,0.0072002616,0.32919982,0.22681113,-0.029160876,-0.041626938,-0.018981371,-0.0059589967,0.088168204,0.05233805,0.12638015,0.09663122,-0.069692835,0.17055893,-0.004978182,-0.036473304,0.020719998,0.07981007,0.025826227,-0.0320882,0.046770185,-0.029469764,-0.029901115,0.034983672,-0.03339997,0.018453613,-0.064594656,0.008435138,-0.022136308,0.13713798,0.100394085,-0.02865117,0.039453506,-0.00063860044,0.070613846
APA,0.047538444,0.080076106,0.06318727,0.55328757,0.20336659,0.061166342,-0.050440993,-0.086432226,-0.044135325,0.12243345,-0.031119077,0.0007081069,0.09767161,0.193581,-0.058220882,0.11525387,0.21397215,0.024762366,-0.011597,0.20183434,0.007518783,0.13827991,0.049259566,0.13702767,0.11486016,0.15760562,0.011031833,0.09118613,0.100663505,0.1392954,0.06200353,0.05062166,-0.052986912,-0.011629217,0.2810108,0.021129414,0.2623432,0.2317133,0.0057143643,0.109656096,-0.036910463,0.007201625,0.07390219,-0.03111973,-0.009812251,0.24061683,-0.024737485,0.12796023,-0.05418069,-0.0076047294,0.09995616,0.08993069,0.16255905,0.052458253,0.0035725161,0.026951246,0.10091202,0.10796854,0.07269036,0.051738087,-0.049784698,0.10051549,-0.053784892,0.025886491,-0.014060117,0.15812878,0.10889328,0.33188313,0.25958255,0.02331905,0.019131463,0.017244957,-0.004973093,0.089406095,0.32387304,0.12841265,0.10128061,-0.06591452,0.17531525,-0.003674904,0.08519801,0.12034123,0.21457565,0.032266717,-0.02686914,0.20594272,-0.028171876,-0.028809195,0.041421086,-0.02211627,0.08291049,-0.062106445,0.01231328,0.08097617,0.14115085,0.36492595,-0.030651644,0.04027029,0.10897043,0.24680427
APD,0.04628752,0.053536415,-0.03816117,0.058773436,0.19412883,0.06232406,-0.056320287,-0.087112516,-0.044619434,0.1069261,-0.032882854,-0.028901057,0.08735477,0.18168029,-0.05747928,0.09855822,0.21040219,0.023679607,-0.0145436,0.20132396,-0.052196562,0.12991786,0.003736565,0.13762979,0.113526575,0.16128905,-0.012175176,0.057141952,0.07718531,0.12597254,0.05344288,0.005845151,-0.08121206,-0.017883433,0.017952189,0.019033037,0.24726844,0.21980977,0.004112728,0.10127306,-0.033633616,-0.058592238,-0.027788391,-0.036156964,-0.014625922,0.23087989,-0.032625668,0.12261835,-0.054758545,-0.020931412,-0.015566338,0.088390335,0.15979914,0.045790665,-0.001486538,0.033334225,0.093408644,0.088046916,0.07474674,0.031214885,-0.056105573,0.09216175,-0.06318703,0.014063962,-0.028601121,0.14489356,-0.045890704,0.32698333,0.22464755,-0.050923035,-0.07226701,-0.04855525,-0.0065124296,0.08712905,0.039841283,0.12466252,0.09559419,-0.06872723,0.17039499,-0.005106915,-0.06750461,-0.028656889,-0.0061467476,0.023044232,-0.045427304,-0.016787626,-0.028560437,-0.03001655,0.037736617,-0.034397334,-0.009552091,-0.06595405,0.009084247,-0.021890145,0.13546418,0.027208671,-0.034378402,0.03937085,-0.020393949,0.056006968
APH,0.04500494,0.064146824,-0.017567635,0.040830232,0.1956942,0.062169906,-0.05497129,-0.08648994,-0.04565195,0.10952798,-0.030882685,-0.030488301,0.0879412,0.18302564,-0.058485843,0.09904875,0.2108014,0.022934552,-0.01595094,0.20048197,-0.012506021,0.13066031,0.014002475,0.13810183,0.112069994,0.16135901,-0.014487207,0.056681577,0.07878234,0.12854165,0.052716106,0.010572155,-0.07713711,-0.017144,0.010105226,0.019577473,0.25007918,0.219518,0.0034920275,0.1010096,-0.033778984,-0.055257604,-0.003661938,-0.03406901,-0.015432648,0.2342011,-0.03149418,0.123356506,-0.053011864,-0.020906594,-0.010018781,0.08859343,0.16059428,0.047784522,0.015463641,0.031097475,0.099805474,0.08938785,0.074699074,0.03219348,-0.055453315,0.09114319,-0.06308388,0.014053799,-0.028065681,0.14451969,-0.04512393,0.32549667,0.22757167,-0.017833397,-0.043915115,-0.044386394,-0.0065099746,0.087202966,0.019629002,0.12531517,0.0960627,-0.06721606,0.17044978,-0.0046853237,-0.026707016,-0.020272832,0.008745033,0.023138152,-0.036403347,0.04081314,-0.028696755,-0.029791461,0.037615307,-0.034291305,0.035128117,-0.06460829,0.010198686,-0.034776364,0.13575509,0.007782206,-0.034557536,0.038106523,0.008723743,0.052646577
APTV,0.045333974,0.06661774,-0.018690169,0.18422766,0.19778256,0.06188718,-0.053800248,-0.08638409,-0.04566973,0.11034812,-0.02969447,-0.026581578,0.08891936,0.19159669,-0.059394162,0.118101045,0.21438864,0.025116995,-0.016849652,0.20416719,-0.034042332,0.13117793,0.020400096,0.13683103,0.11281368,0.16351843,0.00260707,0.06629942,0.085689634,0.12986256,0.054607097,0.01934643,-0.07588111,-0.018206023,0.09335953,0.021208972,0.26679692,0.22574359,0.003838215,0.09949762,-0.035396565,-0.05230902,-0.0027858112,-0.033037517,-0.01388053,0.23470749,-0.027364995,0.12872146,-0.052494377,-0.02202595,0.0031387769,0.08929641,0.1623422,0.04793132,-0.007478874,0.03377296,0.0982939,0.11056162,0.07553382,0.0308263,-0.057629094,0.09395036,-0.06269802,0.016188703,-0.027955912,0.1468448,-0.008026113,0.32630855,0.23679882,-0.019118238,-0.02949455,-0.02418045,-0.00753041,0.0886434,0.11059663,0.12926912,0.099186,-0.06704399,0.17346531,-0.0042714924,-0.021599855,0.00856258,0.048091114,0.027007796,-0.039030116,0.04210748,-0.028337423,-0.02775638,0.035997562,-0.0353035,0.030518696,-0.06368439,0.010647967,-0.0014531687,0.13854127,0.116773695,-0.03177637,0.04176653,-0.00024251267,0.11292146
ARE,0.04612907,0.049310647,-0.04630816,0.010342356,0.1906105,0.06208307,-0.061094712,-0.08617087,-0.04628449,0.10523754,-0.033956666,-0.03477907,0.086945504,0.17815962,-0.059113808,0.10687429,0.21064496,0.022964496,-0.016651183,0.19977999,-0.041636728,0.12987967,-0.00011056848,0.13822901,0.110382095,0.16304387,-0.013221372,0.054988496,0.07668201,0.12525614,0.056829385,0.004005826,-0.08285532,-0.0174783,-0.0013229251,0.016814869,0.25589344,0.22274767,0.003424406,0.10069746,-0.030738015,-0.06672697,-0.045507878,-0.03988885,-0.013575667,0.22861193,-0.031316478,0.1239229,-0.05597478,-0.018388815,-0.02256725,0.0884317,0.15983646,0.043478444,0.0009991769,0.031784393,0.09286781,0.09848541,0.07031243,0.03173022,-0.05822579,0.0913468,-0.06343304,0.013272256,-0.03136173,0.14157702,-0.04575928,0.32768682,0.2247107,-0.040700205,-0.073584884,-0.040470473,-0.0055405498,0.087388486,0.0019957516,0.12496478,0.09673028,-0.07026274,0.16949202,-0.0041487124,-0.064784884,-0.02046004,0.0013614148,0.023600833,-0.037463907,-0.0067285,-0.029969389,-0.027969265,0.036528707,-0.033845723,0.00046677142,-0.06656705,0.007856309,-0.040733084,0.13418691,-0.011546753,-0.03275526,0.038899504,-0.025059354,0.042830814
ATO,0.04755359,0.05031005,-0.04807863,-0.027962722,0.19061697,0.06294509,-0.061398365,-0.08662453,-0.047317043,0.1045298,-0.035461348,-0.036785763,0.08549613,0.17527834,-0.05604901,0.0991161,0.20936276,0.022267781,-0.01690001,0.19965278,-0.027272353,0.12969035,0.0010330221,0.13833176,0.109266266,0.16293907,-0.016909659,0.052359167,0.0755601,0.1258847,0.057460546,0.012858129,-0.08418743,-0.017346531,-0.017536905,0.017618868,0.24676657,0.22067961,0.0041274894,0.100662686,-0.029622594,-0.06889943,-0.037728377,-0.040676735,-0.018792903,0.2287693,-0.033357188,0.12220179,-0.05956244,-0.017803099,-0.0111176595,0.08832879,0.15925443,0.04330218,-0.0012362003,0.032326445,0.09418194,0.088165894,0.07043182,0.032770712,-0.06343592,0.09089024,-0.06437163,0.013987169,-0.03050726,0.13991481,-0.058934204,0.32711276,0.22283955,-0.04041537,-0.064293504,-0.055348027,-0.0043868665,0.08713171,-0.00034523755,0.124449834,0.096928984,-0.07010444,0.16953528,-0.0047209784,-0.045723304,-0.037494384,-0.022244286,0.024331437,-0.030445162,0.024585351,-0.030894075,-0.028384553,0.035507508,-0.033856947,0.0074479952,-0.06519964,0.007019233,-0.039433982,0.13586922,-0.018305425,-0.035289705,0.03761866,-0.009800643,0.035599593
ATVI,0.04494816,0.085471466,0.02344121,0.1581036,0.20105177,0.061947897,-0.05437076,-0.08663936,-0.04171618,0.11001215,-0.028931877,-0.01845494,0.08901863,0.18306997,-0.059418708,0.110590436,0.21500108,0.025183555,-0.009794347,0.20455678,0.06662124,0.13356668,0.040819943,0.13909099,0.11489475,0.16063043,-0.0032063872,0.05981859,0.08314801,0.12956122,0.07611628,0.07062821,-0.07406398,-0.015413605,0.07332979,0.017185204,0.26326653,0.22709855,0.0027825888,0.09921396,-0.033256136,-0.05052474,0.039978653,-0.0326655,-0.011294652,0.23845425,-0.029572412,0.12697594,-0.052132152,-0.01886056,0.09898882,0.087850206,0.16207351,0.04928074,0.026798813,0.030082975,0.1159982,0.10076969,0.08011259,0.034326736,-0.049803182,0.09195967,-0.06250102,0.015244059,-0.028196722,0.1522109,-0.008574638,0.32697615,0.22986291,0.027745929,0.017349329,-0.033559643,-0.005427992,0.0883542,0.08074021,0.13219428,0.09860291,-0.06645015,0.17370737,-0.0043878276,0.08410696,0.0048287846,0.051353183,0.036239725,0.015560303,0.23140088,-0.029802237,-0.028480822,0.039578438,-0.029956564,0.10215181,-0.06410278,0.013304289,-0.009231618,0.1432003,0.08992884,-0.03149749,0.04009156,0.09093263,0.1022937
AVB,0.046250165,0.048580565,-0.04543527,-0.010285385,0.19222537,0.062306315,-0.058092825,-0.08606534,-0.046790574,0.10368174,-0.03266549,-0.034936056,0.08542135,0.17851108,-0.058520526,0.10213454,0.20940985,0.022495136,-0.01563248,0.20005229,-0.038943633,0.12995605,-0.00030208472,0.13843077,0.10928664,0.16101384,-0.014482982,0.05229225,0.07612416,0.12544602,0.055138662,0.005668115,-0.08102918,-0.01811584,-0.013555132,0.018120673,0.24915811,0.220784,0.0035200194,0.10046236,-0.03139314,-0.06160055,-0.04592303,-0.037976027,-0.014178762,0.22938581,-0.032924566,0.12313101,-0.0552814,-0.018439502,-0.022284076,0.088851005,0.16227102,0.04501425,-0.0015926473,0.031557895,0.09416534,0.0925063,0.0710252,0.03152207,-0.060863554,0.091087654,-0.06381833,0.01349245,-0.029885225,0.14379595,-0.056012247,0.32650828,0.22269294,-0.04709688,-0.07468185,-0.049884114,-0.0051789396,0.087781474,-0.0062332703,0.124020435,0.0961524,-0.06837188,0.16955712,-0.004291136,-0.05797287,-0.033522855,-0.013762783,0.02310272,-0.03674108,0.0016941577,-0.030161504,-0.028965177,0.035784975,-0.034163825,-0.0007633418,-0.06476972,0.009289816,-0.038519837,0.13579963,-0.023755506,-0.03365888,0.03856294,-0.02076266,0.04350333
AVGO,0.04529073,0.06491115,0.03633976,0.1963892,0.19701403,0.06137734,-0.05542075,-0.08497066,-0.043144993,0.10805856,-0.031621836,-0.029869832,0.08909875,0.1847929,-0.05848579,0.10337137,0.21176887,0.02323141,-0.012307003,0.20248167,0.08436327,0.13461912,0.024883058,0.13745722,0.113726676,0.16190174,0.0023608208,0.06060125,0.079040915,0.13009232,0.07618131,0.08021103,-0.07748875,-0.019787407,0.097537905,0.02064316,0.25356564,0.22266822,0.0040641967,0.10169103,-0.032694247,-0.048418082,0.054104857,-0.033465303,-0.0154009,0.23521142,-0.028718561,0.12650159,-0.054409295,-0.018542774,0.12866744,0.08891666,0.16105534,0.047672484,0.030434262,0.03187175,0.118536815,0.09718419,0.08126063,0.034361698,-0.051353525,0.09358408,-0.06395827,0.014366262,-0.027724631,0.14565414,0.00707925,0.3265342,0.22797558,0.038142934,0.028007753,-0.0248206,-0.0063375663,0.08722934,0.10031645,0.12680022,0.09855408,-0.06753534,0.17147368,-0.004355008,0.10662894,0.015069917,0.058178026,0.042012792,0.023698606,0.26293522,-0.029430231,-0.028046297,0.037842594,-0.03175825,0.1232478,-0.063890174,0.010702655,0.00096375495,0.14139226,0.11569041,-0.029339429,0.042753063,0.10547367,0.11795379
AVY,0.0453256,0.053184517,-0.04041488,0.29076803,0.19415756,0.06199815,-0.049723387,-0.08649241,-0.0449277,0.106102005,-0.032935366,-0.014137272,0.08764094,0.18460397,-0.05676923,0.10278991,0.21167676,0.023041215,-0.01626867,0.20175505,-0.0361138,0.12964408,0.0058398964,0.1377257,0.114205584,0.16408038,0.025052194,0.06339522,0.08067122,0.12780395,0.054073352,0.010144681,-0.08095412,-0.018713856,0.12389484,0.019459672,0.25019965,0.2197851,0.0042416938,0.10076878,-0.03359375,-0.024538552,-0.029445183,-0.03675557,-0.01524055,0.23153481,-0.021537988,0.122491464,-0.055284373,-0.021133497,-0.0157541,0.0890754,0.1602648,0.047405973,0.0009407699,0.03132453,0.09714085,0.11747002,0.07489003,0.034287933,-0.051001668,0.091833495,-0.06366216,0.014566697,-0.029530138,0.14513052,0.03661656,0.3281942,0.2263511,-0.042897,-0.057184737,-0.004374776,-0.006565567,0.0870831,0.110767014,0.12588485,0.095424764,-0.062923566,0.17072184,-0.0046895016,-0.061162036,0.05477359,0.13254446,0.024695132,-0.03693212,0.0010374635,-0.026187887,-0.029387591,0.035256423,-0.034426913,0.00086915493,-0.066044465,0.0078554,0.0033870414,0.13506815,0.17156258,-0.023583427,0.040296674,-0.022043414,0.10994351
AWK,0.04673527,0.052050553,-0.042151466,-0.0040808097,0.19144548,0.062515944,-0.061175566,-0.08636338,-0.043133244,0.10518108,-0.035048153,-0.035594676,0.08648744,0.17687966,-0.0592333,0.102120124,0.20925187,0.022724811,-0.013147049,0.19959839,-0.030252496,0.1288355,-0.0054110344,0.13800095,0.10890461,0.16106842,-0.016444322,0.054882,0.076618865,0.1255611,0.057016797,0.011719365,-0.08382691,-0.016332246,-0.0062536076,0.017541133,0.24772984,0.21992353,0.0038856454,0.09926274,-0.02920001,-0.06824096,-0.0440614,-0.040439192,-0.017241124,0.22855376,-0.032889843,0.12335499,-0.05950419,-0.022257831,-0.0060979314,0.08912941,0.15986696,0.04266131,-0.004493717,0.031751066,0.09582083,0.08870542,0.075002916,0.0323553,-0.06173387,0.09099813,-0.062478237,0.013958894,-0.031276815,0.13911065,-0.057366326,0.32620278,0.22387177,-0.042806357,-0.069931254,-0.052228898,-0.0065274816,0.088038415,0.0032074424,0.12479746,0.09638019,-0.06973485,0.16955149,-0.0057744924,-0.04382333,-0.038349744,-0.023637537,0.02522058,-0.03173144,0.02217599,-0.02995896,-0.029214935,0.035035416,-0.03337224,0.008423932,-0.06449947,0.007312797,-0.040212,0.13470191,-0.0098393485,-0.035479046,0.038196303,-0.009381644,0.040312596
AXP,0.046032324,0.05470117,-0.03580888,0.14587174,0.19340567,0.061699778,-0.055961248,-0.08781932,-0.042349543,0.1057779,-0.03326889,-0.021560695,0.08609544,0.1839103,-0.058354426,0.12308055,0.21188158,0.0260548,-0.017352007,0.2025069,-0.03643361,0.13341835,0.0033190828,0.13706635,0.11203926,0.15806797,0.004809119,0.05543043,0.07615491,0.1272001,0.053265877,0.025304228,-0.080060154,-0.016990408,0.03401628,0.019344416,0.2711878,0.22703646,0.004067015,0.102461904,-0.03372397,-0.04469014,-0.02924179,-0.03576464,-0.011715712,0.23162757,-0.025685035,0.13129413,-0.055438057,-0.019565035,0.012882933,0.09051814,0.16368602,0.04594179,-0.00094909593,0.03213289,0.09712067,0.11700463,0.073382884,0.0330506,-0.051745854,0.09147496,-0.06356545,0.013875507,-0.028408445,0.1441043,-0.0006099129,0.32438585,0.22190163,-0.03899905,-0.057062123,-0.020216655,-0.0067966282,0.08800957,0.03093747,0.12548164,0.10194151,-0.06927532,0.17005704,-0.0044554044,-0.03549222,0.021738969,0.06806743,0.027319413,-0.032705646,0.03502536,-0.027290773,-0.029287675,0.036886334,-0.035429724,0.0066181943,-0.064196035,0.0077613965,-0.02919322,0.1386463,0.075326435,-0.028916426,0.04025276,0.0045573264,0.04992366
AZO,0.048506662,0.053992644,0.007872572,0.16360945,0.1958726,0.06195645,-0.05293158,-0.0847971,-0.03954486,0.10652132,-0.030210705,-0.027869225,0.086512834,0.17879686,-0.057688773,0.11070755,0.21311374,0.027490575,-0.0077490583,0.20389809,0.030518973,0.13306266,0.007598512,0.13693592,0.1160074,0.16932282,-0.0071190633,0.06071405,0.076947436,0.12566127,0.060974147,0.07051493,-0.07663028,-0.020905165,0.09252629,0.020551834,0.25716016,0.2248299,0.004042765,0.101140104,-0.03521069,-0.053546317,0.02047331,-0.032955654,0.00040527992,0.23380181,-0.029312626,0.12607035,-0.0529302,-0.018886503,0.10352772,0.09011982,0.16033882,0.04862646,0.022841144,0.032276098,0.10691717,0.10002682,0.07184473,0.034867298,-0.0616881,0.09121837,-0.06391375,0.016003825,-0.026962612,0.17397523,-0.0184424,0.33488548,0.22556558,0.006605901,0.006351363,-0.036226984,-0.005376529,0.08718762,0.10076862,0.12558895,0.1001708,-0.06634496,0.16919234,-0.004163334,0.07265257,0.0016997755,0.046333574,0.042325716,-0.006476149,0.19778574,-0.029649416,-0.029893124,0.03755463,-0.034849785,0.07926195,-0.063275374,0.010657191,0.0006498676,0.13553493,0.103710584,-0.031347845,0.040773332,0.07559039,0.09591834
BA,0.046879247,0.06891355,0.0012775809,0.14225979,0.19440192,0.061910488,-0.058828168,-0.08598322,-0.04069482,0.10714799,-0.031353496,-0.015819855,0.08882353,0.18186885,-0.05970121,0.10987723,0.21222468,0.023790307,-0.01309932,0.20176905,-0.009120313,0.13425136,0.01765861,0.13669169,0.11378842,0.16470444,-0.0045029446,0.060462326,0.08276357,0.12736025,0.054944746,0.023425832,-0.07942936,-0.018253086,0.05243175,0.02086848,0.25898647,0.22337294,0.002979368,0.103367634,-0.033135965,-0.04503344,0.0014895685,-0.037908766,-0.012195278,0.23179924,-0.027992284,0.12693223,-0.052905984,-0.021321088,0.013237655,0.09016798,0.16121322,0.04341743,0.0059251785,0.030253667,0.09930308,0.100241125,0.07411787,0.035357047,-0.04870953,0.0940146,-0.06368552,0.016348355,-0.030666638,0.14952184,-0.019528039,0.3276568,0.23054753,-0.02704156,-0.04538255,-0.035738032,-0.007723393,0.087929904,0.057103053,0.12601987,0.099705525,-0.06972657,0.17156723,-0.0051092245,-0.018742952,-0.0066859033,0.034948718,0.027456097,-0.026494678,0.061023228,-0.025123915,-0.028863376,0.037200592,-0.03643175,0.026375808,-0.067332536,0.0077375844,-0.013950849,0.13764703,0.06417452,-0.031303003,0.04191257,0.02307731,0.0908383
BAC,0.045130588,0.05779784,-0.030082144,0.14841814,0.19677162,0.061746895,-0.059618585,-0.08748235,-0.043015912,0.10706309,-0.034927383,-0.028159034,0.08815238,0.18517675,-0.05778748,0.10529129,0.20989129,0.02466577,-0.016876027,0.2044215,-0.023476817,0.13367166,0.008264302,0.13812523,0.112224154,0.16016576,-0.0050202087,0.058520395,0.07969445,0.12661886,0.057331495,0.018988032,-0.07924583,-0.018148333,0.06811091,0.019049414,0.256267,0.2234008,0.0040479917,0.1025588,-0.03293369,-0.050096624,-0.020699264,-0.03877286,-0.013152342,0.23290801,-0.03022264,0.12523426,-0.05624292,-0.021043655,0.0055597797,0.090136446,0.16232489,0.04353359,-0.0006173458,0.031309832,0.10073838,0.102622926,0.073107965,0.032924533,-0.049301907,0.09112857,-0.06326666,0.014447004,-0.027128555,0.14518222,-0.008818227,0.32530722,0.22721817,-0.043054298,-0.05922805,-0.03596764,-0.0066879634,0.087737195,0.07738104,0.12698703,0.096433714,-0.07229802,0.16965753,-0.005420629,-0.041920483,-0.010439668,0.023114614,0.028730003,-0.036407836,0.028030403,-0.030254487,-0.029413091,0.03718251,-0.036757328,0.008686304,-0.06552469,0.004951041,-0.008882312,0.1372161,0.08898434,-0.032251958,0.039916202,-0.0010220706,0.10102481
BAX,0.04832039,0.08757445,0.035909273,0.058335744,0.19432327,0.06217386,-0.053377382,-0.084592745,-0.043564558,0.10514527,-0.030613843,-0.02934029,0.08701861,0.19095844,-0.057535775,0.112540334,0.21365623,0.024132535,-0.0144333765,0.20069803,0.021642888,0.13345033,0.0363287,0.13836527,0.112647384,0.15846235,-0.00270883,0.05690807,0.07908648,0.12719455,0.06415683,0.039771076,-0.076781,-0.019029014,-0.00072904304,0.02002306,0.2631786,0.22309908,0.0034716874,0.10081354,-0.034224194,-0.052892443,0.040102404,-0.03278941,-0.015138498,0.23150763,-0.028501257,0.12836365,-0.053019438,-0.020035952,0.052096542,0.08928651,0.16210617,0.048601948,0.0077049118,0.02916732,0.10674477,0.10401958,0.07350434,0.040143874,-0.05599932,0.091327,-0.06393069,0.015790865,-0.027181014,0.14495441,-0.02958697,0.3256669,0.22501364,0.006515749,-0.010247782,-0.031152464,-0.0064371377,0.0863072,0.0101325605,0.1256375,0.096999295,-0.06667654,0.17024621,-0.004061442,0.03892384,-0.0082475,0.025648985,0.034280468,-0.008428726,0.14256133,-0.028713979,-0.029224461,0.037427776,-0.034260727,0.059813328,-0.0632589,0.010970123,-0.032374486,0.13568278,0.0121749975,-0.031537276,0.038727,0.06995145,0.04724536
BBWI,0.049674712,0.08407503,0.079056606,0.4009337,0.20477195,0.061623514,-0.060360987,-0.08336292,-0.03620587,0.11111203,-0.035135746,-0.020361915,0.093377784,0.19316372,-0.055880018,0.112289816,0.21294889,0.029109161,0.0014376938,0.20859747,0.13944587,0.13876295,0.04827527,0.13747074,0.118780546,0.17624396,-0.006009441,0.06873054,0.08946377,0.13422903,0.0836843,0.11154744,-0.07152958,-0.019161066,0.20270143,0.01708791,0.2555699,0.2261726,-0.0014324449,0.10155596,-0.024604617,-0.021146731,0.10445561,-0.04590384,0.013646625,0.23991463,-0.026355905,0.12821248,-0.052683327,-0.015353978,0.19443125,0.09294067,0.16418937,0.053396326,0.054835804,0.030230895,0.122668274,0.09978829,0.08616055,0.037742414,-0.045634344,0.09280947,-0.061607502,0.019921482,-0.014242519,0.18309064,0.072421014,0.3393202,0.23301098,0.08281489,0.08128837,-0.00070371106,-0.005833244,0.08883775,0.2155857,0.12978542,0.10029385,-0.068977386,0.17487042,-0.003550429,0.19591716,0.067010164,0.13702247,0.051952463,0.058284406,0.38349977,-0.027316466,-0.027716177,0.039594516,-0.025896914,0.18334793,-0.06871422,0.0048531108,0.04179737,0.14213681,0.25092155,-0.025983948,0.041915715,0.1726246,0.19442122
BBY,0.04430858,0.091688246,0.03335397,0.4354538,0.20612867,0.06193849,-0.06309644,-0.08900184,-0.043134056,0.11166251,-0.03330259,-0.02520811,0.09166239,0.1885902,-0.05807787,0.107832044,0.21213779,0.026233308,-0.015881978,0.20283507,0.003959235,0.13404176,0.04308525,0.13605686,0.11407614,0.1613679,-0.011123735,0.06772785,0.087903045,0.13363068,0.061088793,0.032742165,-0.06788953,-0.012391508,0.22333747,0.018433493,0.2578389,0.22391474,0.0021801759,0.103734285,-0.031032827,-0.013606511,0.05309619,-0.040502407,-0.013601182,0.24234423,-0.02921005,0.1264184,-0.05554094,-0.019833889,0.061399017,0.08788016,0.17060794,0.042794976,0.0016563386,0.03263636,0.105001144,0.10195297,0.07332945,0.03607709,-0.044945642,0.0938621,-0.06354813,0.015866473,-0.017337449,0.15308672,0.078139916,0.33179054,0.23070753,0.010332914,0.008855335,-0.0009876415,-0.0066348426,0.08906982,0.23983452,0.12813714,0.100710556,-0.07151738,0.17196964,-0.0051215775,0.060716268,0.071243376,0.1563274,0.033536326,-0.01756749,0.17204957,-0.028937258,-0.029019667,0.038970195,-0.032746434,0.072172195,-0.06559166,0.005495202,0.053034518,0.14387892,0.26900902,-0.029241866,0.039505646,0.07661049,0.20428829
BDX,0.04572723,0.06863744,-0.016849414,0.023663457,0.19702518,0.06224823,-0.055068895,-0.08585417,-0.043263633,0.106958,-0.03185242,-0.01902613,0.08724214,0.17775923,-0.059573293,0.10317837,0.21192296,0.02314435,-0.0156715,0.20120823,-0.036648907,0.13051586,0.014405314,0.13862363,0.11293554,0.16187948,-0.015619613,0.05544599,0.079943396,0.1265844,0.053321533,0.015492131,-0.07981255,-0.017890248,0.003758289,0.018815424,0.2532513,0.2211883,0.0037793964,0.10002031,-0.033623505,-0.059451386,-0.015494589,-0.03542633,-0.013649069,0.23351707,-0.031928837,0.12417704,-0.05424226,-0.019467797,0.0033810623,0.088994935,0.16120453,0.046306655,0.006843945,0.029341813,0.09481457,0.091843635,0.07270713,0.03380284,-0.05631233,0.090717494,-0.062042244,0.014153816,-0.028421525,0.14418072,-0.05662161,0.32677478,0.22456312,-0.029464412,-0.044540472,-0.04669209,-0.005620096,0.087222934,0.02550413,0.1262301,0.095570095,-0.06743136,0.17027348,-0.003881935,-0.033000264,-0.035742037,-0.017173905,0.02276386,-0.041228242,0.021756679,-0.025875654,-0.030403981,0.03761206,-0.03469093,0.019353203,-0.063996516,0.006876603,-0.028865876,0.13567422,0.011585202,-0.035720892,0.039083727,0.005198747,0.049427297
BEN,0.045309037,0.067260705,-0.0127282245,0.08844264,0.19701493,0.06105101,-0.057217028,-0.08567965,-0.04246147,0.1068558,-0.03231607,-0.028929707,0.08976649,0.19084756,-0.05869466,0.10796566,0.21132728,0.02467497,-0.01039885,0.20434874,0.0061256345,0.13335522,0.021239366,0.1382909,0.112166926,0.16548046,-0.0063975304,0.059683327,0.08179689,0.12831914,0.05688794,0.05927018,-0.080459654,-0.020756535,0.024528537,0.020458844,0.2582953,0.22176756,0.0034666285,0.10283901,-0.033114098,-0.058427475,-0.0045566894,-0.036393404,-0.0073824823,0.2330536,-0.030166253,0.12452482,-0.054561675,-0.017956,0.074063584,0.09007268,0.16195726,0.046956033,0.015926769,0.030829497,0.09915032,0.10419026,0.071811765,0.034067936,-0.056147307,0.091658965,-0.06282434,0.017161377,-0.029472947,0.16503453,-0.028072674,0.3287522,0.2285685,-0.011904899,-0.01713081,-0.03491506,-0.0063780006,0.08706449,0.028204195,0.12534837,0.09758958,-0.06920536,0.17159536,-0.0033087358,0.04673098,-0.0060646236,0.029593408,0.037826832,-0.015282705,0.14714427,-0.028195769,-0.028809128,0.038747847,-0.033066325,0.056150757,-0.06485714,0.008421775,-0.03020828,0.13911572,0.032659285,-0.03376788,0.03891433,0.051693805,0.047967467
BIIB,0.047989294,0.17290668,0.21687293,0.902895,0.21597916,0.062331088,-0.025607537,-0.07142484,-0.034045428,0.120863385,-0.029759897,0.036229912,0.101479575,0.20113553,-0.058176275,0.17435843,0.2224096,0.031965993,-0.013810948,0.2084481,0.27302232,0.13940701,0.14763895,0.1381828,0.115372084,0.16262874,0.07914071,0.10930033,0.10786874,0.1392535,0.06755768,0.17859665,-0.03385692,0.0069229305,0.45697927,0.019637145,0.3202015,0.24438728,0.003569005,0.10612586,-0.022201717,0.0635823,0.26752624,-0.03023694,0.00029841065,0.23777856,-0.011270067,0.15307648,-0.04915593,0.022595536,0.3689719,0.08872813,0.16576666,0.054877967,0.09849819,0.030896746,0.109777585,0.17908257,0.13036498,0.06908433,-0.029380973,0.10346496,-0.054332994,0.032652542,-0.005861651,0.15049398,0.2186147,0.3288692,0.27024397,0.19803348,0.23195726,0.07051718,0.003467787,0.09186007,0.5321763,0.13798821,0.1192954,-0.049303073,0.1749837,-0.0030047484,0.39941293,0.21110554,0.3696496,0.0439764,0.09591231,0.6850233,-0.006902227,-0.028588174,0.0428304,0.0026269555,0.32641512,-0.06248849,0.04064723,0.16169268,0.16095325,0.5960503,-0.0044845194,0.052542754,0.31069025,0.36946952
BIO,0.04620625,0.06576672,-0.01269757,0.5528286,0.19645381,0.062204212,-0.046293512,-0.085933596,-0.046671562,0.107945055,-0.027347244,-0.016910832,0.090122655,0.18452549,-0.058202848,0.12753692,0.21327198,0.027340595,-0.017130107,0.20338887,-0.039728798,0.1346842,0.011412921,0.13895902,0.11049775,0.1577699,0.014898643,0.071794,0.09355758,0.13216627,0.05286452,0.008586321,-0.059580754,-0.016223226,0.28262275,0.020131957,0.2769349,0.2295452,0.003475206,0.10167624,-0.036388062,0.008281156,-0.0132096,-0.02859045,-0.016008498,0.23310539,-0.024247706,0.13611163,-0.048309542,-0.009581707,-0.014350623,0.08952026,0.16159344,0.051790044,-0.007167779,0.029273152,0.097977296,0.12092536,0.074123,0.032633066,-0.055693287,0.09486889,-0.06135596,0.01837048,-0.0111085735,0.14214689,0.12068546,0.32365775,0.23739429,-0.040358704,-0.050982606,0.01761397,-0.0062362943,0.08701403,0.3091027,0.12562856,0.103416115,-0.061463427,0.17155126,-0.0050216373,-0.03774104,0.11066366,0.21253192,0.024874315,-0.03892247,0.022771709,-0.0260766,-0.030557157,0.038416028,-0.031494007,0.0026267692,-0.062324513,0.01372521,0.07966596,0.13752186,0.3514262,-0.023821753,0.040153608,0.009138651,0.24748686
BK,0.04467629,0.08205303,0.009372388,0.10738124,0.19522989,0.06166008,-0.05583597,-0.08648436,-0.04575887,0.107694395,-0.03298561,-0.01881928,0.08812767,0.18495655,-0.05768033,0.11474474,0.21260801,0.025156628,-0.018285364,0.20352705,0.0025318973,0.13292852,0.037598528,0.13971294,0.11373526,0.15987292,-0.0031081475,0.06332715,0.085446745,0.12676337,0.054511756,0.0228453,-0.08054401,-0.016156211,0.05118921,0.020127654,0.26456085,0.22697161,0.0035942178,0.100947194,-0.03353731,-0.0574689,0.028301267,-0.035695847,-0.014845105,0.23441294,-0.028334958,0.12828945,-0.055229634,-0.020248115,0.038864702,0.08866309,0.16047353,0.04724066,0.0034467243,0.032623447,0.09720936,0.10511834,0.07707532,0.033524904,-0.057131823,0.09257434,-0.063887835,0.015632473,-0.028722271,0.14681794,-0.023596656,0.3247857,0.23186372,0.007402785,-0.0003069006,-0.03173264,-0.0059266873,0.087694764,0.06505964,0.12598124,0.099075474,-0.06901729,0.17018934,-0.004054548,0.031763684,-0.0016794503,0.034340117,0.026725102,-0.03208989,0.12761968,-0.02808579,-0.029835416,0.035797402,-0.035044044,0.06878155,-0.06428845,0.006928798,-0.017354136,0.13901545,0.064944744,-0.033495568,0.038446188,0.038247835,0.08134951
BKNG,0.04530122,0.08841212,0.02419591,0.15577896,0.19316913,0.062236525,-0.05155816,-0.085637376,-0.045420732,0.106965706,-0.029339818,-0.021671064,0.09106143,0.18255332,-0.058961257,0.11306307,0.21086743,0.025291406,-0.016746566,0.20195581,0.02147928,0.13055629,0.043650795,0.13847081,0.111965194,0.16180107,0.005711727,0.06160331,0.084926955,0.1263332,0.054037683,0.03746659,-0.07446836,-0.017783688,0.07789709,0.018478025,0.26232386,0.22077718,0.00370677,0.10234867,-0.03446443,-0.044341605,0.04527287,-0.031713296,-0.015564667,0.23087636,-0.0313219,0.12982808,-0.051563628,-0.021401338,0.063578844,0.09118405,0.1609211,0.048579164,0.012726985,0.02547622,0.09712198,0.10654358,0.07977186,0.037752453,-0.04948116,0.09224114,-0.062963426,0.014329955,-0.026142493,0.14806318,-0.012848027,0.33033752,0.23259617,0.022159755,0.018225182,-0.032134555,-0.006972719,0.08821744,0.09159276,0.12886322,0.10050908,-0.06459399,0.17479315,-0.0041950215,0.06407733,0.011861302,0.047731828,0.029977616,-0.03333825,0.1693508,-0.025043048,-0.029953824,0.038480073,-0.03084577,0.08830253,-0.063906595,0.012519505,-0.0068092253,0.14158106,0.09597747,-0.032508936,0.039344147,0.062904745,0.0981236
BKR,0.045069784,0.07222936,-0.0013611577,0.08022301,0.19930825,0.06218496,-0.044355664,-0.08781098,-0.042324565,0.11313444,-0.02776276,-0.017442077,0.08901782,0.18934342,-0.05767397,0.1084118,0.21414003,0.025278386,-0.016545892,0.20237616,-0.0033512376,0.1337351,0.027604325,0.13505414,0.117131755,0.16246614,-0.002300553,0.06223634,0.0815524,0.12824155,0.061282724,0.034136914,-0.07277268,-0.017368603,0.04710384,0.020322662,0.2615501,0.22605906,0.005551925,0.100931615,-0.039027274,-0.039125934,0.019552194,-0.02699111,-0.011539517,0.23707396,-0.028565478,0.127506,-0.050581142,-0.022047274,0.03040218,0.08790463,0.15846756,0.05551246,0.0016780272,0.02975034,0.10138792,0.10119935,0.07433602,0.032615125,-0.055196412,0.09306881,-0.063315436,0.016303062,-0.02177484,0.15407206,-0.035328776,0.33423653,0.23016274,-0.01575848,-0.0218838,-0.03011578,-0.0060472693,0.0883047,0.054911297,0.1290998,0.10059194,-0.060693104,0.17170529,-0.0059603658,0.0023023002,-0.010646917,0.021216527,0.034930725,-0.022899292,0.08443069,-0.027820306,-0.02822396,0.036346883,-0.030016908,0.03694567,-0.061519317,0.0135283545,-0.017533585,0.13713862,0.050357394,-0.031722672,0.04182899,0.03216131,0.068264216
BLK,0.04431296,0.05312778,-0.032434467,0.08601161,0.19415429,0.061899025,-0.055253323,-0.08706562,-0.04400023,0.10504974,-0.032112,-0.023004748,0.0861526,0.18383117,-0.05842761,0.10499396,0.2118231,0.023016486,-0.017886043,0.20468774,-0.003860794,0.13271628,0.0042042164,0.13779475,0.11387256,0.15958187,-0.008007381,0.056338742,0.07806889,0.12710871,0.058078032,0.02602886,-0.07959795,-0.018227672,0.017433342,0.020362709,0.25477755,0.22229972,0.0038676169,0.10138551,-0.034603715,-0.054538213,-0.026202284,-0.034146905,-0.015314989,0.23125264,-0.030411249,0.1266019,-0.053855184,-0.019837502,0.01363384,0.08867812,0.1616731,0.046087332,0.00047180988,0.030926771,0.10461238,0.10009335,0.07305787,0.03213911,-0.052007943,0.09144473,-0.063449726,0.013649501,-0.028312512,0.14900807,-0.03963951,0.3259093,0.22402947,-0.026830368,-0.055201463,-0.04086732,-0.0058879163,0.08762534,0.022625081,0.1249955,0.09805645,-0.06916423,0.17064217,-0.004584115,-0.021373652,-0.01657071,0.007420022,0.027347695,-0.021507505,0.0721693,-0.028531803,-0.029600443,0.037792563,-0.03596528,0.03400086,-0.06336071,0.0074952133,-0.02578282,0.13694824,0.026879143,-0.03123779,0.038950197,0.011254467,0.053920384
BMY,0.046601564,0.07009667,0.046770446,0.08887718,0.19290054,0.062431917,-0.05758535,-0.087160796,-0.043881685,0.105520494,-0.032848664,-0.026578948,0.08698236,0.17870994,-0.057734534,0.10232054,0.21513592,0.023497779,-0.010923602,0.20282635,0.09541698,0.13296735,0.049682334,0.13798562,0.117278874,0.16757265,-0.00070662796,0.05970261,0.08240609,0.12724675,0.06070651,0.066198826,-0.08119175,-0.018969797,0.04051978,0.018777601,0.24985115,0.2226835,0.004269751,0.1019726,-0.033113495,-0.053414583,0.0650583,-0.037136562,-0.0051122513,0.2314232,-0.03216153,0.12450534,-0.056701295,-0.018338315,0.10164828,0.08869597,0.160227,0.04807178,0.05311305,0.02939663,0.11315724,0.09889033,0.096509434,0.030423924,-0.05126469,0.091629125,-0.06240447,0.013350137,-0.02975183,0.15921806,-0.027684957,0.33574125,0.23146446,0.064836666,0.04825338,-0.03526026,-0.0053585637,0.08822368,0.05307899,0.12896459,0.09594409,-0.068477586,0.17384851,-0.0038353428,0.11946719,0.00013652071,0.0337413,0.03880249,0.010986403,0.278602,-0.027597222,-0.03018258,0.036224708,-0.03173773,0.14426072,-0.06569957,0.0075566918,-0.022289563,0.14119616,0.047349717,-0.028409269,0.040866002,0.10921127,0.0736576
BR,0.04795465,0.068342425,-0.008932858,0.29486126,0.19536054,0.061843365,-0.048685312,-0.08625509,-0.046070285,0.1055778,-0.033592872,-0.015706008,0.08771728,0.18220583,-0.058850396,0.1041303,0.2107621,0.024624642,-0.013699375,0.20061085,0.03010891,0.12965305,0.018170234,0.13795292,0.111699045,0.1627205,0.027012471,0.055885963,0.07650203,0.12620382,0.065936774,0.04227143,-0.080981106,-0.016900586,0.12449363,0.019011192,0.25112748,0.22133721,0.0038757864,0.10102433,-0.032425914,-0.025202086,0.005652996,-0.03797089,-0.015512491,0.23306319,-0.022122297,0.12553127,-0.056482647,-0.019015491,0.060448363,0.08919498,0.16160089,0.04786876,0.013613895,0.03356413,0.1096435,0.11542749,0.072491616,0.033321686,-0.047870915,0.09216489,-0.062929116,0.01377321,-0.030574743,0.14251193,0.036557924,0.32571653,0.22270395,0.002235271,-0.01600232,-0.005625531,-0.0061268844,0.08696349,0.11199773,0.12648138,0.09659096,-0.06388773,0.17103574,-0.004071351,0.04052843,0.055805504,0.13356864,0.0398057,-0.0063519143,0.15271348,-0.025996322,-0.02879273,0.038541153,-0.034614835,0.06999674,-0.06510165,0.007122509,0.0052860565,0.13735823,0.17314824,-0.021479815,0.038114093,0.054863177,0.11154428
BRO,0.046488903,0.05581595,-0.03498774,0.05400078,0.19398767,0.062497802,-0.05510386,-0.08786394,-0.047376003,0.10583547,-0.031276554,-0.026936378,0.08666504,0.17984241,-0.056948703,0.09945482,0.2106535,0.02352494,-0.01822985,0.2005543,-0.041464724,0.13060747,0.0070945853,0.1385142,0.11046769,0.16064154,-0.01799991,0.055776164,0.07709716,0.12658519,0.052416325,0.004248794,-0.07887878,-0.016186317,0.022856135,0.01906088,0.25002438,0.2198759,0.0036757924,0.100614496,-0.033628315,-0.057438016,-0.022807471,-0.035389833,-0.018707551,0.23217353,-0.032179773,0.12338528,-0.053570516,-0.020042099,-0.026580878,0.088482946,0.16118573,0.046995066,-0.00853217,0.032532014,0.0940337,0.08894837,0.07371836,0.031416774,-0.059215404,0.090892315,-0.06356068,0.015766822,-0.028271437,0.1420902,-0.053941794,0.32544738,0.22357179,-0.044454098,-0.06049148,-0.050234187,-0.0056528877,0.08789821,0.046793044,0.12533991,0.094943635,-0.06784609,0.16992566,-0.004532488,-0.06062613,-0.03836159,-0.027214024,0.022845514,-0.04110931,-0.012295522,-0.028754033,-0.02990958,0.03624615,-0.036459614,0.00032621622,-0.06399402,0.00890908,-0.021363486,0.13650787,0.034510262,-0.037188187,0.037918963,-0.016254134,0.06147876
BSX,0.04529009,0.07004003,-0.007847655,0.1920084,0.197424,0.063319474,-0.054192364,-0.08507697,-0.041140653,0.10768966,-0.030147852,0.018205581,0.08732839,0.18195802,-0.057937615,0.12200452,0.21397088,0.028183445,-0.014589675,0.20228459,-0.018795269,0.13442953,0.013351956,0.13837907,0.1141838,0.16314214,0.005995769,0.057006128,0.07927708,0.1293284,0.05652146,0.036951948,-0.07881139,-0.016583957,0.080642164,0.018009882,0.271135,0.22727787,0.0018556137,0.10143411,-0.03316009,-0.03989951,-0.008388627,-0.036479004,-0.013850037,0.23418644,-0.027428823,0.12937342,-0.051194984,-0.020026214,0.029159069,0.089534864,0.16302785,0.04560923,0.010209013,0.030765325,0.100742385,0.117023624,0.07211967,0.033150554,-0.050029404,0.09087523,-0.06352614,0.014563367,-0.028876893,0.15573685,0.007317627,0.32938087,0.22428972,-0.030604329,-0.044634897,-0.016425788,-0.0063118692,0.08670482,0.07691312,0.12691799,0.10179389,-0.06636964,0.17149998,-0.004707275,-0.013566792,0.02290608,0.09025145,0.03191457,-0.03167549,0.0558644,-0.015545569,-0.02940579,0.03957145,-0.03713838,0.017250806,-0.065451995,0.0044207647,-0.011707762,0.1373463,0.11282152,-0.028802067,0.039511442,0.018806595,0.07427378
BWA,0.04586342,0.058080718,-0.024602722,0.14045316,0.19532217,0.061374567,-0.057479028,-0.08670859,-0.04289193,0.11162052,-0.032704707,-0.023678485,0.09117144,0.18856312,-0.05809284,0.10462065,0.21195033,0.023457713,-0.01742772,0.20277621,0.0050766226,0.13322333,0.012196027,0.13686685,0.111878306,0.16305548,-0.00880919,0.067130454,0.08525716,0.12892896,0.063172296,0.027864434,-0.07398942,-0.018004583,0.06801541,0.021630697,0.2537303,0.22238186,0.0045533683,0.10157475,-0.03483348,-0.057396233,-0.013069177,-0.03644033,-0.013222311,0.23275998,-0.030419437,0.124975786,-0.055294447,-0.020539906,0.022858806,0.08839153,0.16150987,0.046746247,0.0020365901,0.033370323,0.106772885,0.097008996,0.074541524,0.032201696,-0.058267605,0.09179433,-0.06386952,0.017598376,-0.02940128,0.15221758,-0.029307947,0.32748058,0.23191,-0.020961165,-0.042132307,-0.03880517,-0.007136274,0.09001097,0.09438754,0.12711763,0.09852998,-0.07003002,0.17126344,-0.004009636,-0.0067905486,-0.012876371,0.018819444,0.03183328,-0.02267712,0.08974849,-0.028354114,-0.028588409,0.03774021,-0.034656104,0.03581062,-0.065749034,0.007712692,-0.0021318514,0.13576828,0.09231725,-0.033275872,0.03963346,0.02193708,0.090044826
BXP,0.04657501,0.054610074,-0.043991525,0.056248568,0.19157559,0.06218419,-0.059558704,-0.086047366,-0.046835605,0.10431374,-0.032445975,-0.036453407,0.08512509,0.17885736,-0.058740698,0.10127778,0.2104257,0.022778518,-0.016150996,0.20098084,-0.03614737,0.13032342,-0.006605437,0.13732077,0.1101796,0.1605354,-0.012724176,0.058455925,0.07632808,0.12578331,0.055209637,0.006878826,-0.08045617,-0.01787672,0.025271717,0.018818427,0.24923551,0.22152048,0.0029549245,0.100706495,-0.0310498,-0.062287353,-0.049358025,-0.03838779,-0.012793018,0.22893979,-0.031601395,0.122717336,-0.054836698,-0.018879786,-0.019049712,0.08812994,0.16200879,0.04475808,-0.0008415822,0.031731643,0.09621707,0.090827376,0.071402356,0.031613328,-0.059143875,0.09237833,-0.06351404,0.014248103,-0.03058754,0.1436578,-0.048321784,0.32526532,0.22278893,-0.044381864,-0.080064856,-0.048664093,-0.0053555854,0.088211864,0.047634646,0.12398435,0.09694791,-0.069232464,0.16952594,-0.004471263,-0.061561152,-0.022690326,-0.003954228,0.023992278,-0.04072878,0.0031901002,-0.03140157,-0.029005283,0.035424337,-0.03272509,-0.0018626228,-0.06572346,0.009929027,-0.019996952,0.134971,0.037827615,-0.03346786,0.040864,-0.022261575,0.06290759
C,0.045244023,0.058590308,-0.023349289,0.083933964,0.19878212,0.061556496,-0.057076607,-0.08845302,-0.044505216,0.106544085,-0.03389451,-0.025228562,0.087695986,0.18808183,-0.057738014,0.1088304,0.21016568,0.023998033,-0.017393745,0.20163473,-0.035817623,0.13367155,0.013694976,0.13747495,0.11158955,0.16166835,-0.014627438,0.062170513,0.08232271,0.12674262,0.05457893,0.014499629,-0.07990235,-0.016871981,0.037269272,0.018196952,0.25504395,0.2209879,0.0042473767,0.10215074,-0.03351102,-0.058191728,-0.012793813,-0.036912315,-0.01461507,0.23406109,-0.029094458,0.12576729,-0.05563345,-0.020398322,-0.0018842034,0.089302346,0.16145666,0.04512442,-0.0019814968,0.032145515,0.09992781,0.09842563,0.072717376,0.0330478,-0.05402791,0.09111947,-0.06275888,0.014013015,-0.029184468,0.14504582,-0.03209976,0.3259829,0.22967748,-0.037363473,-0.05001786,-0.04369241,-0.0060198065,0.08838393,0.038175523,0.12665267,0.098946296,-0.07026082,0.16996504,-0.0048947968,-0.049466096,-0.023182314,-0.0005784221,0.028369358,-0.037255928,0.008491479,-0.028432671,-0.029421477,0.03711137,-0.035773065,0.007417679,-0.064689636,0.0055425763,-0.02749591,0.13768001,0.03949381,-0.03448366,0.039347515,-0.0062892325,0.07974009
CAG,0.052193113,0.09772271,0.066970244,0.49765506,0.19580647,0.0625176,-0.05953015,-0.0877441,-0.041154746,0.1085576,-0.034886993,-0.009098411,0.09242073,0.17697608,-0.055512775,0.10645956,0.21229017,0.023348708,-0.006982662,0.20189138,0.11828457,0.13261929,0.053894825,0.13893509,0.11087465,0.16388164,0.0026403256,0.061123982,0.08588424,0.12891977,0.088902675,0.097926654,-0.06496983,-0.010855726,0.25301003,0.020203922,0.25243106,0.22417718,0.004673764,0.10133265,-0.02583678,-0.011760205,0.08673667,-0.04037822,-0.009205896,0.23462832,-0.030646672,0.12309046,-0.058233075,-0.016841523,0.16595545,0.09014706,0.16146435,0.04414506,0.041400157,0.03221131,0.12601757,0.09338751,0.09226504,0.043371394,-0.05648452,0.095507145,-0.053048342,0.017507903,-0.019433316,0.15413764,0.084118105,0.33026195,0.23224124,0.06684677,0.056154706,0.009748779,-0.0061984994,0.08852826,0.2882929,0.12596157,0.09684018,-0.07148136,0.17233336,-0.005283192,0.15236416,0.10106826,0.18358362,0.046808705,0.042153995,0.33850577,-0.030567385,-0.031339675,0.038720995,-0.02867743,0.15403873,-0.06496829,0.0057406314,0.068750344,0.14221065,0.31793243,-0.03376359,0.03938777,0.13940498,0.21674456
CAH,0.04797654,0.06173812,0.11773818,0.14935446,0.19792849,0.062216252,-0.06012205,-0.07570264,-0.018253688,0.106880516,-0.036144227,-0.016690873,0.08791714,0.18033275,-0.059826132,0.12076749,0.21934707,0.03212663,0.0005578771,0.20924525,0.17759612,0.13504852,0.068007484,0.13529362,0.12369234,0.19008549,0.0019746684,0.058902595,0.08069268,0.12922755,0.08457582,0.15570764,-0.07707298,-0.020666298,0.07130371,0.018982366,0.26877207,0.23061165,0.004264621,0.10136058,-0.030883294,-0.055996075,0.14615753,-0.04014688,0.026367249,0.23221168,-0.022928612,0.1308854,-0.058869384,-0.02176053,0.28141534,0.09155679,0.16103224,0.043005377,0.072368935,0.03392884,0.12789884,0.101335876,0.088006765,0.032260533,-0.05752111,0.09257194,-0.06185027,0.016348213,-0.030752514,0.20383847,-0.01171871,0.35428572,0.22545262,0.10529722,0.12713958,-0.022065375,-0.007198969,0.08710046,0.075415306,0.12759528,0.102269664,-0.07028954,0.17030795,-0.0056907777,0.27198055,-0.010279125,0.022958871,0.07118927,0.06985621,0.4900259,-0.022416532,-0.030159963,0.03912902,-0.019598315,0.21833885,-0.06583853,0.0063542053,-0.010600759,0.13609698,0.086815126,-0.033611108,0.04801762,0.22039956,0.10177028
CAT,0.048267275,0.07586756,0.008171934,0.13601765,0.19340084,0.06194094,-0.058668908,-0.087185174,-0.0424387,0.10761171,-0.03391006,-0.025975214,0.089476764,0.18598509,-0.05804092,0.10336113,0.2132045,0.024825174,-0.016342215,0.20318784,-0.00023594126,0.13281229,0.03377462,0.137688,0.116316125,0.16096056,-0.0093325265,0.06296324,0.08267778,0.12692784,0.060110923,0.029821394,-0.07849403,-0.018054992,0.04470954,0.020351596,0.25531697,0.22251919,0.004474025,0.10145314,-0.034447454,-0.046493996,0.024557836,-0.036854863,-0.010390591,0.23214266,-0.029513372,0.12532395,-0.054833047,-0.020607714,0.028293349,0.08874837,0.16330066,0.045984168,0.0059573296,0.030658185,0.1053299,0.09602119,0.07766569,0.03191166,-0.049448002,0.09173117,-0.06299128,0.015045725,-0.029533748,0.15316686,-0.026184527,0.3342748,0.22663713,0.004493417,0.0024476834,-0.039402165,-0.0065773726,0.088031285,0.06354719,0.12691513,0.09861761,-0.0709215,0.17091647,-0.004651729,0.02012004,-0.0073083285,0.029942777,0.031448364,-0.013075132,0.117864504,-0.027415207,-0.0290215,0.036304258,-0.0332523,0.061804637,-0.06712578,0.007109534,-0.013419682,0.14424253,0.059092663,-0.032830104,0.041285947,0.03151996,0.07353763
CB,0.046172157,0.054378033,-0.03852135,0.037356157,0.19542211,0.062269293,-0.05581732,-0.08614441,-0.046532422,0.10695215,-0.0326057,-0.02245944,0.08669837,0.18045713,-0.05850837,0.10185007,0.21074301,0.022275645,-0.015248567,0.1996727,-0.04066825,0.13016362,0.0050727157,0.1381127,0.11060725,0.16249898,-0.012175996,0.05739929,0.07826715,0.12706587,0.053924944,0.013899162,-0.08092156,-0.019113673,0.013104621,0.01819659,0.24762572,0.22093086,0.0041239634,0.102145575,-0.033415176,-0.060821585,-0.028757123,-0.03662531,-0.014531119,0.23115087,-0.030665692,0.122108966,-0.054269448,-0.019816812,-0.0026017614,0.08907241,0.15917543,0.046171732,-0.003312327,0.03249391,0.09504327,0.089994416,0.07351341,0.031307988,-0.057245072,0.091310166,-0.06348877,0.014749378,-0.028597482,0.14115293,-0.053535067,0.32754496,0.22441714,-0.04625512,-0.06808972,-0.049916856,-0.0065099467,0.08754877,0.03753219,0.12513232,0.09540333,-0.06839794,0.1702767,-0.0045597013,-0.053728603,-0.034092423,-0.014130611,0.025358949,-0.040417176,0.008709855,-0.026758065,-0.02961822,0.03785295,-0.03477034,-0.004219055,-0.06502889,0.0070115477,-0.02460558,0.1353339,0.023234252,-0.035493936,0.04208623,-0.010077488,0.05706457
CBOE,0.046303846,0.0518191,0.0041858163,0.09666476,0.19404729,0.062393583,-0.056895245,-0.086354956,-0.03947895,0.10750389,-0.031008638,-0.027082752,0.0887547,0.17869869,-0.057881527,0.10177173,0.21113774,0.023805592,-0.011829175,0.20268449,0.011235148,0.13159451,0.0029614093,0.13756636,0.1160663,0.16110861,-0.01057693,0.06120743,0.08134553,0.12572579,0.054783937,0.055558167,-0.08001307,-0.016785532,0.046889495,0.020210057,0.25302753,0.21996932,0.0034256335,0.101431586,-0.034050524,-0.060444716,0.008414382,-0.036550913,-0.0022558067,0.23014423,-0.032227207,0.12488201,-0.05329688,-0.01787489,0.08580515,0.08851707,0.1598342,0.04462228,0.02257632,0.033216447,0.10009454,0.09913223,0.07218824,0.033214174,-0.057720874,0.09232086,-0.06332349,0.014105961,-0.029765256,0.15536791,-0.038779795,0.32428813,0.2299955,0.0009288769,-0.010697063,-0.045096204,-0.0058844816,0.08759813,0.058935367,0.12466279,0.09713269,-0.07012078,0.1719638,-0.004514355,0.044375192,-0.019563789,-0.0019796342,0.03343112,-0.008279271,0.15606423,-0.027471395,-0.028254999,0.037227057,-0.034737937,0.06399328,-0.06449175,0.008716945,-0.020263912,0.13796684,0.055763632,-0.032298252,0.042690895,0.0653396,0.07770797
CBRE,0.046741836,0.06268706,-0.019187693,0.05818294,0.19770387,0.06188806,-0.055868983,-0.0873879,-0.04393998,0.106898785,-0.03199313,-0.026609182,0.08808531,0.18415105,-0.057602137,0.10041096,0.2109289,0.024100624,-0.017884247,0.20073274,-0.020270485,0.12910515,0.016959716,0.13724217,0.11217751,0.16046318,-0.0116436705,0.05758809,0.07891168,0.12800771,0.05729131,0.016776752,-0.07943498,-0.016688347,0.0069699474,0.018875457,0.25056553,0.22228183,0.0035530943,0.09987879,-0.03332946,-0.058688506,-0.005856633,-0.035509244,-0.0149114765,0.23447181,-0.03238479,0.12392237,-0.053973515,-0.020701863,0.0017032064,0.08806749,0.16253419,0.046479452,0.011471935,0.032243773,0.09948888,0.094606504,0.0728409,0.033966158,-0.05474855,0.09140269,-0.063593134,0.013174944,-0.028671525,0.14309844,-0.039558243,0.32696533,0.22579339,-0.025070578,-0.04915688,-0.04528954,-0.0064077973,0.08765051,0.023771767,0.12606117,0.09660492,-0.067984805,0.17074105,-0.004989611,-0.038380474,-0.018242285,0.011931527,0.025664061,-0.03443751,0.03652793,-0.027700461,-0.027802257,0.03808511,-0.035085104,0.024008244,-0.064854845,0.00861156,-0.024682226,0.13572468,0.009161878,-0.0351461,0.037512608,-6.793067e-05,0.04413712
CCI,0.04794749,0.051868696,-0.041521654,0.036029164,0.19454543,0.062072016,-0.060960364,-0.08663346,-0.045105565,0.10494099,-0.033537194,-0.033440117,0.08692194,0.17989221,-0.057640973,0.10395844,0.20998545,0.023382239,-0.017015375,0.20108348,-0.04367903,0.13216469,0.002275885,0.13913369,0.11237376,0.1620189,-0.01453305,0.059171326,0.080507986,0.12749851,0.05589864,0.01775968,-0.08207218,-0.01515509,0.017942991,0.016791716,0.24994083,0.2205597,0.003282426,0.100453794,-0.030195737,-0.06546124,-0.0323705,-0.039179333,-0.014630094,0.23032057,-0.031381473,0.12373473,-0.05701243,-0.020674292,0.0041775256,0.08892673,0.16024528,0.04301237,-0.005186258,0.03201776,0.09715223,0.091383785,0.07298474,0.031617332,-0.056107167,0.092198454,-0.06344521,0.014702313,-0.031809572,0.14785528,-0.051407304,0.3289823,0.22570522,-0.05061641,-0.06879066,-0.049936745,-0.0060670376,0.08728662,0.03479199,0.12469308,0.09598912,-0.07041858,0.16920853,-0.00451112,-0.048158165,-0.02601529,-0.011807039,0.029761747,-0.03980343,0.011913113,-0.030506957,-0.02796674,0.036283158,-0.034688063,-0.0046927184,-0.064481944,0.0076618865,-0.026591578,0.13528465,0.02236721,-0.036207907,0.039435647,-0.016369592,0.053019717
CDNS,0.04568716,0.06740379,-0.009747608,0.45096695,0.19740051,0.061973736,-0.038973685,-0.08595844,-0.043930996,0.10683534,-0.030555584,0.008777361,0.08816424,0.18486392,-0.058497727,0.13028352,0.21702458,0.025732234,-0.015330076,0.20604958,-0.0038165916,0.13220331,0.014541001,0.13862593,0.11315617,0.15637761,0.042051107,0.057921473,0.07945226,0.12906083,0.057361253,0.021655573,-0.07527575,-0.017023709,0.21028358,0.021134116,0.27940083,0.2317313,0.003997974,0.1010066,-0.034971178,0.0050841607,-0.012164172,-0.031073881,-0.011768743,0.23407699,-0.02111094,0.1353004,-0.05379515,-0.023913715,0.01098204,0.090005524,0.16180176,0.054535024,0.0056543574,0.030012615,0.10253222,0.13946022,0.07713963,0.032790907,-0.038644988,0.09250191,-0.0628023,0.015092231,-0.025745288,0.14487511,0.09093515,0.32652777,0.22764927,-0.02724531,-0.04184983,0.017999895,-0.008441046,0.08843675,0.20616665,0.12723643,0.105308086,-0.051274456,0.16998266,-0.004987048,-0.02107324,0.105688564,0.20906772,0.02654694,-0.024120837,0.066578895,-0.01898108,-0.029442096,0.03876604,-0.035225622,0.02827911,-0.06305419,0.021544166,0.038331747,0.13567232,0.28296924,-0.015028855,0.043402687,0.015383974,0.17102808
CDW,0.045378953,0.07267062,-0.0013196785,0.3342447,0.19964977,0.062218368,-0.043677762,-0.08565728,-0.044629842,0.10809324,-0.029182984,-0.010306144,0.08754876,0.18307853,-0.05763028,0.11047003,0.21156164,0.025616873,-0.015391953,0.20277993,-0.033511814,0.12924875,0.025625553,0.1395659,0.114201054,0.15869322,0.023676604,0.06158031,0.08375801,0.12790914,0.056307152,0.025860801,-0.074489266,-0.018091284,0.14747906,0.02083927,0.2593759,0.22368757,0.004599763,0.101466745,-0.03727319,-0.019424101,0.013085602,-0.028959446,-0.008929141,0.23618059,-0.027493248,0.12646058,-0.051888425,-0.020625006,0.02674593,0.091064855,0.16373526,0.053319212,0.002927903,0.03102256,0.099188685,0.12588471,0.0739358,0.03481115,-0.045832686,0.09267916,-0.06328429,0.0134169385,-0.023966711,0.14582147,0.049417756,0.32664758,0.23394547,-0.024468325,-0.029422417,0.0021052472,-0.0068368986,0.089607745,0.13680173,0.12802184,0.09992875,-0.059325058,0.17070358,-0.0048212986,0.0004483238,0.069148496,0.14997277,0.026805224,-0.030604638,0.07478003,-0.022707993,-0.029352492,0.03904426,-0.032639064,0.029964402,-0.061823107,0.012782581,0.014518868,0.13728473,0.19774851,-0.020469123,0.03862728,0.02889831,0.1259321
CE,0.044598207,0.06525009,-0.01850399,0.16611922,0.19872062,0.061503425,-0.0572477,-0.0873635,-0.04371155,0.10778519,-0.03285709,-0.021771304,0.087803945,0.185086,-0.058717564,0.10484918,0.2105254,0.024657615,-0.015618578,0.20202306,-0.008293537,0.13053676,0.017288791,0.13774164,0.11328034,0.16080883,-0.013428461,0.06085468,0.08101114,0.12885655,0.058198854,0.021656627,-0.08097318,-0.017477334,0.08031894,0.019457106,0.2538521,0.222644,0.003789289,0.101672485,-0.03329435,-0.059472397,-0.002463773,-0.036487404,-0.015611501,0.23487686,-0.031137362,0.12575354,-0.054846406,-0.019586738,0.008220531,0.089058995,0.1625968,0.04566177,0.0035481043,0.031027555,0.10256853,0.094860815,0.07306545,0.031886946,-0.057286076,0.091159,-0.06308605,0.014570519,-0.029183835,0.14494647,-0.0037477221,0.32690567,0.22836359,-0.02827762,-0.044546578,-0.04412265,-0.0063648075,0.088596694,0.0841793,0.12713094,0.097815424,-0.069461495,0.17035984,-0.004302129,-0.01747606,-0.0059243273,0.025492683,0.029603027,-0.023066368,0.06571409,-0.02942218,-0.029853547,0.036507525,-0.033001587,0.029497035,-0.0657195,0.008906394,-0.006770959,0.13631245,0.09474003,-0.03508433,0.03923925,0.011430584,0.10960907
CF,0.046207614,0.060760222,-0.011448068,0.32916993,0.19456027,0.06161982,-0.04838389,-0.08630006,-0.041787,0.10909026,-0.034193583,-0.0051695593,0.08897678,0.18744451,-0.054218125,0.11222201,0.21137981,0.026843581,-0.014477611,0.20428646,0.02011939,0.1343673,0.013061246,0.13798103,0.11851286,0.1601207,0.023184389,0.064214304,0.08265775,0.12739213,0.062015206,0.039675258,-0.081344455,-0.019866142,0.14543512,0.018017102,0.26317376,0.22330531,0.0030648187,0.10289336,-0.032632507,-0.015848558,-0.0049775597,-0.035139855,-0.0029283706,0.2326332,-0.0269424,0.13158962,-0.056346327,-0.016324531,0.040659428,0.09044397,0.16061284,0.05160901,0.008578062,0.030439733,0.1085448,0.12291896,0.07162461,0.036751866,-0.0426901,0.09306432,-0.06344046,0.016020812,-0.029005155,0.15228967,0.050271288,0.32730725,0.22992972,-0.010416409,-0.027760893,-0.0016548894,-0.0059819445,0.08722762,0.1344115,0.12957619,0.10330823,-0.056054797,0.17305607,-0.0029604435,0.014711492,0.06929181,0.1485501,0.031624522,-0.0110148415,0.12231729,-0.02364954,-0.028185198,0.035840094,-0.031620637,0.056221254,-0.06562559,0.012420319,0.011380853,0.1371852,0.19693372,-0.024949156,0.04099214,0.037714005,0.12232793
CFG,0.045621336,0.058767457,-0.029310403,0.14015743,0.19531232,0.06193026,-0.054207537,-0.08764963,-0.04226902,0.107532784,-0.03210973,-0.028260892,0.09065506,0.18612975,-0.057384677,0.105032064,0.21059614,0.02304155,-0.017453946,0.20492934,-0.019280784,0.13528791,0.0073639276,0.13812009,0.11330717,0.1626579,-0.0030797198,0.06532309,0.083230615,0.12779747,0.057833727,0.026522687,-0.07960709,-0.018008426,0.06936313,0.019773517,0.25707757,0.22267446,0.00398292,0.102144875,-0.035102356,-0.05364398,-0.024135932,-0.03359607,-0.011964828,0.23117161,-0.030542264,0.12696199,-0.053492174,-0.019677784,0.016762134,0.08887082,0.16174285,0.047244154,0.0009843949,0.03136112,0.10118127,0.10399043,0.072879225,0.033308957,-0.05141282,0.092448995,-0.063807234,0.016702287,-0.027660448,0.14969927,-0.026820425,0.32608718,0.23266008,-0.03457898,-0.052373443,-0.034284286,-0.005889926,0.0883127,0.08499171,0.12574865,0.097696155,-0.06890697,0.17132828,-0.0046623256,-0.03000842,-0.008831609,0.019173086,0.029553816,-0.03402185,0.041496113,-0.029822666,-0.029412711,0.036645584,-0.0357555,0.0138983205,-0.063936874,0.008339025,-0.0117099825,0.13764386,0.0867629,-0.03192559,0.041045934,0.007664874,0.09181042
CHD,0.046091147,0.074150555,0.0053784,0.22426644,0.19271433,0.06241862,-0.05768827,-0.08589264,-0.041461874,0.10591544,-0.034965836,-0.01833452,0.086763,0.18184903,-0.05788692,0.105752856,0.21201518,0.023190226,-0.014411882,0.20062123,-0.016438928,0.12978911,0.02481307,0.1374497,0.112375036,0.16499773,0.007102251,0.054201927,0.07972072,0.12625524,0.056676984,0.027890796,-0.07739445,-0.019789761,0.086303085,0.019361876,0.25360113,0.22205235,0.0050714687,0.10147874,-0.03160065,-0.036013708,0.0039752014,-0.040196024,-0.013369409,0.2303235,-0.03158799,0.122886226,-0.059800267,-0.020834018,0.021331783,0.08922589,0.16134499,0.046904698,-0.0012852736,0.031044474,0.10549424,0.10614668,0.07388036,0.032746788,-0.05421348,0.09232788,-0.06322761,0.014225736,-0.0310405,0.15097505,0.018946743,0.33006507,0.2237722,-0.012359807,-0.019539751,-0.020965248,-0.006584339,0.087552935,0.07267073,0.12464172,0.09834695,-0.06475033,0.17057498,-0.005069094,-0.0012721419,0.035483465,0.09635219,0.03025113,-0.02760385,0.072804816,-0.028759815,-0.029566893,0.03519331,-0.03570152,0.042844735,-0.06510635,0.0063096583,-0.011007903,0.13773066,0.12846933,-0.030300148,0.0379842,0.030825257,0.08363734
