,0,1,2,3,4,5,6,7,8,9,10,11,12,13,14,15,16,17,18,19,20,21,22,23,24,25,26,27,28,29,30,31,32,33,34,35,36,37,38,39,40,41,42,43,44,45,46,47,48,49,50,51,52,53,54,55,56,57,58,59,60,61,62,63,64,65,66,67,68,69,70,71,72,73,74,75,76,77,78,79,80,81,82,83,84,85,86,87,88,89,90,91,92,93,94,95,96,97,98,99
A,-0.0662356,0.2918977,-0.030186068,-0.06463253,0.025790233,0.12920144,0.13037191,0.06855567,0.05327345,0.028277647,0.27448732,0.1395844,0.13052645,-0.05108474,0.065638065,-0.047832586,0.11783138,0.24905439,0.149282,0.25772852,-0.014216244,0.0035348795,0.08427835,-0.014019918,-0.06606382,-0.01166131,0.03335945,0.020881355,0.071272075,0.102020174,0.02619044,0.21151307,-0.06576583,0.2235555,0.11817641,-0.011625323,-0.02233519,0.18977667,-0.032251723,0.013570272,0.020217061,0.19037455,0.05230489,0.03938369,-0.010976896,0.14135768,0.18756407,0.102472864,-0.03901704,0.20918451,-0.019787572,0.10179234,0.16753863,0.1447134,0.016307779,0.09259831,0.08477239,0.024716776,0.025471516,-0.0018758923,0.10181695,-0.016438447,0.13195431,0.09561971,0.050953977,0.07595251,-0.01935272,-0.05638746,0.1573291,0.120954804,0.062075265,-0.06030197,0.08114441,0.031082302,0.014482308,0.08985637,-0.04741609,-0.03898374,-0.008288309,0.131778,0.07758734,-0.02751812,-0.060511976,0.10963376,0.21068694,0.120002806,-0.0048811315,-0.010433052,0.020218011,0.06227214,0.3641576,-0.049302228,0.063198,-0.030828692,0.16209175,-0.03378234,0.0072129164,0.22822893,0.1043877,0.041691415
AAL,-0.053703737,0.30568132,0.009497978,-0.06488875,0.052520834,0.130999,0.1309939,0.06958671,0.10946381,0.035886765,0.30011618,0.16947132,0.14702368,-0.048536353,0.1449229,-0.022078386,0.1293816,0.25568324,0.24240592,0.24709213,0.052365385,0.057929136,0.09667151,0.09704604,-0.065895975,0.005657561,0.04165247,0.07075268,0.07803427,0.2196871,0.03566559,0.21539252,-0.06449793,0.23627351,0.119174264,-0.0040851794,-0.015500732,0.19348624,-0.02666803,0.014309583,0.039120033,0.43818903,0.053912878,0.03689951,0.070570424,0.29258192,0.1913088,0.102674775,-0.040116116,0.22784278,0.057855763,0.102887146,0.34713537,0.15541865,0.013885476,0.19654165,0.08849926,0.026469138,0.023463104,0.0076697357,0.12142655,-0.008094005,0.12949294,0.17684866,0.25216013,0.08101549,0.04525116,-0.024938285,0.18454756,0.12420058,0.06816608,-0.05740783,0.086010516,0.029167444,0.014419448,0.09268136,-0.044733305,-0.032618232,-0.006847903,0.12527986,0.0805776,-0.035790037,-0.041841194,0.109458715,0.21622297,0.2480616,0.012231225,0.06577491,0.06773501,0.1623353,0.3809993,-0.04633539,0.0659946,-0.010713671,0.17011419,-0.012626387,0.13556515,0.2640833,0.109503165,0.051002756
AAP,-0.032027144,0.2983566,-0.016425874,-0.048783477,0.043308675,0.12695226,0.13284224,0.06938747,0.13964643,0.03243916,0.33046654,0.13850008,0.14111269,-0.052502505,0.1995074,-0.018412203,0.13270557,0.24973686,0.39135242,0.32899567,0.063338466,0.12717952,0.08401333,0.06989272,-0.046695378,0.05230623,0.039520953,0.12798686,0.07672216,0.3481618,0.032914646,0.21552333,-0.06645557,0.2599604,0.12338191,0.031506665,-0.020036366,0.2015324,-0.031140625,0.0129450895,0.096137404,0.47065076,0.055336945,0.054251663,0.12856373,0.23560636,0.19641456,0.107512146,-0.039807513,0.26162618,0.07135436,0.10820322,0.40968597,0.14955074,0.013532994,0.1690562,0.08570752,0.020757135,0.024107724,0.0005486235,0.103295416,-0.010290317,0.12949242,0.23991138,0.2626425,0.09111753,0.013141349,-0.02511166,0.20235273,0.11874171,0.06335283,-0.059810378,0.112763174,0.029017307,0.014374405,0.09193236,-0.042442165,-0.031374935,0.0019031651,0.14662366,0.07697907,-0.035828233,-0.023844989,0.11426708,0.21542753,0.40677917,0.042686407,0.060051367,0.14303866,0.18657981,0.3991652,-0.04426457,0.06406897,-0.025336735,0.17133543,-0.01797117,0.176145,0.23116432,0.10854932,0.042590525
AAPL,-0.06392701,0.28897575,-0.018318933,-0.07021707,0.037975527,0.12585407,0.13109577,0.07010623,0.048694864,0.02944506,0.26441273,0.14892736,0.13926102,-0.045432813,0.12461946,-0.033036362,0.12444811,0.24980533,0.20657,0.22531827,0.0037776753,0.062436536,0.09020277,0.037257645,-0.074141935,0.023233823,0.03698358,0.05724425,0.07546051,0.1953074,0.026034938,0.21113048,-0.06343432,0.20460862,0.11977054,-0.037105236,-0.015489206,0.18931681,-0.034363717,0.013058084,-0.0046668183,0.192241,0.04589423,0.028617978,0.08871937,0.20414145,0.1886076,0.10333138,-0.037286963,0.187825,-0.019892741,0.10372263,0.14457747,0.14936832,0.017604383,0.20247285,0.08636892,0.027854025,0.022588596,0.002462089,0.10786113,-0.018232577,0.12897575,0.19424985,0.18633872,0.06965626,-0.006439731,-0.055413924,0.1371319,0.13682905,0.068730384,-0.062948436,0.080909714,0.02804375,0.013511453,0.092053406,-0.04968624,-0.037947014,-0.008229604,0.11905295,0.077646956,-0.03043717,-0.048010707,0.10792183,0.19362332,0.24199867,0.0100789275,0.007261429,0.02380791,0.053865142,0.36235625,-0.05084341,0.0660526,-0.03007181,0.16912991,-0.025900653,0.09730057,0.23680304,0.10403984,0.04256781
ABC,-0.069872916,0.28771722,-0.029858202,-0.08231571,0.015125999,0.12444412,0.12958978,0.06839518,0.03635708,0.026987553,0.2528593,0.1376867,0.12578614,-0.053047273,0.022815395,-0.055371374,0.120862916,0.24692795,0.013140805,0.2194828,-0.023121439,-0.060269326,0.08344109,-0.010491993,-0.080536395,-0.0638579,0.033302985,-0.04456277,0.06748235,-0.006928295,0.025153918,0.2100428,-0.063827425,0.19677688,0.11459689,-0.04675765,-0.022898769,0.18876332,-0.03432417,0.01275849,-0.025006369,0.022311581,0.039979734,0.031041227,-0.036075994,0.11744957,0.18893158,0.10175506,-0.0370701,0.17100814,-0.050672352,0.10308091,0.006563518,0.14928788,0.016160041,0.07179712,0.085855916,0.024976205,0.02534987,-0.0034947954,0.10268415,-0.018916294,0.13147148,0.056845427,0.042147413,0.068341546,-0.022992631,-0.056598455,0.12071474,0.119852945,0.062338307,-0.063003846,0.08037382,0.030079585,0.014479157,0.09157939,-0.044946212,-0.043948714,-0.008887637,0.12398202,0.07730353,-0.02995139,-0.06060703,0.106988445,0.18614808,-0.0002944097,-0.047563963,-0.00970437,-0.048501916,-0.04352504,0.35528696,-0.05169119,0.06357368,-0.032032635,0.16092418,-0.030301772,-0.044844996,0.22481117,0.1031788,0.03924155
ABMD,0.024702266,0.29674807,-0.034626707,-0.014105216,0.026083486,0.12944722,0.13304152,0.07397999,0.0821559,0.04016296,0.2840842,0.16126657,0.13926512,-0.042220004,0.40370297,-0.042168856,0.13075091,0.25564733,0.7513895,0.28371468,0.006060794,0.31442362,0.098478764,0.24810436,-0.02841945,0.17532313,0.03896147,0.29241556,0.07823708,0.70965147,0.032952443,0.21389778,-0.06147286,0.22741205,0.11945057,-0.0029789284,-0.01883182,0.19574597,-0.02011627,0.014720163,0.051755197,0.25448218,0.06080348,0.037053853,0.35809174,0.17741911,0.18954338,0.110868335,-0.036395818,0.2776488,0.0073472373,0.104845926,0.23215488,0.16235891,0.017143393,0.4319838,0.093219444,0.043025404,0.02718468,0.009730477,0.11630104,-0.002332516,0.13344753,0.4960491,0.6139768,0.083555,0.10920556,0.0010366924,0.22511987,0.12798168,0.06740919,-0.058672197,0.09373754,0.03231901,0.014699254,0.09141724,-0.045381095,-0.03273173,-0.0063597616,0.13468301,0.084255256,-0.027871436,-0.052387692,0.110367626,0.20865986,0.8659878,0.13001001,0.029971622,0.31170726,0.08810618,0.36724493,-0.04341699,0.06585855,0.0019799992,0.1738172,-0.033113316,0.4557791,0.25910497,0.109447405,0.04822322
ABT,-0.07087709,0.2871992,-0.02969639,-0.08529536,0.020252202,0.12380833,0.12962729,0.06761642,0.0390592,0.028338265,0.2540586,0.13817517,0.12536238,-0.05341823,0.010638671,-0.055051498,0.120572075,0.24868065,0.015681826,0.2534812,-0.018680692,-0.057629738,0.082762346,-0.016095977,-0.08079556,-0.041095093,0.033966765,-0.039662167,0.07011386,-0.018855266,0.02391013,0.21192889,-0.06441826,0.19869779,0.11469212,-0.02358415,-0.0227192,0.19113934,-0.034329586,0.012600927,0.011952708,0.107449725,0.040513776,0.03205104,-0.046047654,0.111137845,0.18900955,0.10173074,-0.036328584,0.1687678,-0.046627775,0.10280998,0.111107476,0.14781897,0.014767907,0.053492874,0.08627736,0.025551904,0.025195383,-0.0027150027,0.10198473,-0.020830784,0.1323877,0.039422676,0.023054905,0.07246059,-0.020242408,-0.055943094,0.12071704,0.12023257,0.060263947,-0.061663773,0.08824588,0.030652259,0.014807016,0.09048425,-0.046516415,-0.0436264,-0.008529361,0.12411152,0.07795295,-0.030290369,-0.062814504,0.1068272,0.18716717,-0.01069719,-0.038638435,-0.009178121,-0.05797021,0.02417684,0.35523874,-0.05185342,0.0632903,-0.03224822,0.16125919,-0.03267079,-0.06827138,0.22493315,0.101935,0.040351734
ACN,-0.071470104,0.289365,-0.026991252,-0.080088004,0.029420957,0.12448393,0.12968452,0.06804755,0.04181013,0.027464585,0.26293573,0.13897325,0.134069,-0.05192489,0.107568264,-0.04916044,0.120380394,0.25054026,0.11989425,0.21952105,-0.005476713,0.019358369,0.082961895,0.052533098,-0.07955438,-0.029224884,0.035140436,-0.0037300466,0.07216753,0.13628861,0.025915897,0.2129519,-0.06464155,0.20783308,0.117039286,-0.037284203,-0.022548037,0.19039236,-0.032041885,0.011785058,-0.019840017,0.12649816,0.041198958,0.03168578,0.04795862,0.18130228,0.18825401,0.10305206,-0.0377719,0.18291178,-0.033794776,0.10151665,0.09383104,0.1467312,0.01565275,0.15911719,0.08232845,0.026425049,0.02046286,-0.0021362118,0.10212131,-0.013419896,0.13240178,0.15100679,0.16765636,0.068961844,-0.008326124,-0.04715983,0.13784377,0.11801377,0.07017528,-0.0630535,0.080038965,0.027211,0.012387883,0.092323974,-0.047375023,-0.040674143,-0.0071027987,0.118491806,0.07976161,-0.027851408,-0.06285328,0.10304698,0.19421697,0.17393574,-0.025385678,-0.009798033,-0.016643792,0.021300219,0.35737547,-0.051371753,0.06329334,-0.033522397,0.1581901,-0.031911027,0.066709705,0.22962178,0.10450371,0.04014971
ADI,-0.06865698,0.28782108,-0.028039485,-0.081991054,0.016208004,0.1255968,0.1294887,0.06776953,0.046108276,0.029628243,0.25733876,0.13749275,0.12891449,-0.05221332,0.020135155,-0.055698287,0.12263598,0.24762306,-0.004660636,0.22966695,-0.027710795,-0.065584034,0.08317265,-0.009461228,-0.078680314,-0.057859495,0.036104005,-0.045169484,0.06905685,-0.015045527,0.025139542,0.21057494,-0.063869625,0.1991719,0.11540548,-0.041305553,-0.020804258,0.18994659,-0.033675443,0.012176713,-0.014473086,0.05839377,0.040509697,0.031314008,-0.040888365,0.12736133,0.18765907,0.101980515,-0.03714601,0.1750609,-0.037491716,0.10108555,0.038937964,0.14642161,0.015394056,0.06647813,0.08491936,0.025153466,0.024549536,-0.0036291108,0.10175784,-0.019803666,0.13105088,0.05118188,0.04381922,0.06970721,-0.017337747,-0.056995437,0.12467711,0.11927436,0.059797723,-0.06313333,0.08411466,0.029649973,0.01415579,0.09090984,-0.04463621,-0.041586615,-0.008779196,0.12097942,0.0773173,-0.029693538,-0.059277333,0.10514954,0.18898147,-0.0141554065,-0.043458045,-0.0062536485,-0.05251534,-0.022657719,0.3602574,-0.049939975,0.06300088,-0.032524392,0.15978989,-0.035242464,-0.052390024,0.22768313,0.10492486,0.040741354
ADM,-0.06918834,0.2900405,-0.02531508,-0.07550381,0.03242954,0.13005073,0.13003132,0.06896264,0.046265364,0.026402121,0.26035044,0.14505213,0.12954551,-0.04987027,0.033583898,-0.041744597,0.12122178,0.24897002,0.062380068,0.22075526,-0.01827611,-0.046329983,0.08829777,0.011248656,-0.07303463,-0.038481373,0.034877896,-0.020454984,0.07181441,0.017258156,0.02619149,0.21091506,-0.06489976,0.21215084,0.11627768,-0.038148716,-0.021251176,0.19051442,-0.03302673,0.01337683,-0.019289127,0.1319523,0.048327766,0.032343067,-0.03308255,0.18121968,0.18943518,0.10355885,-0.036833365,0.19052422,-0.039470732,0.10216603,0.09115364,0.14698672,0.015356967,0.0758876,0.08663166,0.028429523,0.026426382,0.0031554103,0.106727876,-0.019651972,0.1321607,0.053281162,0.084634006,0.07286749,-0.012408931,-0.05235238,0.13866462,0.12415469,0.059512444,-0.062597565,0.0814666,0.031232145,0.015541218,0.09103188,-0.04722749,-0.04075867,-0.009079602,0.12352813,0.075827315,-0.027133102,-0.05695446,0.10389313,0.20022765,0.014684107,-0.026220663,-0.004732184,-0.02090976,0.028158428,0.35790807,-0.05205158,0.06457828,-0.02943583,0.16020156,-0.029758219,-0.024836633,0.23611723,0.103618644,0.04116962
ADP,-0.07027096,0.286047,-0.030242719,-0.08216129,0.028651733,0.12602288,0.12941037,0.06767218,0.026329111,0.02499988,0.25645384,0.13536216,0.12674487,-0.053471923,0.0033188537,-0.05648159,0.11721262,0.24760027,-0.0012531951,0.21780363,-0.03265419,-0.071570925,0.082821146,-0.008505721,-0.07874124,-0.05164016,0.033915058,-0.042842064,0.06700135,-0.038917188,0.023932165,0.21043555,-0.06379318,0.1995213,0.11475076,-0.046388026,-0.023634456,0.18896088,-0.03388102,0.013079014,-0.02944576,-0.016167605,0.040691085,0.03130774,-0.062259328,0.11689606,0.18921629,0.10106008,-0.03773928,0.17573401,-0.062348053,0.10062459,-0.003941864,0.1430983,0.015134924,0.037236795,0.08497079,0.026502028,0.02530501,-0.0035217218,0.10090093,-0.02008367,0.13189752,0.017009072,0.032305703,0.07006505,-0.01571015,-0.05522462,0.12440676,0.11939897,0.059544284,-0.062522486,0.07951004,0.030386597,0.014491279,0.09180829,-0.046993017,-0.04343071,-0.008660311,0.124182604,0.07777576,-0.028656272,-0.065015286,0.10662615,0.18676683,-0.045656852,-0.04399573,-0.020621669,-0.05327732,-0.032048978,0.357923,-0.050972648,0.06292307,-0.033201754,0.1564972,-0.03237548,-0.069446266,0.22588924,0.102695495,0.039454266
ADSK,-0.03243105,0.2974396,-0.023173437,-0.042784628,0.024013072,0.13138995,0.13054675,0.06987505,0.047095127,0.036071036,0.30843025,0.14414528,0.13578382,-0.049327422,0.17436358,-0.04816545,0.122958995,0.25093573,0.35605603,0.24242193,-0.014230996,0.10306564,0.08684198,0.05357048,-0.040664375,0.053212702,0.038628507,0.11234039,0.07772127,0.30376795,0.030491615,0.21486849,-0.06964335,0.2535808,0.12322618,-0.023367837,-0.020483768,0.18952169,-0.028767252,0.014306178,0.020379469,0.16057013,0.058747847,0.030111004,0.09735751,0.18306667,0.19096738,0.10466254,-0.035924297,0.25395453,-0.015518293,0.10265249,0.1503446,0.15103668,0.014489297,0.15723094,0.08501365,0.025844533,0.02365905,0.0076052696,0.105213985,-0.010148119,0.1305339,0.22086006,0.2266727,0.0740111,0.015256962,-0.038972102,0.20467463,0.122320384,0.0637659,-0.05738485,0.08581548,0.028480973,0.013804682,0.09061416,-0.045799688,-0.03211016,-0.0059981085,0.12656076,0.076416716,-0.031112283,-0.060357362,0.11292245,0.2283504,0.35776645,0.043269694,-0.0054617394,0.121267155,0.042336322,0.3860792,-0.0495933,0.06458954,-0.027263284,0.16266471,-0.033094432,0.15652081,0.23369098,0.10960291,0.043311767
AEE,-0.07276914,0.2879261,-0.028893419,-0.08351429,0.019652834,0.125093,0.12953413,0.068474576,0.01693464,0.02383332,0.2525461,0.13494682,0.12567762,-0.052882735,0.0008111808,-0.056402925,0.1145607,0.24800675,-0.009185903,0.21774344,-0.025898144,-0.06696145,0.08189872,-0.021680992,-0.07869982,-0.04872822,0.033246383,-0.05033216,0.06806451,-0.040572166,0.024424193,0.20936985,-0.064540535,0.19607177,0.11366834,-0.048278645,-0.024260938,0.18886511,-0.0351272,0.013399529,-0.018969057,0.006866983,0.039727237,0.032050345,-0.057389017,0.100010976,0.1887907,0.10088473,-0.036758512,0.16978596,-0.06682837,0.10058636,0.012257822,0.14228588,0.01512735,0.049116038,0.085683,0.02549028,0.025030572,-0.0019884333,0.10084526,-0.020833924,0.13137332,0.029001113,0.014134675,0.0688369,-0.019664768,-0.05677717,0.11963304,0.11900765,0.060530398,-0.06299683,0.079198934,0.029650588,0.014348317,0.0899708,-0.045890883,-0.043143164,-0.008465366,0.12389428,0.07709512,-0.030286629,-0.061188005,0.10694325,0.1850296,-0.036969826,-0.04473874,-0.02454367,-0.06588285,-0.03483466,0.35553586,-0.052071303,0.06291264,-0.03334607,0.1544261,-0.032676134,-0.07436791,0.2224512,0.10220961,0.041195266
AEP,-0.07203434,0.2863737,-0.02854627,-0.08618451,0.025219616,0.12383445,0.12896797,0.06806202,0.019824017,0.02260869,0.25140476,0.13655752,0.12577656,-0.053727917,0.007485698,-0.055713236,0.115149885,0.24664395,-0.025009893,0.22264186,-0.041469157,-0.07395513,0.0830455,-0.018647265,-0.08190648,-0.056113902,0.031908344,-0.0563858,0.06795428,-0.03795087,0.023575714,0.21065852,-0.06318997,0.19491261,0.11383275,-0.04720346,-0.023888309,0.18988863,-0.036132902,0.0125543205,-0.01720676,0.004751643,0.039054893,0.03127272,-0.050682083,0.10609564,0.1891655,0.1019653,-0.03639473,0.16836745,-0.066644005,0.100803405,0.021652754,0.1420049,0.014762562,0.05428257,0.085489854,0.025169034,0.024955492,-0.002815377,0.10087587,-0.021410886,0.13124835,0.03802401,0.02096828,0.06663492,-0.024585173,-0.05774025,0.117123365,0.11801377,0.060764633,-0.062558286,0.07846915,0.029649623,0.014391765,0.09182523,-0.047115173,-0.042615473,-0.008395689,0.12511313,0.077145755,-0.029007234,-0.065099254,0.10709573,0.18420859,-0.036150172,-0.04712195,-0.022420933,-0.066372454,-0.028395092,0.35326576,-0.05209665,0.06271605,-0.030353356,0.15530877,-0.032777857,-0.066280454,0.22373386,0.101651914,0.040838715
AES,-0.07027748,0.28832793,-0.027531363,-0.07665361,0.019901993,0.12684235,0.13136718,0.06967039,0.063932054,0.032567438,0.2557831,0.13805336,0.12958336,-0.052292123,0.029424755,-0.05544901,0.12722574,0.2518037,0.04740239,0.23116426,-0.01332178,-0.055229858,0.084801465,0.0013263971,-0.07397202,-0.047468185,0.03715347,-0.024405682,0.06890058,0.0052329116,0.025010528,0.2098591,-0.065590695,0.20801386,0.11606553,-0.03789977,-0.018800719,0.19256656,-0.034770176,0.013387954,-0.015979009,0.12714389,0.042401675,0.029009566,-0.02954891,0.13138533,0.18954347,0.1011437,-0.038669873,0.18798274,-0.016435375,0.10441117,0.09475482,0.15531486,0.015798975,0.07714545,0.084724516,0.024351243,0.025143422,0.00054435804,0.10282442,-0.018353749,0.1312333,0.063163966,0.063991204,0.06818553,-0.01355295,-0.057283416,0.13571925,0.12195647,0.06077965,-0.062034387,0.080370784,0.029740244,0.014509909,0.091449365,-0.046232495,-0.040634077,-0.008386429,0.1274184,0.076690555,-0.030522594,-0.061181694,0.10699621,0.19382605,0.01264926,-0.03426519,0.011446821,-0.030946858,-0.0105477115,0.35677168,-0.051022857,0.06447525,-0.03154098,0.1693706,-0.031663768,-0.036450688,0.2299405,0.10344737,0.042558514
AFL,-0.07067637,0.2880792,-0.02292262,-0.07552925,0.028799938,0.12574302,0.1301843,0.068116456,0.03359409,0.027047314,0.26954198,0.13824561,0.13254572,-0.05166236,0.022099659,-0.039197538,0.11677656,0.24736547,0.05151642,0.21985821,-0.015372317,-0.04629747,0.08369858,-0.0047725216,-0.077241,-0.048720926,0.03380947,-0.02730204,0.07589704,0.018651716,0.026552143,0.20983365,-0.06481552,0.20851384,0.115769744,-0.04480325,-0.023085412,0.19015612,-0.032905657,0.012672401,-0.01944876,0.14943595,0.040165614,0.032136302,-0.032519095,0.18629692,0.18794733,0.10218586,-0.03748835,0.1890655,-0.035860434,0.10134465,0.108355954,0.14309245,0.017112292,0.0711352,0.08448507,0.026850183,0.023992069,-0.0009429194,0.10322863,-0.01781559,0.13061137,0.054146238,0.03943742,0.06777819,-0.012695633,-0.056470286,0.13103026,0.1213913,0.058849256,-0.06267033,0.08290968,0.029305905,0.014156133,0.09174437,-0.046922397,-0.040412348,-0.009370966,0.12257198,0.07738027,-0.030016331,-0.05048729,0.10612304,0.1891832,0.010659717,-0.03819161,-0.010819778,-0.021250352,0.03159021,0.36652726,-0.049279116,0.06331589,-0.03316973,0.1587379,-0.031948946,-0.06313749,0.2277559,0.103325136,0.041265056
AIG,-0.06406335,0.28914404,-0.029833745,-0.073393956,0.02797415,0.12741044,0.13080102,0.07031487,0.043872382,0.03182912,0.2800082,0.1406532,0.13608716,-0.05004787,0.060498018,-0.04599914,0.1193203,0.24884781,0.1096954,0.23211953,-0.00642024,-0.011272339,0.08566294,0.031608194,-0.07110365,-0.02112379,0.03423418,0.008414762,0.070588335,0.072794646,0.027171979,0.21527508,-0.06362961,0.21700951,0.11634526,-0.036161516,-0.021134384,0.19414687,-0.031733155,0.0132429395,-0.013516918,0.08164117,0.044260852,0.032074105,-0.011396188,0.14504895,0.18827191,0.101867266,-0.040168174,0.20425826,-0.040784024,0.10141479,0.068994895,0.14568953,0.013614921,0.08217918,0.084225975,0.024987955,0.025771067,0.00088056177,0.10661011,-0.01797977,0.13122545,0.07645589,0.11572091,0.07683802,0.012111895,-0.051352084,0.14702861,0.12301572,0.064012684,-0.05899357,0.08549913,0.030830257,0.014695242,0.09078285,-0.046519794,-0.034648586,-0.008600384,0.12670684,0.07957211,-0.030489404,-0.057464622,0.10922106,0.19832149,0.07311737,-0.019533195,-0.009658525,0.0047488958,-0.006347467,0.37340307,-0.046330303,0.06367132,-0.02433021,0.15941235,-0.032527383,0.00609113,0.23988888,0.10449387,0.04497152
AIZ,-0.071013555,0.28938377,-0.027902108,-0.0814603,0.022396676,0.124312185,0.1307081,0.068185106,0.0670067,0.033286303,0.26691478,0.14082722,0.12995109,-0.05216348,0.025158504,-0.054031014,0.12739779,0.24822637,0.04597649,0.22102273,-0.011952035,-0.037901677,0.08545812,-0.007941011,-0.07863743,-0.034831394,0.038729385,-0.025479745,0.06897543,0.012358066,0.02692202,0.21066935,-0.065824255,0.2084041,0.11505672,-0.038017508,-0.02033778,0.19042258,-0.033996668,0.012584822,-0.019300938,0.13705914,0.0410285,0.029772237,-0.02819445,0.13767138,0.1881567,0.10217835,-0.036434103,0.17986652,-0.013942227,0.10114845,0.09862692,0.15425207,0.015454142,0.05158952,0.08430487,0.02460235,0.025090218,-0.0017565265,0.1047551,-0.01761444,0.13086128,0.055462196,0.04552529,0.06852928,-0.016603552,-0.056634292,0.13390397,0.120679006,0.061028324,-0.062666774,0.08080024,0.029876117,0.014395278,0.090422384,-0.04721737,-0.041003034,-0.008916551,0.1250607,0.07680395,-0.029161248,-0.060329203,0.10818872,0.19186938,0.027544409,-0.030315377,0.01400435,-0.028577384,-0.005909987,0.36064398,-0.05051583,0.06583245,-0.03454026,0.1698206,-0.033298522,-0.055754676,0.22969504,0.104449764,0.039576456
AJG,-0.07107563,0.28652903,-0.02697242,-0.083565675,0.022191113,0.12466611,0.12937784,0.068346426,0.022216462,0.024180776,0.25784594,0.13764577,0.12679316,-0.053375095,0.009904923,-0.05454025,0.11521136,0.24753113,-0.013437822,0.21540008,-0.045912378,-0.07455939,0.08338236,-0.01535074,-0.07963528,-0.06172569,0.03177898,-0.05060549,0.066672765,-0.033587478,0.023953332,0.20944977,-0.06487216,0.19833228,0.11394113,-0.049127277,-0.023230532,0.1893293,-0.03402369,0.012602616,-0.021836128,-0.016141277,0.04011242,0.03282815,-0.0507406,0.10672621,0.18878102,0.10127713,-0.03817838,0.17300385,-0.06701358,0.10066488,0.0028785393,0.14243934,0.015069138,0.05434475,0.08396029,0.024734206,0.024246044,-0.0022035837,0.100991964,-0.021444533,0.13099281,0.03797735,0.025156759,0.0697609,-0.022398511,-0.058960415,0.12166557,0.119953305,0.059417367,-0.06262304,0.07994029,0.028675985,0.013922878,0.090884835,-0.046336308,-0.04299365,-0.007941827,0.12431007,0.0780217,-0.029946826,-0.06519216,0.10684943,0.18727572,-0.03275503,-0.04831543,-0.021756168,-0.055453263,-0.03913074,0.359968,-0.051207148,0.06279293,-0.033165313,0.1551146,-0.03411514,-0.06755588,0.22349955,0.10287163,0.038813844
AKAM,-0.043948837,0.2988339,0.034355342,-0.07037188,0.07963623,0.12815262,0.13357478,0.07298974,0.20568994,0.038933028,0.29972082,0.14974658,0.16532649,-0.04539623,0.161238,0.0067272484,0.13901395,0.2528923,0.31205407,0.25286537,0.1312213,0.09922159,0.09056333,0.082118414,-0.058390122,0.041780025,0.038535412,0.09299517,0.079246186,0.2712003,0.027098453,0.21240059,-0.059513263,0.23404366,0.122000195,0.0464601,-0.01478911,0.19576761,-0.02840466,0.014196677,0.10312019,0.75422686,0.04242863,0.027770773,0.1310632,0.45005617,0.19100952,0.10602717,-0.035764277,0.2107601,0.16376737,0.103818096,0.6159502,0.1560806,0.014691364,0.25070295,0.08518483,0.026679397,0.024281733,-0.00034195185,0.114331864,0.016216546,0.13061999,0.24035664,0.24522607,0.10515421,0.043687038,-0.027890928,0.17716947,0.14133985,0.07703052,-0.055976655,0.08653325,0.029080085,0.014704581,0.09073043,-0.047570094,-0.029102297,-0.008690834,0.122876324,0.08778783,-0.029353417,-0.013348393,0.11811638,0.21408804,0.33341625,0.026832027,0.11530484,0.093879595,0.29949972,0.3565994,-0.040087882,0.06529322,-0.012607074,0.19218042,0.00046992302,0.15840834,0.257439,0.10631203,0.0505589
ALB,-0.06577873,0.29265362,-0.028741755,-0.07583055,0.03510764,0.12756695,0.13008668,0.06772838,0.054141458,0.030421803,0.27318457,0.13660607,0.13498193,-0.051200047,0.056261603,-0.054303188,0.12329998,0.2488914,0.09154714,0.2377153,-0.020919777,-0.017988145,0.08224359,0.01615306,-0.07474437,-0.03871315,0.035470966,-0.0007290095,0.07374367,0.058888778,0.028992767,0.21081716,-0.06425891,0.21494105,0.11767062,-0.031984374,-0.02097446,0.1903705,-0.031940676,0.012722096,-0.0019380096,0.09120062,0.045773268,0.03164483,-0.011164408,0.14683829,0.188862,0.10097727,-0.035929907,0.19179751,-0.028239923,0.10212226,0.06581516,0.15048623,0.0150297545,0.06867814,0.085340306,0.024869211,0.02051454,0.00070536137,0.10135904,-0.017876804,0.12850723,0.069076896,0.11387787,0.072113425,0.025993958,-0.04815315,0.1431734,0.12225282,0.06138492,-0.061465345,0.08191216,0.02593026,0.01089067,0.09273495,-0.047044635,-0.037981454,-0.011049582,0.12147372,0.076516956,-0.029026635,-0.059665576,0.10632505,0.20030887,0.07162696,-0.026822243,0.0030976813,-0.0067955703,-0.0001341179,0.36726847,-0.048915394,0.064101264,-0.030258674,0.1635982,-0.031732548,0.0139398705,0.22555615,0.106565304,0.049693163
ALGN,-0.02420105,0.2940075,0.015413865,-0.04311445,0.08467159,0.12971526,0.13140002,0.071532875,0.2297736,0.0348388,0.26885638,0.14233133,0.13865735,-0.0493749,0.24640432,0.012794066,0.12902968,0.25480008,0.4529282,0.40010235,0.10753369,0.17098656,0.09032078,0.12716833,-0.060626835,0.0938171,0.039450467,0.16124967,0.0744886,0.41242954,0.030188793,0.21931468,-0.0647742,0.20870401,0.11808457,0.0887342,-0.01793234,0.20410642,-0.028774254,0.012443691,0.16995764,0.8106468,0.04442242,0.07908196,0.20107502,0.29461855,0.20246474,0.11460954,-0.038041778,0.22586694,0.17794171,0.11635792,0.701807,0.15517807,0.015952367,0.26174766,0.089024805,0.032176208,0.02447027,0.0023213178,0.10666907,0.0032155737,0.13127306,0.3102557,0.35715327,0.11535618,0.04288126,-0.023830526,0.16441138,0.12389981,0.07375282,-0.05594962,0.13685471,0.030123238,0.014219824,0.089936584,-0.048006892,-0.034548346,0.010913774,0.1832947,0.0831895,-0.025377348,0.0063302293,0.12544657,0.1933935,0.5142729,0.060269963,0.11004777,0.1636832,0.3319797,0.3621481,-0.042554904,0.06523984,-0.018730622,0.16809656,-0.010813635,0.24844043,0.23679025,0.107329495,0.04908452
ALK,-0.070269525,0.29011267,-0.021875665,-0.076910034,0.022526845,0.1265116,0.13287218,0.07160011,0.06086525,0.030205464,0.27073362,0.14815791,0.13611296,-0.047423135,0.08032686,-0.04972376,0.12254356,0.25219068,0.07689898,0.24917465,-0.012355037,-0.007735189,0.08977996,0.033672802,-0.071982056,-0.027073808,0.036184095,-0.00813823,0.06971934,0.09829842,0.026293425,0.21502748,-0.06222566,0.21317793,0.11754566,-0.018227428,-0.018602615,0.19081484,-0.032797627,0.013171001,0.017854191,0.15995039,0.044025056,0.028132841,0.019834513,0.16897877,0.19068956,0.10335533,-0.03941901,0.1893898,-0.009995045,0.10260183,0.14219716,0.14877865,0.014367942,0.13269967,0.08438564,0.023787644,0.022866711,-0.0011623614,0.10879668,-0.0152618885,0.12954433,0.12153455,0.13081565,0.08221424,0.002679055,-0.05401712,0.13933031,0.12361817,0.065660015,-0.062570035,0.092229925,0.027297132,0.013884608,0.09169296,-0.045813974,-0.04059224,-0.0065573864,0.12332347,0.08036375,-0.03172202,-0.05948441,0.11434744,0.1967856,0.120815516,-0.026752621,-0.0067607053,-0.022736898,0.0334013,0.36462978,-0.04931938,0.06545163,-0.021547206,0.16602436,-0.033902086,0.031202588,0.23908979,0.10403468,0.044949435
ALL,-0.07107307,0.2885178,-0.026788998,-0.08305072,0.028734107,0.12328234,0.12973237,0.068631455,0.034322396,0.024781216,0.25770962,0.13763742,0.12839186,-0.052481014,-0.0034391517,-0.049507298,0.11548292,0.24846481,0.00084593147,0.22373055,-0.015570372,-0.07047256,0.084362656,-0.014967475,-0.07960883,-0.05759075,0.033082146,-0.044176795,0.06874372,-0.034584194,0.025718426,0.2111283,-0.06468201,0.2011726,0.114309885,-0.04173834,-0.023063866,0.18973866,-0.033735324,0.012947023,-0.023619022,0.09227845,0.040327433,0.030087389,-0.048878096,0.16648829,0.18731229,0.101617955,-0.03703395,0.17222166,-0.045668595,0.101517946,0.06105259,0.14186567,0.015369534,0.055310093,0.08425751,0.026540406,0.0250571,-0.0022397414,0.10255854,-0.016154818,0.13096952,0.03230156,0.027544118,0.06719176,-0.018433362,-0.05879882,0.122186385,0.11924611,0.06007328,-0.06310921,0.08099403,0.029318076,0.014182538,0.08998376,-0.046853684,-0.04243881,-0.007736331,0.12404341,0.07641734,-0.02814002,-0.0640641,0.1074839,0.18788606,-0.054890182,-0.04887224,-0.022476409,-0.050822213,0.0069163693,0.35996717,-0.05076039,0.062529534,-0.033580482,0.15755852,-0.032421377,-0.077036425,0.22799061,0.10340279,0.040257126
AMAT,-0.06721904,0.28853104,-0.025194392,-0.08019734,0.025115535,0.12580608,0.13001744,0.06973159,0.06930791,0.028041262,0.25968057,0.13944772,0.13016538,-0.051232018,0.017620787,-0.052611906,0.12120591,0.24943244,0.026802257,0.25729805,-0.0054874048,-0.056405537,0.085414305,0.0060254335,-0.078645736,-0.038125798,0.03748287,-0.031481817,0.07114115,-0.010824181,0.025901245,0.21291254,-0.06446731,0.20323063,0.117379904,-0.015719589,-0.021100141,0.19091745,-0.03299206,0.012671564,0.03495038,0.21195395,0.042748615,0.031812288,-0.04423809,0.1544833,0.18940365,0.10621174,-0.036603563,0.17507687,0.0011418648,0.10134794,0.19434613,0.14827743,0.015250223,0.060985997,0.08673856,0.025342554,0.023867235,-0.0016867667,0.10380414,-0.015194088,0.13071056,0.04459338,0.05590021,0.07517377,-0.010013948,-0.06013606,0.12673576,0.12284047,0.05968438,-0.060970463,0.08990735,0.02873303,0.013631422,0.09010093,-0.046292953,-0.04029815,-0.0077107623,0.12596871,0.081877545,-0.028187925,-0.060144447,0.113606796,0.19072255,-0.0043169297,-0.03430963,-0.007671524,-0.039198827,0.062482543,0.3608622,-0.050833903,0.06363472,-0.029848095,0.16233711,-0.033973023,-0.049060717,0.23282132,0.10467699,0.04103595
AMD,-0.040377177,0.29982877,-0.018855788,-0.03748407,0.036832303,0.13219953,0.13181818,0.07181023,0.13621955,0.049174026,0.2940751,0.1716192,0.1369917,-0.044955574,0.19520974,-0.028279027,0.14295846,0.25307047,0.34639558,0.26631525,0.044433005,0.11709991,0.09742843,0.10769027,-0.054549977,0.060863413,0.051452674,0.10261079,0.07749737,0.30808792,0.029282553,0.21738541,-0.06566636,0.247121,0.12124226,0.011044245,-0.012204403,0.19873483,-0.028966933,0.0143191265,0.06144602,0.38988107,0.059711065,0.029186457,0.13862279,0.23184165,0.19160715,0.10707946,-0.035539057,0.23094326,0.06654651,0.1054373,0.3196447,0.16975397,0.016422968,0.19545889,0.0903296,0.02937175,0.024050266,0.0039262213,0.119915575,-0.0048768595,0.13153127,0.24909769,0.274311,0.09459111,0.058319125,-0.017913163,0.19075817,0.13550104,0.0742893,-0.05496384,0.09084844,0.026424333,0.013436254,0.09075744,-0.046412956,-0.03452628,-0.003826132,0.12789539,0.0837339,-0.027620781,-0.030015606,0.117102034,0.2225401,0.38721782,0.041492414,0.06690259,0.10742645,0.12155461,0.37495518,-0.046164796,0.06859149,0.008393942,0.18398666,-0.021280712,0.16606702,0.27088442,0.10857262,0.055339433
AME,-0.069153145,0.2876328,-0.027854625,-0.0713068,0.028033938,0.12613948,0.1301386,0.06787145,0.033271912,0.024883142,0.26449218,0.14002968,0.1305515,-0.05262965,0.034478772,-0.056955285,0.11820469,0.24838676,0.08508141,0.22902972,-0.017620161,-0.032692783,0.08604117,-0.007526163,-0.068704545,-0.033596635,0.033277307,-0.008809555,0.07142669,0.036973964,0.025915572,0.21121866,-0.06566231,0.20906991,0.11610478,-0.038720764,-0.022149127,0.1898676,-0.032994732,0.013083272,-0.013359569,0.039643586,0.047388077,0.029671438,-0.044632707,0.13887525,0.18902579,0.10106995,-0.037485898,0.19332445,-0.054097775,0.10193091,0.024476726,0.1444987,0.016124815,0.051994585,0.08431321,0.025655702,0.025189664,-0.00056631863,0.10435806,-0.018075898,0.13087851,0.05610031,0.047745787,0.06782505,-0.01810352,-0.057046592,0.14338201,0.12016505,0.05914718,-0.06250241,0.082461305,0.030220814,0.014708433,0.09011442,-0.04632963,-0.040082723,-0.008615736,0.124875724,0.07726003,-0.029519474,-0.058576345,0.10579509,0.19728768,0.045260433,-0.024318576,-0.014466184,-0.010623442,-0.021210881,0.36179352,-0.05077357,0.06314275,-0.033383023,0.15836269,-0.033958785,-0.043455463,0.22751711,0.104363434,0.041384205
AMGN,-0.07053699,0.28819224,-0.03342898,-0.082731396,0.021928417,0.1252085,0.13067658,0.07237366,0.046203725,0.028016645,0.25634426,0.14342706,0.12621996,-0.052202195,0.062063858,-0.05511544,0.120061524,0.25038853,0.03519042,0.2429511,-0.016968936,-0.021072682,0.08610341,0.016499639,-0.07930608,-0.05369489,0.03773375,-0.040895637,0.0689713,0.059345685,0.024050279,0.21147117,-0.06475465,0.20072,0.11554071,-0.027096324,-0.01907889,0.19009352,-0.034267865,0.013083778,0.017163074,0.14786783,0.040549077,0.032915737,-0.001688052,0.1656037,0.19106242,0.10451676,-0.037682064,0.17369573,-0.017278438,0.10443899,0.13837402,0.14608917,0.015697826,0.11008995,0.08492162,0.026058916,0.02547561,-0.0024443567,0.10285732,-0.016300455,0.13207689,0.09836307,0.096772805,0.07388077,-0.016873602,-0.052068084,0.12332048,0.12076599,0.061769854,-0.062973306,0.08770732,0.030504853,0.014330037,0.09363825,-0.046512302,-0.043555107,-0.009662461,0.12390931,0.07923895,-0.029318586,-0.06031594,0.11326663,0.18943584,0.07714798,-0.04411088,-0.009976067,-0.049737953,0.035437305,0.35662702,-0.0510948,0.06431471,-0.029317517,0.16057792,-0.035167083,0.0032347403,0.2331539,0.10398678,0.043016564
AMP,-0.06953932,0.28909606,-0.023982584,-0.078597434,0.027714673,0.12623248,0.13064787,0.06865123,0.043488927,0.028276287,0.26602855,0.14116393,0.13267505,-0.052566443,0.01821385,-0.051454432,0.121353574,0.25182575,0.052011624,0.22647096,-0.016847521,-0.046487417,0.08464122,-0.0072527938,-0.07724282,-0.04858713,0.03404862,-0.019668246,0.0710638,0.014794704,0.026709033,0.21032707,-0.06565313,0.20806271,0.11546295,-0.0422641,-0.021618117,0.19116811,-0.031807832,0.012705252,-0.020673357,0.08480588,0.042226166,0.030682642,-0.042827312,0.16539688,0.18903813,0.10157746,-0.03787256,0.18030553,-0.0437957,0.10212368,0.05712926,0.14539984,0.01606354,0.06329684,0.08503297,0.02687556,0.02449917,-0.0016880333,0.10515739,-0.012765154,0.13056217,0.043749817,0.04745666,0.070697255,-0.018191705,-0.060812995,0.13130754,0.122839674,0.06001467,-0.06201279,0.08224075,0.029616218,0.014417011,0.09056507,-0.046790406,-0.037642278,-0.0072620586,0.12714323,0.07674919,-0.027545324,-0.061580196,0.10890141,0.19078073,0.005348131,-0.04003692,-0.008536227,-0.026583077,0.005020162,0.3605104,-0.050010882,0.064011954,-0.03243518,0.16036002,-0.032530196,-0.056201167,0.22864385,0.10513115,0.04154297
AMT,-0.07133164,0.28922266,-0.028403394,-0.08014276,0.031201854,0.12581262,0.12991,0.06994267,0.02385275,0.024585772,0.26320875,0.13714498,0.12866324,-0.052886654,0.03341939,-0.052925948,0.11685389,0.24841093,0.034316048,0.22582108,-0.016528115,-0.05132674,0.08365338,-0.0049838237,-0.07447168,-0.05042668,0.034985226,-0.028465327,0.066874675,0.007350249,0.024980647,0.21092834,-0.06277652,0.20565075,0.11708862,-0.04157815,-0.022180934,0.19120762,-0.034262024,0.014163506,-0.011727514,0.038091686,0.040822007,0.03184334,-0.025113706,0.1150641,0.18842924,0.1021736,-0.03713991,0.18321201,-0.05622954,0.100997865,0.043294042,0.14363152,0.014874235,0.08248227,0.085064866,0.026768222,0.025472503,-0.0023372285,0.10228814,-0.020776637,0.13173175,0.064402364,0.05574195,0.07058085,-0.021111991,-0.056837827,0.13282995,0.11879078,0.06016814,-0.06239713,0.08154308,0.030039795,0.014470581,0.09075506,-0.04670267,-0.04105707,-0.0074140783,0.12218652,0.077358484,-0.028680112,-0.05858741,0.10720784,0.1923625,0.019478433,-0.035120107,-0.019886265,-0.03648087,-0.019700885,0.36305234,-0.05001165,0.06376635,-0.03313274,0.15925328,-0.0314006,-0.030919043,0.22580133,0.10277499,0.040507652
AMZN,-0.07005298,0.28927267,0.011438943,-0.08106505,0.048284788,0.1254392,0.13042799,0.06913808,0.12031704,0.02780497,0.26279226,0.13853034,0.14648604,-0.047185834,0.06502427,-0.01152125,0.120987155,0.25038195,0.045772135,0.27560896,0.04650726,-0.021403618,0.086034484,0.021928154,-0.07438315,-0.038035113,0.03490324,-0.030487608,0.08428778,0.0653598,0.026260754,0.21173379,-0.06671153,0.20381945,0.11474092,-0.0011808723,-0.017942982,0.19279525,-0.030495815,0.013291191,0.045322396,0.44196174,0.04133026,0.035399962,0.005326649,0.30962867,0.19070625,0.10621306,-0.037772458,0.18155725,0.05578416,0.10527897,0.35104877,0.15020624,0.015112609,0.11410646,0.08670874,0.022096839,0.023731276,0.011844914,0.1039321,-0.011535853,0.12917566,0.103804655,0.10625679,0.073257655,-0.012107951,-0.05805554,0.13011315,0.121965066,0.06337561,-0.061344597,0.09693769,0.029484563,0.014364302,0.09245522,-0.04396716,-0.039150618,-0.007831287,0.13095875,0.07730244,-0.031625353,-0.025545629,0.10594816,0.18933985,0.08325405,-0.032558445,0.058397904,-0.04769954,0.16536951,0.36345428,-0.04449284,0.06466142,-0.029556928,0.16307276,-0.009585947,0.010043036,0.2305748,0.10333038,0.042884182
ANSS,-0.059218396,0.2915209,-0.013461929,-0.06889738,0.02926809,0.12763001,0.13000076,0.07216062,0.08567215,0.026422039,0.2750053,0.14180659,0.14073136,-0.05287906,0.08629911,-0.03679473,0.12103376,0.2494601,0.17442858,0.27467215,0.025875226,0.010572018,0.08618482,0.022919074,-0.07072422,-0.014865488,0.03540765,0.03096019,0.077268176,0.13713242,0.026545985,0.21638653,-0.0658387,0.21715231,0.11675578,-0.005667433,-0.02057429,0.19076964,-0.031909503,0.01344069,0.05257591,0.28712332,0.046738654,0.028093942,0.012533799,0.24936888,0.18862377,0.106267445,-0.035458386,0.19658795,0.025651341,0.10193114,0.25547013,0.14720312,0.015232194,0.119513914,0.084424585,0.025816694,0.024514329,-0.0015325025,0.10434708,-0.010289788,0.13074005,0.112355165,0.114698984,0.082648315,0.0032134117,-0.048960544,0.15375109,0.119434394,0.062366158,-0.0598477,0.09430694,0.029876355,0.014289651,0.08990578,-0.04711588,-0.03595825,-0.0078032035,0.1321707,0.07798613,-0.03010397,-0.058686376,0.11628047,0.19998679,0.1504098,-0.01698868,0.015691279,0.031265303,0.09734467,0.35921928,-0.049198307,0.06388156,-0.025100574,0.16039552,-0.027470874,0.016269218,0.23285072,0.10487847,0.043945692
AON,-0.06898683,0.2877678,-0.026331171,-0.083743624,0.023202686,0.12579545,0.1292206,0.06970246,0.03233136,0.02535453,0.25783247,0.1378922,0.12945479,-0.05224841,0.037144803,-0.053332534,0.1195129,0.24748212,0.078646414,0.22835532,-0.0152425915,-0.037405536,0.08266626,-0.013397429,-0.08116104,-0.044136364,0.03284761,-0.011828281,0.06771925,0.04268436,0.02518004,0.21120095,-0.06443709,0.20161903,0.11502938,-0.03732206,-0.022189083,0.18951084,-0.034906153,0.012581726,0.000574043,0.0898484,0.039824612,0.030985769,-0.037483245,0.16847175,0.18813232,0.10162395,-0.037046306,0.17143638,-0.045242548,0.10155693,0.078141,0.14385739,0.015353261,0.065987974,0.08558308,0.02453915,0.024631672,-0.0027951673,0.10223657,-0.01627078,0.13133433,0.055570416,0.037467763,0.068614826,-0.019634632,-0.059669416,0.12998885,0.11960037,0.060567528,-0.061047174,0.08017199,0.029817905,0.014704324,0.090974,-0.046437692,-0.042426962,-0.00696313,0.12512927,0.076156266,-0.029478485,-0.061335772,0.10960494,0.18888983,0.041422337,-0.041484553,-0.01606245,-0.015899433,0.008811979,0.3595597,-0.049200602,0.063100904,-0.031691924,0.15708782,-0.03430321,-0.05131229,0.22427718,0.10411227,0.039922394
AOS,-0.070019245,0.28879285,-0.029388793,-0.079730734,0.01652541,0.12535878,0.13073823,0.069869965,0.046659786,0.026576852,0.2648411,0.13982071,0.13186154,-0.052236296,0.028732894,-0.05045403,0.120392084,0.25204074,0.027458519,0.26284623,-0.014971159,-0.049822815,0.083995745,-0.003902711,-0.077213325,-0.04866035,0.03551188,-0.029251715,0.06998287,0.0036526043,0.025684027,0.21446392,-0.06456534,0.20637995,0.115689464,-0.016084626,-0.022208404,0.19312952,-0.033650685,0.01301776,0.023319915,0.15016702,0.041489296,0.030144386,-0.030143391,0.1740903,0.18943533,0.102460295,-0.03932042,0.18509212,-0.031788208,0.10263513,0.14828786,0.14627853,0.015889307,0.07911141,0.08403064,0.023470879,0.023846786,-0.0016717687,0.10409309,-0.01624322,0.1312914,0.06135099,0.051636912,0.07235518,-0.011083501,-0.05493895,0.12614122,0.12304792,0.058962714,-0.062419325,0.09013888,0.029460441,0.013894267,0.09099248,-0.04454235,-0.039997604,-0.008164119,0.12867108,0.07704423,-0.03128326,-0.060153626,0.10487807,0.19261913,0.009859279,-0.040488187,-0.0121433195,-0.03913247,0.04514845,0.36553815,-0.047667675,0.06312743,-0.030761214,0.16361517,-0.032215707,-0.03618998,0.22894812,0.10372861,0.04099676
APA,-0.071807206,0.28976184,-0.029317617,-0.07809836,0.025113273,0.12622082,0.1296709,0.07093719,0.060019083,0.025268849,0.25913262,0.14426422,0.12936334,-0.0516036,0.025955496,-0.053852405,0.119436264,0.24940977,0.055460252,0.25480816,-0.009392835,-0.043628335,0.08441363,0.0043290854,-0.07299882,-0.04315494,0.034039047,-0.019098938,0.071068935,0.007788386,0.026666192,0.20970437,-0.06546895,0.20810592,0.11660328,-0.019234322,-0.021101851,0.18877722,-0.03263288,0.012728993,0.03008777,0.19623035,0.04416349,0.03291724,-0.027751222,0.13497446,0.19117989,0.10215991,-0.035908036,0.19207248,-0.0033365432,0.102231346,0.17658025,0.14442724,0.015241044,0.07941117,0.08556314,0.02413388,0.02353184,-0.0011426881,0.107508525,-0.016037315,0.13123843,0.058838647,0.068661846,0.07714836,-0.016385168,-0.05515615,0.13953027,0.1253664,0.060317382,-0.06293889,0.089742854,0.028387088,0.013942953,0.092564225,-0.047231793,-0.040306766,-0.009530261,0.12438962,0.076231994,-0.028049441,-0.05893053,0.11354482,0.19728075,0.009244233,-0.026526984,-0.018363245,-0.027007896,0.057971537,0.3563639,-0.05122491,0.06363848,-0.032165755,0.15799165,-0.032952048,-0.032619767,0.23153502,0.10416695,0.040548883
APD,-0.06810793,0.2873963,-0.032297406,-0.08247389,0.027639247,0.124677874,0.12974593,0.069772795,0.038306683,0.0242191,0.26097992,0.14212646,0.13173863,-0.052559327,0.036077537,-0.053209044,0.11482975,0.25103608,0.066916645,0.23393786,-0.027991287,-0.028140511,0.08587444,-0.004036352,-0.080231465,-0.02599264,0.032062247,-0.016601376,0.06861779,0.03386733,0.025127823,0.21250656,-0.064502575,0.20080371,0.11421834,-0.034892768,-0.023381807,0.18956247,-0.034471966,0.014836509,0.008154343,0.10853878,0.04020116,0.03042164,-0.016426556,0.1290783,0.18861558,0.10284095,-0.03775049,0.17603686,-0.03154549,0.10107057,0.10447333,0.14241686,0.015276456,0.05347053,0.08527243,0.025701009,0.024045609,-0.0017586835,0.10433876,-0.017011154,0.13104735,0.0666491,0.05083534,0.07121631,-0.017796054,-0.054273866,0.12447627,0.12006108,0.060085144,-0.062853865,0.08364622,0.03034471,0.013786215,0.09344662,-0.046431042,-0.041331947,-0.009666782,0.12738752,0.07806927,-0.028311344,-0.06152722,0.11116712,0.1884481,0.049884915,-0.026155291,-0.02390574,-0.031684227,0.015972653,0.36194903,-0.049348682,0.06323012,-0.029844541,0.1587698,-0.03359531,-0.041866127,0.22875375,0.10304378,0.0408143
APH,-0.065881714,0.28814584,0.00014317781,-0.07270084,0.03818851,0.12579246,0.13084123,0.06804626,0.12702405,0.029760841,0.26762453,0.15917587,0.15093496,-0.05218745,0.10458626,-0.021983437,0.12721647,0.25111845,0.10926497,0.22047472,0.05887156,-0.0025100783,0.09454255,0.06282426,-0.07463246,-0.03492384,0.034176946,-0.008185031,0.07134324,0.14207166,0.025471369,0.2109626,-0.0643294,0.20162953,0.115739,-0.0044189543,-0.020983912,0.19254966,-0.032107726,0.012695545,0.03304752,0.43309632,0.040891405,0.030193485,0.029518984,0.31595507,0.18729411,0.10419823,-0.036204323,0.177609,0.0658928,0.10111435,0.34674278,0.1495511,0.015078893,0.14937344,0.08503471,0.02724998,0.023926198,-0.0024626702,0.11642201,-0.0009840503,0.13116378,0.1258983,0.19031301,0.07100494,0.02244033,-0.037897855,0.13224494,0.119551755,0.064264104,-0.06138638,0.07887492,0.028848037,0.0137706585,0.090161175,-0.047909413,-0.03369174,-0.007837307,0.12279418,0.07695253,-0.027157083,-0.046412848,0.10631159,0.18955432,0.15702516,-0.036503643,0.045780785,-0.013339352,0.16098297,0.35755333,-0.049767576,0.06767787,-0.020429688,0.16846472,-0.01871559,0.07361449,0.25288457,0.10475738,0.04824776
APTV,-0.068331644,0.2889725,-0.026951622,-0.0808518,0.020994758,0.1262273,0.13164079,0.06904353,0.054271027,0.033391688,0.26316932,0.14281864,0.13797766,-0.052584156,0.043122016,-0.05398095,0.12397277,0.25280446,0.048207104,0.2287115,-0.022871409,-0.039983276,0.08569256,0.01462733,-0.07878157,-0.05352831,0.035073422,-0.020316213,0.075201966,0.03259241,0.027643474,0.21193954,-0.06277014,0.20531018,0.114407875,-0.03975073,-0.019843118,0.191891,-0.03245809,0.013559012,-0.011758203,0.087550536,0.040774096,0.030077659,-0.016045075,0.15899529,0.18843877,0.10224714,-0.036798235,0.1789074,-0.031304877,0.10302745,0.0653715,0.1537889,0.014568837,0.09401755,0.086391434,0.02257825,0.024112508,-0.002721183,0.10337953,-0.017708085,0.13048273,0.07645595,0.07845405,0.07112814,0.0025748638,-0.056352675,0.13428411,0.11995916,0.061213218,-0.062997624,0.08154856,0.029309,0.014048547,0.09123473,-0.046735715,-0.04050625,-0.008618776,0.12225378,0.077036425,-0.02995525,-0.05801741,0.10701334,0.19182827,0.0375682,-0.038835395,0.0035390202,-0.025005545,-0.009889966,0.35939792,-0.050248064,0.064132154,-0.02836138,0.16671713,-0.03386468,-0.019697757,0.23190029,0.10515092,0.042477425
ARE,-0.07075353,0.2879258,-0.02986443,-0.07902577,0.025552541,0.12396327,0.12871113,0.067485586,0.017718147,0.024340529,0.26733243,0.13943352,0.12837465,-0.052991085,0.016333824,-0.055156685,0.11402314,0.24695475,0.029050164,0.22505993,-0.036796663,-0.059443988,0.08606443,-0.006778177,-0.08053391,-0.057298515,0.030562997,-0.038296178,0.06829612,-0.0047573894,0.02522325,0.2103005,-0.064255185,0.20932949,0.11426947,-0.04150163,-0.023502938,0.19034258,-0.03463879,0.012920369,-0.009185305,0.038346134,0.039896544,0.029168613,-0.04627351,0.12149262,0.18860584,0.10180839,-0.03733937,0.18394904,-0.055576205,0.101915434,0.049200937,0.14165714,0.014911523,0.0616913,0.08426772,0.023936473,0.025096484,-0.0036505386,0.10667399,-0.019603096,0.1313124,0.044636182,0.0439846,0.06890428,-0.01257753,-0.0539301,0.12709731,0.11765988,0.05984701,-0.062569425,0.08049288,0.030250214,0.014441714,0.08856136,-0.046011284,-0.04135247,-0.008722935,0.12217846,0.077815354,-0.03026036,-0.063501224,0.10847502,0.19166498,-0.018482309,-0.042512655,-0.026347164,-0.03205759,-0.013813807,0.3643292,-0.049668945,0.06275515,-0.030685151,0.15679148,-0.033999607,-0.058989197,0.22702971,0.10330926,0.04003653
ATO,-0.069927126,0.28801823,-0.027123824,-0.08145333,0.020282371,0.12420841,0.12917054,0.06736678,0.016852062,0.023525415,0.2544296,0.13512807,0.12803638,-0.05323747,0.0011241976,-0.05622873,0.114727296,0.24898896,-0.015557267,0.21826287,-0.03661689,-0.07772516,0.08333225,-0.010511313,-0.0792772,-0.05534301,0.033881873,-0.05203709,0.07178141,-0.04491615,0.024134597,0.21009263,-0.065413535,0.19862819,0.11380757,-0.045794602,-0.023754427,0.1890411,-0.035446573,0.013027228,-0.026092112,-0.033574514,0.041162156,0.03149987,-0.05747757,0.108162284,0.189885,0.10156635,-0.037450038,0.17201835,-0.074806295,0.10149699,-0.016179845,0.14159921,0.015487753,0.048355848,0.08479434,0.02641226,0.02484712,-0.0012029111,0.10230254,-0.020681005,0.13057765,0.028916549,0.030245401,0.068162866,-0.01844949,-0.057482336,0.12160776,0.119595975,0.058471978,-0.0623864,0.0785823,0.029312909,0.014282778,0.090318635,-0.046566013,-0.041696206,-0.009256933,0.12689674,0.07819688,-0.029630814,-0.0645251,0.10875739,0.18853447,-0.05042128,-0.047571428,-0.02572317,-0.05776105,-0.043303207,0.35283443,-0.051556498,0.06284871,-0.03459341,0.15646501,-0.033447497,-0.07452965,0.22571991,0.10211806,0.04253667
ATVI,-0.067836516,0.29096767,-0.013713554,-0.07257931,0.04012178,0.12887543,0.13145697,0.07307254,0.12997107,0.04389693,0.26739943,0.14908685,0.13224158,-0.052019037,0.04304105,-0.0341511,0.13618061,0.25121197,0.080227986,0.30343568,0.036920525,-0.031613808,0.08949859,0.007664226,-0.06772384,-0.03567613,0.04758681,-0.015232257,0.07213834,0.036277723,0.026559947,0.21397598,-0.06624385,0.21546745,0.11708564,0.019898705,-0.016787745,0.19290483,-0.03220876,0.013706556,0.08230043,0.4304679,0.049847476,0.038016073,-0.01892154,0.14698958,0.18958884,0.10913284,-0.03570045,0.19881518,0.072115034,0.10462675,0.36926275,0.16818199,0.014552949,0.08983948,0.08486559,0.022574753,0.02527792,0.0012901463,0.106224,-0.0107034445,0.13054898,0.078025624,0.07282105,0.09094334,-0.007915106,-0.05718818,0.1458336,0.12089251,0.06446613,-0.06013442,0.10425942,0.030340392,0.01469196,0.08925581,-0.04683417,-0.039056532,-0.009088632,0.14011066,0.07935782,-0.030347114,-0.045767374,0.120246895,0.20595358,0.03882672,-0.024396086,0.050616723,-0.01294589,0.15870519,0.36117098,-0.05016476,0.06607203,-0.028907852,0.1762537,-0.023133876,-0.020747341,0.23490469,0.10556029,0.043820575
AVB,-0.06919058,0.28754118,-0.030019302,-0.0816442,0.023094943,0.12471316,0.129711,0.068102,0.030187719,0.025450436,0.26128995,0.13660246,0.1301584,-0.05286034,0.02481871,-0.05645775,0.116396666,0.24806523,0.0020162463,0.22604316,-0.03546621,-0.055431005,0.083563454,0.0063207373,-0.07811934,-0.04583253,0.034937866,-0.04146179,0.06730536,-0.0029077753,0.026867336,0.21036261,-0.06417849,0.20404774,0.11424061,-0.040114295,-0.021121282,0.19051328,-0.034405332,0.013264066,-0.011165965,0.029075563,0.04028871,0.031830575,-0.030862775,0.11483249,0.18891051,0.1010818,-0.036903735,0.17943193,-0.056544468,0.10105075,0.041107435,0.14195362,0.014954749,0.07312541,0.08667876,0.024229258,0.02425113,-0.0022384897,0.10343954,-0.020579122,0.13170944,0.053327918,0.062662326,0.0704726,-0.0039279694,-0.055508114,0.123689,0.1201374,0.05900453,-0.061882712,0.08105286,0.02955525,0.014207441,0.09188832,-0.045611605,-0.040703118,-0.008465191,0.12403329,0.077393316,-0.03042522,-0.062387124,0.10739805,0.19141491,-0.015375707,-0.043123532,-0.017321177,-0.04594573,-0.017350618,0.36185396,-0.05028431,0.06378484,-0.03274341,0.15628658,-0.032792993,-0.04145443,0.23111002,0.103360444,0.04029505
AVGO,-0.063482925,0.28961185,-0.025547866,-0.07430059,0.022913665,0.12691414,0.13103133,0.0690645,0.0911521,0.030018106,0.27617496,0.14250466,0.13955256,-0.050200295,0.058969554,-0.037619345,0.12131606,0.2506009,0.10792483,0.25056934,0.0033840314,-0.0058463104,0.08774795,0.016798504,-0.07158227,-0.015697345,0.037534766,0.007873209,0.07729209,0.07145973,0.029609518,0.2129564,-0.06395185,0.21379247,0.11681638,-8.4314495e-05,-0.020897223,0.19232674,-0.030245233,0.012693484,0.025820445,0.24761882,0.043638047,0.041081656,0.0070368797,0.18957768,0.19055462,0.10310486,-0.03623503,0.19327675,0.017634414,0.102970034,0.21018928,0.14591792,0.01719573,0.09490709,0.08443569,0.02488903,0.023387384,0.004457243,0.10449637,-0.014350228,0.12968074,0.09336161,0.095952705,0.08707515,-0.00429481,-0.050975185,0.14256477,0.120981365,0.06379329,-0.060772978,0.08250044,0.02805005,0.013454322,0.09179346,-0.046166718,-0.037697036,-0.003212057,0.13503885,0.07873312,-0.03135787,-0.056525983,0.11171177,0.19817975,0.10208081,-0.020847898,-0.009467976,0.0009115059,0.0832644,0.36363477,-0.049595825,0.06457735,-0.029302428,0.16130371,-0.031543598,-0.010113824,0.23127432,0.1047103,0.043318134
AVY,-0.06884931,0.28955176,-0.029410351,-0.072672665,0.019988658,0.1257997,0.13238093,0.068892196,0.06396519,0.038536716,0.26162824,0.1398015,0.13286658,-0.051731333,0.023363154,-0.045684822,0.12781334,0.24852261,0.070353836,0.27005443,0.016060047,-0.03635991,0.08404151,-0.011757765,-0.0707254,-0.037870824,0.044176914,-0.0125688575,0.07264928,0.024570713,0.027125934,0.21152216,-0.06331378,0.20884103,0.11718292,-0.011471681,-0.01998942,0.18941033,-0.033223815,0.013162724,0.029324805,0.19087863,0.045706876,0.034193847,-0.045758758,0.18406722,0.19191635,0.10361202,-0.037511025,0.19444302,-0.008168682,0.105403125,0.17745596,0.1496757,0.015306416,0.05960264,0.085279524,0.023550004,0.024514511,-0.002285961,0.10300186,-0.015777066,0.13100047,0.048547953,0.035533816,0.069277145,-0.019552115,-0.056224007,0.14192255,0.11936192,0.059812352,-0.062156074,0.09169036,0.030004151,0.014225684,0.092033535,-0.045531753,-0.038098574,-0.0074673053,0.1291838,0.07663004,-0.030076778,-0.047586694,0.10787607,0.19619699,0.02452404,-0.024761494,0.016897948,-0.019219328,0.059590142,0.3629706,-0.048354596,0.0655505,-0.033368632,0.16617468,-0.030116275,-0.05066668,0.2266713,0.10380946,0.042617686
AWK,-0.07182324,0.28681147,-0.028662052,-0.079925574,0.026741983,0.12476581,0.12954041,0.06765674,0.021298625,0.024258278,0.25618306,0.13974005,0.12756895,-0.0530806,0.006219919,-0.056945704,0.1152907,0.24733935,0.024435624,0.21885967,-0.033651356,-0.06118989,0.082934335,-0.009466525,-0.0756373,-0.053144805,0.032610875,-0.03237126,0.0678717,-0.023736,0.025080578,0.21008384,-0.06479463,0.20357387,0.11374381,-0.0472142,-0.022663953,0.19031157,-0.03560768,0.013229287,-0.020088034,-0.0013140487,0.042654723,0.031075612,-0.047271833,0.12839682,0.18739781,0.10122171,-0.037310284,0.18137962,-0.06725599,0.10078521,0.012109511,0.14192814,0.015275576,0.05744333,0.08577043,0.02602974,0.025605634,-0.001769796,0.10226986,-0.019182578,0.13065392,0.03697531,0.042904764,0.06745862,-0.02151515,-0.057115383,0.12989886,0.12174676,0.06134986,-0.06289628,0.079465844,0.030375458,0.014736813,0.08991043,-0.04669427,-0.043672692,-0.008714765,0.121542975,0.07823799,-0.029178899,-0.062482882,0.10637939,0.1913573,-0.028531035,-0.03835868,-0.024065733,-0.04253377,-0.032817036,0.35854208,-0.05151117,0.06293616,-0.03174649,0.15595457,-0.03343601,-0.06094922,0.22701782,0.10276058,0.04148785
AXP,-0.07052245,0.28704426,-0.024168007,-0.079977766,0.024367234,0.12488194,0.12932459,0.068103716,0.022613186,0.023494763,0.26418152,0.14111474,0.12837882,-0.052954685,0.01854213,-0.052716453,0.11611529,0.24878404,0.04106053,0.24214712,-0.038424376,-0.049377576,0.087380834,-0.0017664284,-0.07733059,-0.051023506,0.033436213,-0.024176437,0.068810284,0.0066439807,0.026262967,0.21064539,-0.065294,0.20860967,0.11580474,-0.030407667,-0.02334386,0.1909958,-0.03387,0.012892647,0.0019383915,0.05777056,0.041624367,0.031143107,-0.054233976,0.11887387,0.18812966,0.102557115,-0.038145334,0.18200941,-0.062486846,0.10149017,0.07280485,0.14319453,0.015629191,0.05935988,0.0856942,0.025225844,0.024463322,-0.0012015998,0.106022015,-0.018731937,0.13073996,0.02904541,0.06045279,0.07140051,-0.015623406,-0.061280727,0.13231543,0.118189245,0.061221093,-0.06262496,0.08368363,0.02901981,0.014269121,0.09006,-0.046092078,-0.04164858,-0.0070605744,0.12364912,0.07674518,-0.030168284,-0.06336866,0.107297674,0.19366474,-0.00668671,-0.038701586,-0.020025216,-0.030683178,0.0051270155,0.36406416,-0.049401857,0.06414562,-0.030864453,0.15688248,-0.03358925,-0.042744752,0.23086353,0.10414368,0.042709164
AZO,-0.068703026,0.28868905,-0.029597625,-0.074267946,0.03340313,0.12543365,0.12963283,0.069071814,0.031910274,0.026293144,0.2763175,0.13906047,0.12832966,-0.05243467,0.039145276,-0.054182887,0.116001606,0.24765001,0.09343961,0.21115245,-0.03790903,-0.027677536,0.082943894,-0.017264064,-0.072923884,-0.035857514,0.032951538,-0.00972143,0.06984394,0.0586804,0.02719537,0.21068235,-0.063710906,0.2175072,0.115986325,-0.039002523,-0.021968305,0.18898925,-0.031130906,0.013080435,-0.026612394,0.04445558,0.042569943,0.031747356,-0.04037673,0.12825656,0.18710268,0.10201983,-0.037767503,0.19803298,-0.047237854,0.10102368,0.03832719,0.14307678,0.014527137,0.050131053,0.08594808,0.025311727,0.024931606,-0.0010279007,0.1034761,-0.020352408,0.13169974,0.058158033,0.023384131,0.07390706,-0.02329709,-0.055113897,0.14110957,0.11991511,0.058394916,-0.06279093,0.077531174,0.02951517,0.014628414,0.09135738,-0.046212986,-0.04149816,-0.009064855,0.11780438,0.077843055,-0.031184219,-0.06475577,0.10523512,0.19561432,0.054915287,-0.021974854,-0.018891953,-0.0022700913,-0.020314071,0.368677,-0.051938064,0.06311342,-0.034992307,0.15706287,-0.030893832,-0.041247252,0.22498934,0.10321682,0.03983614
BA,-0.066516966,0.28784224,-0.027709387,-0.07926652,0.029085804,0.12621233,0.12983543,0.06864257,0.03208206,0.025300061,0.2694968,0.14794941,0.13515054,-0.052090026,0.025720624,-0.046733573,0.11906499,0.24976477,0.033950455,0.24314114,-0.030344285,-0.05554836,0.0869249,0.007818997,-0.07504742,-0.052082278,0.032582577,-0.032385446,0.07216233,0.0058011822,0.027120246,0.21098173,-0.063640855,0.20687556,0.11516319,-0.032431815,-0.022596773,0.18956544,-0.03372973,0.013060502,0.0016843621,0.059025005,0.042027313,0.02981269,-0.044206806,0.14477661,0.1888636,0.10177191,-0.036757246,0.1865841,-0.053180702,0.102663875,0.07476606,0.1461379,0.015865128,0.069222145,0.085319884,0.025231529,0.023397546,-0.0005912669,0.10451927,-0.0191526,0.13016501,0.03952352,0.07307622,0.070477754,-0.015313744,-0.054557666,0.12807302,0.12349592,0.060751192,-0.06312396,0.08491938,0.029027335,0.01356243,0.09160632,-0.046917766,-0.03948933,-0.008815903,0.1250332,0.07749369,-0.030062046,-0.057318207,0.10765849,0.18968485,-0.011665683,-0.03871216,-0.013108075,-0.031267535,0.0023916531,0.36550125,-0.04901734,0.06401316,-0.030852085,0.15936708,-0.032929353,-0.028380144,0.23310518,0.10313895,0.041354574
BAC,-0.072583005,0.2928352,-0.027611248,-0.07961004,0.029768988,0.12723766,0.1305529,0.06847793,0.0467666,0.029636523,0.26432315,0.13958104,0.14300816,-0.049592502,0.05021409,-0.046524465,0.12329525,0.24964738,0.09672044,0.2302301,-0.011323303,-0.01643513,0.08426648,-0.0070164837,-0.07435371,-0.01609726,0.036798775,-0.0021213647,0.07460626,0.061037153,0.028181313,0.21013896,-0.065145016,0.21182849,0.117066234,-0.037616294,-0.021090396,0.1911313,-0.031663503,0.013049924,-0.013031187,0.15534478,0.0446735,0.032536097,-0.0037593879,0.20548512,0.1883088,0.10246894,-0.03881885,0.18416953,-0.03353792,0.102906875,0.1138355,0.14786041,0.015704416,0.08270798,0.0838166,0.027691968,0.024632629,-7.3321164e-05,0.10364282,-0.015595533,0.13142914,0.08354554,0.053947113,0.073017344,-0.019729747,-0.055944532,0.13599741,0.12274468,0.061328698,-0.062352862,0.081944935,0.030032761,0.014856253,0.091076255,-0.046906173,-0.0355139,-0.008548424,0.12180507,0.07594311,-0.026148446,-0.05218556,0.10516904,0.1977839,0.08394109,-0.017585613,-0.0071735494,-0.020039037,0.03206357,0.36446065,-0.046381384,0.065164715,-0.03220545,0.16403124,-0.027382514,-0.019275444,0.22717834,0.10876717,0.0403779
BAX,-0.072416335,0.28849566,-0.027255427,-0.08014925,0.025827482,0.12529992,0.12973124,0.06918568,0.019325,0.023953523,0.2544914,0.14973027,0.13059175,-0.053897757,0.0543047,-0.055193078,0.1138444,0.24865334,0.092867576,0.21588099,-0.02156455,-0.0265642,0.0896144,0.026951939,-0.08043114,-0.04175127,0.034446742,-0.012166689,0.06896245,0.060429648,0.024613993,0.21041404,-0.06517943,0.19585043,0.11499117,-0.04361293,-0.023578636,0.18939508,-0.031582538,0.013037924,-0.02931862,0.01835113,0.038920984,0.031911027,-0.019254588,0.1258295,0.18808359,0.102935925,-0.03767709,0.17157379,-0.060831837,0.10152053,0.009638041,0.14132656,0.014910262,0.09561904,0.08545315,0.025596697,0.024404861,-0.0007422045,0.10853672,-0.019861914,0.1313065,0.07430263,0.114384174,0.07128768,-0.0010405269,-0.050906397,0.12594767,0.11615134,0.060502958,-0.06245032,0.07834391,0.029552992,0.014333095,0.09298465,-0.046756428,-0.04357494,-0.008000214,0.1227631,0.0778248,-0.02869551,-0.06141566,0.106114954,0.18571563,0.070471734,-0.03831263,-0.022680476,-0.008366877,-0.03586341,0.35734987,-0.05162675,0.064316064,-0.028641894,0.1567353,-0.033327308,0.006048443,0.24052307,0.10327066,0.042127043
BBWI,-0.06530665,0.2877474,-0.024122152,-0.07804905,0.026742853,0.12575178,0.1302704,0.069162115,0.034345407,0.027909767,0.26916775,0.13926914,0.12770265,-0.050236613,0.035651643,-0.053491615,0.117677115,0.25191385,0.064545535,0.2290115,-0.0187952,-0.031603917,0.085386716,0.003184855,-0.07276294,-0.025209298,0.034955036,-0.01242387,0.06951233,0.030167827,0.025797201,0.21085769,-0.06327923,0.21044569,0.114965156,-0.03967462,-0.02186472,0.18988565,-0.033470947,0.013106449,-0.0024807993,0.06141192,0.042839404,0.029116593,-0.014433168,0.13473752,0.19016844,0.10288109,-0.038459204,0.18952727,-0.049354337,0.10128614,0.06768035,0.14560263,0.01491694,0.095459186,0.08598838,0.023289993,0.024852172,-0.0013165176,0.105562136,-0.018829033,0.1297788,0.07660554,0.06430295,0.07477129,-0.008432383,-0.05834879,0.13621195,0.12456422,0.061748005,-0.062112965,0.08519054,0.029839799,0.014373824,0.09180862,-0.0465036,-0.042778768,-0.007911615,0.124094926,0.07739974,-0.030480558,-0.057338655,0.10935077,0.19511391,0.049377844,-0.029490799,-0.013309216,-0.023217903,-0.005294634,0.3676022,-0.05013196,0.063740425,-0.028474847,0.1608656,-0.033146515,-0.037073974,0.2319978,0.1051514,0.043839283
BBY,-0.046106268,0.29805392,-0.005752586,-0.05648132,0.0346326,0.12929162,0.13523062,0.07460025,0.160719,0.05569284,0.28032562,0.15118974,0.14952667,-0.04455418,0.15103494,-0.026951022,0.14562449,0.25770873,0.2904765,0.29359096,0.09300371,0.078072056,0.08893987,0.07355881,-0.057081535,0.044347975,0.056784336,0.08408292,0.0758295,0.25476018,0.02892735,0.21415664,-0.06653106,0.23362406,0.11900638,0.013054889,-0.002633594,0.19424789,-0.03041788,0.014708191,0.068373054,0.51236796,0.053584456,0.03140002,0.09068059,0.29287672,0.19153889,0.107241794,-0.034140725,0.21926865,0.10878211,0.105639905,0.41214138,0.17320332,0.015795074,0.1643399,0.08949682,0.032721944,0.023825381,0.00125416,0.10766643,-0.0056761503,0.1316112,0.19760033,0.21384098,0.093881905,0.03776485,-0.03098923,0.16851918,0.13044377,0.07034907,-0.057417043,0.1061361,0.029698763,0.014033042,0.09069234,-0.046794873,-0.030987442,-0.008896194,0.13372383,0.08746747,-0.030683877,-0.021686107,0.122190475,0.21378145,0.3026271,0.032997034,0.09277769,0.075065285,0.18480465,0.3645731,-0.037857626,0.06723638,-0.008196036,0.19091378,-0.013862792,0.114705294,0.24929824,0.10688126,0.05057592
BDX,-0.070353135,0.2863128,-0.029791817,-0.08493534,0.022972547,0.12511344,0.12941048,0.06798888,0.02649419,0.024855245,0.25681043,0.1369365,0.1275926,-0.053345162,-0.00016610674,-0.056818664,0.11621857,0.24799255,0.00040262938,0.2179834,-0.0358172,-0.06275831,0.08318085,-0.018695604,-0.08195357,-0.046226215,0.033397306,-0.044627447,0.06707877,-0.03115737,0.024232848,0.21031474,-0.06464331,0.19815885,0.11344792,-0.045916706,-0.023188613,0.18898422,-0.034918856,0.012873403,-0.030758373,-0.010668838,0.039953902,0.031805657,-0.053776298,0.107583575,0.18757716,0.10130364,-0.03827191,0.17285846,-0.061931312,0.1006072,0.002647683,0.14351,0.015894681,0.040925987,0.084862284,0.025924776,0.025253363,-0.0019610934,0.10107561,-0.021440707,0.13195996,0.025401779,0.019937515,0.06874523,-0.022293547,-0.056798954,0.1182732,0.118667245,0.06177322,-0.062164303,0.07884577,0.030431844,0.014660697,0.092204094,-0.04607859,-0.043862958,-0.0082854815,0.123687886,0.07803783,-0.029589504,-0.06480898,0.10677311,0.18564174,-0.029629914,-0.040216886,-0.018593032,-0.059912954,-0.03755094,0.35935324,-0.051778324,0.06254885,-0.028614646,0.1570435,-0.034840245,-0.08116642,0.22435595,0.10251255,0.04003208
BEN,-0.07049897,0.2886655,-0.02477118,-0.08053056,0.03281138,0.12553905,0.12976591,0.06923814,0.034511767,0.025489269,0.26450968,0.14191505,0.13135424,-0.052959453,0.03669526,-0.054180462,0.11987807,0.25024977,0.0478978,0.22192429,-0.025186002,-0.045670904,0.086368114,0.0010660812,-0.07964914,-0.05091081,0.034653977,-0.019048305,0.07124873,0.014694344,0.026940817,0.20952182,-0.064818084,0.20710382,0.115166605,-0.044815563,-0.022448555,0.19072172,-0.03395393,0.012930487,-0.014934618,0.03663832,0.041949395,0.030926213,-0.021651495,0.14980078,0.18945083,0.10329564,-0.037546765,0.1798479,-0.0556814,0.10230125,0.031144582,0.1448901,0.01559194,0.08574312,0.08496405,0.026094414,0.024293046,-0.0015605167,0.10638796,-0.017077833,0.13080168,0.07086573,0.062022373,0.06960817,-0.014269028,-0.05933131,0.13299325,0.11910744,0.060114145,-0.06225528,0.079679474,0.029241726,0.014322594,0.092106,-0.04769052,-0.039331697,-0.0070692003,0.12388753,0.07686367,-0.028312393,-0.060523055,0.10818829,0.19142976,0.02697149,-0.039018333,-0.0145027265,-0.02810219,-0.015825476,0.36206338,-0.04931762,0.0642737,-0.032629818,0.16092363,-0.030910058,-0.025313951,0.23134877,0.1040069,0.04166834
BIIB,-0.06719139,0.28805092,-0.02239602,-0.079975754,0.03213367,0.12452416,0.1303119,0.07253724,0.10551402,0.029477527,0.26490244,0.1448047,0.12819281,-0.052036665,0.06266476,-0.030668793,0.1237381,0.25148618,0.04415241,0.29627162,0.014189459,-0.018808143,0.08764919,0.020150773,-0.078000486,-0.051104344,0.041902583,-0.035833918,0.06829006,0.06195341,0.024343451,0.2122798,-0.06510617,0.20610732,0.11491308,0.014386516,-0.020958427,0.19241832,-0.033877473,0.013528873,0.06050487,0.3598255,0.04098121,0.054316614,0.0046038926,0.13109857,0.18871634,0.104668096,-0.03798734,0.18020536,0.033795964,0.10161105,0.3065309,0.14793658,0.014468331,0.11573218,0.085760236,0.026024025,0.027593002,-0.001601845,0.10643506,-0.018223725,0.131825,0.10283478,0.10376973,0.08722603,0.0009833738,-0.05684383,0.12742542,0.120449096,0.06460054,-0.0606012,0.09321831,0.03174549,0.015847988,0.09245898,-0.04684945,-0.04162147,-0.007892026,0.14432883,0.07788449,-0.02963753,-0.057883285,0.11344841,0.1873468,0.084059216,-0.043548472,0.015220754,-0.041156553,0.13744646,0.3637584,-0.051100135,0.06385884,-0.027654659,0.1645776,-0.031851314,0.011958292,0.24006149,0.10326481,0.045613274
BIO,-0.07076529,0.28710112,-0.022437066,-0.08110577,0.06828333,0.12517147,0.1296286,0.06885706,0.053917266,0.032856222,0.2557556,0.13534576,0.13323377,-0.052461166,0.05266226,-0.038233053,0.1252389,0.24689835,0.021823362,0.21593517,0.020061225,-0.033657335,0.08229469,0.01220566,-0.077652425,-0.050255395,0.035842523,-0.03955485,0.069000155,0.042823248,0.025272498,0.21071246,-0.06989086,0.20134307,0.11403578,-0.02061434,-0.020826705,0.18891717,-0.034212276,0.013340299,-0.00071464106,0.2600755,0.041511104,0.032700736,-0.007968809,0.20687154,0.18724123,0.100759506,-0.04430009,0.18052186,0.010393623,0.10275018,0.19645874,0.15223172,0.017580792,0.10076244,0.08579208,0.026303727,0.025392212,0.011897601,0.10054292,-0.017152198,0.1311658,0.09054642,0.087614655,0.075321674,-0.021537574,-0.053859856,0.1270896,0.11843429,0.0648926,-0.06206774,0.07813066,0.03103536,0.01440933,0.091833875,-0.04733549,-0.042269673,-0.009589475,0.122822605,0.078024656,-0.034162477,-0.05116278,0.10537402,0.19100499,0.05779981,-0.039290212,0.009577015,-0.04822489,0.0832887,0.35624355,-0.051196262,0.06412489,-0.033609565,0.16583037,-0.010144565,-0.005728431,0.2252105,0.10353179,0.04038033
BK,-0.07118994,0.28842375,-0.023980781,-0.08204375,0.029691197,0.12546754,0.13071145,0.068186454,0.04618896,0.027278932,0.25974366,0.1416367,0.13034837,-0.05184443,0.019210111,-0.053566217,0.12173682,0.24959731,0.0369633,0.22838095,-0.011587232,-0.046839923,0.08525919,-0.006410554,-0.079476714,-0.034073055,0.03483665,-0.03178627,0.07100583,0.0028266218,0.025001148,0.21002534,-0.06632452,0.20667587,0.114658445,-0.038557593,-0.021730985,0.18896696,-0.03362394,0.012838917,-0.015011201,0.076778546,0.042424623,0.030505337,-0.035062335,0.15146965,0.18809907,0.102247685,-0.03938513,0.17671013,-0.03987459,0.10165234,0.05356185,0.1468927,0.016532248,0.06300586,0.08435353,0.026760738,0.02413766,0.00089133903,0.10552876,-0.017849691,0.1310304,0.04771834,0.046526596,0.06940382,-0.019221576,-0.06040746,0.12836035,0.12219375,0.0603535,-0.062316526,0.08402851,0.029280845,0.014397319,0.08980487,-0.047164146,-0.039741434,-0.0070431903,0.12366534,0.07635839,-0.028163167,-0.05411236,0.106406786,0.19492358,0.013357289,-0.031273827,-0.0062122047,-0.039817706,-0.0056809736,0.3619816,-0.0501772,0.06307018,-0.029839613,0.16391963,-0.031227145,-0.056900747,0.22998074,0.10331784,0.041224338
BKNG,-0.031403214,0.29298687,-0.023173966,-0.035267442,0.026622906,0.12955655,0.13226435,0.0698539,0.066500895,0.028268047,0.3137108,0.13579263,0.13393429,-0.05177307,0.20228507,-0.040258843,0.12202468,0.24991173,0.40565807,0.24508886,0.021164775,0.13578294,0.0844831,0.07655383,-0.03916354,0.060421668,0.034165755,0.13304695,0.07330879,0.3496094,0.026742538,0.21092989,-0.06769037,0.264452,0.12461222,-0.031775936,-0.020349056,0.1928082,-0.02879832,0.013358078,-0.0071923584,0.21807182,0.061914004,0.028478097,0.13034686,0.22729938,0.19072086,0.10283036,-0.03798332,0.2558192,-0.004135208,0.10344639,0.16610208,0.15123746,0.016699158,0.18064842,0.08516409,0.024086379,0.023791008,0.004199695,0.10621309,-0.008992255,0.12965383,0.25368047,0.26935714,0.072387196,0.028114552,-0.032379948,0.20967184,0.12085027,0.060693037,-0.055192873,0.08510374,0.02960588,0.014491666,0.09425287,-0.047126707,-0.035802156,-0.009012027,0.12057946,0.07769071,-0.032708593,-0.043022156,0.105927035,0.23263766,0.41846347,0.051892813,0.01832445,0.14170696,0.0646034,0.38232693,-0.05098012,0.06537627,-0.025068581,0.16301923,-0.02515598,0.1917398,0.23578729,0.1101329,0.044667024
BKR,-0.06365873,0.29027906,-0.022997536,-0.078167655,0.027189786,0.126315,0.13080846,0.06859449,0.06543018,0.025757233,0.2631526,0.13662052,0.13353735,-0.052007478,0.021488056,-0.043153442,0.1202776,0.24839354,0.05957569,0.25504905,0.008161493,-0.043239795,0.08705469,0.004737124,-0.07696049,-0.03267058,0.03682585,-0.015442424,0.07350606,0.017683256,0.027172996,0.21204537,-0.06509406,0.20542096,0.11648277,-0.021084633,-0.020444572,0.19157393,-0.03286893,0.013021653,0.021752756,0.20734374,0.043029394,0.032036018,-0.033159416,0.21454558,0.18966815,0.10126053,-0.036766723,0.17962001,-0.007138459,0.102773175,0.1581945,0.14769518,0.01625069,0.06205926,0.08559024,0.026128717,0.023644157,0.00045236945,0.10305253,-0.011761814,0.13017604,0.045557104,0.06637957,0.07160285,-0.012075089,-0.06060537,0.13558792,0.12120257,0.060796905,-0.062163185,0.085832305,0.028203245,0.014302671,0.09125829,-0.04664027,-0.039895386,-0.0073733497,0.12611234,0.07494892,-0.027425893,-0.060387433,0.10583512,0.19226238,0.016789429,-0.034260135,-0.00295637,-0.022673003,0.061205752,0.35514358,-0.050082907,0.06357106,-0.028308507,0.16129936,-0.03008177,-0.052119996,0.23146397,0.10532136,0.042163327
BLK,-0.06795347,0.28910998,-0.028596591,-0.07597095,0.025657348,0.12567037,0.13074361,0.06850889,0.042249467,0.026068112,0.258462,0.14382279,0.12956488,-0.05196765,0.045874275,-0.055701777,0.12144878,0.2511325,0.035938784,0.23152791,-0.0336292,-0.038421348,0.08541961,0.007956274,-0.077571094,-0.047740817,0.035600506,-0.02525479,0.06953311,0.032247983,0.026606513,0.21140337,-0.06523804,0.20285836,0.11482403,-0.03859671,-0.020509565,0.19069582,-0.03444602,0.013086834,-0.013813829,0.040988073,0.04179423,0.03104484,-0.009737831,0.12725145,0.18932563,0.10144678,-0.037510317,0.18115708,-0.04526754,0.10299723,0.028621182,0.14598864,0.0149144195,0.09557971,0.08475396,0.02414513,0.023965515,-0.0010406896,0.10542708,-0.018675536,0.13170072,0.08130809,0.07796479,0.072076306,-0.015414881,-0.05723507,0.1294061,0.12140335,0.061713547,-0.06226453,0.08311045,0.029712379,0.013841674,0.090105996,-0.047865175,-0.040226158,-0.008074656,0.12588257,0.076680355,-0.028450944,-0.06315946,0.10744049,0.19012538,0.047045745,-0.03838852,-0.0065158494,-0.036234796,-0.02587418,0.35856616,-0.050909728,0.06391403,-0.033201016,0.16222681,-0.03445178,-0.013192365,0.23128903,0.10376091,0.04217216
BMY,-0.060008317,0.28837046,-0.030871075,-0.06684441,0.021972787,0.1264258,0.12970333,0.06769642,0.039685033,0.024599561,0.27260688,0.1373787,0.12573369,-0.05235432,0.07054018,-0.054204654,0.11522415,0.24851823,0.15937294,0.25365102,-0.032414377,0.006199522,0.08271071,-0.017043103,-0.06395574,-0.012102239,0.033427663,0.026214441,0.06848907,0.10996342,0.02610142,0.21336421,-0.063393354,0.22468494,0.11667625,-0.023471769,-0.021821812,0.19120716,-0.03189854,0.012985598,0.014157869,0.10696872,0.04976438,0.028656587,-0.0042723175,0.11533493,0.18869244,0.10159241,-0.03810041,0.20911384,-0.039331134,0.10327015,0.11167577,0.14275725,0.01608228,0.059349418,0.08503391,0.028838132,0.024347413,-0.00042939186,0.102985814,-0.019439649,0.13255438,0.10138692,0.060091488,0.07645109,-0.02223882,-0.055938274,0.16063978,0.12001915,0.060835727,-0.060866624,0.08579175,0.030281302,0.014194369,0.09157738,-0.045129787,-0.042422824,-0.0076882076,0.12090697,0.07776596,-0.029933881,-0.062601715,0.10558251,0.20653774,0.12856893,-0.0052411286,-0.02121551,0.02593382,0.025899557,0.3566711,-0.051645122,0.06311587,-0.029913317,0.15653366,-0.034007102,0.0130284205,0.22606662,0.10374546,0.040864587
BR,-0.07066488,0.287854,-0.030302566,-0.08078792,0.02802969,0.12830618,0.1298437,0.0696887,0.03162496,0.02397367,0.257369,0.14028928,0.12688789,-0.05303315,0.0156078655,-0.055150017,0.118778676,0.24836844,0.013105273,0.22851315,-0.03402731,-0.042881325,0.084392816,-0.0049045905,-0.07738364,-0.039177038,0.032463383,-0.02992278,0.06806442,-0.0024009235,0.024371332,0.2104287,-0.06570758,0.1987856,0.11484238,-0.03459763,-0.022835236,0.1889029,-0.03490381,0.013154137,0.00080819614,0.07683459,0.040141325,0.031094383,-0.019260488,0.12169956,0.18842478,0.10354331,-0.038073644,0.17544416,-0.043411057,0.10181413,0.079029486,0.1447998,0.015470903,0.08831634,0.0858845,0.025294937,0.024804138,-0.001576826,0.10390568,-0.017232284,0.13087377,0.06814799,0.05498527,0.07377128,-0.017079936,-0.0557122,0.12233196,0.12308178,0.059936024,-0.06304495,0.08403137,0.030266885,0.014481019,0.092306465,-0.046492666,-0.043282565,-0.0095518995,0.12405628,0.07796666,-0.028079018,-0.060995724,0.10834195,0.18884118,0.0074440427,-0.037561893,-0.017168153,-0.052930817,0.003428923,0.36063907,-0.050977275,0.06326647,-0.03158181,0.15811141,-0.033066005,-0.047938593,0.23017778,0.1024061,0.040154606
BRO,-0.07150178,0.28737655,-0.024828162,-0.08319046,0.021977374,0.12480336,0.12956853,0.068947315,0.052650742,0.029462231,0.25751445,0.13681704,0.12654004,-0.05220322,0.007567702,-0.05151951,0.122603685,0.2473171,0.003269121,0.21854793,-0.024306811,-0.0706441,0.08266597,-0.0031964704,-0.078568615,-0.057715774,0.036872122,-0.040005542,0.06804417,-0.032032434,0.024954999,0.21134636,-0.064234376,0.1995886,0.114730746,-0.045539435,-0.020175356,0.18907127,-0.034810133,0.0125090955,-0.027814176,0.08098987,0.04031882,0.032323293,-0.06295959,0.13782263,0.18821648,0.10144338,-0.04012195,0.17399973,-0.0318209,0.101502724,0.05540588,0.14778355,0.014723781,0.04030069,0.08474911,0.025092386,0.024175964,9.872019e-07,0.10149205,-0.021510981,0.13019025,0.023795135,0.04047855,0.06889886,-0.01488427,-0.060228884,0.12332424,0.117493495,0.06025812,-0.06350904,0.08202807,0.028459687,0.013990574,0.089789875,-0.04695783,-0.042631276,-0.007609915,0.12120231,0.07695833,-0.030201854,-0.06495433,0.105002806,0.18852893,-0.048733424,-0.045853466,0.0005856212,-0.05073989,-0.0023994194,0.35990486,-0.05079703,0.063726105,-0.032720074,0.16290416,-0.03173962,-0.06134294,0.22769001,0.10284777,0.040569797
BSX,-0.06387304,0.29432845,-0.022105444,-0.073043875,0.028045097,0.12733364,0.13089353,0.07218666,0.10863976,0.0288206,0.2652122,0.14880681,0.13211352,-0.05194992,0.052034546,-0.046765108,0.119354874,0.25077808,0.107907064,0.2912197,0.02210927,-0.018246759,0.08946706,0.026995778,-0.06727791,-0.02691261,0.0391836,0.0021151695,0.07187337,0.062684275,0.027465655,0.21451765,-0.06620523,0.21776663,0.117084034,0.0034056678,-0.021994751,0.19144422,-0.03141647,0.012799674,0.063574396,0.34149706,0.045620024,0.032789476,-0.022791263,0.14797845,0.18916798,0.10901343,-0.037446253,0.19835614,0.045788117,0.1041825,0.30198088,0.14482805,0.016317654,0.0793788,0.085466646,0.026988897,0.024662808,-0.0007552244,0.108606026,-0.0169321,0.13127437,0.06862952,0.09926145,0.08644813,0.011398598,-0.052854728,0.1496296,0.12045199,0.06598903,-0.062074248,0.1004207,0.030276489,0.014163464,0.09158949,-0.046302196,-0.040663525,-0.009783134,0.13618805,0.08233029,-0.028876225,-0.052735843,0.11863277,0.2047247,0.067096524,-0.016192356,-0.005344514,-0.0022184625,0.12113059,0.36145192,-0.051521175,0.06473762,-0.019190982,0.15997186,-0.03360663,-0.0013762321,0.23977026,0.10360471,0.044231765
BWA,-0.06583525,0.28902212,-0.029308401,-0.0740441,0.028881034,0.1287354,0.13029027,0.0685824,0.040617395,0.027432818,0.27839333,0.13930394,0.13357362,-0.050938573,0.05568533,-0.047852617,0.1196046,0.25038204,0.12036263,0.23018873,-0.009132527,-0.008201294,0.084429935,0.006121397,-0.072431765,-0.02799669,0.03398431,0.011699727,0.07414678,0.08126857,0.028464155,0.21077043,-0.06299217,0.21778443,0.11632591,-0.039117806,-0.021732625,0.19074573,-0.033249706,0.012465789,-0.017219238,0.12393658,0.04658522,0.03163115,-0.020377161,0.18286152,0.18886958,0.10157489,-0.038646366,0.19350436,-0.035072066,0.10191117,0.08914843,0.14640293,0.016338404,0.06487011,0.08545846,0.02597703,0.024645176,0.00079894066,0.10416569,-0.013976522,0.1310592,0.07734889,0.058310553,0.06947623,-0.008116082,-0.055025183,0.1458387,0.12025577,0.063863955,-0.06165769,0.08342354,0.02987416,0.014043286,0.08967647,-0.047310915,-0.03700456,-0.008846447,0.122589745,0.07786252,-0.02822824,-0.061320662,0.106603056,0.20050791,0.088372566,-0.023963708,-0.010327674,0.007706696,0.02802259,0.36830264,-0.0481842,0.06354715,-0.030475605,0.15968442,-0.032506134,-0.020173533,0.23630793,0.10693304,0.044805054
BXP,-0.07184643,0.28755945,-0.031747572,-0.080975436,0.024323277,0.123629265,0.12951602,0.068138935,0.02338148,0.024323415,0.26338354,0.13953002,0.13086578,-0.053805053,0.051224075,-0.05553611,0.11351557,0.247604,0.021454655,0.2234361,-0.037363127,-0.034229733,0.08394979,0.010992467,-0.08007698,-0.057615437,0.034307197,-0.036119893,0.06854333,0.039873898,0.02623978,0.21106294,-0.06417974,0.20532161,0.11459821,-0.039471686,-0.023695298,0.18975803,-0.034755427,0.014305225,-0.006634621,0.05009469,0.040135242,0.028590612,-0.0060223006,0.124805465,0.18880321,0.102474704,-0.037931815,0.18161473,-0.051781677,0.10109199,0.058513615,0.14163437,0.0150033245,0.09983569,0.08571986,0.024708942,0.025792982,-0.0020034425,0.10363585,-0.019989535,0.13154097,0.087158,0.08712546,0.072029635,-0.0111054,-0.052093208,0.12798989,0.11789259,0.062626794,-0.06257694,0.079818025,0.031770747,0.014856279,0.089855835,-0.04577914,-0.04141809,-0.008945907,0.12274343,0.07755526,-0.029539213,-0.06603964,0.108793005,0.19164647,0.05728457,-0.045735344,-0.024917856,-0.04168185,-0.0067460416,0.36351207,-0.050383307,0.06296498,-0.033527553,0.15606506,-0.034407903,-0.007238677,0.2261255,0.103635855,0.0396006
C,-0.07023902,0.29188296,-0.027488016,-0.07922552,0.028924286,0.12726876,0.13223395,0.06913889,0.043400228,0.027604595,0.2681238,0.14124893,0.13614112,-0.051811136,0.036403224,-0.052517608,0.12080039,0.24896573,0.07177143,0.23109034,-0.0054734573,-0.029834237,0.08565893,-0.0063632205,-0.076670155,-0.021402754,0.03450661,-0.012804889,0.073466666,0.03718313,0.02763248,0.21069744,-0.06653762,0.20992328,0.117704146,-0.038733516,-0.021487217,0.19143753,-0.032109678,0.012662796,-0.010519065,0.09794266,0.042167004,0.030893426,-0.017631087,0.1689563,0.18855461,0.101949275,-0.03723664,0.18418792,-0.037273698,0.10180997,0.06873959,0.1463154,0.015201413,0.06923906,0.08540478,0.026609857,0.024459638,-0.0003913641,0.10496703,-0.016969629,0.13118029,0.06658265,0.046538286,0.07310958,-0.017135767,-0.057478275,0.13730486,0.12265586,0.060096096,-0.062778294,0.08222255,0.02984891,0.014613811,0.09111263,-0.04707238,-0.0339073,-0.008283332,0.12018872,0.076990575,-0.027177095,-0.04916896,0.10465449,0.19785053,0.052672647,-0.024618365,-0.0015283078,-0.023740694,-0.003273517,0.36205056,-0.046946496,0.063877024,-0.03071546,0.16358165,-0.030497769,-0.039992534,0.22985886,0.10620162,0.040583417
CAG,-0.07178421,0.28746492,-0.028590169,-0.08321733,0.026820077,0.124407865,0.1292673,0.06862084,0.035304587,0.023265995,0.2558425,0.14875889,0.12669171,-0.052868843,0.048318002,-0.04597757,0.11460559,0.24919839,0.008361071,0.2243829,-0.012703307,-0.057883367,0.088648245,0.020615414,-0.07846716,-0.06302342,0.032281946,-0.04683256,0.06747221,0.0420988,0.024225568,0.21236643,-0.0647967,0.1983592,0.114676975,-0.034197614,-0.02319187,0.19031622,-0.033257253,0.013375616,-0.01677184,0.09742118,0.040405508,0.03273485,-0.024823055,0.16900055,0.18955705,0.10155904,-0.038295716,0.17296596,-0.044576846,0.10192315,0.07344555,0.141785,0.015386277,0.08641593,0.083747834,0.026067812,0.024272703,-0.001877062,0.10805258,-0.013178021,0.13106236,0.06018034,0.10303783,0.07078243,-0.0056439154,-0.05168547,0.12251449,0.11773285,0.058649648,-0.06360984,0.08007201,0.029163796,0.013979051,0.08945373,-0.046591267,-0.040455714,-0.009117959,0.123581424,0.077253774,-0.029197892,-0.05567777,0.10538154,0.18789259,0.03387107,-0.046427406,-0.014360982,-0.054495573,0.0124719385,0.35729015,-0.05182317,0.06410771,-0.028032552,0.15530816,-0.03343589,-0.0041987374,0.23784971,0.102703795,0.041468665
CAH,-0.0704501,0.28767195,-0.030439358,-0.07889938,0.0173932,0.12614313,0.12969345,0.06820436,0.03693457,0.02324752,0.2559968,0.13606247,0.126206,-0.050911844,0.05766769,-0.0570802,0.11422384,0.24923438,0.08420226,0.24337268,-0.036397867,-0.003760661,0.08253231,-0.014188971,-0.074861735,-0.01822589,0.031907294,0.002418762,0.06780634,0.07143681,0.025804767,0.21027005,-0.064860016,0.2051861,0.114524506,-0.030446026,-0.023751738,0.18886292,-0.033637214,0.0128039615,0.0014832802,0.06151976,0.044771202,0.03035222,0.024202364,0.11502201,0.18816325,0.102079496,-0.03692539,0.18513899,-0.042829312,0.10361626,0.07367216,0.14212862,0.015095093,0.13193072,0.086114936,0.024061523,0.024602346,-0.0010658875,0.10101073,-0.018918525,0.13176706,0.118457,0.07768942,0.074207604,-0.019443199,-0.055023003,0.13422625,0.12686929,0.06407137,-0.06279912,0.085118435,0.029915124,0.014430787,0.09248538,-0.04548916,-0.043573238,-0.009307716,0.122104086,0.07681283,-0.029883992,-0.063326575,0.10756803,0.19142747,0.09993958,-0.019378075,-0.023185547,-0.033325657,0.00095202215,0.35723507,-0.05177924,0.06398888,-0.033109263,0.15691105,-0.032003924,0.0105865095,0.22613758,0.10302381,0.040049616
CAT,-0.069389254,0.289925,-0.029259052,-0.0764747,0.028511146,0.12826951,0.13003656,0.06790498,0.0453736,0.029275665,0.27164483,0.13997167,0.13363993,-0.05243215,0.05302391,-0.04968337,0.12017733,0.2483562,0.048500866,0.21380389,-0.02865028,-0.0504144,0.08411082,0.03044714,-0.073557846,-0.04587417,0.032228865,-0.025958274,0.07070783,0.04922869,0.026671143,0.21111222,-0.06276867,0.20884725,0.116985224,-0.0495327,-0.022003666,0.19154502,-0.03331527,0.012584363,-0.023667019,0.05106465,0.04453901,0.029271241,-0.023663722,0.14113927,0.18812999,0.101125464,-0.038177866,0.1912905,-0.042159706,0.10205622,0.030541465,0.1461306,0.013153201,0.07574253,0.08430981,0.02262145,0.024744537,-0.0016730949,0.10465461,-0.017715678,0.13151103,0.06421649,0.10987896,0.071704455,0.006583428,-0.052279674,0.13344824,0.1194895,0.0634965,-0.06309129,0.08041741,0.029834319,0.014632918,0.09144518,-0.045673028,-0.03972902,-0.0086287465,0.123146154,0.07884879,-0.028557617,-0.059915684,0.106308386,0.19369304,0.046554618,-0.03303134,-0.007240385,-0.023027511,-0.02238255,0.36580235,-0.04708887,0.06371847,-0.02691834,0.15929818,-0.03160825,-0.0020742035,0.23984827,0.10395384,0.04341554
CB,-0.07022125,0.2884485,-0.026858505,-0.08165314,0.029061034,0.12420859,0.12966098,0.067733146,0.022907294,0.025646841,0.2608919,0.13725029,0.12800552,-0.053386193,0.00970574,-0.054646987,0.11541314,0.248509,0.0075472817,0.21994257,-0.027788386,-0.06972172,0.083414696,-0.01351108,-0.07988849,-0.059361707,0.031714097,-0.040077645,0.068272755,-0.02751448,0.025503425,0.2101984,-0.06508978,0.2033113,0.115314625,-0.040238876,-0.023174023,0.18883543,-0.03369189,0.012613276,-0.02315186,0.02934745,0.03954258,0.030743882,-0.050155763,0.13917704,0.18727937,0.101180956,-0.038043518,0.1776529,-0.06712507,0.101007774,0.020620365,0.14203328,0.01515864,0.057002455,0.08493091,0.026053619,0.024624258,-0.0024178177,0.10295688,-0.018205203,0.13079838,0.038426824,0.031988904,0.06706306,-0.020076651,-0.058788143,0.12419535,0.12131636,0.06042026,-0.06318901,0.079647034,0.029319033,0.01417296,0.090133294,-0.0467542,-0.041931685,-0.008115523,0.124421306,0.07815683,-0.028255194,-0.06074009,0.10762464,0.18965164,-0.032387625,-0.045144223,-0.022136692,-0.047278736,-0.01866392,0.3617733,-0.05039145,0.06305079,-0.033063367,0.15492943,-0.03234289,-0.0662061,0.22742245,0.10329835,0.040321797
CBOE,-0.0700336,0.28759402,-0.03156648,-0.08180187,0.016246958,0.12521985,0.13041368,0.06771368,0.02193847,0.025082756,0.25625277,0.14247215,0.12886141,-0.052714065,0.021866987,-0.057526875,0.11643104,0.2493325,0.0037676767,0.22890395,-0.022590622,-0.07909725,0.08694885,0.0021696389,-0.080071166,-0.05876323,0.033761155,-0.04790067,0.067762055,-0.0048258044,0.025686184,0.21087271,-0.06389502,0.1990569,0.113917544,-0.036889356,-0.023309555,0.18969779,-0.03530673,0.013692872,-0.015587833,0.01930253,0.039814375,0.029804021,-0.051500186,0.11923099,0.18829152,0.10136695,-0.037998755,0.17400071,-0.06218449,0.10146793,0.02047351,0.14412913,0.015394483,0.059945635,0.0853988,0.024348538,0.023406968,-0.0017972365,0.10560849,-0.020964473,0.13140199,0.0283713,0.06255002,0.07051829,-0.013123991,-0.054911144,0.12170782,0.119645044,0.059483748,-0.06351854,0.08363511,0.029169098,0.013786644,0.08984725,-0.045337655,-0.04239202,-0.010143599,0.124434695,0.07790227,-0.030731555,-0.058801115,0.106538266,0.1862907,-0.020085456,-0.04917438,-0.020551495,-0.052782,-0.022929434,0.35836816,-0.05223205,0.06436225,-0.029669952,0.1594156,-0.033863813,-0.038763564,0.23272058,0.102462135,0.041152045
CBRE,-0.070289135,0.2917639,-0.028410945,-0.07229383,0.03008837,0.12768795,0.13218269,0.06829485,0.09288941,0.036902882,0.26872557,0.14092697,0.13566582,-0.05094901,0.02831761,-0.048555046,0.1328597,0.24968186,0.070216954,0.23266044,0.0057152137,-0.034577057,0.08420297,0.0034664795,-0.07427743,-0.042934183,0.044041894,-0.011609154,0.078644596,0.03343309,0.027611652,0.21316124,-0.06345756,0.21177033,0.11703531,-0.025568664,-0.017277211,0.18991606,-0.030953884,0.013185861,-0.0006553754,0.21947102,0.043121755,0.029669844,-0.0335695,0.17989884,0.19044891,0.102237195,-0.036681183,0.18710288,0.014346866,0.10137986,0.16716903,0.1582849,0.0149348,0.07339711,0.0839133,0.026205152,0.026112016,-0.00071037933,0.10572955,-0.011298969,0.1315372,0.055822447,0.05522868,0.07257497,-0.010410044,-0.05491755,0.13695091,0.12008823,0.060902014,-0.061783776,0.08346305,0.03057465,0.015420582,0.08948718,-0.04687787,-0.03840013,-0.008689072,0.12374729,0.0754336,-0.026727524,-0.053826515,0.10850328,0.19910213,0.026088946,-0.033612363,0.029772466,-0.017653981,0.029786076,0.36385995,-0.04883816,0.06521745,-0.030092604,0.17340611,-0.02950012,-0.044115063,0.23169675,0.105406165,0.04220349
CCI,-0.07200597,0.28707698,-0.027767573,-0.08220317,0.022862716,0.12610812,0.12988903,0.06815764,0.04810578,0.02831228,0.26037338,0.13879809,0.12675497,-0.052875485,0.017348696,-0.053626724,0.12090281,0.24819359,0.0025408491,0.2287924,-0.022284247,-0.07147887,0.084087536,-0.0021274686,-0.078535475,-0.06097694,0.03323308,-0.04087826,0.06662769,-0.0104332715,0.023983592,0.21005043,-0.063638866,0.20206471,0.11655939,-0.031890407,-0.020972926,0.1911711,-0.0351486,0.0145270135,-0.012983073,0.09864358,0.040075593,0.03230572,-0.052233193,0.14916173,0.18794763,0.10176138,-0.03666532,0.17560306,-0.02922826,0.1013242,0.08254597,0.14647064,0.014541694,0.056418218,0.08492162,0.02509128,0.0246818,-0.0029728822,0.10322401,-0.01806993,0.1309637,0.039676897,0.056678288,0.07615053,-0.015854966,-0.05790417,0.12502839,0.12136647,0.059952285,-0.06278543,0.08176496,0.02938684,0.0138679035,0.08955912,-0.04645969,-0.041569702,-0.008290408,0.12296723,0.0763043,-0.030048339,-0.060167193,0.10635127,0.18769804,-0.02562039,-0.046557788,-0.009391777,-0.049800627,-0.0015750434,0.35978884,-0.050274134,0.06434052,-0.034348764,0.16004112,-0.033631027,-0.043915894,0.22797322,0.10344906,0.04048226
CDNS,-0.0625511,0.28754863,-0.027594931,-0.07343875,0.025897734,0.12538347,0.12965888,0.06795742,0.07128588,0.026588485,0.2675439,0.14537537,0.13255684,-0.05209658,0.110339105,-0.05041701,0.11973443,0.24976476,0.12287985,0.22501597,-0.013057679,-0.009260219,0.089226246,0.07476065,-0.07587072,-0.04159405,0.035202444,-0.0100414865,0.07178034,0.15390709,0.026486816,0.21120587,-0.0644791,0.20577724,0.11709139,-0.02184061,-0.022085669,0.19398837,-0.032260336,0.013002219,0.0054177456,0.17399135,0.04103534,0.034190644,0.034938335,0.1540823,0.18826449,0.10251278,-0.036821794,0.18588817,-0.0052123386,0.10431737,0.1464369,0.14882317,0.015199639,0.13970041,0.0865224,0.02467221,0.02348984,-0.0016986467,0.112586066,-0.014217861,0.13058548,0.13476363,0.19731498,0.07976475,0.034342293,-0.03471522,0.12886545,0.119800955,0.07010731,-0.061102107,0.08167965,0.028224695,0.0135067925,0.08875805,-0.04689225,-0.03987311,-0.008611307,0.11890218,0.083800144,-0.030515691,-0.061050706,0.10731659,0.1900608,0.17405541,-0.035996296,-0.011659386,-0.0006908197,0.030919967,0.3655851,-0.049908794,0.064642005,-0.016585488,0.15911433,-0.03373185,0.08215171,0.25568306,0.10569887,0.049153667
CE,-0.06121715,0.29121536,-0.028019242,-0.07049328,0.031163486,0.12722541,0.13184145,0.06906248,0.1067839,0.029890317,0.27791074,0.14072223,0.13554053,-0.051156174,0.064530365,-0.038923983,0.12058009,0.2539958,0.13916689,0.24239963,0.016411528,-0.014350528,0.08608572,0.0013741851,-0.071414664,-0.025740393,0.039246097,0.016684512,0.07552485,0.09171713,0.02863715,0.21361428,-0.0637414,0.22073121,0.11777703,0.0020591319,-0.018098895,0.19151847,-0.03365839,0.013654565,0.035145663,0.30733824,0.04796931,0.03003795,-0.016452465,0.16577294,0.18832096,0.102912985,-0.036630385,0.19707581,0.036496997,0.10345653,0.25439414,0.14903015,0.015030179,0.08135576,0.08448029,0.02440596,0.023522187,0.0020896718,0.10504484,-0.011188149,0.13106433,0.08575096,0.0575184,0.08970577,-0.008752484,-0.057812817,0.1532839,0.12309243,0.061629362,-0.061573304,0.08788442,0.028694749,0.0137466565,0.09067556,-0.047021158,-0.038391195,-0.008610208,0.12243665,0.07606352,-0.028250229,-0.052171875,0.11009067,0.19821775,0.10259371,-0.018365068,0.002822956,0.01829295,0.09123202,0.36465478,-0.047344968,0.065020576,-0.02897205,0.16176695,-0.030123575,-0.009369547,0.23271154,0.10656613,0.042532995
CF,-0.06518457,0.28900084,-0.024211481,-0.07503035,0.03774193,0.12617552,0.12974223,0.06968752,0.089657,0.025375873,0.27264303,0.14185055,0.13931882,-0.050656736,0.05381969,-0.04064389,0.117954895,0.2536827,0.10702615,0.2750385,0.016813688,-0.024062693,0.09323155,0.0018961206,-0.07623892,-0.034976423,0.034597576,0.0013706144,0.07487104,0.07191111,0.029072912,0.21326002,-0.06338954,0.21176563,0.11662179,0.0017421134,-0.020954609,0.1922829,-0.033492476,0.0140125,0.058165543,0.31329376,0.043128528,0.045172215,-0.021708876,0.17547107,0.18888187,0.10609934,-0.037346,0.191695,0.03304632,0.10376628,0.2766301,0.14412451,0.016240707,0.086521275,0.084751196,0.026516803,0.023088533,0.0014418438,0.104879715,-0.015095681,0.12982008,0.075640835,0.05534192,0.08675462,-0.009923855,-0.058819525,0.13969764,0.121835575,0.06043063,-0.061341442,0.093741566,0.028402433,0.013264842,0.09030773,-0.048308954,-0.0372113,-0.0077824723,0.13970283,0.07754359,-0.029265951,-0.056349948,0.116476126,0.19081844,0.07498261,-0.029786836,-0.009266513,-0.00039370172,0.11149141,0.36664975,-0.047720395,0.06430042,-0.031377338,0.15989202,-0.028915776,-0.030515695,0.2350535,0.10659518,0.043371722
CHD,-0.07190451,0.2883124,-0.031149045,-0.07432287,0.025102729,0.12744693,0.12908705,0.06923874,0.019980814,0.023245303,0.25794706,0.13958442,0.12628092,-0.051165678,0.027845114,-0.05607076,0.115942255,0.24745846,0.0775026,0.21693498,-0.024297245,-0.03330552,0.08439793,-0.0054849014,-0.071606904,-0.03566829,0.033911414,-0.009952594,0.06838361,0.030183667,0.02402133,0.20961748,-0.064484805,0.21326476,0.11561072,-0.050078668,-0.023156993,0.18977337,-0.03370683,0.013328378,-0.029727308,0.051227957,0.04632422,0.03274686,-0.046631534,0.15259397,0.18938467,0.10135801,-0.03671748,0.19027705,-0.05766149,0.10114332,0.0306338,0.1419606,0.015703784,0.047675237,0.084604576,0.02492316,0.025592707,-0.001735799,0.103815675,-0.019292697,0.13170573,0.05106072,0.05029778,0.066727,-0.020987775,-0.054093264,0.14125083,0.11717658,0.058146827,-0.06148231,0.07948394,0.030361399,0.014664397,0.09200842,-0.046935216,-0.042728454,-0.009410445,0.12468178,0.07782317,-0.030358313,-0.06335686,0.10689046,0.19923389,0.03445936,-0.025233904,-0.025701571,-0.015087169,-0.007094198,0.35826296,-0.05152203,0.06306112,-0.031864084,0.15601763,-0.0325734,-0.045896374,0.22822483,0.1027447,0.03945583
CHRW,-0.06252405,0.28976157,-0.027557272,-0.07082382,0.02662889,0.12527184,0.1318446,0.06841723,0.025041994,0.030685263,0.274351,0.14679638,0.1301756,-0.0483592,0.0808266,-0.05582404,0.116646536,0.24876961,0.12849969,0.22424963,-0.033521853,0.018520504,0.08556765,0.017656498,-0.06748314,-0.004506355,0.033109773,0.02125616,0.07111705,0.115124434,0.025363216,0.21130213,-0.06305734,0.2199788,0.118911706,-0.044709638,-0.022382192,0.18939276,-0.03364842,0.012683893,-0.014585383,0.011414731,0.04487592,0.0344997,0.047400936,0.14238487,0.18808603,0.10310816,-0.038726047,0.19858162,-0.06216813,0.10317727,0.017182413,0.14466591,0.012744824,0.1545801,0.08510186,0.023490533,0.024613634,-0.0031554736,0.10764578,-0.015550174,0.13072519,0.1449995,0.11711961,0.07320553,-0.0059821717,-0.04459763,0.15285847,0.12673551,0.066707745,-0.062269416,0.080329545,0.02833588,0.013881322,0.08960681,-0.04617617,-0.039588623,-0.008605622,0.11732691,0.07760979,-0.027444072,-0.05889477,0.1049235,0.19994089,0.1487844,-0.010215161,-0.017436016,0.005983405,-0.02604385,0.35791895,-0.050464384,0.06362656,-0.02825343,0.15874179,-0.03538043,0.040029034,0.23536822,0.103763625,0.04145594
CHTR,-0.0710392,0.28912145,-0.021366201,-0.077680096,0.03145653,0.12534828,0.13225795,0.068961635,0.10471415,0.03756932,0.26596904,0.14104906,0.13178056,-0.047925234,0.01596595,-0.044158615,0.1360178,0.24782953,0.031789213,0.23692341,0.018027812,-0.052331015,0.083294086,0.00064206123,-0.07581245,-0.044107024,0.048273854,-0.028241847,0.070151776,-0.015071172,0.025402175,0.21008083,-0.06414527,0.2057392,0.11564066,-0.015124876,-0.015803572,0.19043884,-0.032227144,0.013290282,0.009359224,0.27218807,0.043282643,0.03326806,-0.028851762,0.14515199,0.18942049,0.10268571,-0.03609171,0.18158053,0.030180627,0.1024996,0.2150578,0.16447449,0.014142624,0.07579902,0.083973676,0.026266687,0.02317331,-0.0009847805,0.1029813,-0.014133766,0.12947904,0.05588828,0.050058655,0.07504133,-0.008555149,-0.061954476,0.12990296,0.12970182,0.06277284,-0.06393252,0.08094497,0.027304322,0.01348586,0.08882989,-0.046457358,-0.039930098,-0.0070238523,0.12158334,0.074805416,-0.028126953,-0.048752442,0.10784319,0.19327614,-0.008052725,-0.036756545,0.04643487,-0.03775554,0.05409355,0.36521152,-0.05028802,0.066428006,-0.027266553,0.17818986,-0.026352372,-0.054812495,0.23053575,0.103289306,0.041462153
CI,-0.07145259,0.2891174,-0.025307387,-0.07938004,0.023341175,0.12642805,0.12952714,0.0702081,0.031349957,0.028938327,0.2596835,0.14310952,0.12923151,-0.052601844,0.025051117,-0.05345321,0.11922624,0.24898715,0.013319731,0.225421,-0.02100252,-0.066742465,0.08750978,0.0056864396,-0.07439606,-0.054395206,0.03516342,-0.03760413,0.06999806,0.0042800233,0.025911553,0.20989692,-0.063626364,0.20055158,0.1157628,-0.043715287,-0.022017866,0.19200774,-0.03306646,0.01232229,-0.01729078,0.033596255,0.04144581,0.030312583,-0.045336142,0.1406312,0.18800268,0.10115701,-0.037539862,0.18302414,-0.05415815,0.10163771,0.016710937,0.14484084,0.0146583505,0.06399533,0.085290514,0.026128154,0.02440698,-0.0022711456,0.10609788,-0.017713696,0.1307221,0.03571985,0.071868554,0.07358352,-0.008587213,-0.05864303,0.12723555,0.119322434,0.061633646,-0.062113866,0.08374102,0.029232398,0.0142249465,0.090335004,-0.04610682,-0.04170335,-0.007865233,0.12548968,0.07688605,-0.028986117,-0.05783244,0.10834265,0.1915936,-0.008954868,-0.041301794,-0.015147254,-0.04499556,-0.01800211,0.35905436,-0.05010032,0.06354286,-0.031800583,0.1610482,-0.035333633,-0.031932436,0.23207423,0.10313849,0.04353802
CINF,-0.07154552,0.28663814,-0.028265916,-0.08372635,0.026110474,0.12381452,0.12971014,0.06799545,0.021498863,0.024528155,0.25776485,0.13748327,0.12835357,-0.052729186,-0.005105951,-0.055666022,0.11611505,0.24691018,-0.0010173619,0.2232424,-0.04064036,-0.073736824,0.08313831,-0.015658807,-0.080767885,-0.061501514,0.033831563,-0.042630106,0.06737287,-0.035640582,0.02460838,0.210028,-0.06559932,0.20147863,0.113786325,-0.044115704,-0.023525607,0.18924698,-0.03518598,0.013177844,-0.023738615,-0.029513713,0.039424524,0.028680995,-0.05793633,0.11358361,0.18821034,0.100998245,-0.03789699,0.17444125,-0.06909497,0.100851916,-0.0027988926,0.14142749,0.01552954,0.046130806,0.08569917,0.025703851,0.024915788,-0.0008774772,0.10088959,-0.0206144,0.1313667,0.02265343,0.023878835,0.068130545,-0.025238885,-0.05767471,0.12278125,0.11868491,0.059998296,-0.062210962,0.0819453,0.029853702,0.014352724,0.09082116,-0.04663917,-0.042569354,-0.008211305,0.123873994,0.07720212,-0.029373575,-0.06350503,0.107000984,0.18689865,-0.057902303,-0.049991433,-0.023118488,-0.051654924,-0.039756253,0.3604719,-0.050458618,0.06293063,-0.032622244,0.15659744,-0.033506475,-0.07457307,0.22416365,0.10293992,0.039368693
CL,-0.07145142,0.28654888,-0.030404545,-0.08187721,0.025006745,0.124979235,0.12907371,0.06815521,0.019515354,0.02334575,0.25632316,0.13550816,0.12458643,-0.05331001,0.00857025,-0.05736193,0.11599706,0.24800032,-0.0020366907,0.21599855,-0.030106202,-0.06684193,0.08106125,-0.017425012,-0.07752783,-0.056541726,0.033073615,-0.04474711,0.06792666,-0.035395302,0.02361261,0.20997271,-0.06377995,0.19939925,0.114131235,-0.049518846,-0.023697909,0.18949823,-0.03493488,0.013677195,-0.028057577,0.019291028,0.040242486,0.033262715,-0.048276152,0.13440225,0.189406,0.10157394,-0.037041295,0.17373724,-0.06878355,0.10148889,0.0048061647,0.14308766,0.015121103,0.057519197,0.08505329,0.02566567,0.024985362,-0.0034887195,0.10037674,-0.017510474,0.13179448,0.037201088,0.018865243,0.06784989,-0.02020394,-0.055292442,0.12347673,0.118668824,0.05988841,-0.061835326,0.07932962,0.030055031,0.014260896,0.09185532,-0.046547294,-0.043769993,-0.008726303,0.12531623,0.07752177,-0.029619733,-0.06576215,0.1067753,0.18645859,-0.03118671,-0.045632094,-0.020438945,-0.054583367,-0.0237928,0.3577191,-0.05076763,0.062872306,-0.033008415,0.15770283,-0.034296792,-0.063083746,0.22311664,0.10185923,0.03948743
CLX,-0.06975743,0.286462,-0.0331829,-0.084737636,0.025948266,0.124038845,0.12908193,0.06870866,0.012863785,0.021995153,0.25556237,0.13491496,0.12599432,-0.053578917,0.0019923344,-0.05789923,0.112639874,0.24717535,0.016854607,0.22289553,-0.03875701,-0.07338649,0.08194042,-0.021048438,-0.07925677,-0.060744688,0.0325816,-0.039718837,0.06675455,-0.017385654,0.023397489,0.2115128,-0.064744145,0.19747016,0.1137097,-0.042279497,-0.024303466,0.18986739,-0.0352408,0.013627584,-0.028071651,-0.022762856,0.03934382,0.033033144,-0.060298987,0.09486154,0.19077192,0.100897536,-0.036536574,0.17184934,-0.079634205,0.100980505,-0.00043427572,0.14046961,0.0148161715,0.044735074,0.08404094,0.025131468,0.025150135,-0.0018573664,0.0997101,-0.022042554,0.1325371,0.024866141,0.017017461,0.068381116,-0.021786027,-0.05301451,0.12043026,0.11648712,0.057921313,-0.060953584,0.079425365,0.030166175,0.014082458,0.09222546,-0.04679626,-0.043874208,-0.00979564,0.1288189,0.07855414,-0.02981813,-0.06456357,0.10934085,0.18535179,-0.034070432,-0.048653983,-0.030132983,-0.047246605,-0.033743627,0.35771155,-0.051496997,0.06272225,-0.035279512,0.15568916,-0.032284822,-0.06528064,0.22515373,0.10184935,0.03920593
