,0,1,2,3,4,5,6,7,8,9,10,11,12,13,14,15,16,17,18,19,20,21,22,23,24,25,26,27,28,29,30,31,32,33,34,35,36,37,38,39,40,41,42,43,44,45,46,47,48,49,50,51,52,53,54,55,56,57,58,59,60,61,62,63,64,65,66,67,68,69,70,71,72,73,74,75,76,77,78,79,80,81,82,83,84,85,86,87,88,89,90,91,92,93,94,95,96,97,98,99
A,0.07149127,0.20714906,0.1511807,0.017183147,-0.04954645,0.2689502,0.18979849,0.23879072,0.07243259,-0.08194724,-0.0493551,-0.07395108,-0.051153675,0.20278014,-0.0439215,0.015433211,-0.068493485,0.09091614,0.110077895,0.133677,0.095196635,-0.0794132,-0.017880708,-0.030944452,0.1759542,0.101829775,-0.037023805,0.27147532,-0.032451183,0.011854857,0.031275593,0.09666002,-0.01779133,-0.05957394,-0.0042581474,0.1244663,0.071418166,0.16462274,0.1140572,0.2323144,0.022858972,-0.02405259,0.03439263,-0.16144241,0.08558367,0.033993736,0.096820846,-0.10482081,0.004292652,0.04977431,0.011105855,0.11721349,0.101472884,0.16496944,0.21083136,0.044148747,-0.009681273,0.19754101,0.12042212,-0.023437306,0.21582311,0.050766215,0.16612396,0.081938684,0.15837106,0.04375981,-0.03190034,0.20995586,0.039316315,0.101418175,0.15577652,0.12549783,-0.03193409,-0.036265284,0.16367945,0.2425271,-0.07139897,-0.040574804,0.12391201,0.0032696873,-0.060112942,0.03578217,-0.07711038,0.07787046,0.014910322,-0.04528842,0.042554375,0.015246179,0.017398471,0.09950587,0.16575246,0.16648638,0.22134243,0.13892373,-0.033861697,-0.062388387,-0.02511634,-0.020872355,0.111325935,0.13390787
AAL,0.08005753,0.20972624,0.15415093,0.15354316,-0.050844096,0.70946574,0.19490784,0.9867463,0.07593769,-0.06953917,-0.04885237,0.13673541,-0.016055502,0.5387957,-0.040102698,0.021856226,-0.072245605,0.09109523,0.11973387,0.3670246,0.10143321,-0.02208068,0.26364487,-0.02988379,0.17959386,0.106204174,-0.031512372,1.1706885,-0.029474743,0.22960694,0.034280766,0.096026145,-0.01880771,-0.05189854,0.0039549936,0.13240217,0.42552724,0.774193,0.11592444,0.23403004,0.1421559,0.055807363,0.045004234,-0.07020293,0.085657254,0.043207217,0.25975847,-0.06598866,0.037579987,0.052359536,0.014442971,0.12667695,0.36938378,0.16876745,0.21215536,0.08127418,0.0014985874,0.20013759,0.12047002,-0.009183519,1.0409793,0.054556474,0.17261067,0.084947295,0.16427787,0.03982179,-0.020857815,0.221567,0.051884327,0.10389067,0.15070823,0.127889,-0.022286477,0.20003533,0.16096877,1.2052007,-0.037006855,-0.036729194,0.123932034,0.05744041,-0.056790337,0.049778033,-0.07485743,0.08164299,0.029804986,-0.01793954,0.050385833,0.017996171,0.02873373,0.25819266,0.16682357,0.17193182,0.22492269,0.40215802,0.04880006,-0.054447245,-0.022375613,-0.017290697,0.11425449,0.13388833
AAP,0.07319443,0.2060548,0.1522573,-0.0059224665,-0.054729905,0.47529596,0.18811093,0.30375412,0.07497947,-0.060764465,-0.04828679,-0.0528808,-0.045996398,0.35613814,-0.045620196,0.03023066,-0.07198132,0.090085596,0.10825592,0.22710639,0.09680985,-0.07253473,-0.022155121,-0.031890247,0.17707929,0.10543623,-0.04136894,0.34527212,-0.052609473,0.014908988,0.03227324,0.09134703,-0.019908242,-0.050799385,-0.002526638,0.12378631,0.1028427,0.2156608,0.12012786,0.2330084,0.061465833,0.028074453,0.038594153,-0.11042085,0.08652708,0.039203838,0.18813059,-0.0925346,0.045893624,0.056230042,0.014747,0.11673392,0.26567468,0.1637181,0.20702152,0.048876237,0.009270992,0.19675103,0.118426144,-0.021325871,0.28400517,0.0531265,0.16817293,0.07972864,0.15629467,0.0417294,-0.034157377,0.21495786,0.03967967,0.10813668,0.1484617,0.1280739,-0.0328928,-0.017122358,0.1617548,0.32293043,-0.064576045,-0.040575042,0.12603924,0.033970732,-0.06018897,0.07998392,-0.081075884,0.07963534,0.022339243,-0.027599148,0.044812586,0.014232228,0.019275617,0.18002787,0.1670081,0.1639881,0.22475356,0.26212105,-0.023717366,-0.059821106,-0.023649342,-0.0045811087,0.110149756,0.1330187
AAPL,0.07151973,0.20679739,0.15040432,-4.355982e-05,-0.063537344,0.3625015,0.18863949,0.31317484,0.071336895,-0.075130224,-0.048447847,-0.056256413,-0.05170536,0.28175098,-0.044017404,0.013239466,-0.06921248,0.08998285,0.109529726,0.1706745,0.09729995,-0.07260431,-0.012315296,-0.030661084,0.17708124,0.10248781,-0.039664123,0.35713103,-0.030114442,0.020713998,0.035906516,0.09998231,-0.02226539,-0.057651944,-0.0042993054,0.12565935,0.09209989,0.22726315,0.109409526,0.23366532,0.0456615,0.008305479,0.029235391,-0.15043473,0.08738391,0.03552942,0.13606207,-0.104527414,0.008546924,0.05625017,0.011859978,0.11841696,0.17365591,0.1628426,0.20696414,0.05112977,-0.0047641695,0.19808018,0.121835105,-0.019196108,0.29903358,0.052635048,0.16678293,0.07878826,0.15587366,0.041273624,-0.03212998,0.21246299,0.0395037,0.104926236,0.15377267,0.12844254,-0.030327931,-0.020932926,0.15849407,0.33328068,-0.0705325,-0.037819475,0.12324248,0.027038071,-0.059620224,0.03262884,-0.077271804,0.076861,0.023370236,-0.041777037,0.041733712,0.014129875,0.01858019,0.13804534,0.16399664,0.16230863,0.22388288,0.19774202,-0.028061058,-0.059118275,-0.025876276,-0.023087263,0.11008303,0.13291223
ABBV,0.07462289,0.20448492,0.14946295,-0.003188355,-0.057324648,0.44257018,0.1846361,0.29239142,0.080233455,-0.0832675,-0.04786263,-0.06488233,-0.05384066,0.34661788,-0.046101287,0.02039364,-0.071176626,0.091076136,0.10593253,0.24291939,0.095317595,-0.06451744,-0.013927449,-0.031611774,0.17618439,0.10335548,-0.039006915,0.35441285,-0.027031919,0.014076415,0.03716158,0.09481715,-0.01960611,-0.055043913,-0.0035274494,0.12566556,0.08711518,0.19271857,0.11409291,0.23784277,0.08002772,0.010050189,0.034355626,-0.13236126,0.08532353,0.0373198,0.17500374,-0.09056355,0.0061924662,0.050822817,0.0127266,0.113989554,0.21389571,0.16553912,0.21599999,0.043149892,-0.0050839,0.1975664,0.12297523,-0.02240169,0.28823715,0.050481822,0.16682696,0.08011909,0.16386913,0.04428229,-0.033756524,0.22549568,0.038534082,0.10559476,0.15392731,0.12878793,-0.036139816,0.008559573,0.16405775,0.32154727,-0.072244056,-0.039358072,0.12633187,0.021819185,-0.060631987,0.04702604,-0.07836446,0.0738088,0.015815236,-0.046315517,0.041170746,0.016213149,0.01826679,0.17128049,0.16402355,0.1722768,0.22499849,0.24501458,-0.042346105,-0.06228397,-0.02285,-0.019245505,0.110398725,0.13340008
ABC,0.07368071,0.20846787,0.15126777,-0.006103866,-0.06314932,0.30261886,0.18645203,0.3133138,0.07212666,-0.084194936,-0.05035042,-0.06406404,-0.05506248,0.23626877,-0.045152888,0.017058454,-0.07842379,0.088643655,0.10621789,0.1380849,0.09915395,-0.08246516,-0.015432913,-0.03194393,0.17545167,0.1014744,-0.040386792,0.35144463,-0.039450873,0.01032218,0.03126924,0.09663637,-0.023057826,-0.056830928,-0.0034713503,0.12341041,0.095832735,0.22088772,0.10904121,0.23273921,0.030492308,-0.00692043,0.027620466,-0.15666291,0.08775,0.03208818,0.11024233,-0.1032529,0.0054880194,0.054046832,0.013369339,0.116262525,0.13530728,0.16283074,0.20713954,0.05055759,-0.0043392703,0.19829616,0.12198271,-0.023481123,0.29144245,0.050967067,0.16695282,0.08341677,0.15570217,0.0417656,-0.034163218,0.2105825,0.04081183,0.09943179,0.14996117,0.12594634,-0.034446117,-0.024647407,0.15948464,0.3297756,-0.07217181,-0.041630946,0.12413427,0.010271452,-0.058622006,0.019381292,-0.07670466,0.076168194,0.017462902,-0.04539613,0.040857445,0.015025152,0.019300276,0.11361058,0.16368502,0.16453934,0.2210921,0.16224493,-0.028924018,-0.06535165,-0.029754788,-0.02752547,0.10587102,0.13201122
ABT,0.071591854,0.20680438,0.15014912,0.011104761,-0.062623546,0.2462262,0.18736969,0.258824,0.07182946,-0.085674025,-0.04838926,-0.06860516,-0.047916718,0.19012105,-0.04652044,0.011653524,-0.07588741,0.08795288,0.10692802,0.10259636,0.094665125,-0.08558266,-0.026332762,-0.029623535,0.17584471,0.100456856,-0.03758093,0.2883054,-0.052260496,0.01049963,0.032751575,0.09782159,-0.021582507,-0.06214828,-0.005266051,0.12500507,0.07819323,0.18398713,0.11116393,0.23250298,0.010363987,-0.019923275,0.03198388,-0.15997982,0.08702437,0.033177886,0.08174394,-0.10510825,0.0045668595,0.050779115,0.0105635235,0.11668026,0.09718876,0.16246319,0.20645101,0.044269525,-0.0056408867,0.19651243,0.121892825,-0.023148313,0.23950826,0.05002214,0.1669499,0.079647265,0.15476298,0.039437216,-0.032963667,0.20751232,0.036419667,0.097434714,0.14835647,0.12332833,-0.035801064,-0.03667338,0.15591528,0.27123815,-0.070823014,-0.039735742,0.123701,-0.00085359067,-0.06094855,0.010261282,-0.07869497,0.075042695,0.018058635,-0.045675382,0.04117684,0.013353055,0.017313998,0.08643018,0.16292787,0.15965536,0.22412483,0.12323475,-0.03569699,-0.061482668,-0.026762024,-0.02403836,0.11169124,0.13415596
ACN,0.071646795,0.2048933,0.1498623,0.0035652258,-0.060453214,0.19221905,0.18895021,0.32456595,0.07398994,-0.07719759,-0.051675834,-0.057343602,-0.049617156,0.14971805,-0.047332417,0.013582677,-0.07569444,0.088734016,0.10747922,0.07071751,0.09599452,-0.08598117,-0.009798013,-0.030504454,0.17600048,0.10236684,-0.039920844,0.3758397,-0.052886657,0.01934062,0.031856503,0.097622365,-0.022357233,-0.05962184,-0.005550921,0.12595223,0.1102572,0.23641287,0.109446675,0.23256585,-0.008168458,-0.030542482,0.028913828,-0.16137606,0.085995786,0.033669643,0.0565386,-0.100123316,0.009411698,0.054428168,0.01235222,0.11653296,0.064529866,0.16082978,0.205734,0.042900298,-0.0047817603,0.19432542,0.121771336,-0.022370841,0.31241366,0.05014199,0.16707444,0.07977805,0.15445681,0.04029435,-0.033029087,0.21159986,0.038764767,0.09977551,0.15073502,0.12560154,-0.032831162,-0.019714272,0.15649916,0.3510028,-0.071620665,-0.04196343,0.124230176,-0.0054029636,-0.058169015,0.01391653,-0.07690187,0.07642494,0.016196012,-0.042362038,0.042149357,0.01556843,0.017534934,0.06827873,0.16421744,0.16136183,0.22173297,0.09669457,-0.027157374,-0.061488926,-0.028071634,-0.023579806,0.10813515,0.13458881
ADI,0.07178675,0.20648032,0.15123585,0.021924822,-0.056057163,0.49414822,0.1901781,0.41914865,0.07193014,-0.08400273,-0.050217185,-0.049548432,-0.053763308,0.39185542,-0.045744568,0.014378134,-0.07569778,0.087660395,0.10827495,0.26001877,0.097195014,-0.06490294,0.018168721,-0.028844327,0.17506756,0.103825316,-0.04098344,0.4750813,-0.047142968,0.03764175,0.026550218,0.09576002,-0.01798413,-0.05905947,-0.0026424285,0.12506753,0.14567128,0.30481935,0.11251186,0.23237172,0.09234534,0.039814603,0.03268877,-0.12383047,0.08482013,0.036270678,0.19526708,-0.09981828,0.007270241,0.05644012,0.013876759,0.11552053,0.25405812,0.16293937,0.20719099,0.06549902,-0.007589549,0.19663078,0.120720506,-0.019123062,0.40939355,0.051055204,0.16710222,0.078532316,0.15745398,0.039673302,-0.0337234,0.21394365,0.040390156,0.09946308,0.15006797,0.12607972,-0.0320206,0.0102166645,0.16233815,0.46141082,-0.06623821,-0.039637335,0.12428996,0.042613648,-0.056962244,0.03401707,-0.077220455,0.074573025,0.018366985,-0.041328948,0.045477584,0.019470045,0.018814787,0.19199184,0.16444114,0.16478527,0.22355449,0.27733985,-0.027355999,-0.05748874,-0.025951289,-0.030984662,0.11050895,0.1354757
ADM,0.06968211,0.20580754,0.14979857,-0.021092027,-0.05457719,0.24661213,0.18623437,0.228189,0.07300947,-0.076562,-0.047538556,-0.0778378,-0.05449169,0.19458339,-0.04707008,0.014902391,-0.07877876,0.08759209,0.10923646,0.1024103,0.09686991,-0.085886374,-0.04539958,-0.030418009,0.17623699,0.10276904,-0.04332565,0.25890684,-0.062019914,-0.0019545443,0.034982678,0.096803054,-0.024046153,-0.06102453,-0.004327056,0.12318867,0.06711573,0.1632617,0.112773195,0.2341666,0.014898473,-0.024625795,0.02950808,-0.14832436,0.08878469,0.032574683,0.082823224,-0.10042159,0.01083993,0.056529682,0.013645252,0.11742393,0.09060689,0.16180831,0.20627512,0.045047045,-0.0015310235,0.19744974,0.12344874,-0.024148032,0.2113111,0.050272137,0.16807197,0.08078565,0.15467857,0.03688318,-0.03192845,0.20825693,0.035959594,0.09701111,0.14761631,0.12604973,-0.03135281,-0.04260201,0.15704665,0.23751679,-0.07458787,-0.042598076,0.12313629,-0.01276597,-0.060634203,0.026747167,-0.078804,0.0760194,0.015916556,-0.042580526,0.042935558,0.013615508,0.018626133,0.09357421,0.16462366,0.1582967,0.22164041,0.13528836,-0.036960922,-0.06170767,-0.026118957,-0.022947289,0.10921402,0.13530803
ADP,0.070888236,0.2063924,0.15209757,-0.006603837,-0.061478257,0.4405959,0.1847345,0.29401717,0.07267697,-0.08268437,-0.049821187,-0.06347023,-0.05638688,0.35236937,-0.047374375,0.010811977,-0.076679245,0.08870939,0.10846794,0.22346339,0.094502345,-0.074044704,-0.020076416,-0.031965345,0.1765942,0.1015029,-0.041548055,0.3412675,-0.052459832,0.008615557,0.029969994,0.09639917,-0.022854172,-0.061185777,-0.0028980877,0.12665747,0.09756812,0.21480283,0.10939562,0.23418675,0.07503935,0.026430594,0.030732539,-0.13192236,0.08835113,0.037225112,0.17173982,-0.09996782,0.0024997853,0.05485471,0.011969562,0.11918505,0.22398858,0.16297822,0.2071745,0.055377066,-0.010992814,0.19475341,0.12028302,-0.021201719,0.2811625,0.05062987,0.16614941,0.08114891,0.1563101,0.040106624,-0.034309648,0.20801392,0.039876476,0.09725914,0.14982359,0.124808416,-0.033112366,-0.030164078,0.15775035,0.31547317,-0.071525395,-0.041264415,0.12410966,0.037594344,-0.058751985,0.028065182,-0.077083156,0.07475272,0.017167736,-0.043927863,0.042494223,0.01864119,0.020811023,0.17367592,0.16408312,0.16091649,0.22016056,0.25089306,-0.031970255,-0.061527096,-0.025141865,-0.029973637,0.10745585,0.1333624
ADSK,0.0757751,0.21045375,0.15125966,0.040488824,-0.04979313,0.4186132,0.19492596,0.42727044,0.07386559,-0.07201753,-0.049242817,-0.0198146,-0.050410226,0.32620975,-0.044716846,0.017529592,-0.0741392,0.09055705,0.11083717,0.18078102,0.101769246,-0.0759069,0.05600149,-0.031352315,0.17840251,0.106090955,-0.037067734,0.48589748,-0.044080544,0.07955456,0.029127466,0.0986575,-0.01974786,-0.04969248,-0.002939485,0.12625065,0.14192194,0.30745146,0.11189892,0.23403785,0.0685386,0.021696372,0.03696428,-0.123374715,0.08921148,0.03486484,0.16170906,-0.08728379,0.030459275,0.053949602,0.012838052,0.11964353,0.22014552,0.1636413,0.21081285,0.051528454,-0.0013303757,0.20301837,0.12172935,-0.019673504,0.41736364,0.052428283,0.1677472,0.08118538,0.15621163,0.03859168,-0.030848593,0.22089753,0.041059442,0.109335184,0.15548,0.1279487,-0.026307527,0.018394973,0.16034992,0.46995223,-0.07109362,-0.03985791,0.13001993,0.013752528,-0.056468934,0.06647922,-0.07786382,0.08486886,0.020683177,-0.029752064,0.046020377,0.019509943,0.019637918,0.15126905,0.16487905,0.16772932,0.22275619,0.25008923,-0.0048018172,-0.058993,-0.023210883,-0.009849906,0.111587465,0.13894054
AEE,0.071786955,0.20576309,0.15100855,0.03036166,-0.061043307,0.372899,0.18346742,0.4620521,0.07291726,-0.08306176,-0.047640733,-0.030780144,-0.052885696,0.2992638,-0.048253573,0.012475118,-0.08000422,0.0883901,0.10768325,0.18671557,0.09453215,-0.07702553,0.034461472,-0.02940889,0.17404637,0.10055297,-0.042819116,0.53130746,-0.0507524,0.0651816,0.034327284,0.098185174,-0.024552315,-0.06203846,-0.006360231,0.12482734,0.16924703,0.3380344,0.11031662,0.2335664,0.049931407,0.009173013,0.027391545,-0.1440931,0.08520028,0.033943404,0.14140645,-0.10477616,0.00077053346,0.054523062,0.012728949,0.117690004,0.18010463,0.16181156,0.20515276,0.05058579,-0.008417122,0.19599025,0.123762965,-0.020108856,0.45686,0.049100604,0.16571608,0.07815076,0.1553492,0.035403743,-0.031616475,0.20948079,0.036407698,0.0942735,0.1471338,0.1229989,-0.03405657,0.020188414,0.15658653,0.51430357,-0.06635035,-0.04289803,0.12271786,0.01628369,-0.06078495,0.020248584,-0.07724996,0.076978795,0.022854086,-0.048152514,0.043930195,0.01333347,0.02046096,0.14476176,0.16521905,0.15781596,0.22107589,0.20675577,-0.014637597,-0.06021629,-0.027191907,-0.03266195,0.10892819,0.13347267
AEP,0.071372,0.20484006,0.15079257,-0.01320077,-0.060309246,0.24489549,0.18382594,0.27350736,0.071566746,-0.08427972,-0.048058327,-0.06008713,-0.051761337,0.1784739,-0.048885472,0.0121001825,-0.08069474,0.09056486,0.10779759,0.09411507,0.093815245,-0.074838,-0.032038283,-0.028809305,0.17399092,0.1006536,-0.0435191,0.31676137,-0.054620612,0.010374814,0.03407118,0.09753654,-0.026306458,-0.062486842,-0.006565381,0.12126681,0.08889046,0.19232093,0.11113667,0.23250687,0.001757836,-0.035218086,0.027698284,-0.16240856,0.0867835,0.032307256,0.059733838,-0.10464843,0.0022104774,0.05339128,0.012587218,0.11822209,0.07850728,0.16033511,0.20586279,0.041932248,-0.008209586,0.19541255,0.12254033,-0.021631323,0.25569478,0.04933942,0.16537663,0.078193,0.15326793,0.035339754,-0.034833267,0.20737901,0.036120187,0.0941446,0.14659944,0.12281264,-0.032302506,-0.031681783,0.156486,0.28419894,-0.066583514,-0.04250811,0.122831926,-0.017306812,-0.060888845,0.0043958016,-0.07745905,0.07486168,0.022134144,-0.04687183,0.041363172,0.012534527,0.019713482,0.0777652,0.16500986,0.1585389,0.22147208,0.12855084,-0.025768869,-0.060000427,-0.027462348,-0.02960024,0.109347925,0.13425556
AES,0.072735354,0.20778312,0.15197054,0.0061703175,-0.05321081,0.49506268,0.18785647,0.3610283,0.07395208,-0.08038114,-0.045844935,-0.046469606,-0.054309435,0.3843715,-0.044529445,0.012489356,-0.07895909,0.08947951,0.11186302,0.25450182,0.09767557,-0.05565608,0.003348168,-0.031028468,0.17630121,0.10458989,-0.03845582,0.4136639,-0.042190544,0.05691994,0.031168915,0.096868336,-0.015213244,-0.060724072,-0.005474477,0.12658677,0.12507367,0.26038328,0.11248247,0.23330389,0.08554722,0.02449349,0.03143287,-0.12650877,0.087326445,0.040662907,0.18130739,-0.10420713,0.013532089,0.0508598,0.015605181,0.117771946,0.2469731,0.1635111,0.20684695,0.05781562,-0.0046927743,0.19722235,0.12380032,-0.018508643,0.35012856,0.049557883,0.16830175,0.07962704,0.15594634,0.03318917,-0.030938454,0.212908,0.04029274,0.09886269,0.15108852,0.1264679,-0.031488538,-0.009686153,0.15999171,0.4014303,-0.06783581,-0.04177632,0.123772785,0.038520478,-0.05954051,0.035763454,-0.08026484,0.07644141,0.025365613,-0.03955043,0.042435095,0.016216217,0.022427302,0.18857726,0.16578618,0.1684188,0.22423151,0.2821787,-0.027029136,-0.056283448,-0.027225323,-0.024206199,0.10725732,0.13607338
AFL,0.071577415,0.20519923,0.15218738,0.07484655,-0.058714814,0.4548062,0.18665095,0.6513639,0.07067904,-0.07982315,-0.04819648,0.039712742,-0.038469717,0.35863987,-0.04771428,0.013018969,-0.0781279,0.08858819,0.109077275,0.23650764,0.096187964,-0.061229672,0.1044948,-0.022450678,0.17612997,0.10142793,-0.043778308,0.7656516,-0.0515083,0.126551,0.031731863,0.097818196,-0.024219885,-0.06240394,-0.004919787,0.12525433,0.26375544,0.47853708,0.10809886,0.23196782,0.06804341,0.027507067,0.031343315,-0.117695294,0.085498974,0.037411705,0.1696357,-0.09021941,0.0074452516,0.053424325,0.012056755,0.11813931,0.22703768,0.162807,0.20720322,0.05577614,-0.012719411,0.19372272,0.12123935,-0.016711332,0.6590694,0.050451167,0.1665933,0.078398064,0.1571466,0.04212476,-0.034631528,0.20866898,0.040627837,0.09868075,0.14557004,0.12253775,-0.034872387,0.06609917,0.15935251,0.75197685,-0.039566256,-0.04306779,0.122414276,0.038647693,-0.06052001,0.031890135,-0.078387365,0.07431555,0.02012172,-0.047264207,0.041724328,0.013216475,0.016904967,0.17546365,0.16238496,0.16284852,0.22101295,0.25899386,0.013696335,-0.059163243,-0.017466627,-0.026976973,0.109378114,0.14051294
AIG,0.07099025,0.2078388,0.15274097,0.01432818,-0.04579924,0.6152147,0.19235145,0.47457275,0.072625026,-0.073223636,-0.048509,-0.019988164,-0.050639883,0.50743455,-0.042766914,0.014256969,-0.07831025,0.09096131,0.113524556,0.33505476,0.09735645,-0.06294208,0.048031993,-0.03194293,0.17690355,0.10318318,-0.039454333,0.55559427,-0.04504393,0.06277179,0.029065028,0.09765412,-0.021447107,-0.061281726,-0.0035304315,0.1289556,0.1801196,0.35119265,0.108790234,0.2320158,0.12616242,0.065325886,0.03317988,-0.06330445,0.08532087,0.039480157,0.26074997,-0.10028887,0.03716898,0.056561522,0.016732477,0.11727162,0.33404747,0.16233322,0.20682886,0.06697895,-0.008481551,0.1965814,0.12230964,-0.017076254,0.4781507,0.05048634,0.16837507,0.07614265,0.16714485,0.04107924,-0.032337297,0.21805951,0.042516623,0.09698296,0.1484166,0.12422627,-0.03176108,0.023692872,0.15804778,0.5273198,-0.059920933,-0.041479655,0.1244639,0.05167211,-0.058481023,0.05229204,-0.080510125,0.07551395,0.022501066,-0.042580873,0.043183953,0.016548546,0.018713858,0.26024583,0.1630715,0.16455485,0.22475766,0.36457843,-0.010751098,-0.05921441,-0.024489038,-0.030837327,0.10669543,0.1316158
AIZ,0.07155497,0.20532268,0.15079018,0.016147126,-0.057829794,0.5989948,0.18817508,0.34352785,0.07089552,-0.07460268,-0.04984757,-0.046002455,-0.044509202,0.47467148,-0.043647464,0.016571421,-0.07678935,0.08852333,0.108173646,0.32134312,0.0955196,-0.04582663,-0.005266458,-0.028992929,0.17493993,0.10323217,-0.03463569,0.3960609,-0.05637586,0.04045796,0.032440502,0.09641369,-0.022229522,-0.06000592,-0.005009571,0.12661593,0.11701029,0.24349827,0.11590184,0.23300359,0.12092455,0.053613488,0.030498544,-0.099711284,0.08608166,0.04157671,0.24010077,-0.100978434,0.033795103,0.055717055,0.013557103,0.11736801,0.32280183,0.16234711,0.20701715,0.072931334,0.009336412,0.20118399,0.12168369,-0.022317331,0.32963789,0.04966133,0.16686393,0.079625525,0.15847242,0.040740196,-0.03373137,0.2111091,0.0420535,0.095504075,0.14793624,0.123695835,-0.03188123,-0.014756355,0.15736197,0.37189668,-0.07221216,-0.04093218,0.12269642,0.057105027,-0.058407836,0.046185616,-0.07717386,0.07661337,0.015684828,-0.040053405,0.042046115,0.015178613,0.016759878,0.2389136,0.16601245,0.16091424,0.22121963,0.34912774,-0.024296135,-0.057488058,-0.024855465,-0.014463335,0.10755053,0.13468663
AJG,0.07011546,0.20492774,0.1507834,-0.0075106397,-0.061497033,0.41705096,0.18589741,0.3287763,0.07176252,-0.08403936,-0.04967838,-0.051803797,-0.053965002,0.31642553,-0.048545703,0.012805395,-0.07863602,0.087467514,0.109050035,0.19943935,0.09647569,-0.057268694,-0.0077019185,-0.031178374,0.17592914,0.10259823,-0.038554244,0.37964985,-0.06357227,0.015147649,0.028839197,0.09854606,-0.021427155,-0.059547156,-0.0049977014,0.12577821,0.11327264,0.2393983,0.109064974,0.23627445,0.053213023,0.0043652607,0.029561237,-0.13975662,0.08693404,0.03787642,0.14388353,-0.100890085,0.0033018515,0.05278606,0.010930054,0.11773269,0.19849652,0.16207968,0.20499103,0.051817574,-0.008786831,0.195298,0.12250895,-0.02386776,0.3148828,0.05047506,0.16541475,0.07929671,0.15562996,0.039927695,-0.034196533,0.20762068,0.039099775,0.096183315,0.1463552,0.12315981,-0.03179615,-0.010054275,0.15749627,0.3538598,-0.07086633,-0.042036355,0.12353484,0.023952961,-0.06081239,0.02163988,-0.07779178,0.07363944,0.01686528,-0.04311486,0.041873857,0.014206918,0.018977882,0.15363735,0.16238232,0.16049382,0.22151345,0.23364393,-0.027489282,-0.056266297,-0.028034374,-0.03134664,0.10816796,0.13170752
AKAM,0.06986662,0.20649622,0.1520935,0.011910861,-0.050928213,0.2882645,0.18799558,0.39907014,0.07350733,-0.07029517,-0.050521523,-0.0582342,-0.050025918,0.20303112,-0.044464186,0.016900182,-0.07343461,0.089551315,0.11485158,0.10278368,0.09797691,-0.077146865,0.027830957,-0.029974993,0.17610246,0.10754129,-0.034578443,0.48449466,-0.04944126,0.05020632,0.030693255,0.09669736,-0.021408565,-0.052851446,-0.0030739373,0.12273215,0.13306415,0.27841777,0.11277709,0.23302132,0.0020654718,-0.015074145,0.030064277,-0.13358243,0.08634437,0.033347484,0.09385166,-0.104376644,0.027219912,0.054164134,0.0132550625,0.11669084,0.14209354,0.16240159,0.20704904,0.04762767,-0.0051535927,0.19644612,0.122536644,-0.022362158,0.41965988,0.049834415,0.16611147,0.07791095,0.15458298,0.04130057,-0.029938517,0.20767589,0.039347924,0.09691271,0.15008442,0.12888551,-0.033709023,0.033525955,0.15643324,0.45527405,-0.07079451,-0.038765267,0.12680104,-0.010863865,-0.05996205,0.048136424,-0.077422015,0.07463826,0.016243838,-0.033397377,0.043002106,0.013497997,0.016925365,0.07717067,0.16602805,0.16364938,0.22275096,0.14636852,-0.020589724,-0.061882794,-0.024999566,-0.013595834,0.11251798,0.13421541
ALB,0.07466325,0.21135119,0.15277101,0.003930608,-0.040208846,0.61772734,0.1910572,0.36840355,0.07837692,-0.073866196,-0.046833705,-0.04736483,-0.0428209,0.4891154,-0.042914294,0.033773035,-0.07431667,0.09270532,0.11722102,0.3061697,0.100425236,-0.05905032,-0.0023119077,-0.026281174,0.17267208,0.10667261,-0.032387335,0.41162798,-0.03869007,0.027474228,0.033360615,0.098577365,-0.013311893,-0.056753136,-0.0022904687,0.12635843,0.12549844,0.2596931,0.12283899,0.23441704,0.11058059,0.060357437,0.037798863,-0.061925437,0.079333454,0.043397047,0.25587577,-0.09860702,0.069116056,0.05000342,0.01262373,0.118354715,0.36234546,0.16567484,0.20874386,0.062063303,0.02452686,0.20461482,0.12417685,-0.018382423,0.34535134,0.05150176,0.1685688,0.08726715,0.16086316,0.042293128,-0.028633282,0.2165407,0.03940874,0.103341535,0.15068218,0.12849835,-0.027349744,0.003596045,0.16376707,0.3884679,-0.06624063,-0.04112047,0.12516104,0.034545876,-0.05476422,0.085899584,-0.075650424,0.08790887,0.023148403,-0.0076478403,0.044428445,0.021715596,0.0242436,0.20670229,0.16375504,0.17681876,0.22195019,0.36370382,-0.022264495,-0.050457817,-0.024978586,0.0055249482,0.10979481,0.13416281
ALGN,0.07742837,0.21754262,0.15543355,0.14301163,-0.050377578,0.81207037,0.1998089,0.874489,0.08215856,-0.04779959,-0.045929447,0.09394209,-0.021462835,0.6423023,-0.041045323,0.03733054,-0.04044936,0.09211427,0.11551507,0.46411142,0.10269337,-0.026054243,0.2210474,-0.020680465,0.17404154,0.105078734,-0.029618584,1.0267984,0.019970318,0.19521014,0.067374974,0.096461326,-0.0158889,-0.046046637,0.004351357,0.13038938,0.3645007,0.67215866,0.12291673,0.23472598,0.18649936,0.09573008,0.038206954,-0.042060867,0.079636365,0.04146106,0.34438053,-0.0830815,0.07278341,0.055247907,0.031772554,0.119207785,0.44916093,0.16895527,0.22883277,0.069805644,0.033259295,0.20710865,0.122180775,-0.015169002,0.897658,0.05156088,0.17147604,0.080502704,0.16597496,0.045479085,-0.02125011,0.22116418,0.046324104,0.10976215,0.15974344,0.1277802,-0.02187043,0.15302226,0.16161183,1.0396477,-0.042733617,-0.03482712,0.13091446,0.0844346,-0.04859206,0.08204421,-0.071814716,0.09038535,0.031473227,-0.02442615,0.046035882,0.022752937,0.022668963,0.3368371,0.17184776,0.18512306,0.22817001,0.46915975,0.03902836,-0.063436255,-0.029318094,0.013059862,0.12532918,0.14162385
ALK,0.07444964,0.20803031,0.15221074,0.038913596,-0.04623827,0.7039618,0.19091226,0.5371379,0.07424351,-0.07589306,-0.04798532,-0.004659325,-0.05176229,0.5674181,-0.039120905,0.021709446,-0.07659604,0.08968043,0.11110071,0.3818006,0.09920484,-0.044964228,0.067769155,-0.023463815,0.17703378,0.10552416,-0.032974035,0.639631,-0.038616583,0.08654924,0.03425531,0.095792115,-0.020397082,-0.056656405,-0.0035707252,0.12552921,0.21038514,0.404403,0.11204428,0.23462948,0.15228151,0.086129464,0.02932801,-0.040828496,0.08645128,0.04145231,0.31198737,-0.1031715,0.040641192,0.05471774,0.015843622,0.120270394,0.3944835,0.16557464,0.21093646,0.082058236,-0.0010883324,0.19781767,0.12233418,-0.015311338,0.55300677,0.051530488,0.16976455,0.08181225,0.15906036,0.04040513,-0.030897837,0.21706094,0.04472041,0.10310018,0.14930233,0.1254606,-0.026510483,0.037299808,0.16101605,0.606264,-0.06022314,-0.03943129,0.124577895,0.07387974,-0.05781109,0.05382937,-0.08365195,0.08062813,0.020723175,-0.035589702,0.04794728,0.017008739,0.019922659,0.3089223,0.1644333,0.16786587,0.22389054,0.415828,-0.0037668273,-0.058885045,-0.024868563,-0.02297531,0.11130558,0.13186875
ALL,0.07111399,0.20751771,0.14985807,-0.011824683,-0.059416875,0.381008,0.1863763,0.2586631,0.07291138,-0.07084721,-0.049611453,-0.07443236,-0.047526836,0.28961903,-0.04622367,0.016432773,-0.07853246,0.09025212,0.10702872,0.17054251,0.09948318,-0.06991267,-0.041219268,-0.030728944,0.17580268,0.10386273,-0.041137725,0.29754686,-0.046496924,0.0036515929,0.033547975,0.09733851,-0.024103068,-0.061824985,-0.0046578273,0.12251846,0.07655755,0.1897839,0.11605853,0.23220494,0.040077448,0.010524287,0.03003957,-0.11833777,0.08731148,0.036542375,0.1419399,-0.10327456,0.041650675,0.055360362,0.011646007,0.11851479,0.20676589,0.16300598,0.20588171,0.049653787,0.012040483,0.20250237,0.12238045,-0.023460943,0.24696384,0.050629593,0.16707802,0.07819671,0.15495881,0.04129513,-0.03276508,0.21029684,0.039108522,0.09962401,0.14555742,0.1256749,-0.02770469,-0.03671038,0.15737078,0.27244097,-0.069326855,-0.04121753,0.12493797,0.012849513,-0.05987321,0.05940812,-0.077836566,0.07746174,0.017085671,-0.03587176,0.041605785,0.013332695,0.016436232,0.13523519,0.16426116,0.16177434,0.22157103,0.2136811,-0.033337258,-0.060313288,-0.0265593,-0.0059328675,0.10795568,0.13288517
ALLE,0.07203276,0.21101129,0.15133223,0.0012108907,-0.05817662,0.3365918,0.19082493,0.28865838,0.072484836,-0.08257753,-0.047669396,-0.050805524,-0.044174455,0.26890507,-0.046686072,0.014047958,-0.0770378,0.08955516,0.10898875,0.16276398,0.097556025,-0.07349825,-0.009599291,-0.032362495,0.17673764,0.10282128,-0.03918124,0.32938248,-0.054774567,0.029015211,0.028918529,0.09527819,-0.020018883,-0.05617915,-0.003588085,0.12555233,0.09774171,0.20597774,0.10982742,0.23233157,0.031358328,0.003910532,0.029645476,-0.14626321,0.09076168,0.033428073,0.12402172,-0.09920807,0.0027451422,0.05345265,0.009723201,0.11713149,0.15568005,0.16364336,0.2058824,0.050579682,-0.008916564,0.19613136,0.122064054,-0.022119578,0.26908866,0.050111752,0.16738552,0.08033055,0.15563487,0.04028885,-0.03483049,0.21501419,0.03745627,0.09881298,0.14611106,0.1249958,-0.03196198,-0.029450558,0.15694693,0.308024,-0.06787488,-0.04090935,0.1239728,0.01708449,-0.058883898,0.014415234,-0.080096185,0.077829264,0.018465184,-0.04214315,0.043198265,0.015147321,0.01786648,0.12867919,0.16294572,0.16018915,0.2229221,0.18277255,-0.023716465,-0.060518257,-0.027089007,-0.029273357,0.10978773,0.13399656
AMAT,0.07629464,0.21029034,0.15246102,0.016827105,-0.053102583,0.6180268,0.19582105,0.35565662,0.07513357,-0.07304864,-0.05146291,-0.04771233,-0.0493348,0.5015784,-0.04364167,0.019738555,-0.070647925,0.09079538,0.11411532,0.33929995,0.098239124,-0.047380745,0.010035247,-0.025357746,0.17490655,0.10508882,-0.03471107,0.40450016,-0.035810165,0.04900974,0.032107905,0.096172005,-0.017534144,-0.052130163,-0.00046297535,0.12791984,0.10276757,0.25776312,0.11344239,0.23616749,0.12479448,0.07041657,0.032147605,-0.09465301,0.08274432,0.040100366,0.25603527,-0.09912772,0.024856744,0.05481654,0.012894302,0.11729736,0.34102657,0.1630964,0.21041146,0.06631181,-0.00020493567,0.19759114,0.12035825,-0.019172274,0.34649506,0.05233909,0.17006329,0.07169971,0.16153324,0.041192945,-0.032184508,0.2191329,0.043283895,0.105875716,0.15932557,0.12680821,-0.029021244,-0.009387042,0.16456108,0.38389224,-0.06789117,-0.03766203,0.12524654,0.065689035,-0.0548236,0.048716556,-0.07234554,0.08027753,0.019946583,-0.04029814,0.047892302,0.017501466,0.022302195,0.25042635,0.16438285,0.17047097,0.22614136,0.35989887,-0.016123319,-0.057421856,-0.024140842,-0.021938361,0.11244357,0.13717726
AMCR,0.07170385,0.20532992,0.1509828,0.0027808063,-0.054718576,0.4619964,0.1924443,0.40530634,0.07133033,-0.07872038,-0.049302865,-0.037196383,-0.05573599,0.3722716,-0.046320282,0.014221247,-0.07541752,0.0900563,0.10704609,0.22869188,0.09603562,-0.06978275,0.013583824,-0.031441014,0.17491503,0.10089573,-0.042552963,0.4670513,-0.046165362,0.048876446,0.031916924,0.098499894,-0.023656517,-0.058192335,-0.005691655,0.12873565,0.14557058,0.2818801,0.10925372,0.23075068,0.07928679,0.024832278,0.03467432,-0.108235165,0.08697708,0.038227674,0.18020128,-0.103474125,0.012466399,0.05544836,0.014488728,0.11898775,0.23113582,0.16233608,0.20793946,0.061504547,-0.005778812,0.19719537,0.123871796,-0.021135032,0.38511822,0.050118722,0.1660735,0.07915134,0.1555802,0.039862413,-0.031501196,0.21869995,0.03939052,0.09856674,0.15009342,0.12420064,-0.033228334,-0.0029252507,0.15806995,0.43929112,-0.068906926,-0.04264185,0.12403662,0.029716246,-0.060054332,0.03522048,-0.08097373,0.07824794,0.022573106,-0.043252707,0.043702137,0.019197144,0.018444411,0.18718426,0.16484441,0.16162823,0.22093073,0.26954776,-0.017651066,-0.06147788,-0.02546677,-0.022934183,0.10785392,0.13313499
AMD,0.07935803,0.21303359,0.15295544,0.038677204,-0.046670407,0.42532,0.19801477,0.47260088,0.07926503,-0.05976087,-0.049135197,-0.024024818,-0.04849571,0.3364064,-0.03803055,0.021494072,-0.06092383,0.09551457,0.11347807,0.22955291,0.10272436,-0.06779723,0.059314594,-0.02080429,0.17790341,0.11259399,-0.029491803,0.5551118,0.0025846679,0.08806931,0.05328142,0.09789971,-0.013281763,-0.045703307,0.0004018601,0.12630464,0.15623012,0.3391367,0.115409166,0.23382163,0.06831009,0.019759877,0.0382564,-0.104752794,0.08553774,0.038791455,0.20358914,-0.0874615,0.05182283,0.058297385,0.024280943,0.123861864,0.23647916,0.16527927,0.21326357,0.056033004,0.016331244,0.20064013,0.11871363,-0.017041788,0.49211878,0.0562829,0.16991666,0.08108307,0.15782216,0.038924243,-0.032192905,0.2253657,0.046062805,0.10769604,0.15553938,0.1338762,-0.025351003,0.04313144,0.16541345,0.5394598,-0.06364729,-0.037000746,0.12789258,0.028657094,-0.04470492,0.06716773,-0.07841713,0.08174259,0.02131946,-0.03494439,0.04618047,0.023480855,0.02533077,0.16459882,0.16675368,0.16946352,0.22732626,0.24144775,-0.004319612,-0.05967362,-0.016484141,0.0018147975,0.11245063,0.1417212
AME,0.07002327,0.20475942,0.15188986,0.0119686695,-0.062449224,0.46073967,0.18548357,0.4320705,0.07077819,-0.0855733,-0.049340133,-0.030559793,-0.057406113,0.3606122,-0.04728266,0.0117799975,-0.07716979,0.08934905,0.10740423,0.23578244,0.09471464,-0.062102504,0.024720792,-0.029583469,0.17618683,0.10147981,-0.040777862,0.49374035,-0.051592514,0.058153555,0.03062031,0.097186,-0.022718623,-0.060800016,-0.0041270144,0.13031092,0.15397167,0.31038365,0.108443156,0.23305696,0.072891064,0.029027816,0.02912752,-0.12965298,0.08535112,0.036918096,0.18165632,-0.10005398,0.0005122423,0.054648664,0.014812069,0.11764953,0.23548447,0.1626545,0.20577857,0.058209773,-0.010178521,0.19491622,0.12073974,-0.022878967,0.4247381,0.050943665,0.16652298,0.08161705,0.15888314,0.03930823,-0.033299655,0.20739758,0.041254107,0.09836479,0.14660636,0.12496482,-0.034831416,0.0059566237,0.15672629,0.47913998,-0.066312276,-0.041388772,0.122436956,0.038660787,-0.057112157,0.027870249,-0.078268975,0.073804945,0.020065345,-0.046158284,0.041402444,0.012360264,0.017032728,0.17750955,0.16292919,0.15953383,0.22020397,0.2572803,-0.020656101,-0.060096662,-0.026841752,-0.03365819,0.10811958,0.1324136
AMGN,0.071117505,0.20702288,0.15055305,-0.012132263,-0.057726085,0.18314536,0.18648729,0.28852278,0.074520044,-0.08622028,-0.048559945,-0.056154657,-0.055377923,0.1443787,-0.046211004,0.011413973,-0.07941125,0.087943524,0.107239395,0.06417407,0.09488937,-0.086875685,-0.015265692,-0.032586917,0.17512928,0.09932919,-0.04142086,0.3253812,-0.05378914,0.0003760904,0.027922902,0.096926585,-0.022442251,-0.060203336,-0.006455195,0.12579447,0.084428675,0.20203547,0.11194715,0.23345786,-0.004143016,-0.040680617,0.029664751,-0.16766953,0.088918746,0.03233277,0.04562754,-0.10373414,-0.0030529164,0.051921304,0.011373056,0.1162867,0.050911997,0.16076839,0.20607528,0.044303138,-0.011289112,0.19469444,0.121393874,-0.023438849,0.26922888,0.049783185,0.16686338,0.0812182,0.15502198,0.04152809,-0.03368769,0.21485354,0.03696766,0.09682208,0.14505614,0.12400176,-0.036369648,-0.033314764,0.15611461,0.30096984,-0.07348419,-0.041592218,0.12276288,-0.017434765,-0.061816297,0.016353264,-0.0780094,0.074194655,0.01598671,-0.047122564,0.042954355,0.01257788,0.019255374,0.05873748,0.16279288,0.1614535,0.22001639,0.087288275,-0.030089684,-0.063410744,-0.02505999,-0.030137673,0.10879524,0.13326512
AMP,0.07159601,0.20654699,0.1519052,0.075938314,-0.045070842,0.74019337,0.18950799,0.636059,0.071893916,-0.081670396,-0.050224613,0.003218785,-0.05291249,0.58716255,-0.044472367,0.018814057,-0.07729552,0.090517744,0.10979465,0.41600633,0.0993779,-0.029053193,0.106126666,-0.032729086,0.1752421,0.104323976,-0.02591611,0.73605525,-0.042126443,0.09813004,0.034040093,0.09678133,-0.021507017,-0.058990307,-0.0022601,0.13196531,0.23178037,0.4884046,0.11600326,0.23287347,0.15731974,0.089593954,0.031021634,-0.0735126,0.08340998,0.044436626,0.31410027,-0.08213654,0.030834498,0.053264584,0.011754357,0.11975513,0.42144132,0.16402848,0.20753403,0.07566645,-0.0053391606,0.19666773,0.12200302,-0.016526707,0.65442675,0.05049166,0.16702607,0.07929436,0.16121583,0.04110141,-0.025169943,0.21278381,0.044890814,0.09911357,0.14867567,0.12618843,-0.030474221,0.068319395,0.15831083,0.73380876,-0.055943917,-0.041219942,0.1258882,0.08387027,-0.058472253,0.05390741,-0.07992837,0.076866,0.024378475,-0.039262235,0.0438127,0.0147117525,0.020409884,0.29926986,0.1632633,0.16601627,0.22254393,0.42485836,0.00016003847,-0.060366366,-0.02802486,-0.021012925,0.10883084,0.13103999
AMT,0.07038106,0.20643763,0.1522622,0.005666971,-0.05817336,0.4499274,0.19059543,0.32037294,0.074738905,-0.08365521,-0.0472948,-0.051630463,-0.050504185,0.35884535,-0.046742864,0.012864243,-0.076849036,0.08764994,0.10753244,0.23247114,0.0952044,-0.067655414,-8.373335e-05,-0.027190018,0.17395449,0.10047303,-0.03981052,0.3657154,-0.05750943,0.032216188,0.029676523,0.09825209,-0.02131971,-0.059564367,-0.0035208715,0.12667154,0.103711545,0.23589249,0.10952172,0.23189852,0.08112059,0.026014939,0.02757477,-0.12892058,0.08443945,0.03683207,0.18278508,-0.10470891,0.0027899127,0.05500816,0.014096132,0.1187973,0.2328406,0.1627202,0.20797603,0.05691813,-0.0074482597,0.19573425,0.12301033,-0.020742,0.3077432,0.049029294,0.16617562,0.08075993,0.1563473,0.03604843,-0.03256579,0.21085966,0.037475213,0.09758067,0.1487998,0.12353495,-0.033881217,-0.015460562,0.15641503,0.34168124,-0.06932565,-0.042720534,0.12426613,0.034059066,-0.058949813,0.031793717,-0.07645329,0.07539339,0.015171528,-0.039962605,0.04244563,0.016852926,0.017574929,0.17938194,0.16439453,0.1599128,0.22066069,0.25858998,-0.027350822,-0.058086723,-0.028408065,-0.027354114,0.10794099,0.1359323
AMZN,0.07408589,0.20930028,0.15068263,0.025428155,-0.05398169,0.41297108,0.19216868,0.3497945,0.07833769,-0.07147457,-0.051039726,-0.015527274,-0.049672477,0.31452692,-0.040744126,0.028500732,-0.06877466,0.09024877,0.10874219,0.16781244,0.09762511,-0.083777346,0.056736417,-0.032005318,0.17690438,0.103190646,-0.035856016,0.42146322,-0.04047796,0.06483017,0.03062563,0.09696774,-0.014522441,-0.047167838,-0.002216936,0.12192646,0.115562536,0.2444249,0.12256082,0.23317662,0.03065235,0.023368418,0.03104182,-0.11711536,0.083918035,0.032518357,0.15091291,-0.10235891,0.04470551,0.054006144,0.011284716,0.115025125,0.2260318,0.1626292,0.20630002,0.04181332,0.0095449425,0.20541121,0.123383835,-0.022323754,0.29817298,0.05234295,0.16808677,0.08159552,0.1542823,0.041720767,-0.03219163,0.22089735,0.037345096,0.108059466,0.1529061,0.12991878,-0.026781134,-0.022978712,0.1570279,0.39939097,-0.07137814,-0.038892478,0.12456408,-1.3399869e-05,-0.05597987,0.051530182,-0.07907681,0.08256214,0.01774491,-0.03382972,0.047965866,0.017662613,0.022613304,0.12325766,0.16399899,0.16441494,0.22494474,0.22490722,-0.016354451,-0.059476353,-0.024969414,-0.015737534,0.11318089,0.13657394
ANET,0.07270175,0.20989612,0.1544776,0.039891567,-0.040652357,0.7090846,0.19082578,0.50759685,0.09205622,-0.06905653,-0.043373886,0.007961467,-0.05069101,0.5614805,-0.039360985,0.02159778,-0.06316674,0.09078793,0.11285022,0.40640014,0.0978981,-0.0326188,0.07654919,-0.02060648,0.17523777,0.10493667,-0.023387842,0.61809546,0.009025566,0.07861206,0.05011498,0.10054229,-0.0064384155,-0.05404158,-0.0024054656,0.13255385,0.19342731,0.3795397,0.11269899,0.23284543,0.15614845,0.06936826,0.04663868,-0.07096671,0.0819487,0.036093503,0.29958743,-0.0926331,0.040841416,0.057715688,0.012663894,0.11949643,0.38861966,0.17145477,0.22359599,0.060193606,0.0022064075,0.19995739,0.12211901,-0.019498967,0.5157354,0.053949583,0.16806543,0.078741685,0.16728935,0.04036355,-0.0338263,0.22274393,0.04705164,0.11478582,0.16624396,0.13420102,-0.03077364,0.037375174,0.16483857,0.594446,-0.0676365,-0.03916324,0.13063198,0.06697419,-0.058020912,0.08463843,-0.07280438,0.08161132,0.01787436,-0.03394585,0.046915393,0.02293842,0.02126132,0.2869143,0.16547373,0.17915921,0.22403812,0.4125172,-0.01976446,-0.062267393,-0.021793142,-0.0150406435,0.10934369,0.1365719
ANSS,0.07229567,0.20822838,0.15065493,0.02725459,-0.052431464,0.3617297,0.19123653,0.41561884,0.07296209,-0.07766307,-0.048683375,-0.045388438,-0.042360358,0.2860788,-0.046088096,0.013937239,-0.07459821,0.09006482,0.11267688,0.17519376,0.09709686,-0.07285435,0.020589042,-0.031439193,0.1758806,0.10192709,-0.038173284,0.47349548,-0.051794752,0.04213348,0.029205443,0.098938815,-0.018340811,-0.05926928,-0.0034172293,0.12640336,0.13729924,0.3021292,0.11183338,0.23471874,0.051603574,0.009434395,0.029726775,-0.15169793,0.08654254,0.036087506,0.13412553,-0.101595394,0.006592231,0.050675604,0.011248376,0.11639242,0.17454994,0.16287507,0.20856641,0.0560987,-0.0065575503,0.19547871,0.12258139,-0.021302007,0.40683,0.05102697,0.1669222,0.08489254,0.15534821,0.03935873,-0.030454604,0.2144199,0.03764552,0.10553862,0.14997366,0.12893373,-0.031705286,0.0016074702,0.15817589,0.45336956,-0.07423328,-0.040557362,0.12376247,0.022733286,-0.05613473,0.017509941,-0.07637095,0.07790481,0.018019442,-0.04132324,0.04406656,0.016642552,0.02077443,0.13491759,0.16458131,0.16184154,0.22629352,0.19583334,-0.018833868,-0.059102952,-0.026063323,-0.025062382,0.10743074,0.13496819
AON,0.071797654,0.20549546,0.15002011,-0.0016047182,-0.056900464,0.45214888,0.18754326,0.3520568,0.072657995,-0.08320605,-0.04893394,-0.048319824,-0.055822007,0.35527825,-0.048069127,0.015734434,-0.0786362,0.08829034,0.10760853,0.22976473,0.09630904,-0.058087923,-0.0012454204,-0.029147793,0.17649022,0.1007275,-0.039192095,0.40302944,-0.051235013,0.026485559,0.0285223,0.097896725,-0.019276507,-0.062072292,-0.0062749106,0.12295157,0.11939074,0.25421596,0.11448453,0.23388617,0.0663517,0.01657905,0.029683072,-0.12248618,0.08686849,0.036033887,0.17082535,-0.09927967,0.016203577,0.05364196,0.01217657,0.11806997,0.22146651,0.16100451,0.20568702,0.050577354,-0.0061529763,0.19576001,0.121629536,-0.024666958,0.33695695,0.04981478,0.16614237,0.07914078,0.15656802,0.040933855,-0.033954717,0.21018553,0.039044347,0.095925875,0.14743595,0.12437029,-0.032704677,-0.00910373,0.15701267,0.38096225,-0.071866184,-0.042893797,0.12434869,0.024790961,-0.060745846,0.032000266,-0.07734203,0.077045545,0.016747877,-0.034650948,0.043429077,0.016170692,0.018966924,0.16496865,0.16312736,0.16303004,0.22428554,0.25089517,-0.023084387,-0.057914745,-0.026420757,-0.02512265,0.10969119,0.13272046
AOS,0.0711772,0.21019286,0.15161903,0.049253255,-0.058854707,0.19802392,0.1893965,0.37309358,0.07202862,-0.08281055,-0.047482774,-0.030001685,-0.04902008,0.14419508,-0.045359723,0.013525188,-0.07587705,0.0896925,0.11018227,0.06788267,0.098521575,-0.08578406,0.054579824,-0.03285752,0.17600724,0.10280412,-0.039779276,0.45410836,-0.04897762,0.067087404,0.031914145,0.096102655,-0.020441167,-0.05745531,-0.0039551044,0.12014671,0.12650475,0.2572583,0.1098194,0.23305255,-0.012080187,-0.038469724,0.030653656,-0.16411197,0.08704176,0.031121042,0.05263138,-0.10025859,0.0029716063,0.05439283,0.014630687,0.11710421,0.05809608,0.16445296,0.21049733,0.03938236,-0.008765057,0.19657944,0.12382846,-0.023953442,0.3276815,0.051994313,0.16681093,0.079389885,0.15652058,0.04286617,-0.035482414,0.21267547,0.036325887,0.10255505,0.14841522,0.12768304,-0.029318571,-0.0064859875,0.15860488,0.41319937,-0.073024675,-0.040781572,0.12390585,-0.013792513,-0.059005752,0.007933557,-0.07878479,0.07622056,0.019014832,-0.043342195,0.046033423,0.013963299,0.01881424,0.06458527,0.16318725,0.16209438,0.22271614,0.09795173,-0.020070752,-0.06367926,-0.02830121,-0.021442242,0.11499037,0.1328064
APA,0.08152245,0.21646416,0.15946572,0.101181015,-0.05464278,1.4588196,0.19429275,0.7434082,0.07433195,-0.06470378,-0.015388876,0.05437009,-0.04074196,1.1470928,-0.039722763,0.024157278,-0.072884955,0.09294066,0.12131596,0.8367137,0.09837492,0.07381544,0.14359608,0.042453725,0.17691386,0.10731517,0.0052459314,0.8841142,0.05288438,0.16864683,0.13781083,0.095394984,-0.01551988,-0.05453957,0.026279878,0.13237867,0.3064315,0.5765734,0.11682077,0.23499851,0.3149108,0.20936537,0.030149885,0.25295264,0.087344415,0.060812037,0.6034418,-0.08441978,0.1520777,0.055670682,0.01658922,0.1335598,0.8393922,0.16642535,0.2418656,0.1660375,0.030428171,0.20338719,0.1350568,-0.009436086,0.78101534,0.055506755,0.17564315,0.095210284,0.18269894,0.038690332,-0.025880791,0.2232654,0.06488167,0.10481418,0.15507832,0.13111341,-0.019539654,0.10354602,0.16615291,0.88684464,-0.025120003,-0.039223872,0.12637947,0.15623719,-0.05905525,0.05824017,-0.0778791,0.082702614,0.037429214,-0.00011409074,0.05715305,0.020807065,0.02451623,0.6079327,0.16860618,0.16982274,0.22619429,0.8153664,0.015537441,-0.063060276,-0.021529056,-0.00017284602,0.108692795,0.13492289
APD,0.06990354,0.20543559,0.15097387,0.0071086967,-0.057341106,0.35870278,0.18964711,0.35371336,0.07199225,-0.074897386,-0.048816234,-0.06422626,-0.055509344,0.27775925,-0.046414077,0.012170672,-0.07871977,0.091665,0.10762883,0.17239729,0.0966689,-0.069551624,-0.005544707,-0.030622255,0.17547783,0.10269546,-0.044909175,0.40344366,-0.05848442,0.030479189,0.031584784,0.09727622,-0.022962153,-0.061880246,-0.005328376,0.12750971,0.120237224,0.2556647,0.1098423,0.23194805,0.04766004,0.00011290237,0.037602983,-0.15498573,0.08414289,0.0355681,0.131557,-0.10112682,0.0038185045,0.053199325,0.013288034,0.11746818,0.16958696,0.16200078,0.20686854,0.05269848,-0.012511298,0.19491524,0.12294092,-0.02215802,0.33965984,0.05023565,0.16596733,0.08092475,0.15766156,0.041513085,-0.032601137,0.2102426,0.03882015,0.09781951,0.14685707,0.12309268,-0.033334054,-0.0033954233,0.15637551,0.3799774,-0.0723849,-0.04207112,0.12248817,0.01317383,-0.05946417,0.021079894,-0.07750066,0.07592012,0.016469415,-0.04205578,0.042254925,0.01641649,0.02211381,0.1344086,0.16307119,0.15884954,0.22337219,0.19962183,-0.025900804,-0.0616003,-0.026548348,-0.01857832,0.109014615,0.13486773
APH,0.07040294,0.20553038,0.15016529,-0.016077358,-0.05754254,0.39563712,0.18804684,0.21171139,0.071187094,-0.08054661,-0.048947543,-0.07286748,-0.055930577,0.31066027,-0.045379788,0.012500137,-0.07689411,0.08775189,0.10760173,0.19383562,0.0956798,-0.06599178,-0.03463958,-0.02994619,0.17556776,0.1032391,-0.04408272,0.242951,-0.04708285,-0.002046695,0.028772244,0.09678707,-0.0226359,-0.062047243,-0.003886695,0.12584732,0.06264764,0.15306982,0.110826254,0.23366383,0.055222016,0.01109623,0.029506892,-0.14163306,0.084688835,0.03688245,0.1486824,-0.103641324,0.009752719,0.05468049,0.015139727,0.11706553,0.19249886,0.16312769,0.20630248,0.049921792,-0.007172864,0.19459683,0.12165001,-0.02308309,0.19248885,0.05044464,0.16732334,0.07813607,0.15485947,0.042900123,-0.03444138,0.21281067,0.040968068,0.101735696,0.14585215,0.1260674,-0.033336505,-0.0492843,0.15965015,0.2176278,-0.07104245,-0.040367573,0.12384398,0.023931492,-0.058118064,0.023159217,-0.07621245,0.07480245,0.014363822,-0.045940075,0.04299427,0.016264832,0.019608019,0.14948097,0.1634676,0.16117083,0.22073996,0.22359586,-0.031336896,-0.058732115,-0.02895365,-0.031836133,0.10765645,0.13392892
APTV,0.07575291,0.21256001,0.15402876,0.034602344,-0.052948907,0.88703126,0.19194484,0.549776,0.07463072,-0.073343776,-0.047770727,-0.016659617,-0.05240208,0.6969248,-0.044592522,0.023411132,-0.07522781,0.08887386,0.11550967,0.49978724,0.097671926,-0.005453676,0.06461382,-0.019363634,0.17463195,0.10538857,-0.02766157,0.62569517,-0.024525449,0.107862666,0.02872859,0.09377949,-0.01929953,-0.058079787,-0.0029963423,0.12961951,0.20635913,0.40611306,0.11532873,0.23409346,0.19256827,0.09817982,0.036400884,-0.023030832,0.080499165,0.047343954,0.3658021,-0.091715254,0.05945204,0.057380382,0.01588561,0.11728957,0.49266902,0.1635598,0.21433277,0.08070367,0.0070816316,0.19983341,0.12072855,-0.013727576,0.549306,0.05150658,0.16845237,0.08120111,0.16436729,0.046823207,-0.029456293,0.21632223,0.04960805,0.100379124,0.15005036,0.12851489,-0.024438746,0.041957013,0.15966703,0.631593,-0.06396223,-0.039862208,0.12438873,0.08514477,-0.056426343,0.05867633,-0.07665213,0.07805596,0.029543363,-0.030225521,0.045346066,0.017860806,0.020177871,0.3573773,0.16583452,0.16529593,0.2239187,0.52313775,-0.012365766,-0.057624843,-0.025825858,-0.01093334,0.109465614,0.13747445
ARE,0.07180545,0.2063869,0.15106225,-0.00907699,-0.054816633,0.50724,0.187855,0.31527355,0.071618795,-0.07784517,-0.048869967,-0.05921063,-0.053259403,0.40013626,-0.046845384,0.013511777,-0.07776851,0.08992333,0.10728325,0.26475108,0.094771996,-0.05741716,-0.01688153,-0.029830005,0.1748439,0.102029495,-0.04182483,0.3584624,-0.056926817,0.022272192,0.033610716,0.099013805,-0.022482976,-0.060557812,-0.0037483368,0.12856764,0.10388849,0.22563654,0.10973717,0.2327351,0.090677075,0.036842823,0.03082165,-0.12031211,0.08360836,0.038309496,0.20561643,-0.10448434,0.009808162,0.05446172,0.013343361,0.118379936,0.26695496,0.16125405,0.20582049,0.05955883,-0.0076115653,0.19620161,0.12568066,-0.022453286,0.30106926,0.04874941,0.16663647,0.08000245,0.15488832,0.036996868,-0.032059558,0.21008866,0.041720547,0.097538866,0.14840476,0.12567525,-0.031243064,-0.024924029,0.15548281,0.33834332,-0.07163761,-0.04251732,0.12401607,0.042080097,-0.061805222,0.03445887,-0.07912067,0.07412098,0.020514674,-0.04174638,0.042164907,0.014676757,0.01980172,0.20037948,0.16570446,0.15977585,0.22377455,0.28961754,-0.030334003,-0.056302145,-0.02603583,-0.024511367,0.10852836,0.1335664
ATO,0.07214217,0.20524576,0.15018477,0.013345389,-0.061049923,0.26786438,0.18595673,0.39421117,0.072779186,-0.086068265,-0.049218826,-0.04640451,-0.052013732,0.19788033,-0.047901675,0.011401344,-0.08023935,0.08803198,0.10748782,0.10734963,0.09512822,-0.0723158,0.008112013,-0.028940372,0.17460008,0.099818416,-0.043952838,0.45481586,-0.051461056,0.044672105,0.034203544,0.09701303,-0.02335105,-0.063309655,-0.005632136,0.12394808,0.14258587,0.2847299,0.11048856,0.23316911,0.00343114,-0.030181162,0.027923945,-0.15706183,0.08584337,0.033171818,0.0713546,-0.104380414,-0.0012100954,0.053986713,0.01253413,0.11940815,0.09560844,0.16137114,0.2056252,0.046017267,-0.010651011,0.19677304,0.123427145,-0.0220332,0.38269526,0.05053925,0.16651157,0.07736212,0.15599093,0.03509554,-0.0329812,0.21028402,0.037781797,0.09625397,0.14659299,0.12259687,-0.031281214,-0.0005796179,0.15612882,0.4293704,-0.07069732,-0.042586558,0.12286776,-0.014530705,-0.060584567,0.0031811148,-0.07776019,0.075270586,0.017447185,-0.044604383,0.041046016,0.014287503,0.020300325,0.085192785,0.16542706,0.15785326,0.22233951,0.136581,-0.018483244,-0.06063942,-0.02602496,-0.031009872,0.1075826,0.13404155
ATVI,0.07709998,0.20956847,0.1510968,0.06997782,-0.04008537,0.36190385,0.18959695,0.666421,0.07447693,-0.06843206,-0.04602058,0.049811997,-0.05018486,0.28116944,-0.040331386,0.015151519,-0.06706299,0.091413096,0.11223403,0.15043193,0.09652181,-0.068757564,0.1415694,-0.031179816,0.17641863,0.10365884,-0.035235606,0.80758023,-0.019012773,0.12196281,0.03986445,0.09681622,-0.023065113,-0.058919914,-0.001768061,0.12250997,0.2643674,0.5036011,0.12390737,0.23303215,0.056427892,0.008374162,0.03127373,-0.13346608,0.089464895,0.035629746,0.13563582,-0.09388904,0.025411343,0.052617595,0.016335985,0.119026646,0.17754468,0.16345526,0.20948148,0.048414998,-0.0027638935,0.19823626,0.120197125,-0.016654246,0.6858882,0.05246591,0.17010663,0.073973134,0.15702891,0.04115868,-0.03013628,0.21776311,0.041742895,0.107411325,0.15400882,0.12716542,-0.03035229,0.076111995,0.15753181,0.79150075,-0.07454936,-0.03822077,0.12467855,0.00652859,-0.06023068,0.052073047,-0.07328732,0.076705806,0.018930722,-0.04711408,0.04694594,0.018522896,0.02196395,0.12546578,0.16515638,0.17265725,0.22436325,0.21304868,-0.005450219,-0.061591428,-0.02457317,-0.012645453,0.11063966,0.1366787
AVB,0.071418464,0.20455176,0.15064597,-0.00019255653,-0.06013765,0.43956316,0.18624523,0.29411453,0.07140167,-0.086713314,-0.04842509,-0.062282085,-0.0549798,0.3512904,-0.04666219,0.011705704,-0.07914165,0.08914201,0.10833172,0.22713551,0.095393404,-0.07234173,-0.019608412,-0.029237632,0.17473635,0.10023563,-0.044237316,0.33917227,-0.053518873,0.013345653,0.032451794,0.09884427,-0.02230423,-0.062998645,-0.004324044,0.12271808,0.09340818,0.21691713,0.10734201,0.23242718,0.07139522,0.027940758,0.028899485,-0.12674284,0.08804859,0.036784794,0.17325431,-0.10712467,0.00019436143,0.054371465,0.012581924,0.11936271,0.22213691,0.16235664,0.20530555,0.053889897,-0.009829756,0.19690335,0.12466398,-0.02129085,0.28367993,0.049225345,0.16739538,0.078461595,0.15676336,0.03743976,-0.03407743,0.21261184,0.039707802,0.09563476,0.14777333,0.12507823,-0.03150564,-0.028227512,0.16156933,0.3139945,-0.060521524,-0.04281029,0.12316114,0.032938227,-0.06188307,0.031091705,-0.078277126,0.074373625,0.022807129,-0.04342962,0.042616077,0.0133399535,0.024746608,0.17640646,0.16453132,0.15888414,0.223564,0.25402397,-0.032154538,-0.059283923,-0.026432998,-0.034081306,0.1097672,0.13333318
AVGO,0.07287302,0.20705444,0.1537199,0.0115243085,-0.06001953,0.6016763,0.19069707,0.41129795,0.07377332,-0.078884274,-0.049820445,-0.047275618,-0.04752411,0.48581225,-0.044253893,0.013908546,-0.063783795,0.08994054,0.10976964,0.32380486,0.09904319,-0.053798147,0.015398461,-0.026316859,0.17552066,0.10337876,-0.037801467,0.470527,-0.012862183,0.056990135,0.04386718,0.09759146,-0.017083913,-0.05985757,-0.0026634382,0.12545356,0.14639905,0.29861012,0.110723354,0.2357171,0.120695285,0.06279013,0.03182593,-0.091223635,0.080301784,0.039811082,0.24746314,-0.10019162,0.025621679,0.055416588,0.012721473,0.1171374,0.32741418,0.16325253,0.20799924,0.068958044,-0.002924513,0.1983369,0.122274265,-0.018375918,0.40157077,0.052974045,0.1674331,0.076820664,0.1590023,0.040814325,-0.027616484,0.21743298,0.042751584,0.106016785,0.16205384,0.12754893,-0.031985022,0.006099656,0.1584874,0.45918578,-0.070736356,-0.037074618,0.12552765,0.06398514,-0.05612114,0.049298447,-0.07642172,0.07648642,0.023401517,-0.04571323,0.045931675,0.017004188,0.017905913,0.24564427,0.16616246,0.17785305,0.22569257,0.35179284,-0.030575879,-0.057395726,-0.026974559,-0.014806621,0.11078811,0.13785905
AVY,0.07006632,0.20641838,0.15050793,0.053432,-0.056121323,0.33923268,0.18859723,0.605365,0.07055377,-0.07931018,-0.04957965,0.010778867,-0.055949166,0.26603255,-0.04658167,0.016084176,-0.07843253,0.09050451,0.107323594,0.1664464,0.09627429,-0.063777365,0.09319113,-0.033741955,0.17597693,0.10359274,-0.04045921,0.6952859,-0.055844128,0.10738014,0.033052906,0.097187646,-0.023701511,-0.058048144,-0.0057001486,0.12815192,0.22797269,0.44880176,0.113201454,0.23291461,0.04397106,-0.008837733,0.029448679,-0.1385287,0.084130384,0.03601212,0.12737271,-0.10135035,0.022222789,0.057352602,0.016783327,0.11973271,0.15323263,0.16306987,0.20571959,0.052128837,0.0038893968,0.1984669,0.12179979,-0.017366476,0.61013436,0.049743317,0.16709197,0.07984312,0.15734658,0.04127964,-0.031194381,0.21206224,0.039176237,0.10081169,0.14759322,0.12384643,-0.033855483,0.06148743,0.15618001,0.6933291,-0.06949377,-0.042293683,0.12445929,-0.0015687682,-0.058911726,0.026788294,-0.07781483,0.07738444,0.018697225,-0.04204922,0.042438142,0.016825426,0.021848869,0.13576066,0.16421887,0.1587272,0.2204605,0.20267156,0.002818957,-0.06051143,-0.026900329,-0.019448556,0.10656735,0.13535586
AWK,0.0722753,0.20518538,0.15161733,0.022432774,-0.06074237,0.26588643,0.18434986,0.43159673,0.07296634,-0.081635505,-0.047887605,-0.038125932,-0.05387087,0.19701658,-0.048694104,0.012832526,-0.07957642,0.08791664,0.1092617,0.105436645,0.095234334,-0.07395496,0.023211848,-0.02564526,0.17317043,0.10213024,-0.043105137,0.49785274,-0.051305078,0.05195309,0.033212792,0.098428756,-0.022880524,-0.0618247,-0.0057928385,0.12494386,0.15646976,0.31176388,0.111248046,0.23399216,0.008145845,-0.029189473,0.025216537,-0.14642352,0.085351415,0.033539634,0.08162335,-0.10552028,0.0046350863,0.05381111,0.013303429,0.11860379,0.09162545,0.16078524,0.20679724,0.043858763,-0.007952694,0.19740061,0.12338813,-0.021880444,0.4206119,0.0496392,0.16597822,0.07796067,0.15527746,0.034358326,-0.034088593,0.20733461,0.03805036,0.09609287,0.14648576,0.1231187,-0.032288022,0.01091354,0.15797654,0.4716075,-0.06865506,-0.042797513,0.12301165,-0.0067811497,-0.060895696,0.006117597,-0.07853009,0.07505444,0.021283362,-0.044896282,0.044405214,0.014923982,0.019727912,0.08680419,0.16487643,0.15908363,0.22174698,0.14095572,-0.014580339,-0.06022269,-0.02131401,-0.028360229,0.108917534,0.13750774
AXP,0.072753586,0.20647445,0.15114793,0.04479079,-0.057458952,0.39719984,0.18955895,0.57661694,0.07317503,-0.08312924,-0.049722824,0.005306542,-0.047507524,0.30452204,-0.043167047,0.015701935,-0.07997715,0.08852878,0.10954902,0.19126967,0.0972208,-0.060911,0.08275331,-0.030564025,0.17684874,0.10335441,-0.04022788,0.66904956,-0.053546388,0.09537016,0.03023068,0.09742173,-0.018603697,-0.054789364,-0.0037175762,0.13052529,0.22053215,0.42520463,0.11138785,0.23174801,0.058190137,0.016543034,0.032510735,-0.12668702,0.086217634,0.036999613,0.13706681,-0.09889841,0.014810132,0.050791804,0.010970242,0.1192321,0.1862032,0.1659604,0.2087826,0.05723554,-0.007067926,0.19690695,0.122148864,-0.017941967,0.5808219,0.049724374,0.16843897,0.07998209,0.15649521,0.03967836,-0.032103054,0.20840515,0.039548755,0.10029814,0.14854683,0.12672721,-0.031815317,0.055994283,0.16025066,0.6516695,-0.053837545,-0.042021953,0.12300198,0.031548347,-0.05935036,0.026120882,-0.08034758,0.07905653,0.022260066,-0.034534764,0.044213623,0.016652862,0.023046426,0.14754225,0.16308069,0.16546491,0.2224025,0.23190889,-0.0005247444,-0.05883317,-0.023742259,-0.019936077,0.1106132,0.13138321
AZO,0.07089498,0.20548743,0.1507183,-0.018659443,-0.061449774,0.43297064,0.18554035,0.2795053,0.07948048,-0.07716787,-0.04874204,-0.06566573,-0.056375146,0.34884736,-0.04742355,0.016913332,-0.07066488,0.09005674,0.108104065,0.22245117,0.09715346,-0.07397823,-0.028446201,-0.031575494,0.17729408,0.102246866,-0.038317718,0.32148558,-0.028884735,0.006405957,0.033842143,0.096557364,-0.016459659,-0.057213865,-0.004989705,0.123950705,0.08525193,0.195643,0.109517545,0.23605573,0.061930098,0.025999367,0.027810512,-0.12664631,0.08590162,0.03663864,0.16489604,-0.09660481,0.025964415,0.054209415,0.011962355,0.115790874,0.21534647,0.16195473,0.20656765,0.049274534,0.0009701792,0.19542266,0.12149846,-0.02244562,0.26564535,0.052856266,0.16716722,0.08085813,0.15579161,0.042940963,-0.03516641,0.21401653,0.038217954,0.10595374,0.15682381,0.12493675,-0.03293858,-0.030522618,0.16337518,0.2908798,-0.06881913,-0.041023344,0.1232548,0.029588588,-0.06147454,0.041883714,-0.07881983,0.07514177,0.017556742,-0.03892392,0.04350131,0.017342111,0.02015461,0.17228797,0.16281307,0.17008463,0.2228397,0.24755204,-0.029478014,-0.06347039,-0.02290041,-0.016571283,0.10823999,0.13303374
BA,0.07572444,0.20726058,0.1529098,0.05784048,-0.05929959,0.7049071,0.19089788,0.5459131,0.07578505,-0.079786204,-0.04834748,0.021864034,-0.05077654,0.5670845,-0.040061273,0.017265145,-0.07540395,0.091346085,0.1124834,0.38951486,0.10068983,-0.04431228,0.064246714,-0.02672612,0.17749248,0.10628478,-0.026687492,0.64980865,-0.043107152,0.10257461,0.030782962,0.09331395,-0.018137783,-0.0558637,-0.0032947026,0.12813886,0.23780505,0.40316424,0.111999005,0.2324776,0.135917,0.08585337,0.03273018,-0.05803129,0.078513965,0.040599115,0.2925292,-0.08848564,0.03742034,0.05145825,0.010449778,0.12386712,0.39360827,0.16413301,0.20904155,0.062244654,0.00017267652,0.19873609,0.12068578,-0.01525221,0.5475212,0.050775502,0.16888177,0.079647034,0.16219921,0.04985512,-0.03062449,0.21767892,0.045303337,0.105141416,0.15158571,0.12566003,-0.027185492,0.0462066,0.160165,0.62284356,-0.036335938,-0.039695226,0.12544522,0.08400096,-0.05807721,0.05369039,-0.07527693,0.080212325,0.029570982,-0.03642574,0.04583264,0.017439386,0.022885974,0.2935672,0.16392125,0.16582051,0.22370231,0.41453284,0.005106233,-0.055611093,-0.022070363,-0.013407677,0.10857037,0.13011973
BAC,0.070684224,0.2066883,0.15047961,0.03703019,-0.05475034,0.4509572,0.1910362,0.4898716,0.07351646,-0.08086109,-0.049324084,-0.026650243,-0.05017721,0.3560613,-0.044656545,0.013391394,-0.07886882,0.08770384,0.109134346,0.2350286,0.09929061,-0.057386275,0.048292708,-0.032641143,0.17660135,0.101756915,-0.042554498,0.5647223,-0.050203323,0.058857877,0.032966226,0.09752491,-0.022650689,-0.059447266,-0.0046744244,0.12914425,0.17291683,0.36548808,0.11163919,0.23113066,0.070676364,0.027734093,0.03222204,-0.13274239,0.08668467,0.039444234,0.17801233,-0.10035153,0.00041281432,0.055608917,0.013005856,0.11806301,0.23252621,0.16324846,0.20857151,0.05967152,-0.0063197277,0.19886327,0.12295157,-0.021050788,0.48889166,0.050388217,0.16833307,0.076645665,0.15828621,0.04063619,-0.0302392,0.21651062,0.04078715,0.09801013,0.1519317,0.124849185,-0.035300925,0.027600188,0.1582615,0.54713625,-0.0706996,-0.040279917,0.12372893,0.037543576,-0.05789786,0.027999084,-0.08150249,0.078434944,0.020590413,-0.03938722,0.04239384,0.01559783,0.020255778,0.17750466,0.16331324,0.16704914,0.22229096,0.25211322,-0.010585792,-0.058757823,-0.024228938,-0.029754914,0.10903266,0.13150108
BAX,0.06984675,0.20630169,0.15028569,-0.005126048,-0.055204347,0.36794207,0.18783228,0.29704824,0.07265894,-0.0649004,-0.047339145,-0.07096351,-0.05018547,0.27329835,-0.04628584,0.021567464,-0.071641795,0.0875566,0.10619672,0.15440823,0.09451406,-0.0708762,-0.026519913,-0.029869538,0.17559746,0.10286325,-0.041057594,0.3398868,-0.034809023,0.021541223,0.033426877,0.09620455,-0.020005547,-0.060543843,-0.0051561203,0.12429215,0.09700827,0.20912373,0.114836216,0.23209547,0.0418294,0.0030769329,0.03669187,-0.12485622,0.087734886,0.034899034,0.13493805,-0.10135738,0.034981355,0.052861586,0.01179675,0.1171315,0.19303365,0.1634148,0.21053429,0.050383728,0.008118592,0.19934136,0.12274726,-0.02382879,0.2807763,0.050302055,0.1665333,0.07889936,0.15884201,0.039971128,-0.03469839,0.20894843,0.03816967,0.10064389,0.14682479,0.12587246,-0.03746144,-0.020595277,0.15907513,0.31371948,-0.074105754,-0.040214933,0.12822662,0.008314002,-0.059340324,0.059808858,-0.07759916,0.07650153,0.015395634,-0.03606603,0.042474605,0.014961431,0.016966928,0.1190445,0.16513616,0.15823144,0.22166581,0.19782513,-0.03013631,-0.0630482,-0.027713373,-0.0056919083,0.10942091,0.13291271
BBWI,0.07825389,0.21537213,0.15602797,0.12924968,-0.037878968,0.7969901,0.20156144,0.940561,0.07730733,-0.06655094,-0.046425417,0.10936335,-0.015277326,0.6317594,-0.040265515,0.02248763,-0.057733014,0.09268073,0.114192724,0.43937,0.10071472,-0.029010743,0.2396723,-0.021477576,0.17357266,0.10509775,-0.031964205,1.1190933,0.0050526466,0.23322965,0.050680645,0.093732595,-0.0118444115,-0.046494253,0.0037027448,0.13423283,0.40255404,0.7493414,0.11807601,0.23618817,0.13714932,0.100135624,0.032044843,-0.04770662,0.084495746,0.04640764,0.32086527,-0.070292145,0.04207763,0.05244004,0.019649033,0.12388641,0.44291595,0.16754541,0.21246246,0.07410233,0.002512727,0.20567358,0.11929417,-0.010726497,1.0024046,0.056108885,0.16838223,0.0827787,0.17668143,0.037452042,-0.02597855,0.22550574,0.04988801,0.10764762,0.1592953,0.13034928,-0.022601895,0.17878518,0.16534673,1.145388,-0.038083777,-0.03423796,0.12590367,0.09062388,-0.05080171,0.070220664,-0.0850254,0.08504539,0.033227433,-0.029013205,0.04862286,0.016722767,0.0283136,0.30887753,0.16696501,0.18749462,0.22854877,0.44990635,0.04216455,-0.051356945,-0.02009926,-0.0093842,0.11997011,0.13850407
BBY,0.07216283,0.20687883,0.1516319,0.046230078,-0.047319643,0.4370982,0.19030309,0.4355281,0.07373759,-0.07261217,-0.04855485,-0.028145604,-0.048533082,0.35641706,-0.042308353,0.018047791,-0.07156757,0.091635376,0.10908544,0.21580857,0.09694457,-0.07521053,0.03946963,-0.033411182,0.17439137,0.106005155,-0.040596873,0.5084619,-0.039525315,0.051010724,0.03487661,0.09822061,-0.018970631,-0.056659132,-0.0022032652,0.12514079,0.15079647,0.31980845,0.114598036,0.23363805,0.07462205,0.021846667,0.037590086,-0.11396174,0.08220562,0.037985496,0.17440616,-0.10169481,0.031630673,0.052890837,0.013406303,0.121133305,0.21877538,0.1657384,0.21088377,0.059634816,0.0060653687,0.19779605,0.12234162,-0.021242786,0.43635276,0.051107917,0.16916223,0.08050977,0.15953965,0.04358087,-0.034313373,0.21460128,0.041294485,0.100610614,0.1502474,0.1273044,-0.032883003,0.0070953406,0.161509,0.48481297,-0.06696887,-0.03882169,0.12505893,0.020051688,-0.054958493,0.042400345,-0.07653555,0.07807342,0.01586933,-0.04003044,0.04459127,0.015687678,0.019428354,0.17544806,0.16920984,0.16615567,0.22671688,0.24862866,-0.012727849,-0.057861,-0.027053945,-0.01314456,0.110045254,0.13179897
BDX,0.07056068,0.20578809,0.1526469,-0.0060841767,-0.06267947,0.27598,0.18509372,0.27886823,0.07238155,-0.084255345,-0.048686974,-0.0751255,-0.057169653,0.2103877,-0.047398835,0.011171736,-0.07700777,0.08820346,0.10909299,0.118435666,0.09586903,-0.07712271,-0.03332719,-0.029483117,0.1761795,0.09960596,-0.039961316,0.32115194,-0.057116866,0.011110149,0.029435234,0.09677832,-0.02337487,-0.061685666,-0.0049415007,0.12255797,0.08618075,0.19776398,0.10850509,0.23162602,0.011590466,-0.021813212,0.030661838,-0.15675673,0.089859575,0.033695217,0.08372857,-0.10124676,-0.0013417322,0.04801963,0.009987327,0.117230885,0.10626872,0.16256842,0.20714617,0.045870606,-0.010769453,0.1943778,0.12278222,-0.02232543,0.26133934,0.049652748,0.16607673,0.082808286,0.15502383,0.041065898,-0.033107106,0.20884827,0.036515042,0.09803847,0.14693172,0.124257594,-0.03494734,-0.028222825,0.15804514,0.29241988,-0.07137355,-0.04088527,0.12349051,-0.004166223,-0.059391573,0.009239439,-0.0783751,0.07461619,0.019325178,-0.046560317,0.04104964,0.01332742,0.01773528,0.09373006,0.16413596,0.15764508,0.22182491,0.13929057,-0.029237807,-0.05996011,-0.025835574,-0.032022335,0.11084339,0.13288864
BEN,0.07468422,0.20843199,0.15166344,0.026576875,-0.055383556,0.34114137,0.19630283,0.34509903,0.0758297,-0.08080122,-0.04743237,-0.029196225,-0.05359827,0.25783673,-0.043133892,0.017032526,-0.076267846,0.08901024,0.112447396,0.1539385,0.100262016,-0.06727481,0.032273687,-0.02919316,0.17488357,0.103332125,-0.040308002,0.40318912,-0.0426779,0.061657798,0.032491848,0.095625766,-0.018556386,-0.060248047,-0.0039502624,0.12516183,0.11941524,0.25067142,0.11140789,0.23040377,0.030686324,-0.007934455,0.029837903,-0.14258444,0.0842864,0.03436297,0.11969441,-0.1015241,0.012531752,0.054909293,0.013522443,0.11874793,0.15053245,0.16399637,0.20722845,0.052036494,-0.0056731887,0.19690013,0.12108832,-0.02070953,0.32937175,0.0495464,0.17223457,0.077718526,0.15778232,0.0392307,-0.032459617,0.21367414,0.03983892,0.10566944,0.1486005,0.124181375,-0.028637942,-0.010668371,0.15926313,0.3725091,-0.072027646,-0.041498333,0.12487352,0.0070519447,-0.055224635,0.031051546,-0.07678274,0.079303965,0.01932612,-0.03855885,0.042877983,0.016659616,0.020926932,0.11323564,0.16433308,0.16533582,0.22449529,0.18606625,-0.01888523,-0.058658496,-0.02752772,-0.025803544,0.10713084,0.13472588
BIIB,0.08314714,0.23113894,0.15562409,0.18604739,-0.055698775,0.8373258,0.20443714,1.0962654,0.08928308,-0.06177701,-0.042853244,0.15616621,0.003875129,0.6617313,-0.03716089,0.014601763,-0.04442756,0.089280486,0.11782801,0.472912,0.10282711,-0.0013022296,0.37772623,-0.011284826,0.1764146,0.11005156,-0.025047071,1.3245533,0.03849817,0.27422342,0.086482495,0.09895526,-0.018452615,-0.049181134,0.004367945,0.12540233,0.45840243,0.8468992,0.12108708,0.2346957,0.17534909,0.1082808,0.042731795,-0.012144562,0.08956392,0.040063076,0.3905496,-0.06252263,0.07152559,0.048784412,0.033158828,0.12534449,0.4953599,0.16738458,0.22613797,0.075673595,0.0003612265,0.20964147,0.12407933,-0.009003997,1.1185675,0.054085553,0.17378518,0.082555175,0.16265881,0.042129666,-0.019769516,0.26867408,0.04465603,0.1042719,0.16867916,0.13571641,-0.018264923,0.22960517,0.16632721,1.3136147,-0.025030304,-0.035669595,0.1389667,0.09529421,-0.046919703,0.09224662,-0.08125768,0.112250954,0.028051682,-0.034911215,0.05311852,0.022742918,0.033305317,0.35715804,0.16866174,0.20407529,0.22303966,0.48342508,0.0605154,-0.05442181,-0.017255373,-0.011524342,0.12987094,0.13329706
BIO,0.07268822,0.2080574,0.15170173,0.006219022,-0.04349584,0.5141539,0.18866144,0.40307388,0.074853,-0.06934295,-0.044395164,-0.054149453,-0.05010794,0.4021422,-0.046986178,0.017896935,-0.0764911,0.088701546,0.11035587,0.25780413,0.09935549,-0.083127454,0.025311336,-0.027646508,0.17545459,0.10349368,-0.04090606,0.47850367,-0.0531047,0.06056567,0.02507153,0.09735628,-0.018826969,-0.054577753,-0.0028356882,0.12243202,0.13584128,0.28539836,0.11703576,0.23116522,0.0725641,0.04020111,0.046944395,-0.11573433,0.08951934,0.032905452,0.21525194,-0.104452096,0.05051516,0.051160228,0.010499217,0.11580196,0.29144675,0.16344549,0.20658928,0.043388177,0.0026070587,0.19846523,0.12380909,-0.020372987,0.42155662,0.049491867,0.16741739,0.0792445,0.15561526,0.041022766,-0.031996503,0.2151801,0.040938884,0.100106515,0.1519147,0.12559393,-0.032376792,0.029289197,0.1596102,0.45843077,-0.07115037,-0.04199008,0.13401332,0.04140077,-0.058323577,0.09126161,-0.07608784,0.07694502,0.015848085,-0.029410113,0.042776063,0.01436932,0.020967308,0.16790593,0.1681247,0.16640927,0.22194234,0.29579037,-0.01836297,-0.06477371,-0.026460372,-0.01453767,0.11007963,0.1356659
BK,0.07265427,0.20814198,0.15106839,0.020766301,-0.053002328,0.40841243,0.18814826,0.4301558,0.07366783,-0.08313021,-0.048547544,-0.041578867,-0.05560176,0.31808662,-0.045451574,0.014731556,-0.07856313,0.0890768,0.110473454,0.20477563,0.097251356,-0.07153062,0.02102542,-0.03250095,0.17794293,0.10107524,-0.0416721,0.49084544,-0.04783897,0.049050853,0.027980383,0.09711683,-0.02168852,-0.06097374,-0.0046582203,0.12643352,0.14462845,0.3119254,0.1108589,0.23142374,0.06383388,0.015588909,0.036171697,-0.12143565,0.08625426,0.03787174,0.1541164,-0.09966032,0.015287677,0.05396026,0.012519441,0.11670122,0.20121548,0.16236578,0.20797352,0.057959907,-0.008932803,0.19612785,0.122832365,-0.022425868,0.4199964,0.050373428,0.1678654,0.07906022,0.15534873,0.042230196,-0.03241931,0.20982403,0.039994143,0.09990701,0.1501672,0.12520073,-0.033770863,0.006327439,0.15706798,0.47425994,-0.06924111,-0.041283645,0.12318155,0.03212555,-0.059396654,0.028196543,-0.08122088,0.07619424,0.017801136,-0.039408855,0.04326607,0.013680166,0.01838816,0.1562187,0.16163628,0.16339092,0.2224153,0.22688673,-0.020454645,-0.05862482,-0.025783055,-0.026017614,0.110083446,0.12976407
BKNG,0.07225184,0.20842133,0.15138322,0.025519188,-0.062732786,0.27140117,0.19297595,0.483092,0.073653445,-0.07982135,-0.04936292,-0.018425152,-0.05608744,0.21991408,-0.043477453,0.018520743,-0.077696234,0.08779998,0.11138135,0.11729137,0.101468146,-0.07429184,0.047892146,-0.032814767,0.17671451,0.10360486,-0.039386615,0.5549708,-0.03827525,0.07207717,0.026982449,0.09812685,-0.020822354,-0.061381474,-0.0037588505,0.12590359,0.17822379,0.3429087,0.11202897,0.2323392,0.019171687,-0.014106442,0.030229688,-0.14480266,0.085841306,0.034968227,0.10640338,-0.10323049,0.0158758,0.05321832,0.017980862,0.116772234,0.1043229,0.16421297,0.20687722,0.05278551,-0.0001439713,0.20053491,0.12201749,-0.016506612,0.47052062,0.049686067,0.16971798,0.081327766,0.15694046,0.043140266,-0.031539336,0.21221143,0.039457012,0.10247043,0.15126665,0.12790993,-0.027422633,0.019830812,0.1602932,0.5399541,-0.061209507,-0.04236956,0.12355548,-0.004567176,-0.056010716,0.0326398,-0.07721576,0.07828072,0.022339545,-0.03751576,0.04757382,0.017149143,0.022778584,0.10335696,0.16413185,0.16432813,0.22320195,0.14119102,-0.017454952,-0.06346435,-0.029563643,-0.025082745,0.108978346,0.13115463
BKR,0.0732949,0.20964138,0.15128416,0.04190937,-0.0573183,0.6694976,0.1923806,0.54664844,0.07609155,-0.0776822,-0.047686987,-0.005187869,-0.05102308,0.52499956,-0.04377745,0.017693907,-0.07508473,0.090016864,0.11269202,0.35824525,0.09883878,-0.027510706,0.069167316,-0.029684637,0.17820185,0.1068395,-0.03046624,0.6427617,-0.038480967,0.079522744,0.03144488,0.09769431,-0.016895719,-0.056477867,-0.0024244934,0.12688375,0.21202698,0.41732025,0.11351228,0.23201588,0.147522,0.053851396,0.031696744,-0.07062659,0.088153586,0.03892806,0.27281117,-0.09066875,0.035068378,0.052300658,0.014331892,0.1196057,0.35986978,0.16393688,0.20998143,0.08174549,-0.001845222,0.19791636,0.12273461,-0.018492922,0.56305665,0.051655717,0.16880696,0.08328563,0.1644364,0.044813596,-0.027211001,0.215742,0.04313267,0.105348654,0.15047243,0.12767202,-0.030891199,0.047125887,0.15928514,0.62294817,-0.055047993,-0.04122895,0.12596646,0.054543488,-0.059205133,0.05603,-0.078886904,0.083425775,0.01960478,-0.03829348,0.043453664,0.016578969,0.020107765,0.270756,0.16374218,0.16740365,0.22534567,0.39866793,-0.0056911036,-0.064312264,-0.025087938,-0.02015251,0.11087604,0.1322485
BLK,0.07330441,0.20675297,0.15171312,0.034743804,-0.05939948,0.38327417,0.19385388,0.34779269,0.07083957,-0.08252474,-0.04965321,-0.027145665,-0.05273463,0.30593786,-0.045007806,0.01487948,-0.07607779,0.08833342,0.10914922,0.19222999,0.09570725,-0.07259775,0.04430076,-0.033761345,0.17589737,0.1027092,-0.040534407,0.43036285,-0.04359601,0.071975455,0.031061359,0.096912116,-0.02131091,-0.060739994,-0.0038078036,0.12641993,0.115065426,0.24239759,0.110133596,0.23118699,0.05044816,0.013141701,0.030495878,-0.13774064,0.08587052,0.03654474,0.1521319,-0.09888923,0.010286005,0.056004968,0.014463658,0.11601199,0.1903445,0.16315871,0.20638008,0.04840084,-0.0043050237,0.19713598,0.12134791,-0.021650605,0.32582465,0.050293,0.16637197,0.07872051,0.15761593,0.040865187,-0.033974875,0.21700338,0.04043467,0.1034551,0.15124609,0.124720864,-0.030678675,-0.01015221,0.16135018,0.40070045,-0.0697805,-0.04037925,0.12273443,0.024833828,-0.057576217,0.022458702,-0.076526105,0.077989295,0.016711619,-0.04281024,0.042702388,0.0143860765,0.01791568,0.15343769,0.16280521,0.16260917,0.2232078,0.21790504,-0.015038127,-0.06101473,-0.026977576,-0.023812175,0.109421685,0.13300502
BMY,0.07000211,0.20459916,0.15011021,-0.034550257,-0.06037518,0.36812967,0.1851202,0.10290033,0.071736634,-0.073573686,-0.048645057,-0.0969177,-0.055676132,0.2901898,-0.04363607,0.011347458,-0.064075135,0.091417745,0.1082594,0.20118983,0.09455751,-0.06518306,-0.07380502,-0.03014379,0.17671089,0.104567856,-0.03601877,0.12075924,-0.012279147,-0.030345026,0.04625411,0.09641215,-0.022427797,-0.060154803,0.00019021705,0.12081002,0.017661259,0.06704815,0.11088609,0.23280601,0.04145156,0.0048823413,0.02804181,-0.1292933,0.08781578,0.032450538,0.1827517,-0.09997496,0.009711055,0.052599058,0.017005881,0.11518489,0.19470367,0.16311616,0.20933257,0.03581901,-0.0036061257,0.1959682,0.12145186,-0.025218226,0.07789077,0.050936278,0.16560923,0.07889473,0.1533137,0.03973351,-0.03391891,0.21042344,0.041993365,0.1019083,0.15041083,0.12612598,-0.03455331,-0.055800512,0.15812619,0.090908036,-0.072047696,-0.037536167,0.12232152,0.015766814,-0.062285937,0.053078774,-0.07780546,0.07489713,0.015326273,-0.0485076,0.04150576,0.014141932,0.016988883,0.13161318,0.16577557,0.17050555,0.21982199,0.19908085,-0.04894905,-0.06002304,-0.026585102,-0.009153776,0.11005014,0.13539025
BR,0.071261,0.2063038,0.14958878,-0.0002246052,-0.060864285,0.21250618,0.18667279,0.30441394,0.071593195,-0.077613756,-0.04972446,-0.058505274,-0.05374088,0.1667575,-0.03864313,0.013574034,-0.07193372,0.09000927,0.10671645,0.1083014,0.09496832,-0.080219366,-0.014262192,-0.030003868,0.17549162,0.10363245,-0.042309787,0.3451942,-0.02935867,0.018573668,0.034884974,0.0975112,-0.024550103,-0.055147424,-0.0047313347,0.12233326,0.10093084,0.21315724,0.111851014,0.23315655,-0.0049923137,-0.027693484,0.028473206,-0.15048614,0.09114128,0.032154035,0.104903184,-0.101000845,0.01552893,0.05426854,0.012824732,0.11807162,0.08840054,0.16508026,0.20591518,0.04418569,8.0596656e-05,0.19556908,0.12129319,-0.020138346,0.28573698,0.051709753,0.16625975,0.08019451,0.15613389,0.038962852,-0.034706168,0.21056882,0.036964957,0.09618859,0.15247883,0.12669054,-0.030114781,-0.0111849345,0.15765223,0.32495847,-0.07190209,-0.0411224,0.12266593,-0.011538241,-0.059489682,0.027039632,-0.0777583,0.07672214,0.016518213,-0.041403,0.042641662,0.014974916,0.019738108,0.06248407,0.16385809,0.16484186,0.22058262,0.09638524,-0.032413032,-0.060481045,-0.028489262,-0.015482247,0.10946046,0.13399225
BRO,0.07320428,0.20497932,0.15070963,-0.012910439,-0.059935383,0.37801158,0.18573245,0.31241217,0.0717195,-0.068467885,-0.050135013,-0.058401138,-0.05340019,0.2856546,-0.04853993,0.023939293,-0.0748979,0.08700247,0.10689853,0.16034508,0.09602432,-0.08819969,-0.013637453,-0.032243147,0.17562972,0.10361838,-0.038204182,0.35576004,-0.058385663,0.010938764,0.029342856,0.09846501,-0.022737779,-0.062318563,-0.0055027455,0.124471486,0.09945217,0.2232353,0.11524999,0.23314314,0.024667276,0.008610414,0.028931031,-0.12480294,0.08461257,0.033577852,0.14052828,-0.10266007,0.037411578,0.054670583,0.011037731,0.11774955,0.20478939,0.16085432,0.20504665,0.042903133,0.010272609,0.19953212,0.12280257,-0.023878656,0.2957416,0.04955654,0.16648401,0.07893606,0.15402597,0.04131078,-0.03405933,0.20552877,0.03862806,0.09877348,0.14745806,0.1230115,-0.03249549,-0.021079402,0.15649039,0.3328069,-0.07056804,-0.042709015,0.12416689,-0.00757093,-0.059712857,0.05978629,-0.077976584,0.07782379,0.014456112,-0.035485096,0.042352084,0.013892565,0.021135664,0.10322397,0.16397896,0.15953428,0.22161369,0.20637777,-0.031510286,-0.058583215,-0.025612637,-0.0030255914,0.10753088,0.13277526
BSX,0.07165633,0.20815311,0.15095727,-0.023159258,-0.05862204,0.4123318,0.18462034,0.18642369,0.071153134,-0.08525861,-0.0489646,-0.08127682,-0.054919764,0.32341614,-0.043892596,0.013160996,-0.07629046,0.09031524,0.10919891,0.20143259,0.09631638,-0.06961617,-0.044846244,-0.026156947,0.17825025,0.10556065,-0.040864952,0.21487823,-0.043855987,-0.00949144,0.029217843,0.09675415,-0.020962141,-0.054196507,-0.0038920576,0.12618579,0.053846773,0.13530359,0.10756106,0.23220798,0.057412315,0.015856534,0.033410452,-0.13432217,0.08826381,0.03710788,0.15601811,-0.093912564,0.0011220612,0.048986014,0.010545156,0.11750861,0.20188129,0.16286373,0.20755291,0.052383997,-0.009220399,0.19730839,0.12116077,-0.024480294,0.16883029,0.05087248,0.1672695,0.08117042,0.1567052,0.04616253,-0.034163326,0.20795076,0.040967263,0.098341614,0.15129599,0.124900036,-0.032581918,-0.029038938,0.15729935,0.18788381,-0.06661499,-0.039572716,0.12253771,0.026258249,-0.06091234,0.024441406,-0.07813763,0.07432633,0.016279928,-0.043281462,0.043718148,0.013388192,0.021582026,0.15939261,0.16375372,0.16148035,0.22316583,0.23308627,-0.03765517,-0.061171692,-0.020852335,-0.026367985,0.1093929,0.13237786
BWA,0.073469564,0.20870453,0.15115975,0.02260334,-0.053964093,0.2664952,0.1899625,0.39955172,0.07536292,-0.08219802,-0.048788927,-0.03467813,-0.054690607,0.20421529,-0.04562124,0.018778473,-0.077534884,0.08889648,0.114956655,0.11383775,0.09800082,-0.08137232,0.011832714,-0.033745497,0.17658755,0.10603703,-0.03615941,0.45485735,-0.04002203,0.04810573,0.031524777,0.092475265,-0.020978287,-0.05704855,-0.004488579,0.12326248,0.14229615,0.28757554,0.11242896,0.23250142,0.012151319,-0.025514793,0.035193533,-0.14937717,0.082876526,0.03409112,0.075916424,-0.09300994,0.023099901,0.05576017,0.018963553,0.11677258,0.09798884,0.16438454,0.20882376,0.046036147,-0.00028900057,0.19609138,0.119559295,-0.01866506,0.38554105,0.05068189,0.16762465,0.07852205,0.15615702,0.04681261,-0.033869613,0.21361703,0.03870912,0.10318711,0.14936268,0.12674156,-0.034142423,-0.00064941496,0.1588033,0.43717572,-0.06705249,-0.04150413,0.12351753,-0.0013189465,-0.057132125,0.028258167,-0.076191984,0.07714191,0.02117579,-0.038330313,0.043465137,0.015619867,0.021345343,0.09838387,0.16401415,0.16396955,0.22459257,0.15313727,-0.01298514,-0.056123324,-0.025875874,-0.019640207,0.110749364,0.13502397
BXP,0.07401979,0.20636249,0.15107241,0.035921406,-0.052401662,0.5028986,0.18803413,0.5162966,0.07332123,-0.07951191,-0.04578908,-0.0062431768,-0.051311284,0.39703625,-0.04353129,0.012335323,-0.07709303,0.088195354,0.10986595,0.26409027,0.09469244,-0.058049485,0.061843127,-0.02985672,0.17542396,0.10176456,-0.04015439,0.59663236,-0.05497475,0.091047086,0.031400643,0.09945519,-0.021738559,-0.06318496,-0.004242679,0.122866645,0.19541796,0.37320396,0.11065449,0.23229748,0.08740003,0.037544187,0.033151545,-0.11407243,0.08882665,0.037834387,0.20041345,-0.10769688,0.005764758,0.05569187,0.012733866,0.11911324,0.25843608,0.16487116,0.20626263,0.060629647,-0.004673794,0.19678295,0.12518024,-0.015682302,0.5106478,0.0487691,0.1681305,0.08040521,0.15757662,0.03941095,-0.03203904,0.2103897,0.040990103,0.097987846,0.14820397,0.12542807,-0.03363176,0.03234675,0.15930626,0.583796,-0.06928067,-0.04231169,0.124904476,0.04245247,-0.059135675,0.03504025,-0.07860774,0.07409483,0.019911163,-0.039578456,0.043261662,0.014638869,0.021218898,0.20258501,0.16561317,0.16005337,0.2225022,0.29158574,-0.007930718,-0.05487541,-0.021417804,-0.030048475,0.11019108,0.13276047
C,0.07023384,0.21054183,0.15188764,0.03514407,-0.050431833,0.57207024,0.19010931,0.4975366,0.072978735,-0.08221444,-0.047439046,-0.024479382,-0.050742283,0.4555154,-0.04620848,0.016628563,-0.07890555,0.08867268,0.10853602,0.30940306,0.09934706,-0.05371398,0.048723545,-0.031115483,0.17749488,0.101344205,-0.03481746,0.57238686,-0.0565661,0.06270149,0.031328835,0.09691985,-0.02361942,-0.06080015,-0.0032468392,0.12827024,0.17328385,0.36875686,0.111135095,0.23195477,0.10255494,0.056206744,0.02869355,-0.10467621,0.0882492,0.041738763,0.23352385,-0.09756228,0.014211999,0.053935092,0.013681273,0.12164114,0.31165552,0.16317718,0.20750386,0.064074114,-0.00942773,0.20067829,0.12159029,-0.01796557,0.49394792,0.05060208,0.16634735,0.0785438,0.15973447,0.040805954,-0.030270051,0.22043577,0.04447531,0.10127212,0.1519212,0.1243566,-0.033152755,0.03414465,0.15961498,0.5538712,-0.063778624,-0.041386023,0.123724066,0.06404694,-0.060132656,0.039360464,-0.081188545,0.07875979,0.021669999,-0.043365072,0.04268147,0.015206948,0.018988403,0.22864248,0.16480514,0.1671462,0.22394788,0.3266311,-0.011512704,-0.060284056,-0.022923946,-0.03078001,0.109710515,0.13144907
CAG,0.07051064,0.21104562,0.15202773,-0.0037269834,-0.04797542,0.4293299,0.18458992,0.3810151,0.07230823,-0.07193535,-0.04793913,-0.046721287,-0.053069457,0.3405078,-0.040905274,0.020420574,-0.057515204,0.09171544,0.10767767,0.23468596,0.095231965,-0.06321921,-0.0062582716,-0.029264405,0.17760265,0.10638182,-0.04073578,0.4323294,-0.003845835,0.035345905,0.05288768,0.09690791,-0.018618628,-0.052649774,2.3091212e-05,0.120441824,0.142656,0.26762316,0.11227551,0.2326856,0.050710954,0.022504175,0.030803809,-0.11523999,0.08753073,0.042579543,0.20436291,-0.0984404,0.019818256,0.055690948,0.018461537,0.11905856,0.23028125,0.16441192,0.21239752,0.04264444,-1.0728836e-05,0.19744381,0.121250466,-0.017945819,0.3716384,0.049947374,0.16761494,0.076469004,0.1598971,0.038537268,-0.034426138,0.21070868,0.044108562,0.10381385,0.15190387,0.12645197,-0.03510319,-0.0031329766,0.16206357,0.41346356,-0.07034211,-0.041399285,0.12840556,0.03151016,-0.059966087,0.059308,-0.07948044,0.07853597,0.015480045,-0.040448233,0.043664694,0.016780863,0.020778514,0.15806791,0.16590378,0.17124133,0.22084177,0.23486613,-0.030200832,-0.060581557,-0.023807488,-0.011022031,0.10823339,0.13650429
CAH,0.07465245,0.20891143,0.15070887,0.004623386,-0.06021736,0.6358662,0.18665847,0.33233592,0.08008851,-0.07104139,-0.049257886,-0.061598927,-0.05181071,0.5023397,-0.04375199,0.01743218,-0.051861532,0.0936461,0.10974702,0.3619167,0.095173694,-0.057005662,-0.012243841,-0.023882706,0.17541899,0.10474181,-0.026907198,0.37535957,0.027073817,0.014218584,0.06620498,0.097057134,-0.020460188,-0.048423,0.008405564,0.12265283,0.102799654,0.24152933,0.10665863,0.23431033,0.12558205,0.076207414,0.030379195,-0.0808009,0.09135915,0.0369996,0.307848,-0.09883581,0.045354582,0.051209982,0.023945667,0.1163692,0.37369204,0.16420761,0.2084529,0.052587714,0.0028552301,0.19813602,0.12387525,-0.022478506,0.31715292,0.052323632,0.16927387,0.086073026,0.15536235,0.039003816,-0.034659855,0.23428154,0.05129713,0.118564695,0.17083071,0.1290002,-0.032303356,-0.018564817,0.16005388,0.35549635,-0.06994507,-0.040474214,0.12404604,0.063036226,-0.05588928,0.09165686,-0.0794499,0.07973722,0.020048313,-0.045791153,0.044093587,0.014940474,0.018262137,0.24225286,0.1678113,0.19635315,0.22382012,0.35813218,-0.024457306,-0.062481802,-0.02786395,-0.013434552,0.112021685,0.13630675
CAT,0.07065575,0.2063824,0.15121488,-0.007220216,-0.056520924,0.3875172,0.18804151,0.22744316,0.07365328,-0.07853614,-0.049385875,-0.061561167,-0.05419389,0.2976829,-0.045055788,0.017523132,-0.07717691,0.090147205,0.10902442,0.18338087,0.09677297,-0.062896304,-0.026300333,-0.032024555,0.17544319,0.102418244,-0.042169247,0.25856113,-0.043391414,0.0092255175,0.032417856,0.09541507,-0.02100826,-0.056448534,-0.0030860752,0.122809514,0.06414887,0.15635957,0.11083354,0.2320543,0.05290003,-0.0010275915,0.03039811,-0.13829613,0.084819175,0.035286475,0.13816847,-0.09609649,0.005541751,0.052509703,0.014737692,0.1164514,0.17780922,0.16310275,0.20703909,0.056598064,-0.0070253536,0.19611259,0.12302228,-0.022556894,0.20664114,0.050827436,0.16777775,0.08291835,0.15577722,0.04355949,-0.033187088,0.21469009,0.039418176,0.099913366,0.14803557,0.1253797,-0.032327797,-0.044586617,0.15826896,0.23498225,-0.071331486,-0.03919345,0.12400999,0.013886504,-0.05812642,0.023645218,-0.07881436,0.07645102,0.016583283,-0.034848366,0.04211504,0.015477583,0.019456731,0.14263898,0.16404629,0.16642898,0.2220434,0.21624433,-0.036556214,-0.058052666,-0.029699065,-0.022553645,0.10977818,0.13119327
CB,0.07234239,0.20710455,0.1506368,-0.026349701,-0.060980447,0.48962787,0.1872716,0.2197536,0.07100773,-0.075029306,-0.04996536,-0.08516329,-0.05593306,0.3884351,-0.048193134,0.011742078,-0.07893027,0.08847399,0.109084085,0.25447845,0.095428586,-0.060338907,-0.05304787,-0.031625025,0.1761226,0.10336506,-0.04124751,0.24859273,-0.055346794,-0.010552596,0.030781195,0.09775859,-0.023426399,-0.06156414,-0.0051015047,0.12421506,0.059732027,0.1565918,0.11101028,0.23199955,0.08516767,0.029302603,0.028720576,-0.12036212,0.08798045,0.039428238,0.19186373,-0.101881176,0.0065159965,0.053072114,0.011176072,0.11740052,0.25267592,0.16240337,0.20592743,0.05797791,-0.007498171,0.19419473,0.12246013,-0.02289433,0.19881612,0.050554223,0.16659138,0.07920338,0.15475889,0.04061479,-0.03441953,0.2082886,0.038423255,0.09624101,0.14851037,0.12310286,-0.03255054,-0.046789885,0.15558136,0.22328438,-0.07070804,-0.04185257,0.123260625,0.03617821,-0.060610525,0.036711346,-0.07852819,0.07571776,0.015741475,-0.044434186,0.043311805,0.01289646,0.019577527,0.19301009,0.1628347,0.16262253,0.2215189,0.28591055,-0.041568957,-0.05960729,-0.024184577,-0.023026787,0.10940106,0.13306624
CBOE,0.070292056,0.20662063,0.15267093,-0.008434139,-0.061722115,0.39256072,0.18449444,0.33739668,0.07261579,-0.082996935,-0.05047518,-0.051394448,-0.05437465,0.3106586,-0.04654543,0.014550921,-0.07491061,0.09361575,0.10753028,0.19564947,0.09537432,-0.07213429,-0.006648645,-0.03195114,0.17698574,0.1009232,-0.04269154,0.39069295,-0.031632468,0.023101475,0.032001927,0.09713155,-0.022546351,-0.062058806,-0.0047274185,0.12811504,0.11446931,0.23943792,0.10774437,0.2302382,0.052202623,0.005956685,0.028685981,-0.13896355,0.08409947,0.038118485,0.13384917,-0.101257145,0.0054977145,0.0547656,0.010773,0.11713314,0.18199211,0.16219154,0.20684206,0.051427398,-0.0066174865,0.19639719,0.123319425,-0.022688672,0.32330418,0.04956859,0.16590506,0.08199223,0.15645769,0.04250229,-0.029692177,0.21873233,0.039970577,0.09951949,0.14817321,0.124919415,-0.032105662,-0.022270571,0.16066861,0.36202264,-0.07066857,-0.041869104,0.12391177,0.018438783,-0.059141323,0.036836576,-0.078060806,0.07661095,0.019900817,-0.04645343,0.041981615,0.012509828,0.022351854,0.1435878,0.16309214,0.16064528,0.2217408,0.21528709,-0.027993277,-0.06094381,-0.025183879,-0.025556542,0.10926753,0.13524804
CBRE,0.07191892,0.20617709,0.1514631,0.029652562,-0.056406617,0.46407077,0.19173802,0.42068312,0.0745385,-0.08274715,-0.05013177,-0.03046631,-0.050994143,0.37350303,-0.04255221,0.0168434,-0.0772946,0.088907905,0.10949263,0.23993942,0.09724978,-0.06630916,0.025417916,-0.030141622,0.17392649,0.10440595,-0.042876765,0.4822517,-0.047055,0.053544477,0.030355154,0.09707932,-0.019872218,-0.05978164,-0.0034874268,0.12838086,0.13735402,0.29941046,0.10937458,0.23175198,0.063434884,0.031565063,0.033698775,-0.11613258,0.08310459,0.037757434,0.18388972,-0.103648834,0.0056726094,0.05566757,0.014040634,0.11583687,0.24113715,0.16379926,0.20770267,0.057935175,-0.007269297,0.1965847,0.12213552,-0.017184049,0.41030815,0.04999335,0.16862929,0.080793075,0.16098961,0.040103644,-0.029260116,0.21757522,0.043025855,0.10004509,0.14992085,0.12510388,-0.030783176,0.0044677593,0.16279554,0.46677986,-0.06489252,-0.041321114,0.12343145,0.03642204,-0.058651797,0.031681143,-0.07746435,0.07704592,0.019996695,-0.04391142,0.044127043,0.013424862,0.021592304,0.18744875,0.16359764,0.16362222,0.22478062,0.26687717,-0.017461844,-0.059504293,-0.027032577,-0.026812881,0.10923998,0.13314976
CCI,0.069791414,0.20666277,0.15145971,-0.0021421574,-0.055916965,0.35565248,0.1899757,0.27634463,0.07399366,-0.083023995,-0.04765915,-0.058609895,-0.051633537,0.27771088,-0.04593395,0.01226674,-0.07918285,0.08916357,0.10951141,0.16972362,0.094744846,-0.07473178,-0.015340593,-0.028107192,0.17417121,0.10036078,-0.042655323,0.3217951,-0.053586006,0.019057482,0.031620745,0.09803112,-0.023225479,-0.057994656,-0.0049464153,0.12371088,0.08842391,0.19633299,0.111583866,0.23274358,0.051246688,0.0022588212,0.030532312,-0.1466841,0.08534572,0.03482701,0.13724545,-0.10579558,0.003815584,0.053715017,0.014192296,0.119804054,0.1697555,0.16180992,0.20807232,0.052950926,-0.0066531673,0.19562863,0.12414989,-0.020188697,0.26192802,0.049685627,0.16588736,0.08205771,0.15444595,0.03415432,-0.031795394,0.21032903,0.037897848,0.098412305,0.14911476,0.12337363,-0.034580294,-0.042007335,0.15531865,0.29399127,-0.073107585,-0.043027565,0.12490336,0.019736439,-0.058568653,0.020330753,-0.077245474,0.07418264,0.01735241,-0.04090116,0.04333376,0.015467184,0.01841914,0.13886446,0.16424066,0.1617646,0.22273281,0.20223679,-0.03136687,-0.055446453,-0.027108267,-0.0277028,0.10833514,0.13584109
CDNS,0.07385729,0.20846328,0.15062642,0.0046051443,-0.055674165,0.35458505,0.18918732,0.3433815,0.07330393,-0.08291752,-0.049318932,-0.05010985,-0.04880081,0.28118643,-0.04645577,0.013980512,-0.076215535,0.090720266,0.11123237,0.16658825,0.09668893,-0.07531925,0.010140423,-0.029882722,0.17586383,0.10481969,-0.034691323,0.4217079,-0.047126718,0.036166925,0.02854529,0.09990467,-0.01912453,-0.05042757,-0.005002251,0.12766999,0.11211647,0.2380681,0.11317059,0.23462929,0.049180288,0.006545759,0.030025939,-0.15354934,0.08710644,0.03594755,0.12696402,-0.098943636,0.006540725,0.053321842,0.011154985,0.11708209,0.1667528,0.16352212,0.20739496,0.05747482,-0.0052139163,0.20199868,0.12265637,-0.020946093,0.36421844,0.050891943,0.16723591,0.08153135,0.1561167,0.04037933,-0.030611813,0.2146559,0.038046915,0.101234235,0.15114585,0.12688424,-0.0317561,0.018356733,0.1603516,0.39445192,-0.06798089,-0.04190223,0.12358865,0.021389313,-0.056173235,0.016532842,-0.07529255,0.07630246,0.01849765,-0.040221505,0.0464541,0.02025327,0.018486239,0.13188587,0.16458586,0.16127105,0.22183397,0.19101128,-0.021099737,-0.059976634,-0.027266867,-0.023517877,0.11240795,0.13426298
CDW,0.07356278,0.20613372,0.15200058,-0.0077863634,-0.040090427,0.40732673,0.18720028,0.28240907,0.07156456,-0.06876953,-0.047731284,-0.06499554,-0.05188568,0.30803096,-0.044685006,0.014128663,-0.07687919,0.08895221,0.10784848,0.19034547,0.09772563,-0.071186,-0.021447824,-0.029910218,0.17717743,0.10612973,-0.039902322,0.31946686,-0.05634652,0.011105048,0.026677947,0.093506,-0.021672137,-0.05256582,-0.005214844,0.1259819,0.07979561,0.20115945,0.1200438,0.23257327,0.04834517,0.01731612,0.03775297,-0.12507878,0.08812966,0.036584128,0.15942001,-0.09897976,0.034586385,0.055591326,0.013644018,0.11870452,0.21490213,0.162505,0.20747162,0.053479258,-0.005102381,0.19563392,0.123636946,-0.02150112,0.26215535,0.051057037,0.16745357,0.081274755,0.15499908,0.03903382,-0.033333894,0.21172631,0.039042413,0.0971143,0.14711818,0.1256342,-0.030299272,-0.0067964755,0.15968007,0.29059517,-0.071150385,-0.04065676,0.12556693,0.03122751,-0.05819319,0.06740951,-0.07767028,0.07621263,0.017064683,-0.042142667,0.044957608,0.020179696,0.020590274,0.15287195,0.1642337,0.16269559,0.22087115,0.2242381,-0.030416518,-0.063959084,-0.026456647,-0.01664491,0.108391315,0.13380137
CE,0.07064185,0.20805617,0.15307653,0.030269887,-0.050032996,0.4534421,0.19768313,0.341289,0.072952785,-0.07585403,-0.049842782,-0.023860995,-0.052997723,0.3576522,-0.045128744,0.014838964,-0.0740133,0.08922148,0.1081378,0.23295423,0.09782097,-0.061408795,0.037825238,-0.030381091,0.17423859,0.103854224,-0.037144892,0.4255135,-0.045335237,0.068152696,0.03181896,0.09400311,-0.021070018,-0.056279205,-0.0020931577,0.12547922,0.11660378,0.23973697,0.11359242,0.23206842,0.07452014,0.025468187,0.0346677,-0.12796924,0.08440464,0.03736601,0.1758361,-0.10018714,0.022093287,0.05625227,0.016686864,0.11703213,0.22795287,0.16328533,0.20756811,0.060248163,0.00010155514,0.19891742,0.12119324,-0.020716522,0.29881632,0.050703816,0.16784024,0.08012895,0.15900527,0.041464277,-0.033578124,0.21969514,0.042464696,0.105506964,0.14992428,0.1256791,-0.03037259,-0.012068525,0.15799448,0.3908942,-0.066719465,-0.03959196,0.12560615,0.03556177,-0.054929227,0.030848835,-0.07964614,0.078296535,0.02005897,-0.040800173,0.043992825,0.016674286,0.021930024,0.17824438,0.16435784,0.16550146,0.22228283,0.26076853,-0.01232554,-0.058075074,-0.027514905,-0.01815655,0.11173625,0.13531353
CF,0.076962784,0.20814869,0.15220183,0.006795224,-0.05674485,0.42726615,0.19098061,0.40452316,0.0744866,-0.072557725,-0.046837207,-0.032497197,-0.048327677,0.3315594,-0.043855038,0.01929224,-0.070731714,0.09147407,0.11344221,0.20811827,0.0987843,-0.057215855,0.018068373,-0.027844325,0.17681003,0.10695042,-0.03705456,0.47327027,-0.023109484,0.0443026,0.038576566,0.0975589,-0.016341977,-0.048506774,-0.0013488391,0.12740782,0.14853863,0.29324114,0.112511605,0.23312221,0.06923806,0.0086092,0.03197127,-0.11994568,0.090625264,0.03665078,0.15922986,-0.101807505,0.021327382,0.05257789,0.013311758,0.11878037,0.20414898,0.16379392,0.20727167,0.056801047,0.0040317215,0.20031826,0.124432184,-0.018650576,0.40275207,0.051871106,0.16866943,0.08219315,0.1570263,0.03987393,-0.03347087,0.22075403,0.042198356,0.09970875,0.15302224,0.12745841,-0.026338883,0.0048700906,0.15969418,0.44639897,-0.063970774,-0.038681075,0.12497246,0.023085952,-0.060701855,0.039310865,-0.081706546,0.08046707,0.020704545,-0.03702932,0.046508804,0.020387875,0.026147127,0.16355275,0.16550279,0.16801733,0.22623654,0.24940202,-0.023043245,-0.05932107,-0.014672235,-0.015987806,0.110918716,0.13746814
CFG,0.0747038,0.20807014,0.15293206,0.017294955,-0.04459884,0.6639162,0.19113412,0.45014405,0.074186906,-0.074648276,-0.046122007,-0.030547038,-0.050213203,0.5345065,-0.043457992,0.015941009,-0.0786467,0.087924086,0.11047624,0.367415,0.097948514,-0.04127241,0.03235401,-0.029141735,0.17634107,0.10291482,-0.026826326,0.5287421,-0.04850149,0.06269826,0.029838426,0.09813292,-0.018454537,-0.05888351,-0.004174997,0.12995808,0.17066908,0.3306064,0.10875598,0.23184222,0.13650379,0.075449124,0.041650478,-0.07221738,0.08835878,0.04460865,0.27933025,-0.097776376,0.027714947,0.055151127,0.012128082,0.12335965,0.37134254,0.16442919,0.20765065,0.071890235,-0.005877953,0.19705553,0.119598486,-0.013772063,0.45062685,0.051467106,0.16787432,0.07834055,0.16026568,0.042392377,-0.028307902,0.20901509,0.046575345,0.09956457,0.14978254,0.12488915,-0.029345836,0.00705925,0.15833849,0.5057488,-0.06431675,-0.04083308,0.12653662,0.07467086,-0.056230098,0.052822,-0.08040777,0.07989271,0.023655556,-0.03756195,0.04539898,0.016997576,0.021063393,0.27727163,0.16372263,0.16908288,0.22483458,0.39334813,-0.018838935,-0.061811864,-0.025865547,-0.025975667,0.10924512,0.1315195
CHD,0.07127929,0.20503296,0.14968657,0.003676178,-0.061973333,0.2092915,0.1845425,0.33729005,0.072632894,-0.08156988,-0.049358383,-0.056603864,-0.05592163,0.15917215,-0.045043692,0.013476983,-0.07661772,0.091422446,0.109897345,0.057880104,0.09506649,-0.080905184,-0.010310866,-0.029198263,0.17569476,0.102054134,-0.042382266,0.38955167,-0.048526213,0.027285181,0.033894837,0.09682475,-0.02197402,-0.05827149,-0.0065495595,0.12181478,0.11203481,0.24035779,0.111927815,0.2316423,-0.03197432,-0.023037149,0.029440522,-0.1444195,0.087215014,0.032622516,0.058275577,-0.10128842,0.021889647,0.0552185,0.011935986,0.11860069,0.09595433,0.1630919,0.20896524,0.039233148,0.00049923174,0.1956216,0.12174019,-0.024121754,0.32442048,0.04951518,0.16641116,0.08068016,0.15413652,0.037640706,-0.034600373,0.20669934,0.036776993,0.099299975,0.15156204,0.12513833,-0.034988333,-0.0142962,0.15845597,0.36012727,-0.07384528,-0.039446853,0.12376202,-0.025978278,-0.059942737,0.029996596,-0.077461615,0.07673861,0.01677889,-0.043599974,0.041813612,0.013513556,0.018577531,0.04476893,0.16471116,0.16201746,0.22143376,0.10699481,-0.019339584,-0.057576545,-0.02878806,-0.017480053,0.10877702,0.13331537
CHRW,0.07014385,0.20636591,0.15248105,0.0037275832,-0.059193082,0.38133386,0.19040465,0.1882067,0.07139608,-0.07352653,-0.048582383,-0.05322578,-0.05335486,0.29800326,-0.045639638,0.014933221,-0.078232594,0.09092976,0.10706771,0.20486835,0.097017765,-0.07228327,-0.009569157,-0.03421844,0.17451233,0.101786986,-0.039886978,0.21593119,-0.035103045,0.022286529,0.034771718,0.09520747,-0.022035725,-0.057764076,-0.002194143,0.12263234,0.0545842,0.12672049,0.11431061,0.23108296,0.05787666,-0.0019384862,0.033797964,-0.1292888,0.08743188,0.034194637,0.14400953,-0.10236974,0.026915027,0.056898285,0.01901512,0.11892928,0.1732216,0.16529356,0.21594092,0.048237346,0.006846033,0.19959636,0.12466129,-0.023271158,0.16601315,0.049857125,0.16773257,0.07700731,0.1584012,0.038824398,-0.032523498,0.21887623,0.038349524,0.099726215,0.14963627,0.123167515,-0.0340108,-0.048535265,0.16403563,0.1867611,-0.0728817,-0.041588657,0.124082714,0.014850672,-0.056426942,0.039669327,-0.079170406,0.07664153,0.01648882,-0.033386283,0.043880656,0.018211778,0.019598065,0.14503199,0.16291277,0.17096263,0.222021,0.20482016,-0.0358598,-0.06084495,-0.026207037,-0.015193947,0.10670136,0.13435951
CHTR,0.07254494,0.2071054,0.15050605,-0.0012728609,-0.047009595,0.53845173,0.19102223,0.2986486,0.07694796,-0.052586973,-0.049856167,-0.07071304,-0.048194647,0.40488884,-0.042645693,0.027614586,-0.0662383,0.09054898,0.10935224,0.25400865,0.096924245,-0.07292203,-0.0065749586,-0.029904407,0.17477536,0.10699795,-0.03645254,0.35600522,-0.016109921,0.028109275,0.041077122,0.09748255,-0.019012481,-0.057414435,-0.005435585,0.12676457,0.09146618,0.20261201,0.12077313,0.23346677,0.070645645,0.03946735,0.04237043,-0.10443622,0.086819336,0.035061546,0.21222082,-0.10300472,0.057431802,0.049875937,0.012412416,0.116628565,0.3018275,0.16131306,0.20639314,0.048318718,0.012540378,0.19812588,0.1225084,-0.022231132,0.30880335,0.05101517,0.17072807,0.08358835,0.1549559,0.037149154,-0.033252276,0.21375039,0.03960063,0.10524121,0.15294138,0.1254299,-0.03431198,-0.002508765,0.15730831,0.33458656,-0.07417047,-0.041476503,0.12903142,0.032637008,-0.05740662,0.083452046,-0.07711792,0.08106188,0.015415706,-0.020741016,0.04375264,0.014327016,0.019750882,0.1623172,0.17002317,0.17518145,0.22341171,0.2928678,-0.028991861,-0.06522712,-0.029346839,-7.991493e-05,0.11202714,0.1333246
