,0,1,2,3,4,5,6,7,8,9,10,11,12,13,14,15,16,17,18,19,20,21,22,23,24,25,26,27,28,29,30,31,32,33,34,35,36,37,38,39,40,41,42,43,44,45,46,47,48,49,50,51,52,53,54,55,56,57,58,59,60,61,62,63,64,65,66,67,68,69,70,71,72,73,74,75,76,77,78,79,80,81,82,83,84,85,86,87,88,89,90,91,92,93,94,95,96,97,98,99
A,0.27801177,-0.039846722,0.01646574,0.043885,0.23959726,-0.028410729,0.19508256,0.19225064,-0.052236587,-0.032280657,-0.022421129,0.094847426,-0.089975014,0.22672202,-0.02032952,-0.06545068,-0.052337095,0.2994115,-0.04727649,0.16369985,-0.03497368,-0.0651325,0.35629863,0.31638917,0.31446314,0.1891326,0.28087497,-0.020255955,-0.11172874,0.24845472,0.086868204,-0.032442063,0.20406045,0.1317234,0.02077825,0.23413613,-0.047863435,-0.05032865,0.34872642,0.052475054,0.13291444,0.17141846,-0.087757595,0.1331866,-0.081400454,0.20249057,-0.031396545,0.2400392,-0.04681455,0.4203098,0.024886392,0.28902772,0.12167378,-0.09997746,0.17395347,0.18227553,-0.025678333,-0.04724916,0.21820356,-0.046029307,-0.02123237,0.00120317,0.27224672,0.1608908,0.011525906,-0.039059214,-0.02761127,0.42115402,0.29017827,-0.050197005,0.078812,0.22828098,0.10874547,0.12141095,0.17881797,-0.04165856,0.21294326,0.25332543,0.021651197,0.050559703,0.08845781,0.0021774545,0.17354453,0.110724054,0.08439148,0.17944387,0.3942253,0.2883718,0.1977055,0.33995786,0.25990793,-0.06642859,0.013302673,0.03295532,0.037629414,0.15095848,0.1389548,-0.09836428,0.18810165,-0.028312847
AAL,0.28407675,0.016054517,0.018490227,0.0448386,0.57732487,0.049537487,0.7858799,0.19471605,0.09495941,-0.03836473,0.011175599,0.0966277,0.01139465,0.22382975,0.059519827,0.0700499,0.14706303,0.7245982,-0.029758006,0.1693167,-0.02746208,-0.031066528,0.8182967,1.0811611,0.33202034,0.18905659,0.2854011,0.030528469,0.083152995,0.25128618,0.089060284,0.007621847,0.20828745,0.13591039,0.0768251,0.9356658,-0.036316372,-0.023009017,0.97608584,0.16082565,0.352256,0.17566483,-0.0559633,0.13885614,-0.068406165,0.54599875,-0.030624043,0.23840839,-0.05767579,0.43319523,0.6509402,0.2973582,0.12801954,-0.08414543,0.18863583,0.19125381,-0.009555869,-0.04727615,0.22555014,-0.022654474,0.16352394,0.05813536,0.26560676,0.18137506,0.14135209,-0.020319281,0.108310044,0.9950539,0.3164667,-0.055907972,0.11896316,0.24428046,0.11482383,0.1269123,0.18661577,-0.030937627,0.21801057,0.73530525,0.013097309,0.062909886,0.09731355,0.019831391,0.1801995,0.11938212,0.078327686,0.45379323,0.39967704,0.6268165,0.19620894,0.3458044,0.26650518,-0.03793118,0.26778322,0.118287094,0.037362445,0.14811951,0.14100108,0.023720931,0.19343637,-0.021770228
AAP,0.27796414,-0.019008582,0.014281939,0.052452303,0.4161295,-0.03301307,0.24165744,0.19169192,-0.02348791,-0.03938892,-0.020030819,0.094080724,-0.082835495,0.22712697,-0.018899433,-0.06490895,-0.050038517,0.4937616,-0.048357505,0.16587609,-0.03584732,-0.054232173,0.55189586,0.37721896,0.32245052,0.19215931,0.27999467,-0.01630152,-0.10290872,0.25155264,0.08911615,-0.0006486643,0.20357022,0.1333891,0.01604918,0.28306276,-0.049986668,-0.04085478,0.4071919,0.112308264,0.16674829,0.1689738,-0.07854205,0.13180731,-0.0818809,0.3494786,-0.032105174,0.22651242,-0.061123572,0.4171065,0.07964295,0.28757834,0.12115579,-0.0925574,0.17284596,0.18226644,-0.0012821415,-0.048547044,0.21862067,-0.045581207,-0.0030338233,0.013146615,0.26146063,0.16929889,0.024769023,-0.056256246,-0.021279693,0.46654505,0.29527605,-0.06500633,0.09734711,0.23160022,0.11259669,0.12385595,0.17741072,-0.035800844,0.21174113,0.29809198,0.015867574,0.08251092,0.08832167,0.0044048093,0.17386146,0.11290328,0.076762065,0.32251865,0.3926603,0.3196313,0.19639027,0.34006765,0.2575902,-0.06245359,0.044678822,0.011333682,0.03568251,0.15167442,0.1397256,-0.088860236,0.19970839,-0.029833024
AAPL,0.275172,-0.034728743,0.010970488,0.042219743,0.3671804,-0.031290937,0.2730292,0.19057903,-0.05806747,-0.039761946,-0.02255854,0.09409998,-0.08283392,0.22452351,-0.010593444,-0.06682301,-0.051997915,0.42518398,-0.048263915,0.16491866,-0.037424438,-0.05926825,0.4759202,0.40853512,0.31597328,0.18729733,0.2837654,-0.034218185,-0.10715067,0.2466462,0.08841226,-0.015392292,0.20619346,0.13595459,0.01663772,0.30702686,-0.056846596,-0.03817624,0.4410729,0.098955184,0.17189252,0.17362852,-0.08596242,0.12824349,-0.077334754,0.2979026,-0.032232936,0.23187748,-0.059652414,0.42045647,0.08702474,0.287074,0.122633554,-0.09419337,0.17302467,0.18257284,-0.03493298,-0.048522428,0.22130957,-0.051487572,-0.009014218,0.008529127,0.26102263,0.1657887,0.026212474,-0.06601593,-0.018322676,0.49311966,0.2950986,-0.06381646,0.088057965,0.23551321,0.11125857,0.12263522,0.17613062,-0.031212457,0.22081248,0.3228321,0.01865651,0.04511097,0.09013651,0.0013148654,0.17456295,0.111524224,0.074517466,0.2732188,0.39338526,0.33765835,0.19614387,0.3389797,0.25914842,-0.05988858,0.042526,0.018878892,0.038819533,0.14894515,0.13886732,-0.08921418,0.19175713,-0.032440405
ABBV,0.27863324,-0.034939617,0.02181003,0.051931642,0.3505508,-0.035791095,0.3176521,0.19314657,0.007378337,-0.03927654,-0.022032645,0.09461324,-0.08300282,0.22685455,-0.013935432,-0.06255094,-0.048612386,0.5002226,-0.03787634,0.16745444,-0.034996975,-0.056051582,0.5813243,0.37069467,0.32851598,0.1881415,0.28244954,0.0015768316,-0.10950751,0.24805298,0.087561585,-0.0067403875,0.20493537,0.12955472,0.0078006536,0.25010517,-0.042435955,-0.020394467,0.40106064,0.12357731,0.13517213,0.17110075,-0.08428991,0.13503233,-0.077146515,0.36096543,-0.030034013,0.23659813,-0.029488817,0.42229646,0.13086611,0.28741008,0.12808348,-0.099826425,0.17473707,0.1829001,0.0021877186,-0.04691071,0.22540092,-0.044774204,0.036519777,0.0056186505,0.2637298,0.16734314,0.051877692,-0.018442025,-0.007849544,0.38522494,0.29084226,-0.05538567,0.08012524,0.22823937,0.108353496,0.122612774,0.18135439,-0.038978256,0.21508211,0.22959541,0.02179875,0.139166,0.09082091,0.0025150124,0.17561351,0.110580504,0.091100246,0.29890534,0.39026996,0.25715804,0.19765258,0.34292907,0.25997752,-0.062816545,0.009678923,0.08059552,0.034434006,0.14953798,0.13830209,-0.08726266,0.19522962,-0.024424154
ABC,0.2782561,-0.046001915,0.013919276,0.04630632,0.32166928,-0.025715979,0.25349674,0.18905503,-0.022450231,-0.039004184,-0.02173666,0.09504385,-0.09230141,0.22704412,-0.01882676,-0.064774245,-0.03895756,0.3610661,-0.050105188,0.16618949,-0.0325835,-0.063769735,0.40235788,0.3944904,0.3160098,0.1873301,0.2826882,-0.03359188,-0.11280819,0.24822506,0.08781183,-0.028191783,0.20749134,0.13177612,0.032012254,0.28634632,-0.057442755,-0.040960684,0.42122898,0.08001876,0.16766728,0.17024817,-0.08347451,0.13324857,-0.0850974,0.25576773,-0.030387614,0.2428766,-0.06176816,0.42261222,0.072445735,0.28758323,0.12141025,-0.09922336,0.17551222,0.18107018,-0.0071948543,-0.046279605,0.21685183,-0.044241868,-0.006188819,0.011474087,0.26499593,0.16655949,0.011434067,-0.06834098,-0.024055406,0.47786367,0.29029214,-0.061990093,0.08596602,0.23023911,0.10855898,0.120097995,0.17732282,-0.037452906,0.21375865,0.30804464,0.019383367,0.09853017,0.08922803,0.0010346975,0.17736988,0.11257167,0.0852133,0.23751181,0.3903349,0.3368678,0.19750676,0.33788747,0.25862125,-0.062115762,0.046686333,-0.004172407,0.036172055,0.15144674,0.14229915,-0.09632426,0.18957898,-0.02997252
ABMD,0.27875027,-0.014363202,0.035240788,0.05294897,0.5779848,-0.029999934,0.32682547,0.19566359,-0.016039219,-0.035801016,-0.0138075575,0.09658622,-0.07639926,0.22569427,0.0010030791,-0.064808466,-0.021224834,0.82080674,-0.004593499,0.16504376,-0.0281771,-0.061793953,0.9571328,0.4020802,0.35899517,0.19511622,0.28297257,0.015616981,-0.10270978,0.25226864,0.08641434,0.041064624,0.20566195,0.13434733,0.009933829,0.29791498,-0.010584891,-0.015644006,0.41447753,0.22248831,0.17220894,0.17353472,-0.06976034,0.14009182,-0.07807165,0.6309677,-0.029527206,0.23550197,-0.017792586,0.41866475,0.13295907,0.28926754,0.12818846,-0.09881993,0.1749228,0.18104425,-0.01546865,-0.050065007,0.23623341,-0.048723564,0.020179898,0.007132657,0.26386777,0.17511415,0.093074724,0.044414222,-0.007301688,0.47435698,0.3120141,-0.043337785,0.08803673,0.24142474,0.1108047,0.13982213,0.17702484,-0.029682845,0.23120211,0.30433738,0.02003377,0.119262435,0.105957985,0.029984225,0.18492995,0.11410337,0.08091066,0.48392355,0.39275265,0.32734042,0.19557773,0.3393163,0.26376712,-0.061253693,0.046618447,0.23372668,0.036523834,0.14713816,0.14395848,-0.03600382,0.2165707,-0.020863645
ABT,0.27739686,-0.048997477,0.011009691,0.04703843,0.28300357,-0.03896933,0.19622621,0.19002391,-0.069758765,-0.03837891,-0.01860533,0.094287366,-0.085822225,0.22566715,-0.020036653,-0.06258815,-0.06057162,0.31219822,-0.055930667,0.16308941,-0.04018447,-0.059765942,0.34339795,0.31897098,0.31283993,0.1869154,0.2821647,-0.046212833,-0.11356441,0.24659722,0.08915102,-0.029214133,0.20721579,0.13220116,0.006255191,0.23823363,-0.07337236,-0.03980508,0.3431829,0.06171809,0.14780763,0.17030779,-0.08574588,0.13167976,-0.07900865,0.20866522,-0.030079696,0.23738407,-0.0609323,0.42261606,0.035428636,0.28911996,0.12379012,-0.09341031,0.17374513,0.18177119,-0.031822883,-0.046179544,0.2178872,-0.044306517,-0.024785481,0.0051806383,0.26125455,0.16293564,-0.006908674,-0.071956486,-0.021883354,0.4058622,0.29077744,-0.06661181,0.088571474,0.2294268,0.10707034,0.118634805,0.17868838,-0.033560447,0.21552216,0.2582262,0.019401377,0.03053478,0.087163985,-0.00240984,0.17508873,0.10995173,0.07711979,0.19966528,0.38553923,0.28652665,0.1949546,0.34225744,0.25785303,-0.065197915,0.03371394,-0.06378147,0.03652145,0.14856313,0.13864475,-0.10257289,0.18285242,-0.03206619
ACN,0.27633518,-0.05608446,0.010918023,0.046396922,0.23622608,-0.033711,0.26940218,0.19125026,-0.041325603,-0.0388886,-0.02042865,0.09567693,-0.09090902,0.22685331,-0.016362287,-0.0637075,-0.03790763,0.24460703,-0.05389657,0.16218922,-0.0393046,-0.066376746,0.27186018,0.4110107,0.3151588,0.1864621,0.28239512,-0.042022094,-0.11372738,0.24683404,0.08791208,-0.042952176,0.20546809,0.13038388,0.02811506,0.3069141,-0.0672464,-0.040373385,0.43260524,0.033081193,0.17251214,0.17110609,-0.08889595,0.1332709,-0.081898585,0.16205339,-0.026931576,0.23209083,-0.063735634,0.42276037,0.083581656,0.2863307,0.123222984,-0.09788544,0.17496568,0.18250811,-0.039385088,-0.047294393,0.21988119,-0.04476042,-0.0036989078,0.009062558,0.26044396,0.16273695,-0.008451438,-0.07412155,-0.022784963,0.4975616,0.29416054,-0.06796293,0.08982866,0.23281357,0.109893784,0.11883341,0.18009028,-0.041766997,0.21468198,0.31902492,0.018824864,0.06536273,0.08808774,0.0010869894,0.17536236,0.11143561,0.07785835,0.16443759,0.39016792,0.3445596,0.19740817,0.34042186,0.25908718,-0.06586154,0.042459868,-0.025440551,0.040553533,0.15101708,0.13927382,-0.100154266,0.19782893,-0.033266433
ADI,0.27688375,-0.009864554,0.0156030385,0.041971263,0.4544186,-0.014203226,0.37327236,0.18997598,-0.009306993,-0.03871226,-0.01545994,0.094671756,-0.088110074,0.22790909,-0.010875396,-0.06530009,-0.018124431,0.5467353,-0.048930686,0.16314682,-0.03531669,-0.056188952,0.6128679,0.5307241,0.32134843,0.18688929,0.28247762,-0.01237797,-0.099391274,0.24814227,0.084134914,-0.0028580632,0.20583569,0.1330204,0.058439724,0.39584643,-0.047135133,-0.046803124,0.539977,0.14638707,0.19930133,0.17096286,-0.08262092,0.12773725,-0.07903193,0.39906043,-0.027902577,0.24734947,-0.06147022,0.42145595,0.14908935,0.28802535,0.12307942,-0.09254202,0.17647992,0.18667617,-0.029302642,-0.044913005,0.21971734,-0.04835835,0.034516696,0.010984724,0.2616045,0.16922317,0.04119136,-0.048974145,-0.01847487,0.60597795,0.2970621,-0.06222093,0.08963182,0.24260782,0.11032707,0.125596,0.1788559,-0.037117817,0.21482569,0.4017793,0.019652313,0.061553605,0.089560494,0.011609981,0.17642137,0.11386983,0.077015206,0.35490382,0.39178708,0.41052413,0.19867143,0.34062213,0.25888968,-0.061422218,0.0594516,0.03012292,0.036364086,0.14936467,0.14340341,-0.08286599,0.18347698,-0.032445297
ADM,0.27502728,-0.049661808,0.0133363465,0.044549745,0.2643174,-0.035635777,0.17935762,0.18980634,-0.06800906,-0.037095286,-0.025053926,0.09334993,-0.09164661,0.22728068,-0.01777158,-0.06484032,-0.058411047,0.29081094,-0.05530026,0.16155931,-0.040533148,-0.061614454,0.31125543,0.29629597,0.315931,0.18494615,0.28745633,-0.044068065,-0.11315795,0.24475521,0.08808293,-0.0346604,0.20560867,0.13159679,-0.0003810376,0.2116173,-0.069534086,-0.0324976,0.3248445,0.04862145,0.13176191,0.1706293,-0.08954504,0.12985541,-0.08800583,0.19586492,-0.031529754,0.23834321,-0.061596997,0.4189573,0.017388552,0.2874844,0.12319721,-0.09776075,0.17553777,0.18050356,-0.046247624,-0.04527329,0.21617424,-0.046042517,-0.035962354,0.010543531,0.25924838,0.15933779,0.0047583356,-0.07112202,-0.017312594,0.38061902,0.29192257,-0.07031594,0.089030854,0.22824277,0.10634383,0.12100226,0.17899838,-0.041190647,0.21378946,0.23935859,0.021400522,0.027294144,0.08866996,-0.002883779,0.17435896,0.109138265,0.07320232,0.18968558,0.3885879,0.27409595,0.19739336,0.33930135,0.26317915,-0.066506326,0.021639764,-0.066162266,0.03670702,0.15065007,0.13727091,-0.10111202,0.1849181,-0.032309353
ADP,0.2768442,-0.033754077,0.010875891,0.04355002,0.41813004,-0.031200068,0.24849083,0.19187327,-0.05157032,-0.039756466,-0.024028808,0.09367476,-0.0896588,0.22692138,-0.013482422,-0.0634608,-0.043392554,0.501773,-0.051814843,0.16317889,-0.034648,-0.055748068,0.5682943,0.3830638,0.3253796,0.18905056,0.2820306,-0.015242778,-0.112415224,0.24638516,0.086605996,-0.013653776,0.20576906,0.13114399,0.015076272,0.28536317,-0.057798818,-0.044818573,0.41579974,0.123879045,0.15956792,0.17138024,-0.08843699,0.13264462,-0.08398147,0.36522406,-0.031593584,0.23718727,-0.0635497,0.42209357,0.07241945,0.28992185,0.122796506,-0.09485189,0.17665394,0.18204802,-0.038040996,-0.047257453,0.21903796,-0.04292859,-0.014176646,0.014817935,0.25899997,0.16818713,0.038435645,-0.06565805,-0.020415723,0.46629053,0.29434475,-0.067990094,0.08909452,0.23631153,0.10820745,0.12122519,0.17988285,-0.03967467,0.21301694,0.30772048,0.02102228,0.044122316,0.09236129,0.010626953,0.17348124,0.11050215,0.074872896,0.33007717,0.38972056,0.32223812,0.19627264,0.3415421,0.25822574,-0.06323789,0.038086273,0.013656668,0.03636294,0.15169345,0.13861255,-0.09442286,0.19256555,-0.030792208
ADSK,0.27699524,-0.03469059,0.014804656,0.04940401,0.3506837,-0.021702355,0.4056072,0.18888676,0.026565693,-0.03691424,-0.015704542,0.094647564,-0.06593678,0.2281833,-0.013359517,-0.063263364,-0.025162503,0.40653238,-0.029176015,0.16389847,-0.033616163,-0.054447353,0.45863095,0.5213252,0.32483578,0.1894553,0.27944162,-0.036041882,-0.08723451,0.25177464,0.08422508,-0.021936867,0.20616528,0.13094409,0.0326948,0.40853053,-0.043786433,-0.04964038,0.54317886,0.09099106,0.22142708,0.17384395,-0.06629933,0.13309076,-0.0709459,0.28354964,-0.030368617,0.24093501,-0.064092435,0.42376643,0.1954313,0.29009742,0.12532112,-0.092311874,0.18196589,0.18174851,0.019031994,-0.047650523,0.22114596,-0.044665396,0.05491607,0.01873453,0.2640884,0.16631617,0.025916459,-0.06263243,-0.0011987239,0.59723186,0.29646397,-0.05935859,0.0974479,0.23589319,0.1075732,0.12150218,0.18115215,-0.023455419,0.21425246,0.3975495,0.018205207,0.13814929,0.0922937,0.0058713593,0.1754309,0.112651855,0.0777137,0.25572464,0.39331943,0.40345258,0.19871801,0.33969533,0.2613397,-0.062025607,0.07751107,-0.024977893,0.03673529,0.1514504,0.14815444,-0.081002995,0.1985461,-0.029789448
AEE,0.27655378,-0.029564092,0.011533642,0.043812215,0.38369545,-0.011534592,0.4052782,0.18975249,-0.010069091,-0.046117425,-0.00827058,0.093679234,-0.0878511,0.22753799,-0.013730548,-0.061663743,-0.016988486,0.45104402,-0.04567817,0.16186574,-0.040233254,-0.050031528,0.5081699,0.57516575,0.31994903,0.18450436,0.28655186,-0.03212904,-0.09008445,0.24528196,0.08835425,-0.012311563,0.2088648,0.13056824,0.05819302,0.4572671,-0.058049418,-0.03905023,0.5834768,0.10858883,0.23002304,0.16866918,-0.088721916,0.1298453,-0.083733626,0.3174617,-0.030767035,0.23856054,-0.06221147,0.42559275,0.19149852,0.28650144,0.122307,-0.09579164,0.17730984,0.18215936,-0.040032703,-0.043754004,0.21973431,-0.044683777,0.038910747,0.0103034,0.25911108,0.16632305,0.016994823,-0.067649,0.0013507605,0.645369,0.29145682,-0.07034854,0.09095621,0.23024073,0.10564597,0.121121,0.18172914,-0.04636821,0.21556985,0.44117987,0.025717884,0.047683425,0.08605757,0.0044003967,0.17427105,0.11065045,0.0737894,0.28689653,0.38877052,0.42012322,0.19759151,0.34019908,0.25922573,-0.06179641,0.075455025,-0.010281153,0.03618278,0.15120766,0.13667263,-0.08189485,0.18051949,-0.03405013
AEP,0.2775393,-0.034424536,0.011771171,0.04204348,0.2571774,-0.028527258,0.2327004,0.18924081,-0.052059438,-0.045354515,-0.007888131,0.09446169,-0.0941744,0.22663446,-0.01903025,-0.06074573,-0.0572194,0.28225997,-0.051469438,0.16171062,-0.0422595,-0.057020966,0.30383503,0.35634503,0.31356725,0.18622038,0.28669575,-0.040608842,-0.12069802,0.24486834,0.08801768,-0.03262843,0.21002966,0.12737897,0.020137291,0.2781237,-0.07294958,-0.03747928,0.39585057,0.033186067,0.1556885,0.16615951,-0.09040683,0.12886138,-0.084193975,0.16596535,-0.031147111,0.23642527,-0.059711255,0.42360768,0.058424793,0.28759828,0.12217358,-0.099004865,0.17547712,0.17853111,-0.04628629,-0.044036638,0.21563947,-0.04512187,-0.012844599,0.0018304363,0.25987357,0.16234899,0.0053793807,-0.07472827,-0.022925064,0.45924744,0.28886914,-0.06882992,0.08253488,0.22786842,0.1044278,0.11774911,0.18375078,-0.04967179,0.21355705,0.29365852,0.025223184,0.02204583,0.0851504,-0.0005357247,0.17413493,0.10966289,0.07364655,0.17739026,0.38810706,0.30373996,0.19786084,0.3388474,0.25578713,-0.065424494,0.02602508,-0.07722133,0.03567773,0.15002856,0.13722274,-0.09964999,0.18311408,-0.03414784
AES,0.2760765,-0.017247174,0.016628884,0.04302427,0.47224504,-0.025609612,0.29274145,0.19156824,-0.037295967,-0.044413015,-0.014958795,0.093434066,-0.09115305,0.22636901,-0.00091046095,-0.06105342,-0.018992744,0.5702621,-0.04331058,0.16203935,-0.034382924,-0.046369337,0.6496569,0.4487424,0.32554144,0.19033828,0.28522137,-0.0060197115,-0.11659801,0.2503605,0.086707994,-0.0033599287,0.2086724,0.12511244,0.03536264,0.3398921,-0.045503616,-0.04115109,0.43883714,0.14369018,0.17882846,0.16778757,-0.08365329,0.13446747,-0.08002849,0.4025629,-0.034738965,0.23403579,-0.065694235,0.42018363,0.10160767,0.29113817,0.122932196,-0.09278556,0.1774334,0.182878,-0.025474226,-0.04387217,0.21979073,-0.046905972,-0.002281893,0.016496949,0.26406544,0.16955207,0.060808424,-0.047926567,-0.012892261,0.5115445,0.29465163,-0.062452197,0.0937634,0.23816308,0.10979386,0.12535948,0.1849613,-0.040562116,0.21413863,0.3363772,0.021378571,0.0726536,0.08764884,0.009797571,0.17546809,0.11315057,0.07672509,0.36268488,0.3888486,0.35091186,0.1976654,0.34065202,0.2611636,-0.0548823,0.04529731,0.046257704,0.0390625,0.1493327,0.1433594,-0.07872923,0.18706468,-0.030041967
AFL,0.27642474,-0.008836228,0.012933512,0.044851206,0.42481166,0.0011323877,0.5258743,0.18900412,0.030718766,-0.039889097,-0.0065005906,0.09538175,-0.07963361,0.22698714,-0.011991054,-0.037293047,-0.00010406971,0.50173706,-0.023766778,0.16210383,-0.037618183,-0.046839423,0.5774848,0.7348616,0.32171518,0.18849331,0.2841035,-0.008444466,-0.028702192,0.24449322,0.08837838,-0.007003596,0.20474178,0.13034472,0.06001804,0.6130782,-0.04526896,-0.039228033,0.73499995,0.11631079,0.28625932,0.16771841,-0.07044254,0.13517742,-0.07933713,0.351974,-0.030876813,0.23465121,-0.060994342,0.4219193,0.34624505,0.28781047,0.12210852,-0.08744326,0.17846742,0.18169919,-0.03465748,-0.04747631,0.22041477,-0.045943864,0.08481082,0.020094132,0.25728452,0.16835743,0.054336306,-0.04744617,0.03518793,0.7621101,0.29728764,-0.06801335,0.0969296,0.23858453,0.11088697,0.124015,0.17781293,-0.03900599,0.2122623,0.5501919,0.022028368,0.038325116,0.089338124,0.008212591,0.17365566,0.11106521,0.07371864,0.32600793,0.38947588,0.49277973,0.19810148,0.34170753,0.25756463,-0.057621308,0.13376641,0.024808556,0.037015587,0.149981,0.13867798,-0.06256816,0.18993369,-0.033057217
AIG,0.2790352,-0.011086729,0.012391619,0.042676184,0.5235159,-0.017413845,0.37753135,0.19083245,-0.043877374,-0.039477892,-0.010811668,0.095329866,-0.09134109,0.22665426,0.0019206405,-0.0647335,-0.028378367,0.65870523,-0.039051972,0.16456816,-0.034033462,-0.049039863,0.7349144,0.5340285,0.32622233,0.18773654,0.28158543,0.0059115514,-0.088026136,0.24632137,0.08686228,0.0056806393,0.2044704,0.13044474,0.021787025,0.4291991,-0.043600053,-0.031617373,0.5282499,0.16235253,0.23935312,0.1708627,-0.08623407,0.13513255,-0.08279367,0.4981838,-0.024965003,0.23879321,-0.05499953,0.4232987,0.18340029,0.29242605,0.12571913,-0.08705874,0.18063596,0.18310277,-0.034917224,-0.046795327,0.22201845,-0.040412687,0.010395462,0.03565324,0.26349714,0.17067079,0.074616626,-0.04245703,0.019412905,0.6011,0.29820615,-0.05988968,0.10651015,0.23773189,0.11014579,0.12456806,0.17520666,-0.041966707,0.21720527,0.38927063,0.019263413,0.026908604,0.09186807,0.015091697,0.17761894,0.11114498,0.075058654,0.41770506,0.3920497,0.4175395,0.19637074,0.34519032,0.26075006,-0.06230767,0.08759673,0.09767769,0.03837683,0.15271564,0.14163864,-0.071183264,0.18592647,-0.03213183
AIZ,0.2777159,-0.008534433,0.012995166,0.045286134,0.5282596,-0.025934083,0.28195354,0.19047312,-0.042486165,-0.041617464,-0.024112925,0.09362805,-0.08597871,0.22738922,-0.013850421,-0.06406497,-0.041538954,0.6456558,-0.049928006,0.16375318,-0.033708595,-0.053442247,0.7359591,0.43544737,0.3290187,0.18811584,0.28214994,0.0032309145,-0.10209343,0.24679644,0.08976939,-0.0046134163,0.20519587,0.12956187,0.030312411,0.32791856,-0.0450224,-0.038812555,0.4596867,0.16674441,0.19196266,0.17110375,-0.089542046,0.13034847,-0.084450394,0.49305475,-0.028732575,0.23947097,-0.0623667,0.42028448,0.08898535,0.29125908,0.12335328,-0.08689478,0.17941093,0.18375978,-0.034922317,-0.047353484,0.22170672,-0.044293508,0.0063316617,0.014419513,0.25959715,0.17434296,0.07746978,-0.037919022,-0.019564986,0.52484834,0.29838747,-0.0672897,0.08719388,0.23661296,0.10948821,0.12900014,0.1777687,-0.034834437,0.21269098,0.33608645,0.0186482,0.049336195,0.08670743,0.016252778,0.1773031,0.11162988,0.07751231,0.41825914,0.39143252,0.361588,0.19756052,0.33925712,0.2589745,-0.06162019,0.040023547,0.076601766,0.03558468,0.15153956,0.13908255,-0.07713508,0.1922919,-0.031862203
AJG,0.2768815,-0.02953247,0.012817534,0.041319203,0.39885932,-0.030203579,0.26868567,0.18827817,-0.04963972,-0.040864598,-0.02296856,0.094357654,-0.093937516,0.2261042,-0.018102095,-0.063481234,-0.0427258,0.4726244,-0.055095315,0.16268186,-0.04029934,-0.050820082,0.5384501,0.40310863,0.3227901,0.18536973,0.2825722,-0.016748622,-0.11639427,0.24588437,0.08724548,-0.017206443,0.20488377,0.12829855,0.015759207,0.30449829,-0.052908983,-0.03960018,0.42230278,0.10153939,0.17294176,0.17023443,-0.08791396,0.13123724,-0.08422877,0.32861012,-0.0294036,0.2317373,-0.0623639,0.42002952,0.076154016,0.2874838,0.12227386,-0.09075174,0.17540407,0.18261921,-0.033301387,-0.04822677,0.21783942,-0.04329753,-0.01029284,0.010124332,0.2594717,0.166828,0.049400233,-0.06322606,-0.014905445,0.49560532,0.2911561,-0.06382184,0.085668825,0.22831918,0.108776495,0.120759234,0.17891845,-0.04334005,0.21409531,0.30920902,0.017314048,0.07311714,0.0863211,0.008218929,0.1733892,0.109632835,0.07258065,0.30062938,0.39287046,0.34297487,0.1975576,0.3394725,0.25990963,-0.06404781,0.046767622,-0.00079075247,0.036334958,0.15213723,0.1379029,-0.09014891,0.1859166,-0.033139452
AKAM,0.2783362,-0.041987874,0.017268661,0.04423171,0.21442696,-0.030033909,0.4499569,0.19034953,0.02673008,-0.034486335,-0.016932555,0.09413764,-0.064991444,0.22657496,-0.022033326,-0.06561789,-0.018107206,0.21728314,-0.02951359,0.16600554,-0.034044195,-0.060938768,0.23746927,0.5248288,0.31893033,0.19049922,0.28130472,-0.044004306,-0.07368787,0.24884158,0.08725372,-0.04155342,0.20671275,0.13317902,0.024714522,0.3780472,-0.064539224,-0.040710926,0.53488934,0.023943942,0.19427383,0.17154685,-0.06707388,0.13117225,-0.0815952,0.14756735,-0.033446696,0.23718892,-0.06129796,0.42347515,0.23205869,0.28792396,0.121957146,-0.102046,0.1757953,0.18045628,0.019882545,-0.04798698,0.22087711,-0.047369868,0.057459183,0.002471786,0.26171184,0.16264568,-0.00072164834,-0.0673581,0.004034117,0.50573164,0.2922625,-0.061671697,0.08156586,0.22776124,0.106834605,0.11752773,0.17774835,-0.02098763,0.21700776,0.31033027,0.018079598,0.13377406,0.088644266,-0.0020813774,0.17302206,0.1109468,0.077237934,0.14616302,0.39013815,0.31092423,0.19663095,0.33930194,0.25698528,-0.066277504,0.00424058,-0.053389758,0.03641577,0.15135695,0.13978937,-0.102653295,0.191004,-0.031416737
ALB,0.27781153,-0.023423007,0.016246602,0.051414475,0.44825768,-0.02019159,0.31986132,0.19401619,-0.038401585,-0.044806503,-0.004165724,0.09676458,-0.08718981,0.22527547,-0.011511348,-0.0709302,-0.02969098,0.52914375,-0.037553683,0.16651045,-0.037577666,-0.040820777,0.58990246,0.46625316,0.32186502,0.1877487,0.28104192,-0.017655015,-0.09693344,0.24678601,0.08687565,-0.0035433099,0.20732346,0.13603543,0.049457513,0.36750898,-0.04774105,-0.039037652,0.4963237,0.13806856,0.20712237,0.1710808,-0.08076313,0.1338907,-0.082416266,0.3738986,-0.03173991,0.2438778,-0.038952332,0.4254405,0.11407194,0.29653275,0.123819016,-0.08918978,0.18007258,0.18574385,-0.02864876,-0.041436024,0.22918682,-0.047146175,0.0154445935,0.01974221,0.26561695,0.17276455,0.050662998,-0.051147126,-0.014795452,0.5723518,0.30434212,-0.050888482,0.09561895,0.24130237,0.10844132,0.12743823,0.16935721,-0.032024734,0.21502778,0.36180383,0.014644909,0.041311566,0.09025573,0.0074669775,0.17749555,0.11680624,0.08961128,0.33658567,0.39724916,0.38423368,0.1946535,0.34132966,0.26057833,-0.04848577,0.054811455,0.02193208,0.038898382,0.15160242,0.13917696,-0.0858226,0.18759526,-0.029640071
ALGN,0.27875063,-0.0091372095,0.026013926,0.05215819,0.5915203,0.029494291,0.7402054,0.19133976,0.028327256,-0.040464614,-0.005624756,0.09619297,-0.03374563,0.22828278,0.03568539,0.011282891,0.10519405,0.83202744,-0.008306697,0.16986719,-0.029361686,-0.05058962,0.97098833,1.0236658,0.35622472,0.19166091,0.28202853,0.027948698,0.013509572,0.2520803,0.0836214,0.037222147,0.2018457,0.12874123,0.09588325,0.83435905,-0.004802324,0.0021989644,0.9453164,0.22926818,0.35781226,0.17304699,-0.04128381,0.13418947,-0.074116535,0.6405616,-0.02716858,0.24295767,0.00401552,0.42402,0.51469505,0.29188338,0.12442432,-0.081488125,0.17880802,0.19002163,-0.019502778,-0.049562734,0.24064356,-0.045231275,0.1425276,0.01969675,0.26617748,0.17928553,0.09888609,0.052013636,0.071914226,0.9877453,0.30202347,-0.022945166,0.108402014,0.25261906,0.11690925,0.13405998,0.18179114,-0.028910004,0.23043422,0.71309555,0.02125307,0.088042505,0.09910813,0.025806928,0.18627223,0.117478095,0.07975879,0.4977618,0.3896845,0.61253417,0.19499332,0.3409639,0.2645618,-0.034726363,0.20004272,0.24379435,0.038546894,0.1485844,0.14738679,0.003084449,0.194116,-0.023101974
ALK,0.27868092,0.005794419,0.018016469,0.046123378,0.57844675,0.008116107,0.42983016,0.19461752,-0.018681157,-0.038410727,-0.0009292774,0.09604723,-0.08827458,0.22591102,0.0023318976,-0.066442564,-0.014237002,0.7400165,-0.03643561,0.16563143,-0.03849204,-0.0337966,0.8184136,0.6150732,0.3242301,0.19111234,0.28249568,0.022590218,-0.07153945,0.25108793,0.089095704,0.018850923,0.20577392,0.13521789,0.05177021,0.4900678,-0.026162222,-0.021003947,0.6013797,0.19604108,0.24730505,0.17101417,-0.08214494,0.13642456,-0.07958236,0.56732666,-0.02236909,0.24168707,-0.050524283,0.4300635,0.24307448,0.2978458,0.12520227,-0.08209781,0.17848605,0.18729016,-0.013630205,-0.044884715,0.22542132,-0.048704967,0.052904233,0.051672943,0.26198873,0.1797103,0.09869507,-0.024987718,0.032451764,0.6752649,0.3012591,-0.06212295,0.10041779,0.24116178,0.11402747,0.12791148,0.17295535,-0.036556903,0.21486808,0.44637403,0.015984226,0.06771007,0.08928345,0.019325975,0.1785663,0.11596735,0.07848212,0.46637824,0.39398357,0.44647166,0.19571285,0.34824434,0.26385146,-0.05453354,0.09536704,0.13053614,0.038781486,0.15014967,0.13995379,-0.053566016,0.19471619,-0.027465895
ALL,0.2770478,-0.03457641,0.011770201,0.043475136,0.36353764,-0.032874435,0.21728706,0.18986793,-0.0698458,-0.041010007,-0.024203643,0.09314317,-0.09149352,0.22742537,-0.01901105,-0.06405874,-0.060036935,0.41928318,-0.05249598,0.1627695,-0.03935064,-0.054602645,0.47733235,0.33540004,0.31682232,0.18573031,0.28346,-0.02257426,-0.1086299,0.24443944,0.09000318,-0.023455849,0.20571724,0.12987143,0.0011474565,0.25029725,-0.061321337,-0.03807328,0.3728455,0.083576426,0.14496644,0.17075002,-0.089960985,0.1280568,-0.08038968,0.28874084,-0.031571805,0.2307678,-0.06317935,0.41893703,0.050400548,0.28999838,0.12363055,-0.09688896,0.17575762,0.17954035,-0.04149173,-0.0477025,0.21774784,-0.044465862,-0.029124966,0.005945324,0.26205483,0.16448326,0.03568875,-0.07320375,-0.018090509,0.42452708,0.2899751,-0.0667078,0.08257991,0.2322663,0.108753785,0.11937352,0.1803088,-0.041269504,0.21414632,0.2729266,0.020773232,0.022420788,0.08707437,0.0055652894,0.17488545,0.10917419,0.07289735,0.27297935,0.3901751,0.29248053,0.19778207,0.34023005,0.26017302,-0.06493957,0.024461955,-0.014624342,0.037938125,0.15028432,0.1385702,-0.09395471,0.18105146,-0.033315003
ALLE,0.27658004,-0.032472055,0.014833004,0.04495957,0.3430768,-0.036737308,0.22490282,0.18864903,-0.050416365,-0.035171766,-0.020736173,0.09382389,-0.08828089,0.2279285,-0.012680732,-0.06535167,-0.045395777,0.40172935,-0.04312301,0.1655794,-0.039037183,-0.05379431,0.44419512,0.36052552,0.31740496,0.1876963,0.28604177,-0.034441978,-0.102808245,0.24933276,0.08413809,-0.017475838,0.20573872,0.13051158,0.013258807,0.2646869,-0.060702074,-0.040356897,0.3927784,0.08413982,0.15304583,0.16944899,-0.083927564,0.13061017,-0.08031991,0.27034795,-0.030880598,0.23759627,-0.062952615,0.42008197,0.055249967,0.2860809,0.12287675,-0.094375566,0.17694527,0.17848834,-0.03532885,-0.04621996,0.22062036,-0.047827817,-0.013796062,0.008088638,0.26242813,0.16227864,0.004960995,-0.07107013,-0.020191386,0.44629422,0.29271734,-0.059902914,0.090807915,0.23435292,0.109238535,0.12192127,0.17785503,-0.034261927,0.21590336,0.28865993,0.01768488,0.020274717,0.08724594,0.0007761922,0.17519136,0.11195445,0.077406116,0.25405824,0.39499494,0.30449733,0.19833377,0.34121546,0.26346815,-0.06506954,0.037414983,-0.03466458,0.037306167,0.15011868,0.13701442,-0.09862891,0.18534407,-0.031856418
AMAT,0.27809727,-0.0051029003,0.015620113,0.0453427,0.5445905,-0.023903197,0.31042576,0.19386502,-0.03854894,-0.04323247,-0.017270558,0.095443375,-0.08024679,0.22745275,-0.0065330565,-0.06744029,-0.026759952,0.66769624,-0.0446548,0.16560736,-0.023220316,-0.049841546,0.75702554,0.45717588,0.3247361,0.19161843,0.2814047,0.0006735027,-0.098171294,0.25131193,0.08462622,0.005906008,0.20377003,0.1347967,0.046716858,0.34492898,-0.044897415,-0.044212446,0.48506284,0.17053667,0.18494599,0.17092882,-0.07170292,0.13044673,-0.076441035,0.5045271,-0.027204897,0.24151646,-0.055129796,0.4215706,0.11686996,0.29020604,0.12520847,-0.09621796,0.17760994,0.18897079,-0.022885283,-0.047395557,0.2193247,-0.050810054,0.005756911,0.01809002,0.26826623,0.17126662,0.062391456,-0.030916652,-0.008498728,0.5301119,0.29968524,-0.055032365,0.09391844,0.23704869,0.1090644,0.1333829,0.17417848,-0.024995506,0.21524236,0.35181445,0.018574733,0.053838164,0.090517744,0.017032443,0.17875111,0.114717565,0.08111778,0.42717743,0.39537954,0.37005424,0.19812357,0.34473598,0.2643828,-0.058802582,0.05927042,0.08164089,0.036001835,0.14846855,0.14798777,-0.07043723,0.18763046,-0.026301663
AMCR,0.27633357,-0.030642163,0.010693476,0.04095247,0.41110438,-0.016607221,0.3168641,0.18932354,-0.03279072,-0.040763844,-0.014407836,0.09604534,-0.086891286,0.2253811,-0.0072741434,-0.06644795,-0.030016385,0.5027188,-0.0427067,0.16346398,-0.035358287,-0.05265381,0.5636456,0.48168337,0.3190937,0.18827285,0.284748,-0.011078134,-0.10793486,0.24605143,0.08707042,-0.0128068905,0.20683,0.1336848,0.02975865,0.39249176,-0.059281938,-0.038853798,0.50163704,0.11458512,0.2041435,0.1704848,-0.08183626,0.134182,-0.085450135,0.37211576,-0.029648663,0.23380968,-0.060619168,0.42182317,0.14236923,0.28908706,0.122442335,-0.09288342,0.17747797,0.18404725,-0.029691208,-0.04483474,0.22117871,-0.044584043,0.015526567,0.021332245,0.26598272,0.16790468,0.058135256,-0.070652395,-0.007522285,0.5618109,0.29696903,-0.0563617,0.09587867,0.23075402,0.1118112,0.121125616,0.17439339,-0.03260643,0.21294166,0.37132835,0.020447128,0.07235844,0.087466314,0.008762356,0.17502546,0.11101435,0.07695611,0.32324544,0.39103588,0.373144,0.19584385,0.33898067,0.25730643,-0.060874317,0.06490694,0.01624956,0.037281867,0.15019262,0.1389712,-0.09411594,0.19962575,-0.032585207
AMD,0.27817833,-0.02620242,0.02287802,0.047070667,0.40282512,-0.027132621,0.49645728,0.19758376,0.013997867,-0.040112257,-0.013420854,0.09688015,-0.048712123,0.2257655,-0.0020274743,-0.06547125,0.0072015077,0.47658843,-0.020060688,0.16878594,-0.029309962,-0.05720367,0.5583659,0.6081254,0.32477874,0.19342226,0.27893692,0.009510895,-0.043879345,0.25304487,0.083051756,-0.014511719,0.20140676,0.13813919,0.03729444,0.44552886,-0.026348397,-0.017997965,0.593665,0.12634395,0.25270507,0.17218713,-0.068825886,0.14189649,-0.06970507,0.35837513,-0.028733518,0.23892465,-0.035675704,0.4345701,0.25992987,0.28949812,0.12277552,-0.085863814,0.18400434,0.18733254,0.005310353,-0.044235647,0.22831623,-0.05212777,0.050087575,0.019122377,0.26400852,0.17434604,0.072756276,-0.050908923,0.018018574,0.5927527,0.296782,-0.03782632,0.09085531,0.23718439,0.11322845,0.13947509,0.17459267,-0.013982892,0.22210865,0.43385285,0.015452739,0.13531975,0.09604926,0.006390307,0.18162812,0.12048927,0.080345206,0.30791107,0.39207608,0.38610137,0.19674322,0.34561583,0.26412767,-0.055116057,0.097434685,0.1141547,0.039148707,0.14819959,0.14577743,-0.07441524,0.21918312,-0.026845852
AME,0.27775073,-0.019802842,0.012149015,0.044026766,0.43485484,-0.019037193,0.34742978,0.18869202,-0.0401453,-0.040768005,-0.019788243,0.09548634,-0.09014076,0.2277073,-0.006265402,-0.06537163,-0.02904348,0.5272306,-0.053553402,0.16265984,-0.037892263,-0.051767975,0.5893811,0.50704104,0.32445493,0.18667346,0.2788648,-0.01894977,-0.102267206,0.24842767,0.08833212,0.0029709674,0.20483446,0.13171524,0.02464524,0.405143,-0.05216287,-0.040731132,0.50871134,0.13711838,0.22301725,0.17069633,-0.08624685,0.12987553,-0.08543004,0.3737023,-0.03222364,0.24006802,-0.061923325,0.42106786,0.15548462,0.2874698,0.12415248,-0.08632845,0.17458418,0.18367228,-0.033053335,-0.045490146,0.21939439,-0.04678773,0.013196373,0.017990839,0.2609275,0.16546854,0.050118435,-0.050872955,0.013271794,0.57392675,0.2960729,-0.06433352,0.10018265,0.23175365,0.10998456,0.124558,0.17813984,-0.040746324,0.21398492,0.38278195,0.017886028,0.03804276,0.08752326,0.009554163,0.1776954,0.111122735,0.076132864,0.33434957,0.3925232,0.39403296,0.19821718,0.34230027,0.2587654,-0.06387177,0.07573729,0.010922581,0.038394894,0.15119071,0.13871276,-0.08939622,0.18384445,-0.031961147
AMGN,0.27675876,-0.056155033,0.0124597,0.0451865,0.21551265,-0.033039447,0.2280946,0.19017638,-0.05337866,-0.03696225,-0.0204801,0.093909636,-0.086015314,0.22566159,-0.021003917,-0.062862635,-0.05195491,0.22439933,-0.053351834,0.16452941,-0.040885113,-0.06460128,0.2439615,0.36187282,0.32055786,0.18536758,0.27852973,-0.037363157,-0.11210379,0.24696073,0.08693326,-0.04443009,0.20441633,0.13066891,0.01712586,0.26207358,-0.062406197,-0.04723105,0.38587683,0.02516669,0.15481469,0.17184809,-0.083099484,0.1289312,-0.08430624,0.15347697,-0.030797893,0.23958379,-0.06452594,0.41706136,0.057237,0.28760654,0.12204452,-0.10030933,0.17342147,0.18151055,-0.031944584,-0.047697525,0.21994866,-0.045770995,-0.018686427,0.0058061993,0.25915205,0.16191146,-0.008151719,-0.07265281,-0.025598146,0.4434547,0.2926374,-0.06741873,0.08524972,0.23026079,0.10941799,0.12175569,0.17973459,-0.039133087,0.21187535,0.28049818,0.020467242,0.030998226,0.08880712,-0.0012091883,0.17260687,0.111934125,0.07520219,0.14886272,0.3896459,0.320155,0.1975209,0.3355636,0.25708598,-0.06424278,0.036821425,-0.029191613,0.03475412,0.14846301,0.13644147,-0.09636664,0.18315676,-0.030028636
AMP,0.27887625,0.0036481014,0.015968591,0.042660102,0.6305812,0.0050544795,0.5613741,0.19064283,0.010034088,-0.03741088,-0.015110377,0.095057875,-0.079222165,0.2268754,0.0071140975,-0.026251614,0.017156936,0.78821373,-0.03965474,0.16372038,-0.0342104,-0.04198313,0.90224063,0.76516753,0.33797342,0.18603562,0.28426394,0.007122256,-0.030472988,0.2471964,0.088188194,0.023293648,0.20521514,0.12801228,0.06830177,0.6149644,-0.032466672,-0.03180173,0.75184697,0.21464534,0.27900603,0.17241375,-0.08152919,0.13751097,-0.08175045,0.612943,-0.029338298,0.25713593,-0.053070843,0.42408606,0.34565887,0.28941035,0.13032365,-0.08499992,0.1797905,0.18697059,-0.036635444,-0.04607301,0.22078875,-0.046450995,0.07659206,0.031441852,0.26422423,0.17588076,0.07585594,0.0023671277,0.042144537,0.78594416,0.30060372,-0.061091546,0.10676023,0.2471647,0.10943806,0.13450637,0.17907006,-0.037334748,0.21395843,0.56267923,0.01522387,0.040926453,0.093077555,0.025143664,0.1761759,0.112703085,0.07622557,0.4966902,0.39073318,0.51034766,0.19698228,0.34405756,0.25793597,-0.050016195,0.1410117,0.13490641,0.039876334,0.14833751,0.14021638,-0.034088977,0.18810573,-0.028143128
AMT,0.27732876,-0.032603692,0.011730429,0.044758536,0.43417764,-0.026293473,0.28890827,0.19004136,-0.03907626,-0.04293642,-0.013603456,0.09371065,-0.09198779,0.22665688,-0.0130162835,-0.062648915,-0.04323417,0.5183873,-0.0513653,0.1622725,-0.039388277,-0.05512506,0.58795226,0.43310556,0.32701308,0.18573457,0.28319135,-0.02137871,-0.11546646,0.24503118,0.087659396,-0.01052919,0.20836017,0.12849672,0.040402755,0.3210226,-0.05810767,-0.04266353,0.45367226,0.1351189,0.17125815,0.16783568,-0.08638841,0.12965557,-0.08555907,0.3873888,-0.030657964,0.24818693,-0.063668236,0.4204305,0.08986136,0.28659827,0.1264687,-0.09974334,0.17451826,0.18247437,-0.038072668,-0.045038536,0.21979669,-0.0438513,0.0023161778,0.018955112,0.26114398,0.17186593,0.04319,-0.06437246,-0.027094096,0.52100354,0.29281718,-0.06431846,0.08519536,0.23232183,0.10934832,0.12292544,0.18040313,-0.04360894,0.21281466,0.34257606,0.024735328,0.023643248,0.09118374,0.01117789,0.17246866,0.10899718,0.07600322,0.33576357,0.38688165,0.3429975,0.19727711,0.3375698,0.2585269,-0.059350286,0.03550567,0.018241614,0.035220213,0.15120243,0.13721307,-0.088552065,0.18419376,-0.028780185
AMZN,0.27671617,-0.051554374,0.012389949,0.045969285,0.1890447,-0.039669037,0.18424623,0.19279274,-0.059238516,-0.03777872,-0.02525223,0.09582227,-0.07502274,0.22303689,-0.021994844,-0.06695008,-0.05599443,0.20145282,-0.039854243,0.16526297,-0.03181841,-0.06877546,0.24477117,0.19588529,0.31518534,0.1886686,0.28126955,-0.032788284,-0.10689914,0.25026911,0.08618003,-0.04657054,0.2053,0.13697991,-0.010444589,0.1374376,-0.05007167,-0.045402177,0.23608825,0.01794754,0.09105727,0.17324889,-0.07684845,0.1328575,-0.07748459,0.10976496,-0.031513687,0.23349643,-0.05578835,0.4217897,0.04703571,0.29015604,0.12135302,-0.10031852,0.1730329,0.17862567,-0.024190541,-0.04565011,0.22021125,-0.057425816,-0.037996985,0.0050629433,0.26244324,0.16000725,0.0011955714,-0.06772056,-0.034496754,0.29512155,0.29189098,-0.064918175,0.082216755,0.23215982,0.11053826,0.12038579,0.1741322,-0.027870197,0.21312656,0.16939422,0.017839057,0.052296683,0.09034443,-0.0039083436,0.17529655,0.11149087,0.076303646,0.11726646,0.39082032,0.21441174,0.196344,0.34182903,0.26201773,-0.06610681,-0.0014649667,-0.011237927,0.03844167,0.14521948,0.139374,-0.100155115,0.18728083,-0.029627947
ANET,0.27673313,-0.020805568,0.021175442,0.047959205,0.5353903,-0.030433591,0.2985177,0.19889493,-0.034319956,-0.033362783,-0.018208623,0.09814389,-0.08416949,0.22811204,0.0066573843,-0.067577615,-0.04456552,0.74968356,-0.039458998,0.16732745,-0.025005441,-0.04660012,0.86693734,0.44692844,0.33622888,0.19109078,0.2794656,0.04084376,-0.09464562,0.25141078,0.086738855,0.026985252,0.20305991,0.13304481,0.019408714,0.34177,-0.0129870325,0.00032445043,0.45705557,0.20537786,0.19539575,0.17197272,-0.08079329,0.13680743,-0.07235423,0.5790846,-0.030005665,0.23980536,-0.010039922,0.42770106,0.11286267,0.29705784,0.12428234,-0.09304266,0.18533164,0.1830403,-0.011137984,-0.045856178,0.22290468,-0.049494624,0.007895765,0.014236504,0.27127564,0.17033619,0.09788259,0.03654853,-0.0020767748,0.52608484,0.29935747,-0.04633892,0.09911327,0.25004405,0.112888604,0.13257346,0.17789473,-0.033920683,0.21494146,0.33815718,0.01720418,0.073285066,0.101570964,0.019877715,0.17601466,0.1171527,0.09470465,0.459296,0.38974893,0.35764456,0.19976616,0.34131476,0.27098247,-0.060102567,0.057360202,0.20400554,0.03734328,0.15064527,0.142405,-0.04967221,0.19386607,-0.025934936
ANSS,0.27840626,-0.035095558,0.012642552,0.042666603,0.3797698,-0.022495195,0.35117605,0.19115032,-0.026794199,-0.0375065,-0.020759389,0.09419799,-0.087979935,0.22672379,-0.008568376,-0.064719364,-0.027256861,0.43318474,-0.044002593,0.16540769,-0.035991237,-0.06171377,0.4929234,0.5069277,0.31564534,0.19056277,0.2808567,-0.031880572,-0.09416457,0.24626833,0.084007606,-0.023908772,0.20541787,0.13530646,0.04840771,0.3843278,-0.05765614,-0.050539784,0.5294729,0.10690716,0.21441759,0.1728167,-0.086122036,0.13164209,-0.08236345,0.31355107,-0.03127227,0.24403906,-0.05940149,0.4234981,0.15290353,0.28821963,0.12551457,-0.09489797,0.17877413,0.18132843,-0.03030353,-0.046430856,0.21957734,-0.04641217,0.014727442,0.010147873,0.25992873,0.16331391,0.028709741,-0.06918372,-0.008787334,0.57743263,0.29369277,-0.06597183,0.09167169,0.2327626,0.106313616,0.121948645,0.17710115,-0.04113373,0.21353744,0.38833776,0.020122614,0.040395476,0.0874139,0.0024381801,0.17586048,0.11087464,0.074106604,0.28337425,0.39041162,0.3992504,0.19462854,0.34015185,0.25934955,-0.06441456,0.07433276,-0.020152926,0.03520716,0.1499593,0.1397188,-0.078599066,0.1832716,-0.031265877
ANTM,0.27780595,-0.028676603,0.019256914,0.042332705,0.44928315,-0.038071655,0.15207338,0.19044103,-0.07436264,-0.038284604,-0.01950816,0.095155135,-0.087175585,0.2257303,-0.007986411,-0.06585184,-0.053904727,0.63552916,-0.041090168,0.16510776,-0.03559827,-0.062468566,0.74093753,0.25656182,0.34300303,0.1891033,0.2820003,0.0017352179,-0.10685438,0.24634826,0.08615693,0.013086183,0.20487592,0.13335335,-0.01511085,0.19090374,-0.026777208,-0.046222672,0.28350246,0.1670079,0.12760976,0.17589009,-0.08408116,0.13451716,-0.07876985,0.47507727,-0.027468532,0.23284751,-0.06013527,0.4279703,0.0054393634,0.29118448,0.1241612,-0.09964807,0.17959227,0.1816796,-0.033784393,-0.047590397,0.23361169,-0.04614391,-0.03914041,0.00591015,0.26303363,0.16973273,0.0733914,0.0066949725,-0.03000626,0.3536098,0.29336134,-0.06425223,0.08762251,0.23420563,0.11538097,0.12510234,0.17521685,-0.03779611,0.21559127,0.20919785,0.019070903,0.054540094,0.0960935,0.014143471,0.17751728,0.11171439,0.07956627,0.38543203,0.38890478,0.2530449,0.19620782,0.34366208,0.2611524,-0.06170435,0.012371436,0.14624675,0.03590981,0.15099262,0.13993183,-0.07419765,0.1913383,-0.029540205
AON,0.27549094,-0.013337892,0.010656322,0.0515358,0.42416674,-0.03006976,0.28506276,0.18848208,-0.051107064,-0.03999578,-0.023003887,0.09434505,-0.09083997,0.22597241,-0.018237956,-0.06195128,-0.045172334,0.51654494,-0.04930574,0.16290365,-0.038526442,-0.04580289,0.57512844,0.42969254,0.31801045,0.18440011,0.28000474,-0.016707562,-0.106744215,0.24511595,0.08719652,-0.008716391,0.20338967,0.1268869,0.01344195,0.33143422,-0.052586034,-0.045388065,0.44848546,0.116666034,0.1878991,0.16776237,-0.08738014,0.13137457,-0.08512057,0.3584263,-0.029727243,0.22881603,-0.06414916,0.42063963,0.10037294,0.28754997,0.12290735,-0.09408904,0.17625368,0.18294309,-0.03363609,-0.048264492,0.22006956,-0.044651613,-0.0020192973,0.0058039688,0.2601617,0.16464917,0.04175856,-0.058983177,-0.009922259,0.5125571,0.2934636,-0.06346033,0.08871457,0.22786139,0.10824041,0.12202247,0.18103245,-0.039490953,0.21249813,0.33218756,0.01907208,0.023245253,0.08774868,0.007907279,0.17344372,0.10866991,0.07464772,0.31532285,0.3910362,0.35053256,0.19868365,0.339772,0.26113984,-0.064216316,0.05515813,0.010719784,0.038195103,0.14988093,0.13902608,-0.094444975,0.18407443,-0.033560563
AOS,0.27623272,-0.050558977,0.013150639,0.042086318,0.259449,-0.034298353,0.1581901,0.18901798,-0.056445703,-0.03943851,-0.022962444,0.09535913,-0.08720798,0.22796972,-0.021599278,-0.06655172,-0.060561195,0.2581765,-0.053401135,0.16542344,-0.035494264,-0.0655754,0.27468652,0.1932879,0.31135118,0.18644163,0.28252804,-0.04909425,-0.109645605,0.24720252,0.08789912,-0.03723654,0.20456381,0.13315797,-0.025373228,0.13299134,-0.06767598,-0.041426405,0.24149135,0.027784396,0.09288214,0.1695923,-0.07930283,0.12819299,-0.08342132,0.1501544,-0.034106053,0.2302771,-0.06267305,0.42001548,0.03178396,0.28970167,0.12227397,-0.103864565,0.17257135,0.17887288,-0.02175311,-0.04672492,0.21749702,-0.047431856,-0.031096356,0.0030085258,0.26201242,0.16142769,-0.020992342,-0.062783055,-0.03147448,0.28999647,0.28924233,-0.06681028,0.08016571,0.23058122,0.11190608,0.12172053,0.17750213,-0.039557904,0.21241969,0.17267154,0.018002382,0.052777667,0.089150205,-0.00727096,0.1739067,0.110832006,0.077827975,0.15702534,0.39245963,0.20948476,0.19801629,0.3397361,0.2583234,-0.06589959,0.0009809248,-0.048821583,0.035802513,0.152222,0.13733768,-0.10076335,0.18567574,-0.030263273
APA,0.27990004,0.020007527,0.017746137,0.058942318,0.8872483,0.015733922,0.63743144,0.1932236,0.042944666,0.00527443,0.034696784,0.101441406,-0.038035113,0.2275482,0.056488276,-0.0076685622,0.04875344,1.2092109,-0.00573007,0.17158587,-0.008689687,-0.02464437,1.3734422,0.85165894,0.38616896,0.19096732,0.28015327,0.028808735,-0.0009957217,0.24948893,0.11081237,0.048407536,0.21456917,0.13669592,0.07800466,0.70729274,-0.021041594,0.03247918,0.7936878,0.22744298,0.29477298,0.17234495,-0.049296096,0.15128392,-0.06392056,1.0556185,0.016735591,0.2754644,0.062618375,0.42782044,0.426781,0.30120993,0.13405126,-0.056494027,0.18513145,0.2192429,0.0038535716,-0.0482307,0.2381993,-0.04556618,0.08876655,0.08237912,0.26839873,0.22052415,0.09211476,0.18656369,0.07745163,0.81956416,0.30775243,0.056974217,0.11675592,0.2603575,0.11296986,0.19969165,0.20644358,-0.007479593,0.22330391,0.6104333,0.015397113,0.06475312,0.10293107,0.080662385,0.18584418,0.11754027,0.07886204,0.7163986,0.39387107,0.52732193,0.23304208,0.34640363,0.2628733,-0.033458278,0.16468528,0.49559328,0.037650734,0.15588008,0.14685121,0.13280655,0.20348698,-0.028146878
APD,0.2765622,-0.032650527,0.0122552235,0.040809933,0.36901712,-0.024869172,0.31222355,0.18882662,-0.032771017,-0.037846763,-0.016448632,0.094499804,-0.08985048,0.22643742,-0.01840768,-0.063488565,-0.03454432,0.4207418,-0.050272737,0.1622764,-0.04009714,-0.0631029,0.47320586,0.45963603,0.3216724,0.1866096,0.2808633,-0.028827839,-0.10756411,0.24547024,0.088490605,-0.018540619,0.20662445,0.13214388,0.04630389,0.35237423,-0.0634284,-0.041006207,0.48107412,0.10274531,0.188567,0.17135432,-0.08834214,0.12846676,-0.08412616,0.30300432,-0.02827844,0.24414223,-0.062262878,0.41918662,0.1096124,0.2854323,0.12274028,-0.09808845,0.17463644,0.18364617,-0.03740009,-0.046022158,0.22127882,-0.04604353,0.011244131,0.010348494,0.25858772,0.16459517,0.023358911,-0.06664402,-0.025210984,0.5501992,0.29257855,-0.067219146,0.08788853,0.23055506,0.1103674,0.12107801,0.17930886,-0.039326344,0.21402982,0.35766166,0.018690038,0.028719086,0.086888865,0.0043995846,0.17466997,0.11118357,0.07640226,0.27715415,0.3928563,0.36657134,0.19672035,0.3384017,0.25966272,-0.0634769,0.04360297,-0.025187433,0.03646854,0.1497899,0.13765565,-0.09103022,0.18105918,-0.03362143
APH,0.27486762,-0.02910586,0.011464994,0.042999703,0.38639712,-0.038610645,0.1563872,0.18851203,-0.07107358,-0.038576826,-0.021922406,0.094771385,-0.09142,0.22755666,-0.019660555,-0.06525408,-0.0623431,0.45536917,-0.05318343,0.16287488,-0.037540812,-0.056806337,0.5106097,0.27300993,0.31829238,0.18676418,0.2810043,-0.023429044,-0.1153897,0.24595316,0.087146044,-0.01629376,0.20442416,0.13070126,-0.0032908767,0.1930172,-0.062946625,-0.04516551,0.31311524,0.104925945,0.124434784,0.16993725,-0.08796387,0.13195068,-0.080183834,0.3227357,-0.02983894,0.23122129,-0.06324366,0.42386252,0.0075124577,0.28765577,0.124104485,-0.0972175,0.17745918,0.18020785,-0.03548703,-0.047572367,0.21962981,-0.0483362,-0.0373043,0.0074301017,0.2583848,0.16346379,0.031774368,-0.061394326,-0.032793805,0.36727294,0.29326254,-0.06697899,0.079691716,0.23308742,0.112177536,0.12661928,0.17797646,-0.041990638,0.21376452,0.22781734,0.019432057,0.020867415,0.08711988,0.0013519675,0.17386757,0.11065035,0.07357667,0.29286402,0.3942405,0.2561124,0.19815218,0.34184858,0.26021138,-0.06341204,0.021345854,-0.016681388,0.036754932,0.15081595,0.13780658,-0.10066652,0.18307695,-0.033371948
APTV,0.27680844,0.016395748,0.012312448,0.043893773,0.6986351,-0.0062710103,0.44468594,0.19259518,-0.008889452,-0.038290277,-0.013910957,0.09528833,-0.08798617,0.22700219,0.015049204,-0.054096714,0.02082631,0.90571755,-0.042017777,0.16629615,-0.035191134,-0.024970513,1.0346011,0.654935,0.3413491,0.18929046,0.2826963,0.026690692,-0.08075115,0.24684553,0.08692485,0.033821832,0.20286414,0.1355166,0.05653443,0.5108429,-0.026455238,-0.00033409894,0.6065051,0.23339102,0.24310406,0.17268041,-0.08400508,0.13561662,-0.08397332,0.6884532,-0.024946317,0.23567125,-0.037787843,0.4256858,0.23804997,0.29332685,0.12876473,-0.08813747,0.18167247,0.18631603,-0.03186519,-0.047396775,0.22273105,-0.049345434,0.039862465,0.023206666,0.25875512,0.18401898,0.096196674,0.026508924,0.026724286,0.66549546,0.30741313,-0.0646645,0.10781188,0.24288669,0.114147976,0.13276915,0.17651923,-0.03356245,0.21302062,0.4699227,0.020067615,0.061016437,0.091745734,0.035700046,0.17670913,0.11488914,0.076414526,0.55564326,0.39489633,0.44892406,0.19672093,0.3406259,0.2641488,-0.056992266,0.107239954,0.21859999,0.035798803,0.1503481,0.14400434,-0.016635127,0.19408265,-0.030921884
ARE,0.27798834,-0.019445196,0.010346062,0.045804847,0.47252175,-0.031790465,0.24378632,0.19004965,-0.04741008,-0.04356879,-0.020309638,0.093289904,-0.09350243,0.22728555,-0.012317717,-0.062205896,-0.046436638,0.575143,-0.052596003,0.16233271,-0.03979904,-0.051065706,0.6476364,0.37747413,0.3242686,0.18643408,0.28463328,-0.011747934,-0.11700555,0.24644203,0.08928454,0.002876427,0.20631608,0.12784867,0.030075397,0.28626388,-0.051113002,-0.035390887,0.39120233,0.15309815,0.17063159,0.17204322,-0.08911545,0.1293596,-0.08338027,0.42194518,-0.03038687,0.24246736,-0.061376307,0.42075858,0.07074209,0.28767404,0.12452158,-0.094882116,0.17449546,0.18131602,-0.043961816,-0.045791443,0.2184023,-0.045091003,-0.016662363,0.01576293,0.25813228,0.17216843,0.046770126,-0.04825236,-0.011607736,0.45576298,0.29209912,-0.066938065,0.09143837,0.23157793,0.10747449,0.1233886,0.18158096,-0.042176325,0.21546917,0.29138768,0.022583643,0.042575605,0.0877647,0.010936005,0.17314121,0.11387238,0.07286469,0.3675144,0.39027774,0.3243702,0.19790336,0.3379311,0.25754577,-0.059047483,0.040852506,0.03655702,0.038432375,0.1514913,0.13668078,-0.08429527,0.19344866,-0.031255726
ATO,0.27679646,-0.032429226,0.009102982,0.04151362,0.2767564,-0.018238094,0.33598006,0.19110605,-0.02539204,-0.046119638,-0.006850615,0.09418447,-0.09413841,0.2259244,-0.019011281,-0.062373545,-0.034650408,0.3172236,-0.045515638,0.16271535,-0.04014868,-0.05149951,0.3404932,0.49155736,0.31486854,0.18541557,0.2869862,-0.037790004,-0.10438852,0.24562082,0.08732458,-0.021435097,0.20920315,0.12508368,0.044286516,0.388178,-0.06516238,-0.036247324,0.5123333,0.043209855,0.20319986,0.16738474,-0.08818821,0.13250147,-0.083477974,0.18689677,-0.030775988,0.24019663,-0.060479656,0.42860094,0.1422526,0.2890168,0.12277345,-0.09695816,0.1811713,0.18212795,-0.047175303,-0.044207282,0.22076868,-0.04415252,0.017670043,0.0063039465,0.2584714,0.16357172,0.0066347457,-0.07507028,-0.012508526,0.57295734,0.2897077,-0.07085954,0.093363725,0.23121628,0.104693264,0.11815914,0.17940632,-0.0496061,0.214568,0.38303334,0.024204878,0.017799303,0.08519099,-0.0014173351,0.17284256,0.11070339,0.072251104,0.1924281,0.39111203,0.37808934,0.19868462,0.34139854,0.25964814,-0.06651835,0.054475155,-0.06893277,0.037058495,0.1509544,0.13654506,-0.09014707,0.18347153,-0.03353562
ATVI,0.27481842,-0.042861417,0.011814839,0.04566787,0.30112344,-0.03817545,0.15823345,0.19446436,-0.06305284,-0.039454464,-0.02624932,0.09475354,-0.08787439,0.22776172,-0.014242627,-0.06343726,-0.055979334,0.37009573,-0.048547443,0.16604856,-0.029371735,-0.061476383,0.4348199,0.2794561,0.31938964,0.19046028,0.28051642,-0.009793064,-0.104369365,0.24683884,0.08645542,-0.028257737,0.20524311,0.1314431,-0.0033319741,0.20634666,-0.030658517,-0.035328247,0.31036648,0.076809675,0.13250533,0.17367132,-0.08153966,0.13134049,-0.07831156,0.23737034,-0.030797498,0.22564133,-0.039006684,0.42539853,0.015955925,0.2925341,0.12436001,-0.09915979,0.17677948,0.18452127,-0.02555266,-0.05492495,0.21741429,-0.046423912,-0.036590286,0.0071906736,0.26060024,0.16485101,0.0582883,-0.049115494,-0.030834064,0.37269014,0.29435012,-0.0581135,0.08517893,0.2292854,0.108133405,0.12477729,0.18214141,-0.03465563,0.21303248,0.2217911,0.019729303,0.046009183,0.090094894,0.0023674686,0.17668383,0.112915665,0.08483147,0.22059762,0.39265475,0.26624662,0.1974479,0.33790085,0.2582905,-0.062915266,0.023328017,0.06197893,0.035907924,0.1504247,0.14132735,-0.07980774,0.19224396,-0.029453378
AVB,0.2775269,-0.018532004,0.011000117,0.04501073,0.4137375,-0.022205539,0.2678086,0.1893663,-0.039869778,-0.044219557,-0.012353726,0.093215816,-0.09359996,0.22615549,-0.0103215575,-0.06298539,-0.049073473,0.4919891,-0.043278612,0.1619459,-0.041894108,-0.05569861,0.55124164,0.40300545,0.31884423,0.18577091,0.2848424,-0.015729763,-0.11917923,0.24620032,0.08810201,-0.0069640726,0.20684698,0.12807167,0.035430003,0.3060313,-0.047686845,-0.04114543,0.43995655,0.1238206,0.15635511,0.17002422,-0.09010382,0.13279021,-0.08270028,0.35774362,-0.027274866,0.24375619,-0.06197796,0.42466804,0.082251586,0.28938282,0.12275065,-0.101134315,0.17862484,0.18204331,-0.040607512,-0.044599913,0.21784511,-0.04579159,-0.003699774,0.012961237,0.2583991,0.16868722,0.0305973,-0.05702538,-0.020524234,0.4922319,0.29326785,-0.066979535,0.08295746,0.23086283,0.10687389,0.12024957,0.17914516,-0.04392369,0.21485102,0.331324,0.024561532,0.031109946,0.089022994,0.007216206,0.17230476,0.11542616,0.0737592,0.32544398,0.3911579,0.3238147,0.19712836,0.3410321,0.26218998,-0.06048114,0.027273439,0.01087407,0.035921138,0.15123573,0.13777554,-0.09281385,0.1896115,-0.032884456
AVGO,0.28048468,-0.01371683,0.017460046,0.04598188,0.52012736,-0.023845877,0.34099376,0.19135906,-0.02227176,-0.041232213,-0.021936793,0.09885208,-0.08378793,0.22826155,-0.0089471415,-0.06402494,-0.013489887,0.643141,-0.043185156,0.16426806,-0.03048836,-0.047593396,0.7273234,0.513979,0.32940114,0.19135758,0.28188443,0.0029168501,-0.09858199,0.24858654,0.086543605,-0.0016453192,0.20581639,0.13402247,0.045816816,0.39552343,-0.028590322,-0.028646499,0.50960547,0.1622759,0.2002369,0.17081386,-0.07607255,0.13094042,-0.07331909,0.48603866,-0.027681287,0.2368617,-0.033359822,0.42315358,0.14146595,0.29511827,0.12355344,-0.098264396,0.17400272,0.19276659,-0.025925323,-0.046123534,0.22148396,-0.045406766,0.020792672,0.019643027,0.26188278,0.17314017,0.06829654,-0.040156737,-0.0062407553,0.5736707,0.2981922,-0.052645832,0.08672339,0.23783094,0.11070511,0.12794136,0.17991185,-0.03385005,0.21854956,0.3940989,0.019470459,0.055938154,0.089754194,0.015437851,0.17777964,0.11285749,0.07881071,0.4152028,0.39212233,0.3858772,0.1976152,0.34469935,0.2599697,-0.058703672,0.064593814,0.07829559,0.037338108,0.15101454,0.14325273,-0.07528024,0.18794228,-0.030480493
AVY,0.2763683,-0.030919997,0.0114184525,0.043205865,0.36174136,0.00063350983,0.49567243,0.18981017,-0.0067707635,-0.04079119,-0.017438114,0.094534054,-0.07479627,0.22629155,0.006113529,-0.05440554,0.0116491765,0.4104993,-0.046879392,0.16200297,-0.040228803,-0.045796968,0.4595018,0.703436,0.31819594,0.18570556,0.28215936,-0.04006066,-0.052026924,0.2458894,0.08885011,-0.013061624,0.2049236,0.13267416,0.044844665,0.5740579,-0.06768106,-0.03949928,0.6761186,0.10416825,0.2744146,0.17125593,-0.07912086,0.131191,-0.085745275,0.29677263,-0.031772252,0.24071199,-0.060690533,0.4217764,0.2942533,0.2889439,0.1239836,-0.08239445,0.17868784,0.18588434,-0.008827104,-0.045926478,0.21859702,-0.044780605,0.059056353,0.011663636,0.25979334,0.16954677,0.021060305,-0.06910761,0.043862954,0.7260643,0.29157206,-0.068724066,0.1071286,0.23088834,0.11573425,0.12193659,0.1762544,-0.036017284,0.21292576,0.5043226,0.018980652,0.088277735,0.08916777,0.007377956,0.1765805,0.11017166,0.07448865,0.2654239,0.39497167,0.4891805,0.19606821,0.3386698,0.25899994,-0.056334633,0.1348744,-0.019959383,0.036548264,0.15045312,0.13920613,-0.06365381,0.18230668,-0.03240055
AWK,0.27661306,-0.032487117,0.010782837,0.042956434,0.27056578,-0.010221483,0.3778832,0.18877056,-0.016649172,-0.045233898,0.0025676936,0.09459395,-0.09454985,0.22601384,-0.019305587,-0.060875285,-0.02665703,0.30590788,-0.044600762,0.16210955,-0.042041168,-0.053570427,0.329616,0.54138726,0.3192297,0.18518431,0.28791243,-0.03660705,-0.09913932,0.2450486,0.086860925,-0.024653126,0.20940603,0.12971002,0.054232366,0.43501526,-0.07164835,-0.0381833,0.5649998,0.039342504,0.21872774,0.17094477,-0.08314395,0.12863523,-0.08226144,0.18243061,-0.03097318,0.2408115,-0.061298117,0.421962,0.1729753,0.2850633,0.12512875,-0.09746158,0.17504922,0.1788504,-0.048208274,-0.0431263,0.21865931,-0.04434654,0.031352963,0.0058403155,0.25875577,0.16387288,0.004008334,-0.0731474,-0.006532386,0.62646806,0.28912634,-0.06974597,0.08960073,0.22767696,0.10228751,0.11814342,0.18139105,-0.0451786,0.21445481,0.4225634,0.026372992,0.015800934,0.08741254,0.00012709759,0.1732784,0.11145254,0.07343236,0.18978162,0.38864553,0.40144378,0.19748613,0.33826762,0.25797155,-0.06284544,0.06686431,-0.06753897,0.03576526,0.14983623,0.13643032,-0.08332327,0.18085267,-0.033101004
AXP,0.27695075,-0.022569481,0.011816858,0.041481767,0.3843865,-0.0026365276,0.4727573,0.19039248,-0.01306108,-0.038206138,-0.01884865,0.09478237,-0.082591325,0.2262129,0.0056286156,-0.064434655,0.00430502,0.44454417,-0.042754453,0.16406158,-0.039467443,-0.054532472,0.5108829,0.66282815,0.32013777,0.19212839,0.28224227,-0.012669317,-0.06638863,0.2467515,0.08766076,-0.014725849,0.20667435,0.12943806,0.05797394,0.53740185,-0.053268373,-0.040663302,0.6493828,0.09691748,0.2698112,0.17292595,-0.074690305,0.13746548,-0.08199425,0.31037313,-0.032375425,0.23471716,-0.06263774,0.4198576,0.2628657,0.2952479,0.12218013,-0.08181263,0.17660566,0.18640596,-0.03586825,-0.04704722,0.21762016,-0.046869516,0.061734706,0.026238503,0.25960556,0.16744748,0.057439364,-0.058141846,0.031445034,0.7150657,0.29550385,-0.06255309,0.104610056,0.2320688,0.108085394,0.12249958,0.17731103,-0.039012976,0.21306244,0.48332575,0.017837591,0.08520842,0.090188675,0.0067674275,0.17457439,0.11426075,0.076652475,0.29283,0.39376548,0.47662726,0.19711319,0.34466287,0.26253104,-0.056959976,0.12035285,0.0036527887,0.04005739,0.14812079,0.1385674,-0.061251767,0.20409572,-0.030987138
AZO,0.27754894,-0.019118052,0.017675769,0.054382563,0.40887266,-0.033431582,0.21350636,0.19116962,-0.067328915,-0.038628124,-0.016790383,0.09621356,-0.08919443,0.22731197,-0.016261585,-0.059933856,-0.05372286,0.4886698,-0.050988816,0.16549344,-0.038663246,-0.053986564,0.5428579,0.33006275,0.32226092,0.18948206,0.28037176,-0.011994371,-0.10574367,0.24812001,0.08698669,-0.002788037,0.20372885,0.13171494,0.004465997,0.25581917,-0.046821654,-0.032626644,0.36155516,0.11312774,0.16504493,0.16527343,-0.083747745,0.1293993,-0.080928504,0.34196544,-0.034799557,0.2332663,-0.0391413,0.41507074,0.05130347,0.2871117,0.122141406,-0.09248571,0.17246592,0.17986509,-0.024906687,-0.04825328,0.21794353,-0.046175107,-0.032505006,0.009705076,0.27158916,0.17385799,0.022775766,-0.053353284,-0.01326634,0.4258878,0.2944048,-0.046349674,0.096564114,0.23165081,0.109043315,0.12361711,0.18236208,-0.04049764,0.21093708,0.26068896,0.019741962,0.042506106,0.08746299,0.00821832,0.17422651,0.11397363,0.08527985,0.316925,0.39022326,0.30272663,0.19449203,0.33741024,0.2534397,-0.063449726,0.037369944,0.048496425,0.035124414,0.15018587,0.13772166,-0.08657755,0.18994133,-0.023653798
BA,0.27750644,-0.0018231431,0.019361965,0.046422876,0.59557676,-0.0043656006,0.4577086,0.19218893,0.0191571,-0.03219387,0.016693018,0.09600325,-0.08808514,0.22634482,0.0070458055,-0.066438496,-0.024416551,0.74888575,-0.018140353,0.16688094,-0.03425368,-0.0361714,0.8521992,0.62136686,0.34751952,0.19329908,0.28309274,0.010440566,-0.07698743,0.2516153,0.08909645,0.009583393,0.20373037,0.13155295,0.07170233,0.5175497,-0.03045249,-0.024244718,0.65966725,0.17739482,0.27033255,0.17088893,-0.055893376,0.14254335,-0.079853,0.5596991,-0.026945425,0.24751799,-0.037731674,0.43369892,0.2506767,0.2964557,0.12460881,-0.08596646,0.19250888,0.19112542,-0.040495563,-0.04783011,0.22489786,-0.053446166,0.062028777,0.030731004,0.26153305,0.17783697,0.06824916,-0.015496617,0.023180678,0.71811837,0.31133223,-0.061994232,0.10885879,0.23879749,0.11780217,0.12872082,0.17977107,-0.034249283,0.21666874,0.49520802,0.02011487,0.041003235,0.09613277,0.02105261,0.1787689,0.115848176,0.07974037,0.46630988,0.39572328,0.44036955,0.19804913,0.34549314,0.26460105,-0.049496647,0.09707489,0.12050943,0.040074803,0.14785694,0.14225425,-0.060951464,0.19466871,-0.031101137
BAC,0.27938664,-0.023703346,0.017494338,0.04297268,0.43616086,-0.011214748,0.4264344,0.19073527,-0.02282796,-0.0410037,-0.023064427,0.09509532,-0.08508076,0.22624996,-0.0065293387,-0.06439577,-0.021579683,0.5204357,-0.045392253,0.1637948,-0.038557,-0.057163082,0.58462274,0.59618044,0.32137352,0.18596488,0.2829205,-0.016448759,-0.07732294,0.24508499,0.089050904,-0.0051782466,0.20538682,0.13144468,0.038641255,0.4693587,-0.056380425,-0.033153266,0.6067847,0.13597246,0.23493052,0.1740691,-0.08451423,0.13770619,-0.08165346,0.3796528,-0.028548116,0.24755569,-0.0593391,0.42388654,0.21366513,0.29124516,0.12588747,-0.08789642,0.18560079,0.18536882,-0.036119767,-0.0470806,0.21899751,-0.047554545,0.034059748,0.017183254,0.26028633,0.16962057,0.056851313,-0.054401897,0.011481181,0.65579426,0.29487628,-0.06095828,0.099027365,0.23285113,0.109993495,0.124792345,0.1779125,-0.03351096,0.21438906,0.4458723,0.01595359,0.03306007,0.090001166,0.007912135,0.17623623,0.11075993,0.077335194,0.33781904,0.39041424,0.4374127,0.19702746,0.34212112,0.26314807,-0.05890964,0.091242924,0.011810534,0.0384352,0.14924045,0.13948894,-0.06535237,0.18858232,-0.031431455
BAX,0.2773382,-0.041008424,0.009854997,0.041692946,0.3525393,-0.027516525,0.254834,0.19030982,-0.04761983,-0.040571176,-0.014431566,0.09393108,-0.09050821,0.22617891,-0.015926667,-0.06186247,-0.044622853,0.40884942,-0.050571054,0.16271982,-0.037146594,-0.057688735,0.4580085,0.38625568,0.31619847,0.18615612,0.28083274,-0.031508557,-0.116424784,0.2460861,0.08600031,-0.019520598,0.20570539,0.13092595,0.032924257,0.2960269,-0.044152386,-0.04786254,0.4110824,0.099149816,0.16630535,0.16986644,-0.08724965,0.13054901,-0.08354755,0.29486528,-0.032202885,0.23871078,-0.0625145,0.42156062,0.0661199,0.28741476,0.12172347,-0.09789215,0.17170799,0.18152732,-0.032732993,-0.04794792,0.2184252,-0.04501503,-0.011254252,0.011302224,0.2594219,0.16180766,0.023938008,-0.052001458,-0.025787622,0.48483393,0.29267824,-0.06679107,0.080560036,0.23068942,0.10777215,0.12033491,0.18060315,-0.040031478,0.21496668,0.30376548,0.019067014,0.053867046,0.08956303,0.0020928811,0.17407784,0.109241255,0.07428379,0.25870413,0.38861686,0.325288,0.19646665,0.33935907,0.25944394,-0.06767915,0.028154895,0.0074271113,0.03760746,0.14916256,0.13971907,-0.09969251,0.19106871,-0.032269035
BBWI,0.2799856,0.035061814,0.019180907,0.04836621,0.6203848,0.050898664,0.75132775,0.20432633,0.064200275,-0.042318992,-0.00023545325,0.09798694,-0.007659115,0.22343393,0.055917963,0.049869172,0.12670286,0.80382407,-0.017914832,0.16630557,-0.027960805,-0.018830176,0.91090006,1.0403061,0.34030163,0.1936363,0.28875753,0.020936405,0.06665398,0.24909921,0.095443375,0.05400549,0.21267352,0.13541597,0.077802464,0.9187885,-0.008541785,-0.0020379797,0.9464091,0.18779159,0.3583054,0.17063087,-0.057702616,0.14376146,-0.07462831,0.59676325,0.0033186711,0.24961956,-0.013774302,0.43430585,0.63332677,0.30042735,0.12987141,-0.07559811,0.18681091,0.19402897,-0.018085677,-0.045746394,0.22557059,-0.036963508,0.144968,0.03394232,0.26658162,0.1873974,0.08807248,0.026840214,0.13280728,0.9736271,0.30848837,-0.03681942,0.11599036,0.24716248,0.112128526,0.13875334,0.18565917,-0.020873778,0.2188008,0.7189159,0.021218602,0.066502534,0.09353371,0.023459403,0.18572646,0.11874462,0.09787637,0.484619,0.39607716,0.6082301,0.19705322,0.34543988,0.2684639,-0.041609816,0.25656044,0.16175312,0.040323716,0.14793783,0.1457285,0.022589957,0.1990222,-0.024046335
BBY,0.28241217,-0.03691768,0.011529619,0.04675297,0.40706044,-0.017772835,0.35449594,0.19013315,-0.03667865,-0.03914401,-0.021765593,0.09439147,-0.07549149,0.22514725,-0.0071780756,-0.06782925,-0.029943436,0.4908561,-0.022342384,0.16499862,-0.03431492,-0.05903531,0.54121625,0.5119302,0.32387295,0.18845928,0.28693748,-0.015119597,-0.075962454,0.2480216,0.091072775,-0.014096953,0.20819741,0.13753597,0.020827636,0.4023733,-0.04781327,-0.0323534,0.51659846,0.11186448,0.22277069,0.17318408,-0.07121583,0.13052931,-0.08124323,0.3591116,-0.02934521,0.23654705,-0.05692704,0.41950417,0.16453853,0.28921425,0.12462712,-0.089638084,0.1739845,0.18349673,-0.014405032,-0.04616015,0.22136883,-0.048152693,0.0074899485,0.022180475,0.26421094,0.16674797,0.048103336,-0.05294969,0.014970019,0.5781598,0.29362953,-0.054920223,0.09197446,0.23222698,0.11105144,0.12618335,0.17276582,-0.021692008,0.21395117,0.3808214,0.01771414,0.03994059,0.09218643,0.0021248944,0.17520647,0.11305626,0.078611895,0.31221986,0.39494962,0.39631996,0.19486731,0.33804423,0.2581189,-0.06367739,0.07487326,0.015849538,0.03745875,0.15179986,0.14034769,-0.08002958,0.1894036,-0.031239172
BDX,0.2766817,-0.041160252,0.013770436,0.04585988,0.27776778,-0.029589215,0.23392048,0.19215396,-0.05108707,-0.0349627,-0.01854096,0.093238026,-0.09262339,0.22586538,-0.020392962,-0.06315142,-0.05174771,0.3182316,-0.049879875,0.16268793,-0.040675018,-0.06164234,0.34447676,0.36809587,0.3265459,0.18611586,0.28187227,-0.042854276,-0.11635384,0.24632742,0.087507345,-0.024353612,0.20555077,0.13137701,0.025357429,0.27797207,-0.072221376,-0.042957984,0.40209737,0.058662217,0.15385962,0.16915077,-0.08629236,0.12768695,-0.08111734,0.20612122,-0.029705733,0.23832917,-0.062310997,0.41967887,0.060503572,0.28926858,0.1224003,-0.09889613,0.17401084,0.18172127,-0.038075566,-0.048014253,0.22434704,-0.04119695,-0.011883985,0.0047008935,0.2581504,0.16330025,0.004510343,-0.06636038,-0.030734822,0.46313617,0.28941423,-0.06717781,0.07584739,0.22799137,0.108453,0.121664494,0.18010442,-0.04000805,0.2126141,0.29453284,0.02183617,0.019827321,0.08820681,0.006371241,0.1720348,0.109489515,0.07633795,0.20091105,0.38821813,0.31388816,0.19552435,0.33882076,0.2573281,-0.06664274,0.024633586,-0.05629828,0.036925197,0.15033582,0.13684793,-0.101195596,0.1842833,-0.03275498
BEN,0.27777597,-0.03010427,0.013734886,0.045311566,0.36149243,-0.033756424,0.2911231,0.19050969,-0.0393215,-0.040339697,-0.014937893,0.094262324,-0.091817275,0.22579667,-0.016228534,-0.066281855,-0.042577446,0.4021833,-0.048694775,0.16370113,-0.03739815,-0.05037409,0.45884466,0.4272804,0.32039297,0.18731745,0.28337425,-0.017057162,-0.104450785,0.24609046,0.087804064,-0.01766708,0.20458107,0.13141254,0.031922862,0.3259695,-0.04856719,-0.040589005,0.45504528,0.083863,0.1850895,0.1702831,-0.08478254,0.13585855,-0.08208792,0.2662805,-0.030117575,0.24328206,-0.050458558,0.4250116,0.10172592,0.2947807,0.121036544,-0.09889807,0.17803557,0.18218224,-0.03587406,-0.045779504,0.22251979,-0.04790952,0.0026440984,0.010378459,0.26013666,0.16695477,0.024643892,-0.062153883,-0.020248584,0.51956,0.3002532,-0.06277083,0.0919797,0.23471943,0.10754393,0.123060346,0.17653069,-0.04073097,0.21448967,0.33205214,0.018745774,0.037955288,0.088634774,0.002171129,0.17635387,0.11270649,0.0804554,0.24227941,0.3890725,0.35282505,0.19649115,0.34123635,0.25676104,-0.062230807,0.039644033,0.022027634,0.03742294,0.14883304,0.13958725,-0.088175625,0.18976252,-0.03164258
BIIB,0.2814553,-0.0055658105,0.017495548,0.07468505,0.6975684,0.08107667,0.8968989,0.18997967,0.067228936,-0.03353198,-0.008613098,0.10211331,0.029427134,0.22794285,0.0589429,0.08552142,0.19239852,0.8835676,-0.012782693,0.16925201,-0.025602894,-0.014970304,1.0268091,1.2217741,0.35197428,0.19871894,0.2800124,0.03748519,0.09608033,0.24585569,0.08656,0.04221907,0.20701158,0.13191764,0.08673772,1.0481787,-0.010091625,-0.00022970885,1.0911976,0.24146989,0.39312682,0.17176974,-0.014980104,0.14377844,-0.07365912,0.68490326,-0.021828761,0.25580066,-0.030443512,0.42440432,0.7327348,0.28972796,0.14084439,-0.08612352,0.1812279,0.19137327,0.030170634,-0.05217796,0.23041788,-0.018009149,0.20720857,0.017884588,0.264608,0.18357477,0.11916648,0.065770954,0.12699142,1.1124568,0.3198275,-0.024900671,0.10836798,0.25499457,0.10654202,0.14366117,0.18033522,-0.0027299002,0.23036376,0.82689774,0.023183994,0.19703369,0.10506891,0.019282378,0.18398009,0.123866566,0.0787856,0.54624647,0.3906476,0.68268925,0.19613633,0.34038734,0.27548468,-0.036158778,0.28182858,0.27164432,0.046154547,0.15239528,0.14689073,0.061480608,0.24005988,-0.025302533
BIO,0.27732986,-0.056741904,0.016479451,0.044019226,0.2488865,-0.041562438,0.42671493,0.19205415,-0.0065895123,-0.0355307,-0.02391506,0.09600514,-0.06240681,0.2281819,-0.021059945,-0.062396593,-0.0041517615,0.24493289,-0.025642201,0.1683862,-0.03864733,-0.05708509,0.28273088,0.5148897,0.31741107,0.19311352,0.27845013,-0.041709006,-0.05473221,0.24746768,0.08381571,-0.038761906,0.20205674,0.13426796,0.020043295,0.38509858,-0.06029716,-0.058823816,0.5258336,0.036553223,0.21117568,0.1692281,-0.068886094,0.13964844,-0.08255233,0.15248494,-0.027857296,0.23250417,-0.061762817,0.417274,0.2104342,0.29265285,0.1253786,-0.09796682,0.1750044,0.18396671,0.00741655,-0.04688118,0.21966039,-0.04406008,0.0019197781,0.0024696104,0.26078513,0.1595107,-0.014424905,-0.06332152,-0.0018566027,0.5266701,0.29587835,-0.064079486,0.085268386,0.23029849,0.10724832,0.12594835,0.18043517,-0.009314302,0.21334139,0.36575788,0.023297522,0.09739878,0.09223706,-0.006410051,0.18130311,0.11132129,0.07576148,0.15084365,0.38871294,0.3479945,0.19672635,0.33695677,0.25954857,-0.06366017,0.07311305,-0.07255642,0.037328973,0.15086937,0.14973687,-0.10278389,0.20709029,-0.03000093
BK,0.27852133,-0.027004138,0.0118211135,0.043636966,0.402788,-0.012367303,0.36955324,0.19066575,-0.032846943,-0.036407746,-0.020881906,0.09367686,-0.09048279,0.22694528,-0.020097405,-0.06456171,-0.02971194,0.47973496,-0.04459822,0.16377953,-0.037125736,-0.056142308,0.535995,0.53296477,0.32118472,0.18861224,0.27576748,-0.021054015,-0.0991324,0.24668357,0.09001639,-0.011334263,0.20733327,0.13078295,0.034445096,0.41857466,-0.05414613,-0.0355544,0.54705364,0.11542751,0.21020335,0.17015612,-0.08541758,0.13524804,-0.08594338,0.3338364,-0.032405697,0.23388983,-0.058659825,0.41885945,0.16892025,0.28918964,0.12360147,-0.09533586,0.17624445,0.18341091,-0.03121662,-0.045821905,0.22097543,-0.04596489,0.020531766,0.0155638475,0.25976294,0.16592708,0.03973233,-0.05411288,0.005435638,0.59744763,0.29090434,-0.066446155,0.09231132,0.23625551,0.10435067,0.12620005,0.17689417,-0.043491073,0.21203408,0.40496233,0.012899627,0.060972735,0.08781019,0.0036614947,0.17692399,0.11096679,0.07534072,0.3060485,0.3911274,0.39939743,0.1970665,0.3426253,0.2598894,-0.061397135,0.07283509,-0.0006423518,0.035160914,0.14890648,0.14306897,-0.07990991,0.20011291,-0.029475577
BKNG,0.27809078,-0.03530409,0.011047633,0.05277147,0.29733428,-0.019130591,0.4065161,0.19048305,-0.041275367,-0.035069928,-0.012692757,0.095949784,-0.08561395,0.22660401,-0.009286322,-0.06271377,-0.018371172,0.33547837,-0.043346997,0.16460133,-0.038249757,-0.054988854,0.37275708,0.58927524,0.32104516,0.18795185,0.27798355,-0.040378913,-0.09724335,0.24679837,0.0860021,-0.021928404,0.20505987,0.12942629,0.045344993,0.4562066,-0.056355502,-0.05189375,0.58704126,0.067136735,0.24053845,0.16860327,-0.07877886,0.13173003,-0.08491493,0.22071703,-0.033545844,0.23632461,-0.064019255,0.42109436,0.18248418,0.2901994,0.121848926,-0.09050015,0.17630222,0.18166646,-0.024659693,-0.047631264,0.21995206,-0.049770176,0.044389077,0.0102403015,0.26251826,0.16585442,0.012956161,-0.047636103,-0.004381545,0.6524322,0.29790157,-0.06254663,0.08983912,0.23442411,0.11275725,0.119590685,0.17745239,-0.036324997,0.21412984,0.43729898,0.021787565,0.06837486,0.08885558,-0.0012772474,0.1758778,0.110720605,0.07769056,0.21059206,0.39532423,0.4335846,0.19678283,0.34024057,0.26021796,-0.06222862,0.06037798,-0.0069110617,0.03610445,0.1460322,0.14347076,-0.07090674,0.18398225,-0.031915136
BKR,0.27667132,-0.009994451,0.015965082,0.048533134,0.56877065,0.0058686044,0.45403636,0.1910925,-0.015568335,-0.035092153,-0.01623296,0.0946952,-0.0871543,0.22474694,0.005410418,-0.06324224,-0.009930372,0.7104233,-0.044768006,0.16502808,-0.03429989,-0.05059729,0.806118,0.6357612,0.3319624,0.19106597,0.2779658,0.009715095,-0.05979429,0.24711198,0.083881125,-0.007279301,0.20137802,0.13734376,0.0420148,0.5113855,-0.043036044,-0.03486926,0.6388445,0.17728753,0.25369185,0.17204095,-0.07865494,0.13296539,-0.08217339,0.5470412,-0.025792873,0.23323764,-0.051998276,0.4278351,0.25170532,0.29033622,0.12585166,-0.088182665,0.1781047,0.19260629,-0.020942282,-0.048285894,0.22269663,-0.047360085,0.039776467,0.03161122,0.26567996,0.17676066,0.107456625,-0.040118005,0.035160765,0.69519705,0.29566458,-0.055814918,0.09501992,0.23316133,0.118938535,0.12938038,0.17386422,-0.036076736,0.21385501,0.46768534,0.020223785,0.044963315,0.09019276,0.020383205,0.18119118,0.11432436,0.07879318,0.44574058,0.3926686,0.45744085,0.19449526,0.3465479,0.26293647,-0.05960182,0.10767678,0.11793402,0.035248376,0.15009284,0.1440292,-0.058824986,0.1922765,-0.028823067
BLK,0.27838144,-0.03709191,0.012205109,0.043082792,0.3812894,-0.024469908,0.26391461,0.18926516,-0.039349493,-0.039499085,-0.021345489,0.0943744,-0.08926163,0.22615626,-0.0038731098,-0.06325865,-0.04500775,0.45385063,-0.053958956,0.16209602,-0.035818834,-0.05112227,0.50404644,0.39694172,0.31937167,0.18754561,0.28083703,-0.028517008,-0.11231409,0.24874367,0.08716669,-0.011160709,0.2048955,0.12877297,0.021677054,0.296251,-0.05445846,-0.042524472,0.41044748,0.107871845,0.18657117,0.17134793,-0.08605845,0.13199283,-0.08413161,0.3242596,-0.032135025,0.24268351,-0.06405015,0.4264092,0.080273494,0.2954912,0.12348787,-0.08983642,0.1767576,0.18124753,-0.038871236,-0.046904754,0.21797341,-0.04723967,-0.0070249224,0.014536511,0.2612118,0.16403922,0.020816788,-0.0696021,-0.009031609,0.48207444,0.29155093,-0.06422052,0.09944271,0.23273955,0.11080514,0.12416516,0.18005918,-0.039970405,0.21334863,0.30594486,0.017514892,0.040973846,0.08724277,0.0033948366,0.17584687,0.110445194,0.07495009,0.29087093,0.3914547,0.33884484,0.1975985,0.3408394,0.25741857,-0.06075824,0.05438806,-0.015165821,0.036855046,0.14875434,0.1388167,-0.09472273,0.18581727,-0.030951446
BLL,0.2765056,-0.045825135,0.013457527,0.043023102,0.30355695,-0.03328569,0.26525015,0.19002876,-0.021713048,-0.037930146,-0.021359548,0.09590417,-0.087905586,0.22729376,-0.017023347,-0.06282409,-0.048976034,0.33847988,-0.0439785,0.16403368,-0.039557967,-0.06333324,0.3750888,0.29522792,0.3140049,0.18609779,0.28509116,-0.03353683,-0.10392821,0.24505122,0.085567944,-0.02827824,0.20697314,0.1327978,0.005858645,0.21651053,-0.060444444,-0.04014215,0.3231567,0.06619978,0.12766092,0.17022018,-0.078462295,0.12988178,-0.083144024,0.2317076,-0.027179653,0.22956625,-0.061966114,0.41861713,0.096432716,0.28754187,0.12227156,-0.1012286,0.17676665,0.18309654,-0.011169545,-0.04786656,0.2191536,-0.044579312,0.005209516,0.0071163867,0.26064247,0.16168953,0.004202772,-0.06743312,-0.019386038,0.38787895,0.28990355,-0.06329475,0.087129205,0.2350904,0.10847767,0.12037337,0.17906153,-0.03583342,0.21172231,0.23963894,0.018855624,0.09497343,0.087925136,-0.0016583707,0.17499496,0.11304963,0.07523404,0.21590874,0.3932504,0.27042946,0.19697484,0.33641395,0.25810596,-0.0636584,0.014771465,-0.018262304,0.037923772,0.15087187,0.1403884,-0.100195944,0.1843029,-0.030426513
BMY,0.27802622,-0.058314145,0.014351686,0.045094173,0.2826309,-0.044208914,0.056351565,0.18926233,-0.07577825,-0.039215676,-0.030449808,0.09450584,-0.08981234,0.22610253,-0.016923599,-0.064951584,-0.058317475,0.4552126,-0.05374661,0.1616832,-0.038613398,-0.06649891,0.5404233,0.14947017,0.3126206,0.18887328,0.28217298,-0.027786888,-0.114615925,0.24737352,0.088959895,-0.017622333,0.20647472,0.13372383,-0.021977376,0.10003564,-0.04143772,-0.0387019,0.19085386,0.1246784,0.059909306,0.17060383,-0.08761849,0.12863986,-0.071824566,0.30117974,-0.029882831,0.22941284,-0.055204526,0.4164217,-0.03811697,0.286588,0.124688275,-0.10357207,0.17280607,0.18086635,-0.037088837,-0.04775882,0.21601193,-0.049986087,-0.055059448,-0.0011191536,0.26522696,0.16041484,0.06258353,-0.04815782,-0.04502452,0.24894957,0.28592625,-0.055625383,0.07779239,0.22916123,0.107532695,0.11955463,0.17706338,-0.03533931,0.22920659,0.14071132,0.01884192,0.043349896,0.08819313,-0.0053218063,0.17498405,0.11155803,0.08216824,0.24412204,0.38661793,0.18002881,0.19614738,0.33772945,0.2551253,-0.068709314,-0.013337858,0.08735514,0.037161373,0.14803384,0.1400236,-0.09947731,0.18770498,-0.029368509
BR,0.2764076,-0.043621905,0.011885158,0.043309387,0.2194939,-0.03090572,0.25777528,0.1872374,-0.017918646,-0.03697853,-0.021879733,0.09382731,-0.089157745,0.22788864,-0.019141942,-0.064101346,-0.051973976,0.27348986,-0.045959424,0.16472079,-0.03586161,-0.06395805,0.3181481,0.37292022,0.31458992,0.18781334,0.28423777,-0.02768146,-0.10555508,0.2452737,0.088118784,-0.0445674,0.20613346,0.13305967,0.010232527,0.28266466,-0.042842172,-0.037970047,0.39432222,0.05483898,0.15964872,0.1709082,-0.08278938,0.12734915,-0.084745705,0.1265106,-0.028516592,0.22964026,-0.05314859,0.41968602,0.09499976,0.28461254,0.12311031,-0.095935136,0.17191587,0.18137452,-0.008544646,-0.046708155,0.21631938,-0.04323414,0.0066440115,0.0043056775,0.25905818,0.16212873,0.010976625,-0.06722844,-0.016601413,0.4581331,0.2918461,-0.06200859,0.08832366,0.22940168,0.10643956,0.11824455,0.18054795,-0.0369486,0.21305665,0.29420194,0.019550279,0.09547744,0.08929089,-0.0016746875,0.1755032,0.110745594,0.071955875,0.1401594,0.3885363,0.3190458,0.19732422,0.3382565,0.2560382,-0.06375121,0.03711352,0.021106109,0.036348224,0.15209627,0.13998103,-0.10130383,0.18724331,-0.032856144
BRO,0.27618325,-0.054085303,0.010860301,0.042683784,0.24673945,-0.032059453,0.25022504,0.18781193,-0.062160347,-0.03923234,-0.021485135,0.09503576,-0.094638646,0.22642669,-0.01752121,-0.061767295,-0.049033463,0.26987785,-0.05720377,0.16271085,-0.042607114,-0.06478098,0.2945728,0.38450736,0.3156969,0.18506034,0.28214014,-0.049240466,-0.1148328,0.2455809,0.0876188,-0.037394684,0.20465814,0.12650606,0.00561592,0.29090986,-0.07141604,-0.043969944,0.40476152,0.034720764,0.16975354,0.16845252,-0.08837291,0.12970726,-0.08562401,0.18293384,-0.030308109,0.23609044,-0.06679666,0.42014563,0.06942181,0.28532776,0.120658934,-0.09343737,0.17369924,0.18314461,-0.037354384,-0.048526943,0.21838081,-0.044933848,-0.014270382,0.0094641,0.2584328,0.16151205,-0.0038631652,-0.0720511,-0.012706503,0.47051352,0.2897443,-0.0667545,0.089276366,0.2289586,0.10853587,0.11881793,0.18221158,-0.043626852,0.21350789,0.2989658,0.020584766,0.018227817,0.08617149,-0.001052862,0.1725233,0.11084923,0.07296467,0.17399,0.38962322,0.33236963,0.19860539,0.33946744,0.25909105,-0.06567847,0.045601163,-0.076103255,0.036597803,0.14940654,0.13649917,-0.09755601,0.18457717,-0.033319432
BSX,0.27765673,-0.02549334,0.016416593,0.04594664,0.39634404,-0.03931649,0.14012675,0.19076726,-0.041575424,-0.02242915,-0.022993851,0.094957665,-0.08735944,0.2267117,-0.016694665,-0.06252709,-0.046211943,0.4658775,-0.050390717,0.16526961,-0.034184806,-0.05952267,0.52133286,0.23522183,0.31931537,0.19150095,0.28388268,-0.022153184,-0.10979083,0.25228012,0.08661208,-0.01090974,0.20585461,0.13009907,-0.018722408,0.17107303,-0.055620745,-0.04534556,0.26066506,0.10883677,0.11161516,0.17313667,-0.08712415,0.13000529,-0.07956032,0.32942158,-0.033382617,0.2331386,-0.062724605,0.42521936,0.015939545,0.28955555,0.123406634,-0.09940449,0.1752804,0.1809474,-0.019937847,-0.050104227,0.22484517,-0.046155974,-0.018343963,0.007444553,0.2663594,0.1656106,0.027941328,-0.060639776,-0.030060247,0.3285254,0.294847,-0.06154631,0.086048715,0.22938478,0.10606448,0.12246446,0.17869471,-0.03603167,0.21459024,0.1971784,0.024515368,0.07842325,0.08843887,0.004390985,0.17690013,0.11793956,0.07620674,0.2998551,0.39020008,0.23610073,0.19692053,0.3436356,0.25997114,-0.064474754,0.010537643,-0.0069988295,0.036689542,0.14856854,0.14293455,-0.094023645,0.19936189,-0.028059289
BWA,0.27728146,-0.042516984,0.016696228,0.045066092,0.29252166,-0.032308817,0.32859206,0.19138445,-0.030536462,-0.03943424,-0.018013239,0.0938179,-0.08648786,0.22579299,-0.018664047,-0.069416046,-0.030113816,0.31758192,-0.0440414,0.16437139,-0.037689336,-0.061763704,0.3582977,0.4895814,0.31509596,0.18825994,0.2818057,-0.036835156,-0.10730026,0.24994402,0.08782973,-0.03835075,0.20290284,0.1343221,0.039061937,0.37808725,-0.05364286,-0.03924259,0.5135089,0.048434157,0.20698759,0.17196558,-0.085011244,0.13632837,-0.080025315,0.2049102,-0.03144133,0.23471954,-0.05592678,0.42408174,0.13670352,0.28984216,0.12212848,-0.08786252,0.18095246,0.18432155,-0.03946611,-0.048735954,0.22011788,-0.04836662,0.013251481,0.0061683115,0.2643387,0.16525063,0.012571221,-0.06671927,-0.009275854,0.5637362,0.29767454,-0.05750446,0.09087226,0.23053187,0.117846504,0.12352189,0.16899179,-0.042128175,0.21351545,0.3774963,0.015368414,0.02839337,0.090714864,0.0023759417,0.17473307,0.111365505,0.0802549,0.20918272,0.39565736,0.3792435,0.19512108,0.33952776,0.26325485,-0.05444893,0.07203667,-0.021335438,0.03449861,0.15160061,0.13899843,-0.09658397,0.18922015,-0.027233316
BXP,0.27649722,-0.012289497,0.010481355,0.044037625,0.45236692,-0.016899532,0.44021168,0.18976629,-0.036648147,-0.045132145,-0.01832486,0.0929354,-0.092381924,0.22614972,-0.0054252893,-0.065149754,-0.0122743845,0.5505553,-0.04717676,0.16158037,-0.04227417,-0.05133395,0.6133214,0.6275657,0.32304218,0.18820561,0.28499278,-0.0067094266,-0.09178862,0.24628152,0.08822218,-0.0013409257,0.20661148,0.1281265,0.051816173,0.4918192,-0.04812011,-0.040126815,0.61552644,0.14181165,0.2565811,0.17276737,-0.076607585,0.13263825,-0.08567163,0.39928758,-0.029766846,0.24263157,-0.059787456,0.42388538,0.20897149,0.29150257,0.12398368,-0.08543672,0.17784266,0.17968522,-0.040586747,-0.047518507,0.21761066,-0.04859508,0.04987126,0.011441085,0.25900927,0.17143999,0.046647936,-0.051117774,0.006473288,0.68384343,0.29239184,-0.06516977,0.093826644,0.23704751,0.106644645,0.121986754,0.17586645,-0.042812176,0.21389405,0.45800766,0.02229711,0.030441314,0.088318944,0.010550609,0.17313339,0.11342524,0.075705044,0.35849968,0.39220107,0.4506498,0.1977163,0.34147826,0.25869298,-0.062258065,0.0704062,0.032118827,0.037308805,0.14959016,0.14022338,-0.06621357,0.18832082,-0.031003755
C,0.2794843,-0.013764636,0.01726535,0.04197428,0.5087447,-0.0006770175,0.43470827,0.19099243,-0.029614184,-0.034257796,-0.017389849,0.094149716,-0.087979585,0.2255274,-0.0032816753,-0.06473267,-0.022637844,0.6303064,-0.036145218,0.16410704,-0.03391163,-0.047671508,0.7117643,0.6090238,0.33083075,0.18749183,0.28158626,-0.0011080578,-0.08262945,0.24508236,0.08835887,0.0047988594,0.20563208,0.13099079,0.03555464,0.49571115,-0.04665959,-0.037262425,0.62647974,0.15851986,0.23564702,0.17173462,-0.08393912,0.1392535,-0.08252646,0.4666037,-0.030155394,0.23590614,-0.061423913,0.42895338,0.2291595,0.29149616,0.125254,-0.08721793,0.18894964,0.1858173,-0.041680023,-0.04888945,0.22223175,-0.049081005,0.035881214,0.02476541,0.2605065,0.17149518,0.076869756,-0.038259126,0.020733796,0.671968,0.2955063,-0.06033903,0.09767434,0.23504114,0.10753968,0.12830561,0.1783895,-0.039705828,0.21354803,0.46148607,0.017834637,0.037978686,0.09034105,0.013653927,0.1766968,0.112921484,0.07688596,0.40240902,0.3909739,0.43345723,0.19757755,0.34326306,0.26390883,-0.060614914,0.09805686,0.056583256,0.036750685,0.14817101,0.14073686,-0.06016139,0.18810207,-0.032278575
CAG,0.27808338,-0.046611764,0.012551402,0.044246413,0.31502858,-0.03914253,0.36971706,0.19074807,-0.02279935,-0.041911963,-0.020820308,0.09875384,-0.063381106,0.22745273,-0.01591923,-0.06546917,-0.012659743,0.50064445,-0.026566483,0.16667546,-0.03751883,-0.06412104,0.58720046,0.44325173,0.32300854,0.18527561,0.28570887,-0.016444206,-0.06873478,0.24648735,0.088530295,-0.011991562,0.20516002,0.13525361,0.007071987,0.33117867,-0.030047469,-0.033726495,0.46071044,0.12549174,0.19244784,0.16616684,-0.071509145,0.12770416,-0.074363604,0.3254645,-0.035121016,0.22648975,-0.051435538,0.41632593,0.16757548,0.28947502,0.129963,-0.101974666,0.17121126,0.18226022,-0.0020629223,-0.046396777,0.22432055,-0.040649794,-0.026978541,0.0029300172,0.2666698,0.1609251,0.06663431,-0.035412505,-0.011876151,0.46972647,0.29442787,-0.05899405,0.084459886,0.22638477,0.111224756,0.12981446,0.17502114,-0.016761262,0.23379171,0.31917617,0.019432183,0.02866474,0.09170598,0.00038258918,0.17886256,0.11177942,0.08135541,0.27302277,0.38720033,0.31191394,0.19632608,0.33653972,0.25465146,-0.06569733,0.059575036,0.11120685,0.048659623,0.15497506,0.14115055,-0.09261708,0.18497825,-0.023297232
CAH,0.27657884,-0.030924235,0.025648486,0.044925325,0.5096129,-0.032375604,0.28346473,0.19212596,-0.04972604,-0.03661384,-0.01813389,0.09515252,-0.09084226,0.22762759,0.015548483,-0.06684947,-0.043773524,0.75966495,-0.04838746,0.16390042,-0.01958973,-0.043105703,0.8680106,0.43021464,0.316667,0.19529402,0.28586483,0.038096927,-0.107456416,0.25750902,0.086747885,0.023694944,0.2056081,0.13344423,0.025442064,0.31179395,-0.0031180196,-0.0022457987,0.44816238,0.21833959,0.17574407,0.17208526,-0.08463745,0.13286832,-0.071676984,0.45408857,-0.03197473,0.23926502,0.017853111,0.42489395,0.090383224,0.29324192,0.120921746,-0.09790094,0.1812873,0.1837324,-0.039397206,-0.043856658,0.21963032,-0.047114477,-0.004879566,0.009480043,0.2820939,0.16643518,0.10291703,0.026696172,-0.019185506,0.50477415,0.29462448,-0.012098845,0.09218679,0.23334354,0.10733542,0.12290404,0.17682098,-0.04279322,0.21294,0.33055273,0.021469958,0.05192001,0.08841464,0.0002819039,0.17610171,0.11600447,0.09946808,0.36275443,0.3902729,0.34958935,0.19810371,0.33993748,0.25788346,-0.061723016,0.047413137,0.24482024,0.03734298,0.1507915,0.14002213,-0.02779559,0.19410817,-0.017464284
CAT,0.27799436,-0.032445334,0.014565957,0.04416797,0.36381537,-0.03995467,0.16078302,0.18938887,-0.07508158,-0.0383552,-0.017686717,0.094831795,-0.08487114,0.2279139,-0.019100882,-0.06439246,-0.057587363,0.43028724,-0.052109256,0.16263156,-0.034040958,-0.064906225,0.4738627,0.27738997,0.31764138,0.18753666,0.2807822,-0.018093325,-0.11177699,0.24963051,0.088519774,-0.026384542,0.20270728,0.13125595,-0.005646907,0.20511566,-0.061852068,-0.036203653,0.30358216,0.09149022,0.13385984,0.17253354,-0.08465378,0.13129537,-0.0819685,0.29722342,-0.03028634,0.23822504,-0.056201145,0.42168793,0.010068588,0.2904343,0.12202151,-0.097129986,0.17737663,0.18233365,-0.035070285,-0.04504217,0.21724713,-0.045792706,-0.041150246,0.004133014,0.26527742,0.16572356,0.03844866,-0.050573267,-0.024364151,0.3672079,0.29254186,-0.05929973,0.096650645,0.23422033,0.11608067,0.121920116,0.17920622,-0.03703578,0.21366651,0.22578922,0.015852872,0.031145606,0.08996016,-0.0003623236,0.17613849,0.11232422,0.08178981,0.276285,0.39293805,0.2665485,0.19718003,0.34099585,0.2590502,-0.06506714,0.02582661,-0.01258906,0.037318308,0.1501363,0.13982776,-0.099491045,0.18694714,-0.029464953
CB,0.27721146,-0.019884473,0.012931474,0.044675637,0.4508255,-0.030927932,0.18787006,0.18902718,-0.059691656,-0.03612377,-0.022069968,0.09360077,-0.09314811,0.22658445,-0.0141368285,-0.064459205,-0.053704128,0.5425091,-0.051227164,0.16290325,-0.03703663,-0.055832624,0.61375314,0.30979508,0.3231308,0.18519315,0.28198287,-0.0080442205,-0.11552307,0.2467633,0.08812617,-0.009859955,0.20444107,0.1292713,0.016212717,0.22170267,-0.053778067,-0.040674787,0.33829445,0.13286206,0.12016907,0.16897246,-0.09091603,0.1335521,-0.084997766,0.4015722,-0.030338433,0.24177374,-0.06418547,0.42244273,0.022274442,0.28868583,0.12223986,-0.10015253,0.17814453,0.18188515,-0.039976995,-0.046423823,0.21935166,-0.044860154,-0.02762567,0.011744167,0.2598917,0.17098239,0.052973174,-0.055793002,-0.030403651,0.39873156,0.29444414,-0.063770175,0.08412549,0.23441103,0.1073586,0.123534076,0.17832687,-0.041349627,0.21406804,0.25258547,0.02104617,0.023122719,0.08624686,0.00872414,0.17463893,0.11247956,0.07327307,0.35249394,0.39180484,0.27607653,0.19655615,0.338785,0.26148313,-0.060797423,0.013346668,0.029229611,0.039396524,0.15078759,0.13787603,-0.09229604,0.18699116,-0.031271253
CBOE,0.27558655,-0.028666627,0.01229184,0.047515895,0.3828856,-0.03348445,0.26736122,0.19347821,-0.04959736,-0.03568511,-0.021719363,0.094845936,-0.09197231,0.22768894,-0.011299826,-0.06375211,-0.046193413,0.45117408,-0.052961163,0.16256598,-0.03464499,-0.051802214,0.5159497,0.40439287,0.3261958,0.18905407,0.28189245,-0.008673763,-0.11324211,0.24835142,0.08966491,-0.020829104,0.20547424,0.13257113,0.014835324,0.31185886,-0.05108693,-0.030617354,0.42508298,0.1019955,0.18158533,0.16835742,-0.08854069,0.12967363,-0.0819229,0.3109812,-0.03021875,0.23510577,-0.061620638,0.420708,0.09153406,0.2884518,0.123123065,-0.100138694,0.17509834,0.18065782,-0.038094494,-0.047107354,0.2194269,-0.04534068,-0.0059509696,0.008284797,0.2614573,0.16944695,0.029358836,-0.050205678,-0.019508913,0.4920515,0.29203588,-0.06496841,0.08804558,0.23336145,0.108365566,0.12207644,0.17898223,-0.0404633,0.21365994,0.31742138,0.018405933,0.03903437,0.09058304,0.011213416,0.17459321,0.109029815,0.07963593,0.28977114,0.38656574,0.33740577,0.19566374,0.34115338,0.2555604,-0.05739148,0.043605067,0.028737225,0.037266467,0.1515022,0.14010179,-0.09444075,0.18441106,-0.03160358
CBRE,0.2781422,-0.022402927,0.011562133,0.044488482,0.42768517,-0.021830693,0.36121145,0.19004525,-0.031361442,-0.04013367,-0.014887087,0.09492737,-0.08972408,0.22639364,-0.008058257,-0.06670116,-0.037387103,0.5234942,-0.043877978,0.16368431,-0.037225682,-0.041270815,0.57961434,0.5309004,0.324728,0.18951607,0.28144664,-0.013442896,-0.09622499,0.24703585,0.0875561,0.005859997,0.20530295,0.13097437,0.03395294,0.3926022,-0.05093533,-0.042367846,0.5246849,0.117695704,0.2171407,0.17143041,-0.0859482,0.13375194,-0.0804483,0.3733515,-0.032629363,0.23836595,-0.059620693,0.42571336,0.1359566,0.2937488,0.12591463,-0.085059986,0.17951776,0.1835278,-0.037975278,-0.044687428,0.22180274,-0.04820835,0.025256883,0.018706009,0.2625494,0.16845095,0.033281703,-0.056932308,-0.002482608,0.59115255,0.29685238,-0.06675595,0.10260405,0.23482871,0.1092786,0.124234036,0.17448428,-0.039195716,0.21487686,0.38867196,0.020396609,0.020258803,0.09051511,0.011455316,0.17462866,0.11193818,0.0761686,0.3330892,0.39269763,0.4036326,0.19744019,0.34238383,0.26161012,-0.055935424,0.058052596,0.012522392,0.037367113,0.15006573,0.13825218,-0.07489935,0.1845251,-0.03137683
CCI,0.27844876,-0.045021635,0.013903126,0.043083157,0.35810181,-0.034124404,0.20812677,0.18908583,-0.053695694,-0.04285278,-0.017070308,0.093628146,-0.09288452,0.22618507,-0.013746984,-0.062364407,-0.051212877,0.41460192,-0.052074913,0.16342336,-0.03782261,-0.06607236,0.46426272,0.3362698,0.3214282,0.18648325,0.28645518,-0.030252472,-0.111858845,0.2473734,0.08770852,-0.02530492,0.20781374,0.12965262,0.0118920915,0.24483453,-0.066886015,-0.03840921,0.35502842,0.09877427,0.14642625,0.1687763,-0.085247874,0.12931241,-0.08506378,0.30157334,-0.029098902,0.24258459,-0.062475935,0.42313415,0.049095362,0.29028577,0.12641358,-0.09964357,0.17531767,0.1818671,-0.045860946,-0.045377158,0.21889232,-0.0438471,-0.020049488,0.013032354,0.26355702,0.16834065,0.024883768,-0.07169333,-0.028873846,0.41994753,0.29268342,-0.061802182,0.08697076,0.2286015,0.107578725,0.12021402,0.1793895,-0.040996224,0.21553898,0.2663375,0.023454458,0.023398798,0.08833332,0.0037704501,0.17349735,0.11106737,0.07501697,0.27420035,0.3891899,0.30066645,0.19694531,0.33982584,0.2571034,-0.06252408,0.026730303,-0.023290455,0.036091298,0.15041855,0.1373269,-0.101340756,0.18395141,-0.030347748
CDNS,0.27672812,-0.039110877,0.01298435,0.042356484,0.3597939,-0.033981055,0.3882429,0.19118881,0.012576082,-0.039368127,-0.019998387,0.09464979,-0.073524415,0.22783592,-0.018634759,-0.06336371,-0.018149003,0.4155946,-0.029314913,0.16433573,-0.034148537,-0.0624561,0.46875864,0.45365536,0.31978276,0.18718237,0.28095138,-0.029973969,-0.083446085,0.24619189,0.08342925,-0.024814062,0.20468368,0.13420415,0.015721247,0.32655638,-0.052010838,-0.048970744,0.46914342,0.09714502,0.182982,0.17209569,-0.06700455,0.13604179,-0.08200929,0.29677942,-0.028888078,0.23802263,-0.06250105,0.4223585,0.18627505,0.2901434,0.12411547,-0.09275177,0.17646758,0.1817012,0.008956366,-0.047154717,0.21990696,-0.04609532,0.041355945,0.009198505,0.26005375,0.16644508,0.025197146,-0.06621485,-0.004150167,0.49186522,0.29493815,-0.06601688,0.09211885,0.23535131,0.10725904,0.1214553,0.18025719,-0.024076559,0.21412297,0.3106216,0.018587789,0.118506394,0.08931619,0.0033286437,0.176269,0.11343169,0.07730627,0.27455077,0.39226905,0.3434624,0.1959208,0.3402881,0.26059526,-0.06272452,0.051125735,-0.026233122,0.035752986,0.15068966,0.14032808,-0.0963999,0.20584065,-0.02872463
CDW,0.2755043,-0.034645267,0.012116131,0.044174127,0.38051686,-0.027651107,0.2910187,0.19152048,-0.015163041,-0.040518902,-0.018092982,0.09573236,-0.08054861,0.22684035,-0.0073233917,-0.06453515,-0.049060486,0.45021924,-0.049057353,0.16638327,-0.03825044,-0.053981237,0.500989,0.3732813,0.31855693,0.19135655,0.28128776,-0.025064737,-0.10395694,0.24603103,0.08619637,-0.008935869,0.2040876,0.12980422,0.012741808,0.28808227,-0.061376397,-0.04808727,0.41858453,0.1046398,0.16107817,0.17281199,-0.07862261,0.13197856,-0.08260556,0.31366146,-0.032849617,0.23520704,-0.06334925,0.4268901,0.11968164,0.2925681,0.12214269,-0.0947433,0.1777251,0.18448585,0.00081436895,-0.04792302,0.2210625,-0.04662347,0.011103456,0.012558041,0.25954604,0.16486257,0.028402826,-0.058065206,-0.015767187,0.47628883,0.29711297,-0.068293095,0.08978498,0.23691489,0.10979791,0.12098066,0.17776713,-0.0346035,0.21434979,0.30111364,0.020276375,0.10048249,0.08901611,0.0039193295,0.17391099,0.11256547,0.07370865,0.29227662,0.39293244,0.32327506,0.19710746,0.34200376,0.26052234,-0.063764594,0.042624187,-0.017185286,0.039581407,0.15074497,0.14113747,-0.093833,0.19149305,-0.031587172
CE,0.2787822,-0.020112507,0.013842467,0.041896977,0.42695862,-0.027275125,0.15168987,0.19105199,-0.06918889,-0.039782993,-0.01757963,0.095953286,-0.09037575,0.2276917,-0.010705501,-0.06594082,-0.047917545,0.5074909,-0.05080728,0.16530392,-0.038026467,-0.049921628,0.57583183,0.28484073,0.3214438,0.19128016,0.2811196,-0.011751145,-0.10327221,0.24728072,0.08842,-0.013057327,0.20633551,0.13225198,0.0069295615,0.20987454,-0.056393795,-0.039950673,0.30287278,0.120440796,0.11378758,0.17236394,-0.085887745,0.13258253,-0.07881327,0.35824805,-0.028549533,0.24027832,-0.061903894,0.42132854,0.015895508,0.2924792,0.12400936,-0.09979943,0.17805618,0.18266287,-0.033750758,-0.045977354,0.21707785,-0.046282604,-0.03170842,0.0077798916,0.26148552,0.1654308,0.051820833,-0.06003959,-0.018376447,0.36146528,0.29478666,-0.065228365,0.08408368,0.23184112,0.11129199,0.12590782,0.17581022,-0.035017014,0.21416275,0.224407,0.017858982,0.026494646,0.08765702,0.0068599563,0.1751441,0.11368986,0.076478794,0.3284245,0.3925598,0.26922825,0.19728081,0.3406192,0.26119837,-0.058444344,0.0115875155,0.022276811,0.035306454,0.15039474,0.14019346,-0.0883847,0.18660367,-0.030216271
CERN,0.27838144,-0.03709191,0.012205109,0.043082792,0.3812894,-0.024469908,0.26391461,0.18926516,-0.039349493,-0.039499085,-0.021345489,0.0943744,-0.08926163,0.22615626,-0.0038731098,-0.06325865,-0.04500775,0.45385063,-0.053958956,0.16209602,-0.035818834,-0.05112227,0.50404644,0.39694172,0.31937167,0.18754561,0.28083703,-0.028517008,-0.11231409,0.24874367,0.08716669,-0.011160709,0.2048955,0.12877297,0.021677054,0.296251,-0.05445846,-0.042524472,0.41044748,0.107871845,0.18657117,0.17134793,-0.08605845,0.13199283,-0.08413161,0.3242596,-0.032135025,0.24268351,-0.06405015,0.4264092,0.080273494,0.2954912,0.12348787,-0.08983642,0.1767576,0.18124753,-0.038871236,-0.046904754,0.21797341,-0.04723967,-0.0070249224,0.014536511,0.2612118,0.16403922,0.020816788,-0.0696021,-0.009031609,0.48207444,0.29155093,-0.06422052,0.09944271,0.23273955,0.11080514,0.12416516,0.18005918,-0.039970405,0.21334863,0.30594486,0.017514892,0.040973846,0.08724277,0.0033948366,0.17584687,0.110445194,0.07495009,0.29087093,0.3914547,0.33884484,0.1975985,0.3408394,0.25741857,-0.06075824,0.05438806,-0.015165821,0.036855046,0.14875434,0.1388167,-0.09472273,0.18581727,-0.030951446
CF,0.27776128,-0.02854834,0.016120747,0.050087202,0.39321873,-0.018605493,0.3211849,0.19059052,-0.016423594,-0.037218332,-0.01693856,0.09489215,-0.07756478,0.22596987,-0.0132402405,-0.06398603,-0.0434466,0.4735398,-0.044702612,0.16636646,-0.03626463,-0.059899118,0.5242322,0.46659723,0.32043806,0.19030197,0.2816367,-0.012090407,-0.10189893,0.2480838,0.08457297,-0.019907694,0.20666409,0.12778433,0.016408794,0.3724983,-0.04873377,-0.035651255,0.47326776,0.101569295,0.20562284,0.17524906,-0.06778649,0.1304512,-0.078112364,0.33634675,-0.026950693,0.2296859,-0.06053204,0.42401904,0.13430098,0.29351696,0.124308154,-0.088309705,0.17816783,0.18545511,-0.001677339,-0.047475606,0.22226524,-0.043658867,0.010025232,0.018122133,0.26442012,0.16547723,0.064528935,-0.06378214,0.008010253,0.54296654,0.2956791,-0.055234022,0.09979261,0.23339391,0.1170485,0.12238534,0.17733487,-0.025859624,0.21485381,0.35112166,0.009009131,0.09256843,0.091455385,0.006490737,0.17787409,0.11479189,0.07874486,0.30583292,0.3957116,0.37775922,0.19513458,0.3419361,0.26088908,-0.06155364,0.06464194,0.0035396144,0.037230063,0.14859684,0.1421956,-0.08570936,0.18879348,-0.026886418
CFG,0.28042397,-0.00864455,0.016906345,0.04923419,0.5588091,-0.00786726,0.37435982,0.1943742,-0.013684306,-0.03844177,-0.014251649,0.09507953,-0.08769996,0.22613521,0.004540369,-0.06704442,-0.015406609,0.6987284,-0.028193504,0.16668896,-0.030829381,-0.04890725,0.7891876,0.54131716,0.32975423,0.1892291,0.2800792,0.013415933,-0.087463774,0.24487881,0.0872469,0.0032086745,0.20496944,0.13264646,0.050326396,0.42988536,-0.043319866,-0.030938938,0.54682356,0.17972742,0.22312629,0.17105365,-0.07766445,0.138977,-0.08105251,0.5458435,-0.01751711,0.24163432,-0.054109715,0.42436436,0.1808514,0.29571015,0.12785316,-0.08788015,0.18476607,0.18595734,-0.036563702,-0.04721541,0.22093755,-0.047393844,0.030002031,0.027185267,0.2652232,0.17667915,0.08821799,-0.032264367,0.007394299,0.61182505,0.2951665,-0.06013507,0.09696414,0.24134573,0.11182226,0.13083442,0.17414126,-0.03475973,0.21316661,0.42246613,0.015559435,0.03702087,0.094188,0.018976526,0.17563069,0.113458276,0.080129266,0.45547682,0.3870815,0.40391186,0.19697158,0.34445477,0.2574076,-0.061843142,0.06899958,0.10086187,0.03627381,0.14882019,0.13980824,-0.06869304,0.19134206,-0.031304583
